{"ft.weight": [[0.022214561700820923, 0.0031507499516010284, -0.014095069840550423, -0.03400985151529312, -0.0026674307882785797, -0.016177041456103325, 0.03340901434421539, 0.013786405324935913, 0.039171524345874786, 0.03487330302596092, 0.044756848365068436, -0.0033601894974708557, -0.05953773111104965, 0.08705354481935501, -0.08358315378427505, 0.05097411572933197, 0.041098251938819885, 0.06987489014863968, 0.0054187169298529625, 0.01711559295654297, -0.05193474143743515, 0.07928439229726791, -0.0431918203830719, 0.0669916644692421, 0.03254467248916626, 0.048129186034202576, 0.046905361115932465, 0.057850226759910583, -0.5575099587440491, 0.24976469576358795, -0.6492810845375061, 0.11821289360523224, 0.008796706795692444, 0.0583227314054966, 0.03933706134557724, 0.10027780383825302, 0.013522443361580372, 0.4102887511253357, 0.02907557040452957, 0.12923188507556915, -0.0013177050277590752, 0.0008643841720186174, 0.071112722158432, 0.01195271871984005, 0.017221994698047638, 0.16283707320690155, 0.2279134839773178, 0.09186705946922302, -0.05199171602725983, -0.05471910908818245, 0.11350661516189575, -0.038658611476421356, 0.06088445335626602, 0.04231344908475876, 0.07406731694936752, 0.09259774535894394, 0.024627655744552612, 0.03554213047027588, -0.004972483962774277, 0.014623671770095825, 0.02442767098546028, -0.017459673807024956, -0.019259808585047722, 0.021317217499017715, 0.06203688308596611, 0.09374392032623291, 0.09106749296188354, 0.04235878214240074, 0.11806381493806839, -0.006488911807537079, 0.08541613817214966, 0.11550813913345337, 0.09998895227909088, 0.15120212733745575, 0.05455803498625755, 0.004917982034385204, 0.05694553256034851, -0.0423683226108551, 0.015139669179916382, -0.04831112176179886, 0.10181043297052383, 0.05392136797308922, -0.003394980914890766, 0.1572491079568863, -0.11144785583019257, 0.038596682250499725, -0.25793102383613586, 0.1397128701210022, 0.0695759654045105, 0.10203205049037933, 0.03020126186311245, -0.007067759986966848, -0.048083871603012085, 0.13085103034973145, -0.005522577557712793, -0.34286370873451233, 0.12741602957248688, 0.03978170454502106, 0.04936056211590767, 0.03415724262595177, 0.02290329895913601, 0.26883652806282043, 0.0771498829126358, 0.14427858591079712, 0.079144686460495, 0.10077480971813202, 0.07411239296197891, -0.14422930777072906, -0.046038269996643066, 0.0542658232152462, 0.10525328665971756, -0.27924472093582153, 0.07651951164007187, 0.10171478241682053, 0.10685897618532181, 0.06736362725496292, -0.0092918137088418, 0.11766540259122849, 0.2775253653526306, -0.007379189133644104, 0.1572989523410797, 0.1239771917462349, 0.04094117879867554, 0.09957651793956757, 0.019808940589427948, 0.170927956700325, -0.02004123479127884, 0.10894234478473663, 0.07360955327749252, -0.2669508457183838, 0.11115085333585739, -0.03232499212026596, 0.11566273123025894, 0.00528353126719594, 0.15763726830482483, -0.05344633758068085, 0.017116408795118332, 0.0593579038977623, -0.2461903989315033, 0.11627750843763351, -0.02403096854686737, 0.058263424783945084, -0.10752712935209274, 0.08265505731105804, 0.07513974606990814, 0.029663939028978348, 0.09884356707334518, -0.2465139925479889, 0.16189683973789215, -0.06841196864843369, 0.17343175411224365, -0.3463743031024933, 0.07364243268966675, 0.09021405130624771, 0.019307725131511688, 0.09436119347810745, -0.24642552435398102, 0.1019403263926506, -0.17117154598236084, 0.15268957614898682, 0.13799527287483215, 0.07687420397996902, 0.06532415747642517, 0.010207629762589931, 0.03863932192325592, 0.1603328287601471, 0.10149678587913513, -0.03191835433244705, 0.005368777085095644, 0.07433376461267471, 0.057985853403806686, 0.11867359280586243, -0.27410146594047546, 0.04785951226949692, -0.2298269122838974, 0.1421363800764084, 0.09697561711072922, -0.011031539179384708, 0.12174263596534729, -0.09691744297742844, 0.06539663672447205, 0.04493157938122749, 0.09547362476587296, -0.07425101846456528, -0.06232841685414314, 0.10138227790594101, -0.10012955218553543, 0.06219357252120972, 0.027238881215453148, 0.10343124717473984, -0.05508799105882645, 0.2806122899055481, 0.10064123570919037, 0.1395873874425888, 0.06988300383090973, 0.0731053277850151, 0.019422972574830055, 0.04914306476712227, 0.03532121703028679, 0.09824950248003006, 0.09967608004808426, 0.09202473610639572, 0.12234898656606674, 0.060585204511880875, 0.03148636594414711, 0.007279811426997185, 0.05104698985815048, 0.08487697690725327, 0.10306649655103683, 0.12756314873695374, 0.10352333635091782, 0.1040445938706398, 0.0381571426987648, 0.04775723069906235, 0.1198551282286644, 0.1177978441119194, 0.07360225170850754, 0.09042487293481827, 0.07756034284830093, 0.057065341621637344, 0.025935783982276917, -0.06956838071346283, 0.09075602144002914, 0.05787219852209091, 0.07162906974554062, 0.0724421814084053, 0.07280935347080231, 0.030509714037179947, -0.031545452773571014, 0.45261916518211365, -0.012984361499547958, 0.010606646537780762, 0.08980625122785568, 0.11026275157928467, 0.11264389753341675, 0.10791771113872528, 0.06073317676782608, 0.0727052241563797, 0.10647675395011902, 0.05021581053733826, 0.09178758412599564, 0.11433473974466324, 0.11395658552646637, 0.07865041494369507, 0.06125355884432793, 0.06248408928513527, 0.12360398471355438, 0.03236236423254013, 0.06808251142501831, 0.07235946506261826, 0.1476418823003769, 0.04976562783122063, 0.042110878974199295, 0.04503334313631058, 0.04548352584242821, 0.03590656444430351, 0.20714502036571503, 0.15812033414840698, 0.19534523785114288, 0.13736337423324585, 0.15444780886173248, 0.1647125482559204, 0.1528652459383011, 0.07796663790941238, 0.1671205461025238, 0.14644983410835266, 0.1710224449634552, 0.14610737562179565, 0.11474864184856415, 0.18334649503231049, 0.05625378340482712, 0.18067361414432526, 0.19745121896266937, 0.16899296641349792, 0.16399507224559784, 0.12562282383441925, 0.1605423092842102, 0.10535095632076263, 0.21182698011398315, 0.10093306005001068, 0.1834058314561844, 0.1894659399986267, 0.1479448825120926, 0.15554147958755493, 0.1203540489077568, 0.15603208541870117, 0.18759746849536896, 0.1772092878818512, 0.2022697478532791, 0.19453230500221252, 0.18661528825759888, 0.15433520078659058, 0.0805981457233429, 0.23554524779319763, 0.1274799257516861, 0.10991060733795166, 0.1775498390197754, 0.19866320490837097, 0.18118026852607727, 0.19888660311698914, 0.04991840943694115, 0.08064204454421997, 0.06123564764857292, 0.17803242802619934, 0.18515075743198395, 0.14701184630393982, 0.1831577569246292, 0.18300001323223114, 0.17299821972846985, 0.2189142405986786, 0.23770347237586975, 0.16090811789035797, 0.14404058456420898, 0.19634130597114563, 0.22292013466358185, 0.20759359002113342, 0.20421890914440155, 0.15226291120052338, 0.1889025866985321, 0.28305017948150635, -0.05515057221055031, -0.037221990525722504, -0.0753445252776146, 0.012576950713992119, -0.03326267749071121, 0.03761931508779526, -0.014205416664481163, 0.0037308535538613796, -0.07576582580804825, -0.0595143660902977, 0.06850406527519226, 0.038484759628772736, 0.0382862389087677, 0.036340754479169846, 0.015905627980828285, -0.005599697586148977, -0.007624323479831219, 0.06171884387731552, 0.025742284953594208, 0.0158042311668396, 0.017408495768904686, -0.07129627466201782, 0.046280454844236374, 0.04862092807888985, 0.032915517687797546, 0.02782512456178665, 0.0813310295343399, 0.01643058843910694, -0.0395231731235981, -0.01186503004282713, 0.005798661150038242, 0.0519174225628376, -0.021066896617412567, 0.07783448696136475, 0.029092438519001007, 0.03982037678360939, -0.027646532282233238, -0.019249897450208664, 0.02430630475282669, 0.00476463558152318, -0.0025511079002171755, -0.003267979249358177, 0.0609227791428566, 0.03451385721564293, 0.00911274179816246, 0.039708081632852554, -0.06963171809911728, 0.07625611126422882, -1.4793250560760498, 0.03519685938954353, 0.008691315539181232, 0.054968539625406265, 0.04609353095293045, 0.003538681659847498, 0.07502228021621704, 0.047444846481084824, -0.02526501752436161, 0.05747406184673309, 0.08643277734518051, 0.10877716541290283, 0.11101339757442474, 0.10263326019048691, 0.11855107545852661, 0.15833048522472382, -0.0023508481681346893, 0.0050933100283145905, 0.021959587931632996, 0.0038483403623104095, -0.002780050039291382, -0.0015839599072933197, 0.01909526064991951, 0.003215089440345764, 0.016454050317406654, -1.9793434143066406, 0.022406011819839478, 0.11789228022098541, 0.12664006650447845, 0.2784273624420166, -0.05472821369767189, 0.07478895038366318, -0.039458949118852615, -0.0003449897631071508, 0.0037893508560955524, 0.025579316541552544, 0.14039643108844757, -0.09768679738044739, 0.0759221613407135, -0.04034475237131119, -0.04790092259645462, -0.016747593879699707, -0.010084372945129871, 0.02359159290790558, -0.052505314350128174, 0.21247990429401398, 0.016653472557663918, 0.08335704356431961, -0.018928751349449158, -0.031920064240694046, -0.02818148396909237, 0.005840206518769264, -0.06551413238048553, 1.2817939519882202, -0.03454819321632385, 0.06042018532752991, -0.03268302604556084, -0.024179372936487198, 0.010492703877389431, -0.04509768262505531, 0.05058654025197029, -0.2340027391910553, 0.11858616769313812, -0.026168284937739372, -0.02372860349714756, -0.007152858655899763, -0.030882997438311577, 0.0062902942299842834, 0.019403431564569473, -0.1565316766500473, 0.01956167444586754, -0.013056478463113308, -0.025086956098675728, 0.0023110434412956238, -0.0272466279566288, -0.023753508925437927, -0.014551667496562004, 0.022389233112335205, -0.0015224367380142212, -0.011476907879114151, -0.06608474254608154, -0.1590810865163803, -0.07160043716430664, -0.12652242183685303, 0.02996019832789898, 0.10317940264940262, -0.006338261067867279, 0.54802006483078, -0.0917336642742157, -0.12074659019708633, 0.03979845717549324, 0.024851012974977493, 0.013846103101968765, -0.039517734199762344, -0.019171789288520813, 0.008701472543179989, -0.10089250653982162, -0.05546277016401291, -0.029693426564335823, -0.12039907276630402, 0.28689858317375183, -0.013280807994306087, 0.3632424771785736, -0.19314135611057281, -0.12576375901699066, -0.05232943966984749, -0.03483835235238075, 0.10177285224199295, -0.05982206016778946, -0.09594271332025528, -0.007917128503322601, 0.24740129709243774, -0.10636072605848312, -0.04717611148953438, -0.06960554420948029, -0.014718107879161835, -0.027344346046447754, 0.5654563903808594, -0.015084614977240562, -0.06638389825820923, -0.11317436397075653, -0.10883799195289612, -0.052812833338975906, 0.13228650391101837, -0.06015660613775253, -0.026802102103829384, -0.0005906186997890472, 0.4208008050918579, -0.12358592450618744, -0.14522282779216766, -0.09205347299575806, -0.11257949471473694, 0.17325317859649658, -0.03141767159104347, 0.30155670642852783, -0.09032990783452988, -0.21780909597873688, -0.12937861680984497, -0.014504828490316868, -0.11550535261631012, -0.02867710031569004, -0.140913188457489, 0.033954668790102005, -0.09345311671495438, -0.0728679820895195, 0.19629815220832825, -0.1554887443780899, 0.06837499141693115, -0.1729717254638672, 0.004155238624662161, -0.16044457256793976, -0.0094026830047369, 0.03713606670498848, -0.08117347955703735, 0.16344881057739258, -0.1151336207985878, 0.04745844006538391, -0.09346717596054077, -0.02349875308573246, -0.12243416905403137, -0.09932409971952438, 0.04694868251681328, -0.09894394874572754, 0.11829270422458649, -0.12737534940242767, 0.002795067150145769, -0.12818075716495514, 0.31645363569259644, 0.014712147414684296, -0.12802349030971527, 0.06828419864177704, -0.0910150483250618, 0.11660762876272202, -0.11375286430120468, 0.21761184930801392, -0.12862342596054077, -0.09774783998727798, 0.054557476192712784, -0.0696086585521698, 0.06689462065696716, -0.0558013841509819, 0.6452146172523499, -0.11725583672523499, 0.12637971341609955, 0.026904670521616936, -0.08413322269916534, 0.08011780679225922, -0.08714783936738968, 0.1475624144077301, -0.0853571742773056, 0.33751311898231506, -0.10050666332244873, -0.08790966868400574, 0.07703492045402527, -0.10264786332845688, 0.13246296346187592, -0.10540573298931122, 0.039021607488393784, -0.1276145875453949, 0.3467286229133606, 0.046232882887125015, -0.05600615590810776, 0.1683882623910904, -0.09850132465362549, 0.06680840998888016, -0.11424695700407028, 0.007414825260639191, -0.11090224236249924, -0.045995235443115234, -0.009860060177743435, -0.027443338185548782, -0.02075696736574173, 0.0095858508720994, -0.02733711712062359, 0.00042420669342391193, -0.04341376945376396, -0.061958760023117065, -0.05618371069431305, -0.07441805303096771, -0.04869398474693298, -0.07962419092655182, -0.057276804000139236, -0.0881611779332161, -0.054451487958431244, -0.06956518441438675, -0.06147344410419464, -0.052294857800006866, -0.06481163203716278, -0.0687856376171112, -0.10271397233009338, -0.06295249611139297, -0.06456702202558517, -0.06759406626224518, -0.04795113205909729, -0.058857791125774384, -0.06189965084195137, -0.11376814544200897, -0.032912734895944595, -0.08391345292329788, -0.01957484520971775, -0.05680331215262413, -0.05096970126032829, -0.04044264182448387, -0.0002047750895144418, 0.09402486681938171, 0.4167458117008209, -0.014789260923862457, 0.04100101441144943, -0.08917076885700226, -0.09893684089183807, -0.0736757442355156, -0.07394211739301682, -0.07907216250896454, 0.020071765407919884, -0.04512782394886017, -0.057356152683496475, -0.08660662919282913, -0.06222005933523178, -0.07506263256072998, -0.0815097987651825, -0.03694148361682892, 0.005211684852838516, -0.047627825289964676, -0.06652703136205673, -0.08657693862915039, -0.07605241984128952, -0.06880246102809906, -0.061676569283008575, -0.03668994829058647, -0.03717026486992836, -0.024959025904536247, -0.0461379773914814, -0.13678225874900818, 0.02069663070142269, -0.12859183549880981, -0.09392018616199493, -0.10437032580375671, -0.11332317441701889, -0.1822584867477417, -0.10256533324718475, -0.12295456230640411, -0.11055673658847809, -0.0928715318441391, -0.12909744679927826, -0.0779530256986618, -0.033556289970874786, -0.11949057877063751, -0.09127532690763474, -0.11683423072099686, -0.10691113770008087, -0.10956516861915588, -0.07691728323698044, -0.09132228791713715, -0.10756470263004303, -0.08305183053016663, -0.08456574380397797, -0.14617522060871124, -0.16273701190948486, -0.09906327724456787, -0.11666485667228699, -0.00656629353761673, -0.09025734663009644, 0.0026431968435645103, -0.10353141278028488, -0.16445066034793854, -0.15835519134998322, -0.09902860969305038, -0.10193593055009842, -0.08138837665319443, 0.4047398865222931, -0.06746802479028702, 0.019641418009996414, -0.16467778384685516, -0.136428102850914, -0.09456916153430939, -0.12639297544956207, -0.045278400182724, -0.05017488822340965, 0.0540129616856575, -0.08443407714366913, -0.12571337819099426, -0.13362684845924377, -0.139439657330513, -0.10221589356660843, -0.11505907028913498, -0.07871351391077042, -0.09347037225961685, 0.008427520282566547, -0.1260184347629547, -0.17012736201286316, -0.10980639606714249, -0.14861688017845154, -0.11731907725334167, -0.12873238325119019, -0.07534707337617874, -0.11780708283185959, -0.3676943778991699, -0.1685160994529724, -0.2350635528564453, -0.053049299865961075, -0.07535276561975479, 0.1298934519290924, -0.01869022101163864, -0.1973782181739807, -0.17711295187473297, -0.14339891076087952, -0.09993351995944977, -0.035070911049842834, -0.02747216448187828, 0.08387019485235214, -0.04071233421564102, -0.26788875460624695, -0.1976362019777298, -0.09691640734672546, -0.06889436393976212, -0.07241494208574295, -0.025162508711218834, -0.005325284320861101, -0.0405697338283062, -0.08456624299287796, -0.10380642116069794, -0.09743410348892212, -0.041107259690761566, -0.030095037072896957, -0.014873038046061993, -0.06627590209245682, 0.03807488828897476, -0.03725818544626236, -0.1597660630941391, -0.09544621407985687, -0.052014339715242386, 0.007488275412470102, 0.01963428035378456, 0.10383769124746323, 0.048662565648555756, 0.054928090423345566, -0.05623646080493927, -0.04186506196856499, -0.010303099639713764, 0.0004166099533904344, 0.07378832995891571, 0.13270226120948792, 0.11272341758012772, 0.09148629009723663, -0.04449404776096344, -0.02383340522646904, -0.017892297357320786, 0.00971977785229683, 0.019600672647356987, 0.03463717922568321, 0.05681358277797699, 0.04938221350312233, 0.008048402145504951, 0.02348022535443306, -0.009769284166395664, -0.03163696080446243, 0.0018586593214422464, 0.02479005977511406, 0.055357012897729874, 0.10484832525253296], [0.01696096733212471, -0.026448238641023636, -0.004150383174419403, 0.027594976127147675, -0.02396170049905777, 0.006438687443733215, -0.0026458725333213806, -0.0338144525885582, 0.2525903582572937, 0.26824697852134705, 0.13414989411830902, 0.15596404671669006, -0.013060997240245342, 0.037261079996824265, 0.05839085206389427, 0.046992573887109756, 0.16830457746982574, 0.19560715556144714, 0.04225027561187744, 0.09484279900789261, 0.03921588510274887, 0.049969933927059174, 0.06229813024401665, 0.025075698271393776, 0.09533410519361496, 0.1462407410144806, -0.02248331718146801, 0.09568694978952408, 0.06696553528308868, 0.06655852496623993, 0.06490624696016312, 0.046249520033597946, 0.0410347506403923, 0.07782324403524399, -0.017687605693936348, 0.1748914271593094, 0.10515405982732773, 0.13075128197669983, 0.07368587702512741, 0.024317100644111633, -0.002428530715405941, 0.0650390088558197, -0.02295643649995327, 0.1424872875213623, 0.15332241356372833, 0.19715163111686707, 0.07386668026447296, -0.006946274545043707, 0.13319970667362213, 0.12116497755050659, 0.10335979610681534, 0.16032294929027557, 0.13735051453113556, 0.5112209916114807, -0.07608336955308914, 0.09499619901180267, -0.012431822717189789, -0.01013869047164917, -0.0196754802018404, 0.028273507952690125, 0.020532652735710144, -0.01720833219587803, -0.0174197256565094, -0.014545997604727745, 0.03392151743173599, 0.3112032413482666, 0.23852574825286865, 0.23375862836837769, 0.13902844488620758, 0.1696677953004837, 0.2793537974357605, 0.25372517108917236, 0.3050800859928131, 0.2849579155445099, 0.1625259965658188, 0.245794415473938, 0.15725235641002655, 0.1920454055070877, 0.1360263079404831, 0.22634407877922058, 0.1482628434896469, 0.11513383686542511, 0.0995538979768753, 0.11343824863433838, 0.17178767919540405, 0.17579860985279083, 0.1869361251592636, 0.16097766160964966, 0.0598357729613781, 0.12387529760599136, 0.08324835449457169, 0.115570068359375, 0.1354990303516388, 0.13719820976257324, 0.14201873540878296, 0.18227969110012054, 0.0628177672624588, 0.09241046756505966, 0.12628336250782013, 0.1646503210067749, 0.15388761460781097, 0.17639555037021637, 0.12233147025108337, 0.19766515493392944, 0.13194037973880768, 0.1310766637325287, 0.10444407910108566, 0.12710924446582794, 0.15371260046958923, 0.22229157388210297, 0.22321827709674835, 0.1964544802904129, 0.23217029869556427, 0.18514040112495422, 0.2011166512966156, 0.153729647397995, 0.20999328792095184, 0.1627952754497528, 0.18672382831573486, 0.05357937887310982, 0.30120792984962463, 0.1463623195886612, 0.18093344569206238, 0.2141140103340149, 0.22391977906227112, 0.19649939239025116, 0.23870731890201569, 0.3766741454601288, 0.2753654420375824, 0.3546976149082184, 0.30187883973121643, 0.27067339420318604, 0.07580797374248505, 0.13205602765083313, 0.1566775143146515, 0.34519267082214355, 0.3031154274940491, 0.1368541717529297, 0.28648439049720764, 0.1276063770055771, 0.20962411165237427, 0.09001944959163666, 0.2536226809024811, 0.17037902772426605, 0.10381151735782623, 0.15652042627334595, 0.056911639869213104, 0.1615678071975708, 0.040841005742549896, 0.1795830875635147, 0.12990470230579376, 0.25789937376976013, 0.19870704412460327, 0.09837012737989426, 0.11692788451910019, 0.038342833518981934, 0.2055308222770691, 0.09740884602069855, 0.17684003710746765, 0.1224975734949112, 0.08587922900915146, 0.14366422593593597, 0.034915268421173096, 0.15581975877285004, 0.1468254029750824, 0.18726029992103577, 0.07383177429437637, 0.1525973677635193, 0.10972575843334198, 0.018328234553337097, 0.12048711627721786, 0.08875497430562973, 0.17972926795482635, 0.12403242290019989, 0.23727895319461823, 0.05558018758893013, 0.04329126700758934, 0.2398044615983963, 0.06394075602293015, 0.17890746891498566, 0.13349460065364838, 0.1736481934785843, 0.13896024227142334, 0.22592642903327942, 0.17941491305828094, 0.05235948786139488, 0.23540374636650085, 0.19709795713424683, 0.21159228682518005, 0.17486819624900818, 0.16976428031921387, 0.08541174232959747, 0.7170559167861938, 0.7725481390953064, 0.6988587379455566, 0.6439650058746338, 0.5514622926712036, 0.571183443069458, 0.6548941731452942, 0.6197930574417114, 0.5815725922584534, 0.658392071723938, 0.5392274856567383, 0.5596818923950195, 0.5529074668884277, 0.5989474058151245, 0.563076376914978, 0.544597327709198, 0.5542705655097961, 0.5839595198631287, 0.5933566093444824, 0.6081181764602661, 0.6458423733711243, 0.6223606467247009, 0.6236371994018555, 0.5535121560096741, 0.6600611209869385, 0.6182442307472229, 0.700873851776123, 0.6821372509002686, 0.6734968423843384, 0.7024246454238892, 0.6314279437065125, 0.5600733160972595, 0.6835086941719055, 0.699805498123169, 0.7739605903625488, 0.6785773634910583, 0.717920184135437, 0.7462025284767151, 0.6963701248168945, 0.6213187575340271, 0.6952652335166931, 0.7307493686676025, 0.7659663558006287, 0.6995887160301208, 0.68257075548172, 0.7231835126876831, 0.6798222661018372, 0.6194626688957214, 0.7030074000358582, 0.7318074703216553, 0.7955983281135559, 0.7021324038505554, 0.6811812520027161, 0.6832522749900818, 0.6363754868507385, 0.6925901174545288, 0.682580828666687, 0.760086178779602, 0.7601518034934998, 0.6977131962776184, 0.619046151638031, 0.5648319721221924, 0.612402081489563, 0.654449999332428, 0.6570207476615906, 0.5355466604232788, 0.45534443855285645, 0.57856684923172, 0.5461629629135132, 0.563422679901123, 0.49879229068756104, 0.5324559211730957, 0.5932105183601379, 0.4628872573375702, 0.3079890012741089, 0.3950912654399872, 0.4378621578216553, 0.392734169960022, 0.5208845734596252, 0.5421043038368225, 0.4753675162792206, 0.33215710520744324, 0.356582909822464, 0.38853955268859863, 0.38067540526390076, 0.41696181893348694, 0.34869104623794556, 0.36662212014198303, 0.4637688994407654, 0.4187966585159302, 0.4059247672557831, 0.42054736614227295, 0.4606916606426239, 0.32252031564712524, 0.369928777217865, 0.43317994475364685, 0.5499952435493469, 0.4879746735095978, 0.4548764228820801, 0.4601323902606964, 0.39160794019699097, 0.35467538237571716, 0.3569713532924652, 0.4498855173587799, 0.5329249501228333, 0.47389379143714905, 0.458445280790329, 0.5025513172149658, 0.4506039023399353, 0.4480520486831665, 0.37576448917388916, 0.5234888792037964, 0.5241730213165283, 0.5230081081390381, 0.48765164613723755, 0.49408307671546936, 0.4239749014377594, 0.45355135202407837, 0.29569417238235474, 0.48489558696746826, 0.5811221599578857, 0.53099125623703, 0.5016826391220093, 0.5074682235717773, 0.517747163772583, 0.47265711426734924, 0.2803192734718323, 0.4187830090522766, -0.39273345470428467, -0.38131535053253174, -0.18663430213928223, -0.06100382283329964, -0.030033022165298462, 0.026336248964071274, 0.053325071930885315, -0.07445844262838364, -0.33354607224464417, -0.2383454591035843, -0.1377267986536026, -0.04840356856584549, 0.006667305715382099, 0.041059963405132294, 0.06856825202703476, 0.05926666036248207, -0.3014623820781708, -0.23531605303287506, -0.09826263040304184, 0.022328846156597137, 0.04412618279457092, 0.10720839351415634, 0.09825336933135986, 0.0598040409386158, -0.21124063432216644, -0.11704446375370026, -0.05001622810959816, 0.03494997322559357, 0.09669824689626694, 0.06564824283123016, 0.10036418586969376, 0.13375918567180634, -0.16417592763900757, -0.13969141244888306, -0.05560818687081337, 0.05131109803915024, 0.06348390132188797, 0.04976629093289375, 0.012599420733749866, 0.16224248707294464, -0.06785339117050171, -0.03690866753458977, -0.028699660673737526, 0.01603672280907631, -0.11604610085487366, -0.17241068184375763, -0.2087954878807068, -1.9665523767471313, 0.03468673676252365, 0.20859307050704956, 0.0038071575108915567, 0.009691817685961723, -0.144710972905159, -0.13767395913600922, -0.3151389956474304, 0.046190183609724045, -0.03579959273338318, 0.07480593770742416, 0.09234721213579178, -0.12116362899541855, -0.13390208780765533, -0.2545333802700043, -0.09116946160793304, -0.09063117951154709, 0.018278568983078003, -0.03391779959201813, -0.014148920774459839, 0.03461179882287979, -0.01200716570019722, 0.0030602775514125824, -0.0028707459568977356, 0.002013314515352249, -0.7194424271583557, -0.6588236689567566, -0.8435088396072388, -0.5905972123146057, 0.5805928111076355, 0.3772040903568268, 0.28937584161758423, 0.3351118862628937, -0.5178876519203186, -0.5154398083686829, -0.5605260729789734, -0.0678463876247406, 0.19121424853801727, 0.33207061886787415, 0.41876646876335144, 0.3525765836238861, -0.36259546875953674, -0.3904365003108978, -0.27669548988342285, 0.004020255990326405, 0.13176922500133514, 0.22480468451976776, 0.22906352579593658, 0.1052781417965889, -0.26521262526512146, -0.3024354577064514, -0.17032165825366974, 0.03352569416165352, 0.09501998126506805, 0.12476149946451187, 0.1169307753443718, 0.053620073944330215, -0.18934790790081024, -0.24601778388023376, -0.14853310585021973, -0.022256897762417793, 0.09509933739900589, 0.06170354783535004, 0.04529755562543869, 0.03389894962310791, -0.13202285766601562, -0.1465301662683487, -0.12591274082660675, -0.027121901512145996, 0.029801493510603905, 0.07637596130371094, 0.012116470374166965, 0.06651755422353745, -0.02759581431746483, -0.005253450945019722, -0.015639936551451683, 0.013385523110628128, -0.006084589287638664, 0.004749223589897156, 0.028352096676826477, -0.027852613478899002, -0.05279494822025299, -0.13539038598537445, -0.08689527213573456, 0.03872267156839371, 0.03257599100470543, 0.01626255363225937, 0.1384236067533493, 0.0918993130326271, -0.1756489872932434, -0.06587625294923782, 0.011278866790235043, 0.03936237096786499, 0.01337126363068819, 0.11367501318454742, 0.11017678678035736, 0.17499403655529022, -0.12715114653110504, -0.00978933647274971, -0.07068262994289398, 0.07460460066795349, 0.07228880375623703, 0.11214961856603622, 0.14936953783035278, 0.10357101261615753, -0.18113672733306885, -0.09155123680830002, -0.0754195973277092, 0.01630103588104248, 0.05090036243200302, 0.11997146159410477, 0.10779712349176407, 0.19448481500148773, -0.13464410603046417, -0.13472142815589905, -0.10939953476190567, -0.02486194670200348, 0.058737970888614655, 0.06513629853725433, 0.03553428873419762, 0.08373259007930756, -0.08937377482652664, -0.12435323745012283, -0.13517703115940094, -0.028775008395314217, 0.04934682697057724, -0.015569077804684639, 0.01599815860390663, -0.017522085458040237, -0.19983398914337158, -0.08377283811569214, -0.11972609907388687, -0.04306090995669365, -0.10339637845754623, -0.04830189049243927, -0.07274219393730164, -0.07435540109872818, -0.13609549403190613, -0.09522613137960434, -0.10293948650360107, -0.04337913170456886, -0.1294415295124054, -0.13702814280986786, -0.08396735042333603, 0.11441696435213089, -0.15561243891716003, -0.22322188317775726, -0.13871337473392487, -0.15933836996555328, -0.17262813448905945, -0.17332282662391663, -0.15331731736660004, -0.11142629384994507, -0.20255941152572632, -0.1811474710702896, -0.2568635642528534, -0.14608049392700195, -0.13919752836227417, -0.10526124387979507, -0.03365018963813782, -0.08610149472951889, -0.147753044962883, -0.22790230810642242, -0.21835452318191528, -0.13644596934318542, -0.002700128359720111, -0.018131665885448456, -0.08246538043022156, -0.03934304043650627, -0.1832021027803421, -0.16580314934253693, -0.207956925034523, -0.07965580374002457, 0.012008565478026867, -0.012383684515953064, -0.0655442550778389, -0.033203914761543274, -0.1471734493970871, -0.19269606471061707, -0.15316440165042877, -0.0770709216594696, -0.03850756958127022, -0.0877089872956276, -0.06599424034357071, -0.009189710952341557, -0.0476936511695385, -0.1171765848994255, -0.1632196456193924, -0.15660561621189117, -0.10860961675643921, -0.09716356545686722, -0.10331688076257706, -0.001753628021106124, -0.021280698478221893, -0.04861205816268921, -0.14450550079345703, -0.15038469433784485, -0.14359454810619354, -0.19134439527988434, -0.10727935284376144, -0.13833653926849365, 0.05407138913869858, -0.09897953271865845, -0.12076392769813538, -0.12827268242835999, -0.1869882047176361, -0.19598741829395294, -0.25662752985954285, -0.030344156548380852, 0.2255512773990631, 0.30127593874931335, 0.2595362067222595, 0.23634016513824463, 0.08813390880823135, 0.14807479083538055, 0.11803462356328964, 0.18848353624343872, 0.22593645751476288, 0.35755684971809387, 0.29454731941223145, 0.14510181546211243, 0.03741612657904625, 0.013666296377778053, 0.05936043709516525, 0.13518987596035004, 0.2064332515001297, 0.39344438910484314, 0.2943892776966095, 0.15922169387340546, -0.031209079548716545, -0.058820873498916626, -0.02293427847325802, 0.051057375967502594, 0.13219504058361053, 0.16177326440811157, 0.13453884422779083, -0.053048618137836456, -0.08548307418823242, -0.11364979296922684, -0.03599909693002701, -0.0296794380992651, 0.01629277504980564, 0.0017699599266052246, -0.022758612409234047, -0.10906237363815308, -0.15996277332305908, -0.23761659860610962, -0.2436663955450058, -0.2074274718761444, 0.009364822879433632, 0.01813618652522564, -0.04753396660089493, -0.1318182647228241, -0.16346803307533264, -0.20295704901218414, -0.2402411252260208, -0.1740754395723343, -0.012923206202685833, 0.033823516219854355, -0.004900791682302952, -0.05953608453273773, -0.1567985713481903, -0.13690932095050812, -0.1740659922361374, -0.16677860915660858, -0.035207509994506836, 0.008313443511724472, 0.04462868347764015, -0.11655218154191971, -0.17669513821601868, -0.08851062506437302, -0.16935862600803375, -0.1218833476305008, 1.6625186204910278, 1.979364275932312, -0.20499485731124878, -0.20440959930419922, 0.04222340136766434, -0.02433684840798378, -0.11901243031024933, -0.0999472439289093, -0.00547115970402956, -0.10592735558748245, -0.04847142472863197, 0.0013458403991535306, -0.18756116926670074, -0.17987225949764252, 0.009372465312480927, 0.03349816054105759, -0.10666172951459885, -0.1209600493311882, -0.11325320601463318, -0.019427325576543808, -0.14677786827087402, -0.017498943954706192, -0.0953654795885086, -0.07130040228366852, -0.10665542632341385, -0.16714675724506378, -0.15982753038406372, -0.15516293048858643, -0.08501158654689789, -0.19191868603229523, -0.1743040233850479, -0.20724570751190186, -0.0030399186071008444, -0.19724833965301514, -0.17494234442710876, -0.22595269978046417, -0.24600961804389954, -0.28117096424102783, -0.30474281311035156, -0.14895305037498474, -0.07287580519914627, -0.033244967460632324, -0.24555447697639465, -0.31208354234695435, -0.3089894652366638, -0.36577653884887695, -0.35227492451667786, -0.3028545081615448, 0.06444567441940308, -0.05088280141353607, -0.1667070835828781, -0.3064888119697571, -0.37953394651412964, -0.37532931566238403, -0.31329917907714844, -0.1432047039270401, -0.10073677450418472, -0.14934740960597992, -0.22507131099700928, -0.2932296097278595, -0.339960515499115, -0.3673987090587616, -0.2997293472290039, -0.06405413895845413, -0.1963072121143341, -0.1492672711610794, -0.15658701956272125, -0.06192738562822342, 0.0846749097108841, -1.4526915550231934, -1.6464976072311401, -1.1235088109970093, -0.5176488161087036, -0.21765846014022827, -0.23779693245887756, -0.3384438455104828, -0.29591605067253113, -1.6480745077133179, -1.8167129755020142, -1.7548482418060303, -0.22137421369552612, -0.20436492562294006, -0.2262093424797058, -0.1620604395866394, -0.1300017088651657, 0.09393969923257828, 0.19561120867729187, 0.345608115196228, -0.24220119416713715, -0.21594591438770294, -0.14288240671157837, -0.09955038875341415, -0.025557642802596092, 0.10697292536497116, 0.11090361326932907, 0.1958955079317093, -0.2879900336265564, -0.2199217677116394, -0.13672521710395813, -0.031343311071395874, 0.04963798448443413, 0.08685190975666046, 0.12930838763713837, 0.14327874779701233, -0.2056371420621872, -0.2351253181695938, -0.16778813302516937, -0.031375400722026825, 0.07692281901836395, 0.10900485515594482, 0.16141121089458466, 0.160517156124115, -0.15124669671058655, -0.15921783447265625, -0.15417581796646118, -0.035746920853853226, 0.0801074281334877, 0.11240901798009872, 0.1546400785446167, 0.16449998319149017, 0.09464654326438904, -0.04162631556391716, -0.1074134036898613, -0.0767403095960617, 0.06892573833465576, 0.11491115391254425, 0.11537206918001175, 0.11212070286273956], [0.009547624737024307, -0.00027784332633018494, 0.00030907243490219116, 0.030643850564956665, -0.024228718131780624, 0.019325558096170425, -0.010766973719000816, 0.03562568128108978, 0.03383003547787666, -0.017879944294691086, -0.03214096277952194, 0.10859593003988266, -1.5859862565994263, -0.04430936276912689, -0.06207215040922165, -0.019086327403783798, 0.04614388197660446, -0.0020892792381346226, -0.07895950227975845, -0.17320504784584045, 1.4209673404693604, -0.18107858300209045, -0.13074475526809692, -0.005522506311535835, 0.03751860931515694, -0.002512331586331129, 0.04637743532657623, -0.07081464678049088, -0.25307655334472656, -0.014833260327577591, -0.032567791640758514, -0.007243008818477392, 0.025884009897708893, 0.0011541686253622174, -0.01145427580922842, -0.0965363085269928, -0.00134162581525743, -0.07717443257570267, -0.011129893362522125, -0.02708504907786846, 0.02768060192465782, -0.016374045982956886, 0.004164690151810646, 0.019079461693763733, 0.013821813277900219, -0.038618993014097214, -0.04505636915564537, -0.024291403591632843, 0.008015387691557407, 0.03608470410108566, -0.04167059436440468, -0.09775473922491074, -0.4276423156261444, -0.02134629711508751, 0.0466153658926487, -0.0378221720457077, -0.010299179702997208, 0.012761019170284271, 0.03086124360561371, -0.0074485894292593, 0.010233990848064423, -0.026281800121068954, -0.0009496808052062988, 0.023706655949354172, -0.07206995040178299, 0.03588247299194336, 0.0418861024081707, -0.1041862964630127, -0.053446900099515915, -0.028613394126296043, 0.018660228699445724, 0.022765502333641052, 0.03369161859154701, -0.027627846226096153, -0.09903378039598465, 0.035301849246025085, 0.03652987629175186, -0.004806431010365486, -0.1376151442527771, -0.0028675347566604614, -0.04007323831319809, 0.042781565338373184, -0.019271930679678917, -0.037533462047576904, -0.36569270491600037, -0.03454674780368805, 0.050522636622190475, 0.003167447168380022, 0.03285520151257515, -0.04468122124671936, -0.052620142698287964, 0.04575400426983833, 0.03452722728252411, 0.05894935876131058, -0.08879458159208298, -0.023241940885782242, -0.0027780472300946712, -0.014036200940608978, 0.013354436494410038, -0.03114275261759758, -0.018275190144777298, -0.002144539961591363, 0.009789207018911839, 0.060215774923563004, -0.014247222803533077, -0.01015761774033308, 0.002522096736356616, 0.005984055809676647, 0.012062440626323223, 0.011366493068635464, 0.013030151836574078, 0.01911255344748497, -0.008793352171778679, -0.003670446341857314, -0.02697162702679634, -0.02107120119035244, -0.010706208646297455, 0.023098034784197807, 0.10024984180927277, -0.03331805393099785, 0.03857224062085152, -0.0886869728565216, -0.0007373636472038925, 0.011366089805960655, 0.010263084433972836, 0.06796086579561234, 0.0606096014380455, 0.13744553923606873, -0.046118203550577164, 0.025939224287867546, -0.2770840525627136, 0.07535072416067123, -0.11093244701623917, 0.0719689279794693, -0.37898290157318115, 0.025205252692103386, 0.028467390686273575, -0.07179105281829834, 0.02647814154624939, -0.2305484414100647, 0.05303528904914856, -0.2851196825504303, 0.006984262727200985, -0.047700434923172, -0.06968130171298981, 0.04781223088502884, -0.0937148779630661, 0.03825516253709793, -0.7297677993774414, 0.019554050639271736, -0.052042219787836075, 0.019724031910300255, 0.05906912684440613, -0.0686156302690506, 0.027648622170090675, -0.06685899198055267, 0.022777235135436058, -0.09892209619283676, 0.042299989610910416, -0.009435963816940784, -0.04595661535859108, 0.02967935986816883, -0.05551406741142273, -0.023174483329057693, -0.10398561507463455, 0.0017260105814784765, -0.06517232954502106, 0.03945115581154823, 0.045320603996515274, -0.07301326096057892, -0.023759489879012108, -0.06260380893945694, 0.033545613288879395, 0.008098293095827103, 0.02390371449291706, -0.11762891709804535, -0.09796931594610214, 0.0036147807259112597, -0.06194261461496353, 0.02611350826919079, -0.010787024162709713, 0.043363749980926514, -0.009647888131439686, 0.06299550831317902, 0.004725293256342411, -0.07967352122068405, 0.04331624135375023, -0.014201100915670395, 0.05610993504524231, -0.05338006466627121, 0.0425230972468853, -0.2359473556280136, -0.02094523049890995, -0.012807192280888557, -0.010836740955710411, -0.04347626864910126, -0.16110269725322723, -0.0307454876601696, 0.0091006550937891, -0.004897158592939377, -0.001654244726523757, -0.024807175621390343, -0.00877409614622593, 0.007471167016774416, -0.18536943197250366, 0.03885462135076523, 0.03089027665555477, -0.005831249989569187, -0.07669242471456528, -0.076032854616642, -0.08911178261041641, -0.11604500561952591, 0.3081353008747101, -0.14376221597194672, -0.10846538096666336, -0.10956525057554245, -0.0038313250988721848, -0.039430417120456696, -0.023565994575619698, 0.0138599444180727, -0.00782839860767126, 0.060476720333099365, 0.04086052253842354, -0.023638837039470673, -0.02386447973549366, -0.026048734784126282, -0.03628937900066376, -0.059771355241537094, 0.001680702087469399, -0.030153516680002213, 0.016432493925094604, -0.023191725835204124, -0.02789437398314476, -0.03658921271562576, -0.03638816997408867, -0.0052623203955590725, -0.04928142949938774, -0.00360657786950469, 0.011716008186340332, -0.012503128498792648, -0.020564477890729904, -0.028577003628015518, -0.028702309355139732, -0.005743289366364479, -0.017876189202070236, -0.05291251093149185, -0.007570996414870024, -0.007396181579679251, -0.02816074900329113, -0.052472613751888275, -0.06139115244150162, -0.0701555535197258, -0.05965918302536011, -0.12089983373880386, -0.011361625976860523, -0.055333271622657776, -0.19165632128715515, -0.17924541234970093, -0.28810915350914, -0.22056303918361664, -0.25880154967308044, -0.1672319620847702, -0.2548268437385559, -0.15398792922496796, -0.19839386641979218, -0.23077039420604706, -0.21285779774188995, -0.27849873900413513, -0.28794926404953003, -0.28631240129470825, -0.17947663366794586, -0.16788822412490845, -0.22316525876522064, -0.2220747321844101, -0.28981587290763855, -0.29693615436553955, -0.05661214143037796, -0.2604113519191742, -0.2560140788555145, -0.25492918491363525, -0.16306227445602417, -0.19644802808761597, -0.21086075901985168, -0.24561963975429535, -0.19307133555412292, -0.21940878033638, -0.1806546449661255, -0.22169995307922363, -0.19889500737190247, -0.16380836069583893, -0.22154130041599274, -0.2026648223400116, -0.22695951163768768, -0.17307054996490479, -0.21425040066242218, -0.17689301073551178, -0.16033676266670227, -0.20297709107398987, -0.1713884323835373, -0.18162426352500916, -0.1824110448360443, -0.27474015951156616, -0.17642216384410858, -0.2583582401275635, -0.1990286260843277, -0.151358500123024, -0.16338549554347992, -0.1805131435394287, -0.16729670763015747, -0.2459588348865509, -0.2088734209537506, -0.22477121651172638, -0.16246148943901062, -0.2509515881538391, -0.22284454107284546, -0.25840944051742554, -0.22609956562519073, -0.24506153166294098, -0.3200826048851013, -0.3042284846305847, -0.16690367460250854, -0.22796837985515594, -0.13880713284015656, -0.10557131469249725, -0.1337093859910965, -0.16363874077796936, -0.14787238836288452, -0.18638302385807037, -0.18342845141887665, -0.16576066613197327, -0.1696920096874237, -0.1122070774435997, -0.12025092542171478, -0.1376158595085144, -0.1710227131843567, -0.13479241728782654, -0.17368736863136292, -0.16029618680477142, -0.1579241156578064, -0.08506885170936584, -0.02714373730123043, -0.05448732152581215, -0.11210084706544876, -0.13514472544193268, -0.17161089181900024, -0.14897997677326202, -0.11817292869091034, -0.17176435887813568, -0.11189483106136322, -0.10213285684585571, -0.07950902730226517, -0.10947674512863159, -0.12602922320365906, -0.15820644795894623, -0.15378832817077637, -0.130809485912323, -0.08986316621303558, -0.11032363772392273, -0.10196088999509811, -0.08874166011810303, -0.15755484998226166, -0.14760088920593262, -0.1026022732257843, -0.18762102723121643, -0.14529532194137573, -0.23347681760787964, -0.1279255747795105, -0.08127527683973312, -0.2961789071559906, -0.22257016599178314, -0.1348080188035965, -0.2379225790500641, -0.20427729189395905, -0.24998225271701813, -0.08420035243034363, -0.1661267727613449, -0.3458884060382843, -0.18043796718120575, -0.17464523017406464, -0.15601085126399994, -0.20347194373607635, -0.4293878674507141, -0.07045711576938629, -0.08095661550760269, -0.0004390217363834381, 0.02626253291964531, 0.020347915589809418, 0.02290242910385132, -0.0003176368772983551, -0.020810917019844055, 0.0316321924328804, 0.024856161326169968, -0.09276257455348969, -0.014589516445994377, -0.03220294415950775, 0.031129514798521996, 0.5384304523468018, -0.13137002289295197, 0.10341811180114746, -0.011902866885066032, -0.08039820939302444, -0.005539281293749809, -0.006584224756807089, -0.12251316010951996, 0.8720598816871643, -0.051116373389959335, 0.30637478828430176, 0.0032809150870889425, -0.020043930038809776, -0.0383342020213604, -0.013990269973874092, 0.28352224826812744, 0.24752986431121826, 0.2621699273586273, 0.0016182336257770658, 0.0027579201851040125, -0.034191835671663284, -0.034431543201208115, 0.015544326975941658, 0.13306814432144165, 0.04210415109992027, 0.09786933660507202, 0.03181501850485802, -0.017422428354620934, -0.02182171866297722, -0.04228448495268822, -0.03983569145202637, -0.04113182798027992, -0.04690274968743324, 0.03093060292303562, 0.03218808025121689, -0.019694427028298378, -0.03183840960264206, -0.043239761143922806, -0.007447894662618637, -0.001178571954369545, -0.026211798191070557, -0.010231549851596355, 0.03991140425205231, -0.013787910342216492, 0.022667627781629562, -0.013799697160720825, 0.003288526087999344, -0.010360661894083023, 0.016084063798189163, 0.0053115226328372955, 0.02070416882634163, -0.0021202638745307922, 0.31419679522514343, -0.07744407653808594, -0.019249729812145233, -0.06833812594413757, -0.0621727779507637, -0.22651982307434082, -0.13394998013973236, -0.009413325227797031, -0.12300217896699905, -0.05963783711194992, 0.2195744812488556, -0.02511034905910492, 0.21095408499240875, -0.0327349454164505, 0.13684193789958954, 0.1738891303539276, -0.03343522921204567, 0.055129069834947586, -0.039224378764629364, 0.019155526533722878, -0.009855981916189194, -0.0154188871383667, -0.021324018016457558, 0.1009032353758812, -0.05681142583489418, -0.016984743997454643, -0.024084819480776787, 0.03369898721575737, -0.062873475253582, 0.13217179477214813, 0.015550822019577026, 0.012660367414355278, -0.012924708425998688, 0.02710643783211708, 0.0003694664337672293, -0.01680356077849865, -0.013931705616414547, 0.052671004086732864, -0.05808878317475319, 0.15281853079795837, -0.03531865030527115, -0.06128846853971481, 0.019231578335165977, -0.02384883537888527, 0.12145154178142548, -0.02401820756494999, 0.10327304154634476, -0.0760696679353714, 0.01053011603653431, -0.061451517045497894, -0.0035515581257641315, -0.023112470284104347, -0.011222472414374352, 0.0005274370196275413, 0.042348749935626984, -0.08462334424257278, -0.01459113322198391, -0.017966823652386665, -0.08481062203645706, 0.039489179849624634, -0.07042155414819717, 0.021785814315080643, -0.07246023416519165, 0.020143186673521996, 0.15215875208377838, -0.03198541700839996, 0.15068870782852173, -0.012455175630748272, 0.05978229641914368, -0.007709712255746126, 0.2266307920217514, 0.25940442085266113, -0.026397306472063065, 0.12486688792705536, -0.007949688471853733, 0.20589514076709747, -0.0009804862784221768, 0.24423065781593323, -0.04095066711306572, 0.1511818766593933, 0.049582842737436295, 0.0012181465281173587, 0.08698412775993347, -0.023700810968875885, 0.6126996874809265, -0.07397416979074478, 0.15589895844459534, -0.021203091368079185, -0.004165014252066612, 0.07152353972196579, -0.037764355540275574, 0.38706862926483154, -0.0330427847802639, 0.4465258717536926, -0.04320402815937996, 0.06276248395442963, 0.10438674688339233, -0.013557680882513523, 0.24042440950870514, -0.029467344284057617, 0.14977099001407623, -0.009561310522258282, 0.18867088854312897, -0.01997968554496765, -0.01995030790567398, 0.22945590317249298, -0.035270806401968, 0.0768304243683815, -0.011553932912647724, 0.06916923075914383, -0.008076411671936512, 0.24234743416309357, 0.2402002364397049, 0.00561038963496685, 0.11306541413068771, 0.010532483458518982, 0.06974100321531296, -0.03161089867353439, 0.11027587205171585, -0.03353442624211311, 0.02198253758251667, 0.13333679735660553, -0.0007000829791650176, 0.07976803183555603, -0.011129617691040039, 0.06576255708932877, -0.010061048902571201, 0.06872306764125824, 0.010203351266682148, 0.043540142476558685, 0.031069166958332062, 0.035972412675619125, 0.02069552056491375, 0.034834954887628555, 0.011157555505633354, 0.006420152261853218, 0.015832848846912384, 0.006040061824023724, 0.014760704711079597, 0.04802922159433365, -0.019613493233919144, 0.05153021961450577, -0.008836687542498112, 0.016159718856215477, 0.06843674927949905, 0.11051212251186371, 0.07175462692975998, 0.12377012521028519, 0.20468583703041077, 0.07102770358324051, 0.0947766974568367, 0.09278121590614319, 0.07944544404745102, 0.10678207874298096, 0.1215478777885437, 0.25081804394721985, 0.28545957803726196, 0.16181090474128723, 0.14411793649196625, 0.14474640786647797, 0.023006295785307884, 0.04028476029634476, 0.011840306222438812, 0.019999470561742783, 0.08428498357534409, 0.06730347871780396, 0.028521524742245674, 0.07018958032131195, 0.019780393689870834, 0.020606637001037598, 0.003311058972030878, -0.00956890732049942, 0.05806010216474533, 0.04343791306018829, 0.012084140442311764, -0.0010126641718670726, 0.00660662492737174, 0.03526496887207031, 0.019544146955013275, 0.028163814917206764, 0.060940325260162354, 0.05636734887957573, 0.041131552308797836, 0.06711847335100174, -0.0004805892240256071, 0.0015040278667584062, 0.02135874330997467, 0.028394170105457306, 0.061923541128635406, 0.024257592856884003, 0.04206588864326477, 0.02735646441578865, 0.2006002813577652, 0.1337670385837555, 0.21566586196422577, 0.13428136706352234, 0.16133207082748413, 0.23053288459777832, 0.20961283147335052, 0.12654317915439606, 0.21026615798473358, 0.2226492464542389, 0.1775810569524765, 0.2882823050022125, 0.2122846394777298, 0.3088522255420685, 0.2210725098848343, 0.2678530514240265, 0.20644895732402802, 0.2412487417459488, 0.24093642830848694, 0.2721494436264038, 0.7311932444572449, 0.2623848617076874, 0.28534868359565735, 0.24713274836540222, 0.22234083712100983, 0.2496647834777832, 0.2307073324918747, 0.42874205112457275, 0.2510635554790497, 0.4007473886013031, 0.21832773089408875, 0.23778462409973145, 0.18937000632286072, 0.20182746648788452, 0.2680574953556061, 0.20896264910697937, 0.2616243362426758, 0.1917114108800888, 0.2538858652114868, 0.2291005700826645, 0.22063130140304565, 0.24524518847465515, 0.1974656730890274, 0.23553088307380676, 0.17586921155452728, 0.2234375923871994, 0.20793180167675018, 0.22790297865867615, 0.25844985246658325, 0.19491225481033325, 0.22753942012786865, 0.18831686675548553, 0.18318553268909454, 0.19529689848423004, 0.21336890757083893, 0.19872242212295532, 0.18235231935977936, 0.2073107212781906, 0.20636680722236633, 0.193149596452713, 0.18889304995536804, 0.17299693822860718, 0.1435297727584839, 0.20190241932868958, -0.2883784770965576, -0.209306001663208, -0.22236941754817963, -0.18910332024097443, -0.020476486533880234, -0.23565122485160828, -0.057707980275154114, -0.393388032913208, 0.10618137568235397, -0.19844187796115875, -0.16813424229621887, -0.00856213178485632, -0.19787973165512085, 0.02187824249267578, -0.2840690016746521, -0.38311973214149475, -0.2326754629611969, -0.20345838367938995, -0.1503991186618805, -0.08653978258371353, -0.3235577344894409, -0.16834327578544617, -0.15195859968662262, -0.3426539897918701, -0.17771661281585693, -0.19407378137111664, -0.12109801918268204, -0.02704078145325184, -0.07720725983381271, -0.043491680175065994, -0.08291830122470856, -0.1626226156949997, -0.18836793303489685, -0.16691136360168457, -0.10315683484077454, -0.04724763706326485, 0.019338242709636688, -0.008364938199520111, -0.08129195868968964, -0.16231007874011993, -0.14105325937271118, -0.18365953862667084, -0.13703422248363495, -0.11285892874002457, -0.10260497033596039, -0.10619965940713882, -0.13028617203235626, -0.1835659295320511, -0.14252987504005432, -0.11553312838077545, -0.1448460966348648, -0.1256875991821289, -0.1512000560760498, -0.13107207417488098, -0.11506282538175583, -0.1326633244752884, -0.08184321224689484, -0.09671323001384735, -0.07364137470722198, -0.13674867153167725, -0.13916786015033722, -0.13210876286029816, -0.12671202421188354, -0.12463641166687012], [-0.012662315741181374, 0.011477496474981308, -0.017868738621473312, 0.0012237988412380219, 0.015101376920938492, 0.026683591306209564, -0.027539359405636787, -0.0004994049668312073, -0.010006764903664589, 0.021877598017454147, -0.011388054117560387, 0.058212559670209885, 1.2605340480804443, 0.052994538098573685, 0.0008346842951141298, 0.06762785464525223, -0.02048647031188011, 0.015578529797494411, -0.0029868974816054106, 0.03168465197086334, 0.09101938456296921, 0.05671459808945656, 0.029712719842791557, 0.030140969902276993, -0.04842077195644379, -0.0017305518267676234, -0.012653403915464878, 0.00992486160248518, 0.01966211572289467, 0.08924177289009094, 0.033603329211473465, 0.030045796185731888, -0.0743248388171196, -0.04256043955683708, -0.050313450396060944, -0.025865960866212845, 0.027066349983215332, 0.0862160474061966, 0.011123660951852798, -0.013453914783895016, -0.10476037114858627, -0.1274993121623993, -0.09754518419504166, -0.03245116397738457, -1.979966163635254, -0.014414154924452305, -0.1302603930234909, -0.0688282921910286, -0.3531782329082489, -0.12669341266155243, -0.19125042855739594, -0.20196878910064697, -1.186236023902893, 0.001998413819819689, -1.9800000190734863, -0.09061560034751892, -0.01678614690899849, -0.003941114991903305, 0.03172732889652252, -0.023101042956113815, 0.02494671568274498, -0.007304271683096886, -0.025649018585681915, 0.023545224219560623, -0.0861511155962944, -0.01330584567040205, -0.20777937769889832, 0.12330194562673569, 0.02265150099992752, 0.0031854959670454264, -0.2459394782781601, 0.08057314157485962, -0.008347938768565655, -0.03150247409939766, 0.014842655509710312, -0.03294411301612854, 1.1111280918121338, -0.01074954867362976, 0.03842885419726372, 0.025574760511517525, -0.019166704267263412, -0.011608745902776718, -0.07969142496585846, -0.09079474210739136, -0.01911173015832901, -0.038633547723293304, -0.05525324493646622, -0.03551683574914932, -0.03926897048950195, -0.08376537263393402, -0.08379766345024109, -0.08168693631887436, 0.024009929969906807, -0.059132710099220276, -0.013859167695045471, -0.027514755725860596, -0.049699053168296814, -0.06441983580589294, -0.09033417701721191, -0.06655624508857727, -0.08435241132974625, 0.03814980015158653, -0.06647326797246933, -0.04656625911593437, -0.07844667136669159, -0.08381686359643936, -0.10713152587413788, -0.0676548033952713, -0.10273180156946182, -0.056445952504873276, -0.08104780316352844, -0.07894252985715866, -0.0723535418510437, -0.1082957312464714, -0.10532066226005554, -0.06395887583494186, -0.12476019561290741, -0.06776922196149826, -0.11384458094835281, -0.06128859892487526, -0.060682978481054306, -0.1289583295583725, -0.08640383183956146, -0.13787607848644257, -0.07577332109212875, -0.14060832560062408, -0.2300034761428833, -0.11844435334205627, 0.12007448822259903, -0.03293539583683014, 0.03417647257447243, -0.10845742374658585, 0.11210625618696213, -0.4767097234725952, 0.019365711137652397, 0.1791323721408844, -0.037872906774282455, 0.04951179772615433, -0.04011079668998718, 0.06147483363747597, 0.900844931602478, 0.06125255674123764, -0.07039905339479446, 0.08351422846317291, 0.04427879676222801, -0.0343896709382534, 0.06425204873085022, 0.01263295579701662, 0.05447769537568092, 0.015364411287009716, 0.07795955240726471, -0.10558012872934341, -0.10003753006458282, 0.03665842488408089, -0.06440773606300354, -0.013753660954535007, -0.07996439188718796, 0.02661992236971855, -0.05675981938838959, 0.010180487297475338, 0.009351779706776142, -0.02945723943412304, 0.03995276242494583, -0.13357746601104736, -0.0040145451202988625, -0.07836949825286865, 0.029953453689813614, -0.010769722983241081, -0.03213951736688614, -0.0024520056322216988, -0.08973389118909836, 0.016490241512656212, -0.1793784648180008, -0.03430989384651184, -0.10079530626535416, 0.02442706748843193, 0.04990817606449127, -0.13697531819343567, -0.08687648177146912, -0.15189707279205322, -0.13615603744983673, -0.14401088654994965, -0.20265094935894012, -0.02922438457608223, 0.030723383650183678, 0.04454149678349495, -0.1298971176147461, -0.009070049040019512, -0.19302749633789062, -0.10200371593236923, -0.08601635694503784, 0.01571856066584587, -0.08577984571456909, -0.09599597752094269, -0.06967620551586151, -0.034190692007541656, -0.2510249614715576, -0.04711388051509857, -0.01462001632899046, -0.015914255753159523, -0.10040100663900375, -0.1223575621843338, -0.11243106424808502, -0.10368233919143677, -0.0015167460078373551, -0.1849023699760437, -0.11010518670082092, -0.07582888007164001, -0.04542144760489464, -0.06614530086517334, -0.0809689611196518, -0.014361336827278137, 0.003577514085918665, -0.00872363056987524, 0.020208192989230156, -0.013538231141865253, -0.06601084023714066, -0.08784149587154388, -0.10370785742998123, -0.07181163877248764, 0.0709533840417862, -0.04360613599419594, 0.019356079399585724, 0.051408812403678894, -0.10754791647195816, -0.12565895915031433, -0.14135871827602386, -0.07223355770111084, -0.06857511401176453, -0.018155133351683617, -0.020392807200551033, -0.034703876823186874, -0.17335031926631927, -0.18446198105812073, -0.1728961169719696, -0.14036297798156738, -0.15099379420280457, -0.23716434836387634, -0.14111727476119995, -0.1156519204378128, -0.17299941182136536, -0.17723040282726288, -0.1855502426624298, -0.1015428751707077, -0.22635076940059662, -0.21425701677799225, -0.13039064407348633, -0.08399137109518051, -0.200611412525177, -0.18224164843559265, -0.17521744966506958, -0.12556149065494537, -0.25874021649360657, -0.11825965344905853, -0.14193804562091827, -0.0822124183177948, -0.2708479166030884, -0.3000088930130005, -0.27225029468536377, -0.35536277294158936, -0.4479135274887085, -0.3353097140789032, -0.23879271745681763, -0.18734116852283478, -0.35195034742355347, -0.3062438666820526, -0.3215668201446533, -0.3041958510875702, 0.33549198508262634, -0.3199233114719391, -0.21830572187900543, -0.308432936668396, -0.3119279742240906, -0.3146320879459381, -0.2700093984603882, -0.26990580558776855, -0.16904892027378082, -0.23367659747600555, -0.22718414664268494, -0.2552725076675415, -0.3185105323791504, -0.30372002720832825, -0.29619643092155457, -0.300915002822876, -0.143549844622612, -0.2692093849182129, -0.2614358365535736, -0.3280795216560364, -0.30592259764671326, -0.3068068325519562, -0.29203569889068604, -0.267072856426239, -0.21233655512332916, -0.3202705979347229, -0.28359460830688477, -0.3760297894477844, -0.3019309341907501, -0.26858726143836975, -0.27198508381843567, -0.2710474133491516, -0.3317604064941406, -0.32500845193862915, -0.3582448661327362, -0.3782792389392853, -0.31440502405166626, -0.3282274603843689, -0.30183252692222595, -0.22850409150123596, -0.3442816734313965, -0.28691306710243225, -0.33678773045539856, -0.3455338776111603, -0.21688556671142578, -0.2170569747686386, -0.2521585524082184, -0.07608333975076675, -0.29666271805763245, -0.08072008192539215, -0.21265603601932526, -0.20421287417411804, -0.14190860092639923, -0.049153994768857956, -0.049788665026426315, 0.1547432839870453, 0.2823868989944458, 0.2958802878856659, 0.11780808866024017, 0.15760566294193268, -0.1217004582285881, -0.12631811201572418, -0.05295953154563904, 0.12934313714504242, 0.6033620834350586, 0.23821720480918884, 0.14923444390296936, 0.09563450515270233, -0.21568775177001953, -0.14174622297286987, -0.11926449835300446, 0.03964337334036827, 0.12696129083633423, 0.16137510538101196, 0.08741164952516556, 0.1293458193540573, -0.20336008071899414, -0.2518036365509033, -0.19050784409046173, -0.05886538326740265, -0.05070440471172333, 0.008558067493140697, 0.03215693682432175, -0.0006776817608624697, -0.31577420234680176, -0.3207034170627594, -0.22798101603984833, -0.2276744544506073, -0.10607577860355377, -0.21390539407730103, -0.06004894897341728, -0.10637275129556656, -0.26080214977264404, -0.3069670498371124, -0.2968621253967285, -0.18856319785118103, -0.3086487352848053, -0.23182234168052673, -0.27286797761917114, -0.2003631889820099, -0.10007483512163162, -0.3042941093444824, -0.2976286709308624, -0.28148818016052246, -0.26712566614151, -0.2592993378639221, -0.2646639943122864, -0.14700847864151, -0.29757601022720337, -0.038970500230789185, -0.2224525660276413, -0.2332615703344345, -0.5470442175865173, -0.021913880482316017, -0.6261922121047974, -0.6299464702606201, 0.012891493737697601, -0.016118036583065987, 0.016271010041236877, 0.030436411499977112, 0.03591424226760864, 0.03446359932422638, 9.326264262199402e-05, -0.022923149168491364, -0.0670815259218216, 0.03888017311692238, 0.03759203851222992, -1.9797903299331665, 0.9717556834220886, 1.0943204164505005, -0.29102328419685364, -0.13874010741710663, 0.008844185620546341, 0.03396137058734894, -0.07239815592765808, -0.7690379023551941, -1.9742544889450073, -0.2296304553747177, 0.04202127084136009, 0.0026550462935119867, 0.03863421827554703, 0.012309879995882511, -0.01759372092783451, -0.054883502423763275, -0.0010269678896293044, 0.004200005438178778, 0.02572033740580082, -0.0031288336031138897, 0.04410501569509506, 0.06837239861488342, 0.04259909316897392, 0.03684801608324051, 0.028914814814925194, 0.053995341062545776, 0.07378114759922028, 0.013097385875880718, 0.05573468655347824, 0.04146382212638855, 0.05559183284640312, 0.05296584963798523, 0.06053803861141205, 0.06262817233800888, 0.07323833554983139, 0.03585237264633179, 0.03647385910153389, 0.043410781770944595, 0.06402777135372162, 0.05424888804554939, 0.05274682119488716, 0.06255263090133667, 0.054740432649850845, 0.01686900295317173, 0.034693144261837006, -0.01849239133298397, -0.018786508589982986, 0.003894288092851639, 0.023800499737262726, -0.009583823382854462, -0.016448944807052612, 0.0055094994604587555, -0.1961035281419754, -0.16953907907009125, -0.2464672029018402, 0.2470676302909851, 0.6547906994819641, 0.16150574386119843, -0.4226008355617523, 0.09810792654752731, 0.013611611910164356, 0.12076324224472046, 0.0934954509139061, 0.17695356905460358, 0.271055668592453, 0.27632150053977966, -0.02491186372935772, 0.5971142649650574, 0.0721745640039444, 0.03391418978571892, -0.15789024531841278, 0.3391979932785034, -0.07920949161052704, 0.10376745462417603, -0.34375, 0.07867030799388885, -0.01168317161500454, 0.16273733973503113, 0.14588148891925812, -0.11854546517133713, -0.0054798247292637825, -0.07673605531454086, 0.1806233525276184, 0.2093309760093689, 0.07725740969181061, 0.06552746891975403, 0.0856650248169899, 0.016828443855047226, 0.20596660673618317, 0.012066572904586792, 0.09906484186649323, 0.12999875843524933, 0.10395582765340805, 0.07045823335647583, 0.05684487149119377, 0.0622883103787899, 0.028859583660960197, 0.06404158473014832, 0.05508676543831825, 0.06385203450918198, 0.07882972806692123, 0.08904888480901718, 0.047087520360946655, 0.08901766687631607, 0.0658126026391983, 0.08589425683021545, 0.02838916890323162, 0.08091796189546585, 0.07630887627601624, 0.07596825063228607, 0.034400682896375656, 0.06875742226839066, 0.041363880038261414, 0.0914701372385025, 0.03387230262160301, 0.2123149335384369, -0.06270422041416168, 0.10397469252347946, -0.014263145625591278, 0.024796489626169205, 0.024048928171396255, -0.09242577850818634, -0.022204093635082245, 0.11876274645328522, 0.03058987483382225, 0.03031701035797596, -0.002907652175053954, -0.023913495242595673, -0.07263047248125076, 0.09131988883018494, 0.04825565218925476, 0.04374787211418152, 0.029142823070287704, 0.017040971666574478, 0.006324850022792816, -0.17027555406093597, -0.136630117893219, -0.08098514378070831, 0.05472696200013161, 0.1336551308631897, 0.08645260334014893, 0.015657834708690643, -0.22949329018592834, 0.023041412234306335, 0.14576520025730133, 0.0019312683725729585, -0.020965922623872757, 0.040477968752384186, 0.01764965057373047, -0.13295702636241913, -0.010748254135251045, 0.11455647647380829, 0.01392991654574871, 0.11115600168704987, -0.005400979425758123, 0.008410626091063023, -0.1179543063044548, -0.03331046923995018, 0.12069263309240341, -0.01225614920258522, 0.1119774654507637, -0.025283733382821083, 0.11429446935653687, -0.015414135530591011, -0.06740742921829224, 0.054571930319070816, -0.007215776480734348, 0.10601042956113815, -0.009361306205391884, 0.09435997903347015, -0.045595452189445496, 0.14830993115901947, 0.04469666630029678, 0.02702423930168152, 0.05799444764852524, 0.010177148506045341, 0.07820087671279907, -0.024020450189709663, 0.10120466351509094, -0.06338423490524292, 0.07726839184761047, -0.014871000312268734, 0.021971289068460464, 0.22632363438606262, -0.06201614812016487, 0.18818455934524536, 0.11721952259540558, 0.15576046705245972, 0.08281558752059937, 0.08761242777109146, 0.11377020180225372, 0.21205991506576538, -0.007119832560420036, 0.17489764094352722, 0.10663951933383942, 0.07793419063091278, 0.20824725925922394, 0.24842794239521027, 0.3091047406196594, 0.30315491557121277, 0.10893913358449936, 0.2427748441696167, 0.24985948204994202, 0.18294788897037506, 0.20934729278087616, 0.23164835572242737, 0.2520328164100647, 0.2834715247154236, 0.12464532256126404, 0.2503753900527954, 0.30667734146118164, 0.21983204782009125, 0.19086675345897675, 0.20118845999240875, 0.22270335257053375, 0.1957213431596756, 0.030969994142651558, 0.20364730060100555, 0.22988131642341614, 0.1892865002155304, 0.2008906900882721, 0.1930248886346817, 0.16483645141124725, 0.15586070716381073, 0.038608014583587646, 0.1456497609615326, 0.17915789783000946, 0.11620514839887619, 0.2131061553955078, 0.19257040321826935, 0.18659844994544983, 0.16212600469589233, 0.08508593589067459, 0.14361201226711273, 0.15511538088321686, 0.2312505841255188, 0.17810438573360443, 0.20098689198493958, 0.15725558996200562, 0.19657482206821442, 0.02002161368727684, 0.15667979419231415, 0.17502422630786896, 0.16767266392707825, 0.4690220057964325, 0.5090446472167969, 0.4504139721393585, 0.5525400042533875, 0.2609679400920868, 0.6091479063034058, 0.42408472299575806, 0.36764395236968994, 0.2599678039550781, 0.3466833233833313, 0.29632753133773804, 0.36167043447494507, 0.31917479634284973, 0.2785598337650299, 0.520222008228302, 0.5251008868217468, 0.36180996894836426, 0.3699031174182892, 0.42474526166915894, 0.271531879901886, 0.06713990867137909, 0.31477150321006775, 0.2424626499414444, 0.3149551749229431, 0.37449195981025696, 0.36335107684135437, 0.3161829710006714, 0.3586014211177826, 0.2529785633087158, 0.37347424030303955, 0.3239903450012207, 0.34002935886383057, 0.36959999799728394, 0.3132995367050171, 0.3166697025299072, 0.3498077690601349, 0.24763599038124084, 0.3885200321674347, 0.36148369312286377, 0.41814756393432617, 0.25737184286117554, 0.3264661133289337, 0.33133456110954285, 0.3600030541419983, 0.26585301756858826, 0.35228481888771057, 0.35095536708831787, 0.33325520157814026, 0.36941224336624146, 0.29973074793815613, 0.36241641640663147, 0.3429585099220276, 0.3019547164440155, 0.3372238278388977, 0.36015915870666504, 0.3476566970348358, 0.35937124490737915, 0.35525086522102356, 0.3355381190776825, 0.3691306412220001, 0.2976261079311371, 0.3499900698661804, 0.4460945427417755, 0.3481528162956238, -0.1902947574853897, 0.14486099779605865, -0.11443502455949783, -0.19513095915317535, -0.274687260389328, -0.20679642260074615, -0.06547987461090088, -0.039836473762989044, 0.031804949045181274, -0.06465338170528412, -0.12648184597492218, -0.16977404057979584, -0.24165548384189606, -0.11728604137897491, -0.23907633125782013, -0.0958169475197792, -0.12602858245372772, -0.034235455095767975, -0.1316421627998352, -0.1308249980211258, -0.14449967443943024, -0.07832938432693481, -0.16398237645626068, 0.1664305031299591, 0.025629675015807152, -0.030899912118911743, 0.002058396814391017, -0.052080679684877396, 0.005127934738993645, -0.0019530755234882236, 0.04655890166759491, 0.13345924019813538, 0.01989370957016945, 0.08269275724887848, -0.01189043466001749, 0.07487262040376663, 0.030948687344789505, 0.1134537011384964, 0.07599394023418427, 0.10680846869945526, 0.04649857059121132, 0.004739845171570778, 0.014417711645364761, -0.020280534401535988, 0.04805313050746918, 0.01884670928120613, 0.04008513689041138, 0.022975940257310867, 0.06712112575769424, 0.06429428607225418, 0.02652467042207718, -0.0032374225556850433, -0.008104421198368073, 0.03285251557826996, 0.03136372193694115, 0.022171756252646446, 0.06704237312078476, 0.050884127616882324, 0.023545721545815468, -0.022984370589256287, -0.02634705975651741, 0.0032898802310228348, 0.029080690816044807, 0.03631054610013962], [0.02408963069319725, -0.0006848648190498352, 0.007324326783418655, -0.0009365864098072052, -0.017496297135949135, 0.013313490897417068, 0.03506387025117874, -0.02848743461072445, -0.7255223393440247, -0.704088568687439, -0.7356764078140259, -1.0651968717575073, -0.7919261455535889, -0.7651501297950745, -0.7586661577224731, 0.034486234188079834, 0.021709172055125237, -0.7714617252349854, -0.7460216283798218, -0.812487006187439, -0.758075475692749, -0.783018171787262, -0.747478187084198, 0.06356634944677353, -1.154970645904541, -0.9651396870613098, -1.0500017404556274, -0.7991092205047607, -0.7663826942443848, -0.8300771713256836, -0.7567526698112488, 0.02052176557481289, -0.12321165949106216, -1.2474086284637451, -1.2376869916915894, -0.8051782846450806, -1.0602587461471558, -0.8841186761856079, -0.7288699150085449, 0.01931564323604107, -0.07291688770055771, -1.1507208347320557, -1.2856765985488892, -0.6108592748641968, -0.824510395526886, -0.5813593864440918, -0.40524399280548096, -0.03789803013205528, -0.836857795715332, -0.3981371521949768, -1.112992763519287, -1.1849982738494873, -0.7984755635261536, -1.0087029933929443, -0.4852045476436615, -0.053703673183918, -0.0009534023702144623, 0.004609458148479462, 0.03223712742328644, -0.02274935320019722, 0.017708290368318558, -0.0038210153579711914, -0.0037998780608177185, 0.0131598562002182, 0.5904993414878845, 0.47260475158691406, 0.4871410131454468, 0.5226961374282837, 0.524639904499054, 0.44787707924842834, 0.4957451820373535, 0.5254589915275574, 0.46362820267677307, 0.5031412839889526, 0.5117368698120117, 0.5372681617736816, 0.5157529711723328, 0.5186725854873657, 0.536217987537384, 0.49276575446128845, 0.44192346930503845, 0.5288275480270386, 0.5226608514785767, 0.5197579264640808, 0.5249636769294739, 0.537262499332428, 0.5169756412506104, 0.48773711919784546, 0.4919455647468567, 0.49780282378196716, 0.5359507203102112, 0.5330212712287903, 0.5499765276908875, 0.513064444065094, 0.4938432276248932, 0.5167226195335388, 0.5297946929931641, 0.5162445306777954, 0.5436282753944397, 0.530599057674408, 0.5332599878311157, 0.5228762626647949, 0.5090306997299194, 0.5060314536094666, 0.4842560589313507, 0.5053020119667053, 0.48424768447875977, 0.5305436253547668, 0.5216237902641296, 0.528009295463562, 0.4878106415271759, 0.5093680620193481, 0.53069669008255, 0.4826342463493347, 0.4912783205509186, 0.49170157313346863, 0.49813908338546753, 0.5029476284980774, 0.4904418885707855, 0.48207715153694153, 0.4407508075237274, 0.47121039032936096, 0.4571974575519562, 0.48530954122543335, 0.4773975610733032, 0.4809771180152893, 0.4285505712032318, 0.15288636088371277, 0.4293208420276642, 0.7422249913215637, 0.5120828151702881, 0.7026002407073975, 0.4904165267944336, 0.6495195627212524, 0.46680834889411926, 0.7602689266204834, 0.65269535779953, 0.47845157980918884, 0.7101505398750305, 0.5198147296905518, 0.6936250925064087, 0.5263718962669373, 0.682381272315979, 0.4608195126056671, 0.4837668836116791, 0.7076239585876465, 0.5323726534843445, 0.7036589980125427, 0.5757644176483154, 0.7211397886276245, 0.5196024775505066, 0.6849772930145264, 0.6944981217384338, 0.5349081158638, 0.7059605717658997, 0.5495577454566956, 0.725283682346344, 0.5582134127616882, 0.6884976625442505, 0.5728505849838257, 0.5126795172691345, 0.7117246985435486, 0.5648098587989807, 0.7073297500610352, 0.5695683360099792, 0.6892535090446472, 0.5306527018547058, 0.6881370544433594, 0.6710423231124878, 0.5531569123268127, 0.6555602550506592, 0.5317683815956116, 0.6831827163696289, 0.5429062247276306, 0.6425969004631042, 0.559744119644165, 0.4943295419216156, 0.6771143674850464, 0.5369918346405029, 0.6710469722747803, 0.48248687386512756, 0.6472252011299133, 0.528160035610199, 0.6548305749893188, 0.6351073980331421, 0.5136245489120483, 0.7022261023521423, 0.5185574889183044, 0.6809558868408203, 0.5281280279159546, 0.6691704392433167, 0.507141649723053, 0.6040834784507751, 0.6320493221282959, 0.632735550403595, 0.6532968282699585, 0.628497302532196, 0.6209643483161926, 0.6382507681846619, 0.6444492340087891, 0.6449000239372253, 0.6324196457862854, 0.6202113032341003, 0.6171514987945557, 0.6039644479751587, 0.6218522787094116, 0.6235816478729248, 0.627650797367096, 0.6156612038612366, 0.6197542548179626, 0.6423177123069763, 0.6146847009658813, 0.603739321231842, 0.618873655796051, 0.5954782366752625, 0.6161497831344604, 0.6533036828041077, 0.6589470505714417, 0.6674504280090332, 0.6529043316841125, 0.6304596662521362, 0.6472116708755493, 0.6490034461021423, 0.6537986993789673, 0.648292601108551, 0.6523616909980774, 0.6437163949012756, 0.6284862160682678, 0.6086021065711975, 0.6516358852386475, 0.6681602001190186, 0.6541100144386292, 0.6300437450408936, 0.6394340991973877, 0.6332032084465027, 0.6295701265335083, 0.6344658732414246, 0.6676033139228821, 0.660839855670929, 0.6670175194740295, 0.6112063527107239, 0.6330873370170593, 0.6343039870262146, 0.6304402351379395, 0.6389051079750061, 0.645751416683197, 0.6685309410095215, 0.6496317386627197, 0.6171309947967529, 0.6016499996185303, 0.6261339783668518, 0.6417971849441528, 0.6202751994132996, 0.636896550655365, 0.6525956392288208, 0.627227246761322, 0.8942647576332092, 0.9071712493896484, 0.9633235335350037, 0.9331068992614746, 1.038814663887024, 0.8986750245094299, 0.9569774866104126, 0.9608042240142822, 0.8672264218330383, 0.8603555560112, 0.9105336666107178, 0.979084312915802, 0.9093634486198425, 0.9595461487770081, 0.9487372636795044, 0.85008704662323, 0.8911595344543457, 0.9110144972801208, 1.009395956993103, 0.9835605621337891, 1.0183764696121216, 1.0029062032699585, 1.0460976362228394, 0.8718321919441223, 0.8725376129150391, 0.9992623329162598, 1.0051637887954712, 1.030924916267395, 1.0254076719284058, 1.0358422994613647, 1.0141927003860474, 0.9128887057304382, 0.9399189949035645, 0.97811359167099, 1.0326805114746094, 1.045231819152832, 1.0510196685791016, 1.0529838800430298, 1.018088459968567, 0.9798234105110168, 0.9300209879875183, 0.9630137085914612, 1.016270637512207, 1.0358506441116333, 1.0778312683105469, 1.034111738204956, 1.0496972799301147, 0.9495053291320801, 0.8980923295021057, 0.9023142457008362, 0.9708770513534546, 0.9809009432792664, 0.9766366481781006, 1.0373625755310059, 1.015403389930725, 0.9693813323974609, -0.39930811524391174, -0.20198863744735718, 0.24276793003082275, -0.06243409216403961, 0.4782395660877228, -0.03162500634789467, -0.6571655869483948, -0.6900421380996704, -0.09627769142389297, -0.014745097607374191, 0.001244150917045772, 0.002711244858801365, -0.02638835646212101, -0.011345090344548225, -0.03845663368701935, -0.1309037059545517, -0.009890452027320862, 0.0006284471019171178, 0.009773178957402706, 0.023734040558338165, 0.03960618004202843, 0.012034522369503975, 0.013134750537574291, -0.023265020921826363, 0.03430797904729843, 0.01487028505653143, 0.03400030732154846, 0.038959354162216187, 0.05671294406056404, 0.035492971539497375, 0.011431707069277763, -0.0024517022538930178, 0.009494157508015633, 0.03096127137541771, 0.030730843544006348, 0.043602246791124344, 0.05305032059550285, 0.05796925351023674, 0.0384242907166481, -0.004731460474431515, 0.04361840337514877, 0.016423424705863, 0.033649686723947525, 0.04170900955796242, 0.056641530245542526, 0.05715413764119148, 0.04467780888080597, 0.04315740242600441, -0.02520538866519928, 0.013959689065814018, 0.008029003627598286, 0.04627896100282669, 0.026098748669028282, 0.05759052187204361, 0.04707657918334007, 0.020517149940133095, -0.032649897038936615, 0.009571104310452938, 0.006705152802169323, 0.021246811375021935, 0.041551362723112106, 0.001954705687239766, -0.005893383175134659, -0.05304187163710594, -0.4863009750843048, -0.04854176193475723, -0.031397342681884766, 0.017766505479812622, -0.004490857943892479, -0.0007771688397042453, -0.0023558593820780516, -0.03396937623620033, 0.004473000764846802, 0.01969350129365921, 0.009147997945547104, 0.010764427483081818, 0.0009594932198524475, -0.0017499066889286041, 0.009474795311689377, 0.013939283788204193, -0.49811726808547974, -0.27449703216552734, -0.38451308012008667, -0.36378511786460876, -0.8239893913269043, -0.4709632396697998, -0.7389767169952393, -0.4850485026836395, -0.22145594656467438, -0.23068852722644806, -0.23644788563251495, -0.2376948744058609, -0.1381993591785431, -0.23317591845989227, -0.2788749933242798, -0.29968157410621643, -0.18350844085216522, -0.1575484573841095, -0.1609829217195511, -0.13057035207748413, -0.17828910052776337, -0.19355887174606323, -0.2650128901004791, -0.16973619163036346, -0.1392441689968109, -0.1818341761827469, -0.13473767042160034, -0.1612723171710968, -0.1908218264579773, -0.19567352533340454, -0.2234201729297638, -0.1962576061487198, -0.13076889514923096, -0.1900685727596283, -0.1564299613237381, -0.2079351395368576, -0.25922906398773193, -0.20263037085533142, -0.2166707068681717, -0.23997065424919128, -0.11297503858804703, -0.2863582372665405, -0.2063329964876175, -0.20407207310199738, -0.26738137006759644, -0.21887798607349396, -0.26077985763549805, -0.19289954006671906, 0.031860530376434326, -0.0004954859614372253, 0.003233250230550766, -0.003860101103782654, 0.019344892352819443, -0.01825340837240219, 0.02031310647726059, -0.026193823665380478, -0.56556636095047, -0.688552737236023, -0.7513297200202942, -0.6926053166389465, -0.7174228429794312, -0.6426443457603455, -0.7556245923042297, -0.43662014603614807, -0.6725364923477173, -0.6790391802787781, -0.6889246106147766, -0.7415384650230408, -0.7392770051956177, -0.7153612375259399, -0.6926335096359253, -0.7534714937210083, -0.6926687955856323, -0.7061703205108643, -0.7650063037872314, -0.75987309217453, -0.7180534601211548, -0.7765254974365234, -0.7697064280509949, -0.781884491443634, -0.7333956360816956, -0.8222653269767761, -0.7787795066833496, -0.816591203212738, -0.838627278804779, -0.8263115286827087, -0.8167459964752197, -0.7514826655387878, -0.7171007394790649, -0.8100863099098206, -0.8410835266113281, -0.8239491581916809, -0.8363711833953857, -0.8423783779144287, -0.845956563949585, -0.7805780172348022, -0.8528112769126892, -0.8442122340202332, -0.8376229405403137, -0.8250840902328491, -0.8541256785392761, -0.8498509526252747, -0.895498514175415, -0.8549841046333313, -0.8338766694068909, -0.7486923336982727, -0.8726375102996826, -0.8775144815444946, -0.8077812790870667, -0.8576802015304565, -0.7928069233894348, -0.8246355652809143, -0.7740503549575806, -0.7548986673355103, -0.809202253818512, -0.7807831168174744, -0.8109058737754822, -0.8056954145431519, -0.8046309351921082, -0.8856170177459717, -0.723592221736908, -0.8765066266059875, -0.702028751373291, -0.8707852959632874, -0.7486774325370789, -0.8258727192878723, -0.7452298998832703, -0.8013651371002197, -0.8169185519218445, -0.7257422804832458, -0.8926836848258972, -0.7518966197967529, -0.8700340986251831, -0.746992290019989, -0.8160397410392761, -0.7642213106155396, -0.7349482774734497, -0.7949486970901489, -0.7308481931686401, -0.8617168664932251, -0.7356522083282471, -0.8501842021942139, -0.7349943518638611, -0.8117311000823975, -0.8443349599838257, -0.7542544007301331, -0.8267326951026917, -0.7356529831886292, -0.8816828727722168, -0.7707643508911133, -0.8735800385475159, -0.7532206773757935, -0.7751621007919312, -0.8382206559181213, -0.7381430864334106, -0.8318367600440979, -0.7311561703681946, -0.8435250520706177, -0.729931116104126, -0.8231042623519897, -0.8092628717422485, -0.7546777725219727, -0.8380299806594849, -0.7395386695861816, -0.868401825428009, -0.7247217893600464, -0.8645830154418945, -0.7200580835342407, -0.7364286184310913, -0.8394988775253296, -0.7699097990989685, -0.8330533504486084, -0.7478930950164795, -0.8086054921150208, -0.7394561171531677, -0.8411244750022888, -0.8666530847549438, -0.7272744178771973, -0.8464789986610413, -0.7527503371238708, -0.7912418842315674, -0.6903218626976013, -0.7854747772216797, -0.6944712400436401, -0.8397627472877502, -0.8139035701751709, -0.8389018177986145, -0.7939635515213013, -0.8086631298065186, -0.8060327172279358, -0.8224413394927979, -0.809740424156189, -0.8413662910461426, -0.8476070165634155, -0.874157726764679, -0.8593324422836304, -0.8390716910362244, -0.8278030753135681, -0.8412495851516724, -0.8219739198684692, -0.8310751914978027, -0.8300742506980896, -0.843171238899231, -0.8168986439704895, -0.8106120824813843, -0.7775241136550903, -0.811820924282074, -0.8114631772041321, -0.7986466288566589, -0.794253408908844, -0.80913245677948, -0.7955772280693054, -0.780283510684967, -0.7948428392410278, -0.7758623957633972, -0.7913657426834106, -0.7945464849472046, -0.7949082851409912, -0.8101284503936768, -0.7874242067337036, -0.7583009004592896, -0.8012134432792664, -0.7813981175422668, -0.7979637384414673, -0.8478055000305176, -0.8468534350395203, -0.8444115519523621, -0.8222021460533142, -0.790061354637146, -0.8468735218048096, -0.8835073709487915, -0.863226592540741, -0.8725003600120544, -0.8771191239356995, -0.8643390536308289, -0.8535256385803223, -0.8206086158752441, -0.8771392703056335, -0.8917399048805237, -0.8611243963241577, -0.9010197520256042, -0.8911401033401489, -0.8876860737800598, -0.8606999516487122, -0.8286608457565308, -0.8389614224433899, -0.8798274993896484, -0.8899862170219421, -1.2155299186706543, -1.177601933479309, -1.2486183643341064, -1.2189836502075195, -1.247445821762085, -1.2069342136383057, -1.1935253143310547, -1.1676948070526123, -1.1654157638549805, -1.177457332611084, -1.1546403169631958, -1.1646517515182495, -1.1468805074691772, -1.125343680381775, -1.1409885883331299, -1.19205641746521, -1.1807008981704712, -1.1631836891174316, -1.1667964458465576, -1.158555507659912, -1.1608779430389404, -1.112263798713684, -1.1358344554901123, -1.1584278345108032, -1.1749098300933838, -1.1854192018508911, -1.14405357837677, -1.1862356662750244, -1.147588849067688, -1.1162195205688477, -1.1123234033584595, -1.188922643661499, -1.1528953313827515, -1.1376638412475586, -1.1403828859329224, -1.1327497959136963, -1.1482348442077637, -1.123481035232544, -1.137625813484192, -1.122922658920288, -1.1606274843215942, -1.1856918334960938, -1.1352874040603638, -1.1725430488586426, -1.1346031427383423, -1.1507688760757446, -1.1434675455093384, -1.207637906074524, -1.193385124206543, -1.164004921913147, -1.197542667388916, -1.163877010345459, -1.2235039472579956, -1.1505783796310425, -1.2030625343322754, -1.1758476495742798, -1.1167593002319336, -1.1750766038894653, -1.1412451267242432, -1.178138017654419, -1.1974596977233887, -1.1566624641418457, -1.1330292224884033, -1.1187947988510132, -0.06079043447971344, 0.023420797660946846, -0.023938536643981934, 0.04207853972911835, 0.026723520830273628, 0.018729286268353462, 0.010121737606823444, 0.0006336510414257646, 0.009137174114584923, -0.03516324982047081, -0.045912005007267, -0.023912480100989342, -0.009234716184437275, -0.01860715262591839, -0.04156694561243057, 0.031768329441547394, 0.014054227620363235, -0.0766175240278244, -0.033701565116643906, 0.009628914296627045, -0.0020724383648484945, -0.015529375523328781, -0.05502578243613243, 0.04795469716191292, 0.03402434289455414, -0.020884254947304726, 0.008342914283275604, 0.03774486109614372, 0.041623055934906006, -0.00869766902178526, 0.03278091922402382, 0.0726132020354271, 0.04878538101911545, 0.03750172629952431, 0.05107064172625542, 0.07463483512401581, 0.060849811881780624, 0.07120353728532791, 0.061372652649879456, 0.0985138937830925, 0.07755694538354874, 0.05660485103726387, 0.07003170996904373, 0.08367203176021576, 0.09177865087985992, 0.08504137396812439, 0.08940259367227554, 0.10226622968912125, 0.018502311781048775, 0.06284898519515991, 0.08674938976764679, 0.11257318407297134, 0.10104493796825409, 0.10927210003137589, 0.10790058225393295, 0.10889636725187302, -0.1255548894405365, 0.12799274921417236, 0.10762793570756912, 0.16607551276683807, 0.12515723705291748, 0.12696628272533417, 0.14796054363250732, 0.11474434286355972], [-0.020613986998796463, -0.03218292072415352, -0.011854050680994987, 0.029841668903827667, -0.005267981439828873, -0.032377541065216064, -0.022104939445853233, -0.018772438168525696, -0.040333427488803864, 0.032601337879896164, 0.07291745394468307, 0.07237830013036728, 0.08101759105920792, 0.08530692756175995, 0.0660453587770462, 0.002428408246487379, -0.06955301761627197, 0.008019997738301754, 0.03683009371161461, 0.06633824110031128, 0.04357066750526428, 0.07109109312295914, 0.04898834973573685, 0.01767681911587715, -0.016890840604901314, 0.029792670160531998, 0.060154322534799576, 0.034905143082141876, 0.04351205378770828, 0.04746105149388313, 0.05310966819524765, 0.032051876187324524, 0.0173940546810627, 0.06421016901731491, 0.10555965453386307, 0.07361004501581192, 0.07913356274366379, 0.10323729366064072, 0.08528216928243637, 0.05336076393723488, 0.10895620286464691, 0.17057327926158905, 0.24773447215557098, 0.20062628388404846, 0.21267129480838776, 0.2312988042831421, 0.27214303612709045, 0.08884046971797943, 1.7842636108398438, 0.39081066846847534, 0.25001609325408936, 0.036909181624650955, 1.455161213874817, 0.13141261041164398, 0.2488904446363449, 0.2798493802547455, -0.025287741795182228, -0.020048726350069046, 0.02928709238767624, 0.000296860933303833, 0.03544902056455612, 0.008192706853151321, -0.012381697073578835, -0.03427160158753395, -0.08121241629123688, -0.027081474661827087, 0.026511797681450844, 0.024148358032107353, 0.006085048895329237, 0.021429594606161118, 0.011088364757597446, -0.003828376531600952, -0.0480993390083313, -0.021617254242300987, 0.03434903547167778, 0.051394008100032806, 0.05792601779103279, 0.06378781050443649, 0.028251681476831436, 0.08362554758787155, 0.006081331055611372, 0.042746588587760925, 0.06538219749927521, 0.07373998314142227, 0.07275548577308655, 0.0708458200097084, 0.07596826553344727, 0.0268462635576725, -0.014554984867572784, 0.09422099590301514, 0.058099668473005295, 0.08800195157527924, 0.07577477395534515, 0.06696914881467819, 0.08187887072563171, 0.033427100628614426, 0.03398340567946434, 0.045645929872989655, 0.09315269440412521, 0.07320234179496765, 0.09892892092466354, 0.1115487739443779, 0.12905243039131165, 0.06962267309427261, 0.0256698876619339, 0.0514194592833519, 0.08654924482107162, 0.06012847274541855, 0.07739939540624619, 0.11169653385877609, 0.16032907366752625, 0.10259363800287247, 0.10976020991802216, 0.05867987126111984, 0.03556543216109276, 0.044439155608415604, 0.16772393882274628, 0.12470393627882004, 0.1418658345937729, 0.17614363133907318, -0.21801041066646576, -0.014106356538832188, -0.005986460950225592, 0.01732533425092697, 0.05173914134502411, 0.15334710478782654, 0.3243063986301422, 0.33238348364830017, 0.002953694434836507, -0.09199994802474976, -0.028120534494519234, -0.10704715549945831, -0.02625184692442417, -0.02966224029660225, -0.03965264931321144, -0.06132505461573601, -0.07078474014997482, 0.0322716161608696, -0.07129718363285065, 0.03264203667640686, 0.010218827053904533, -0.0012498022988438606, 0.021232860162854195, -0.03445250913500786, -0.0005591795197688043, 0.000987249775789678, 0.032949987798929214, 0.019961467012763023, 0.045829322189092636, 0.0014797486364841461, -0.00033406089642085135, -0.026193883270025253, -0.071724072098732, 0.03218743950128555, 0.04003532975912094, 0.06137963384389877, 0.00936094205826521, 0.03251132741570473, -0.04603617265820503, -0.019665386527776718, -0.051369234919548035, -0.010881191119551659, 0.016270840540528297, 0.043507639318704605, 0.0435653030872345, 0.024786625057458878, 0.06324402987957001, -5.8054942201124504e-05, -0.10343949496746063, -0.027032746002078056, -0.012927385047078133, -0.023041145876049995, -0.006535643246024847, 0.08461487293243408, 0.0934467688202858, 0.038959406316280365, -0.09511721134185791, 0.011128836311399937, -0.0018604433862492442, -0.11385289579629898, -0.05947037786245346, 0.043723996728658676, 0.08544455468654633, 0.023879479616880417, -0.06777516007423401, -0.12251164019107819, -0.1079791933298111, -0.0709468349814415, -0.15272483229637146, -0.015819912776350975, 0.03624492511153221, -0.011161873117089272, 0.8712984919548035, 0.9058001041412354, 0.9238219261169434, 0.8738240599632263, 0.8612325191497803, 0.8790002465248108, 0.7959409952163696, 0.7596177458763123, 0.813208818435669, 0.8395699262619019, 0.8758212924003601, 0.8183668851852417, 0.7848223447799683, 0.7765399813652039, 0.6947140097618103, 0.73329097032547, 0.8135957717895508, 0.7961955666542053, 0.8289799690246582, 0.6764364838600159, 0.7070871591567993, 0.6537389755249023, 0.6124641299247742, 0.600747287273407, 0.8926948308944702, 0.8440828323364258, 0.8253439664840698, 0.7486283779144287, 0.7136826515197754, 0.6301665306091309, 0.607944130897522, 0.6792530417442322, 0.920237123966217, 0.8682050704956055, 0.8829267024993896, 0.7968889474868774, 0.7801931500434875, 0.7085081934928894, 0.6880927085876465, 0.6985942125320435, 1.0127755403518677, 0.9551755785942078, 0.9740709066390991, 0.9141205549240112, 0.9244117140769958, 0.8690840005874634, 0.8789240121841431, 0.9084828495979309, 0.9348158836364746, 0.9148939251899719, 0.921025812625885, 0.8590081334114075, 0.8592728972434998, 0.8621417284011841, 0.861222505569458, 0.8558412790298462, 1.0315617322921753, 0.9350530505180359, 0.9732074737548828, 0.8754349946975708, 0.8962928652763367, 0.8116050362586975, 0.8767854571342468, 0.8829389214515686, 0.6673381924629211, 0.5606107711791992, 0.539949893951416, 0.5728211998939514, 0.6156969666481018, 0.5613275766372681, 0.5165579319000244, 0.7578542828559875, 0.5360131859779358, 0.6043798327445984, 0.545060396194458, 0.6077960133552551, 0.6141102910041809, 0.6237770318984985, 0.605742335319519, 0.7708783745765686, 0.5901114344596863, 0.542289137840271, 0.6646926999092102, 0.6233094334602356, 0.6675227880477905, 0.6267204284667969, 0.707888126373291, 0.7800312042236328, 0.5444995164871216, 0.6755935549736023, 0.675531804561615, 0.7763826847076416, 0.752659022808075, 0.7806958556175232, 0.7755069732666016, 0.8383291959762573, 0.6334162354469299, 0.7195562124252319, 0.9120602607727051, 0.819070041179657, 1.0270020961761475, 1.0373300313949585, 0.8995764851570129, 0.9053972363471985, 0.6769290566444397, 0.7598102688789368, 0.90732741355896, 0.9611777663230896, 1.0392194986343384, 1.147270917892456, 1.127301812171936, 0.9518173933029175, 0.6839863657951355, 0.7680160999298096, 0.926886796951294, 0.9026197195053101, 1.0433698892593384, 1.2857584953308105, 0.9455118179321289, 0.8866519331932068, 1.1357616186141968, 0.867027997970581, 0.8811811208724976, 0.9076211452484131, 1.0639642477035522, 1.039542317390442, 1.013661503791809, 1.1105221509933472, -0.15179866552352905, -0.026672035455703735, -0.08344671130180359, -0.15438653528690338, -0.0638822615146637, -0.08280511945486069, -0.03960849344730377, -0.10465429723262787, -0.005143186077475548, -0.00025044992798939347, -0.06214714050292969, -0.07459035515785217, -0.07081899046897888, -0.05912194028496742, -0.008066832087934017, -0.011134264059364796, -0.02593817375600338, -0.009915228001773357, -0.04234404116868973, -0.05575747787952423, -0.0004960605292581022, 0.007617189548909664, -0.02628002129495144, -0.04097367450594902, -0.017652379348874092, 0.00468233460560441, -0.024030404165387154, 0.024469876661896706, 0.0431801900267601, 0.0726843923330307, 0.09879717230796814, 0.07149659097194672, 0.027083497494459152, -0.011717337183654308, 0.07415048032999039, 0.07981865853071213, 0.1888594776391983, 0.20128917694091797, 0.20120571553707123, 0.15804971754550934, -0.08826944977045059, 0.0016211263136938214, 0.03643423318862915, 0.16656392812728882, 0.21782426536083221, 0.34372013807296753, 0.27066728472709656, 0.11355230212211609, -0.167904794216156, -0.23181205987930298, 0.0020230028312653303, 0.08871043473482132, 0.1587059646844864, 0.2597067654132843, -0.06885543465614319, -0.07122137397527695, -1.9779502153396606, 0.011867417022585869, 0.013363621197640896, 0.03239910677075386, 0.18983528017997742, 0.01163508277386427, -0.009655452333390713, -0.281560480594635, 0.02564237266778946, -0.021648939698934555, -0.004184119403362274, 0.0011716708540916443, -0.007304146885871887, 0.011083275079727173, 0.025646235793828964, 0.0031465403735637665, -0.3275846242904663, -0.47949904203414917, -0.3018277883529663, -0.7590044140815735, -0.6568579077720642, -0.4427599310874939, -0.2932758629322052, -0.19472093880176544, -0.1391921490430832, -0.18168367445468903, -0.18366476893424988, -0.304966002702713, -0.3310135006904602, -0.25450122356414795, -0.30491629242897034, -0.1655893325805664, -0.05325523391366005, -0.06167066469788551, -0.05803779512643814, -0.10917264223098755, -0.08199158310890198, -0.11104919761419296, -0.07400568574666977, -0.060346223413944244, -0.007842413149774075, -0.011792926117777824, -0.02123267762362957, -0.07051161676645279, -0.07917056977748871, -0.059332747012376785, -0.03989383578300476, 0.02145674265921116, 0.02464441955089569, -0.0011316646123304963, -0.004162600729614496, -0.059044092893600464, -0.0811958909034729, -0.05471763759851456, -0.008433639071881771, 0.05810067430138588, 0.05154765397310257, 0.026992037892341614, 0.028294485062360764, -0.05544609948992729, -0.03073073923587799, -0.013747797347605228, 0.03183731809258461, 0.11493748426437378, 0.02460675686597824, 0.003694012761116028, -0.030178731307387352, -0.03427785634994507, 0.020097441971302032, 0.023951992392539978, -0.03056381084024906, 0.018333222717046738, -0.13671548664569855, -0.022324061021208763, -0.0028643342666327953, -0.038761675357818604, -0.02575642801821232, -0.0720834732055664, -0.01772518828511238, 0.009287060238420963, 0.0002470263571012765, -0.006608921103179455, -0.02717999741435051, -0.07063490152359009, -0.07103980332612991, -0.017954152077436447, -0.07662216573953629, -0.029876360669732094, -0.08622989803552628, -0.0771748498082161, -0.05605161935091019, -0.07526102662086487, -0.11841880530118942, -0.1165824607014656, -0.06407129764556885, -0.10995315760374069, -0.054865673184394836, -0.05492762476205826, -0.060047999024391174, -0.07270333170890808, -0.09414369612932205, -0.06849473714828491, -0.10824629664421082, -0.09766001254320145, -0.013357609510421753, -0.012276257388293743, -0.08117140084505081, -0.03249286115169525, -0.06351622939109802, -0.09401688724756241, -0.038130007684230804, -0.007666632067412138, 0.0013615734642371535, -0.038259439170360565, 0.0023744613863527775, -0.06369255483150482, -0.05091467127203941, -0.04522574320435524, -0.06337366998195648, -0.006489727646112442, 0.025223858654499054, -0.0329987034201622, 0.0033787579741328955, -0.05602722987532616, -0.05979934334754944, -0.06223312392830849, -0.0066072638146579266, 0.008838178589940071, 0.09454776346683502, 0.0671062096953392, 0.06236777827143669, 0.005141200963407755, -0.013427468948066235, -0.00027038209373131394, -0.04670374467968941, 0.015537993051111698, -0.07861283421516418, -0.10014396905899048, -0.11908157169818878, -0.06560594588518143, -0.05454547330737114, -0.1089477464556694, -0.06049598380923271, -0.013323773629963398, -0.08134555071592331, -0.04722783714532852, -0.07960092276334763, -0.07648883759975433, -0.14019261300563812, -0.05371775105595589, 0.00441049225628376, -0.03707871958613396, -0.02704605646431446, -0.08874720335006714, -0.06842642277479172, -0.12833963334560394, -0.12733563780784607, -0.1298750340938568, -0.0687369629740715, -0.13352997601032257, -0.025797074660658836, -0.029219921678304672, -0.13903403282165527, -0.10507509857416153, -0.13669505715370178, -0.11891958862543106, -0.12239817529916763, -0.00713761942461133, -0.017815373837947845, -0.09264995902776718, -0.04615330696105957, -0.07312376797199249, -0.07615091651678085, -0.14674311876296997, -0.0790499746799469, -0.04499836266040802, -0.007700799033045769, 0.02175658941268921, -0.0275872815400362, -0.02685842290520668, -0.06335142254829407, -0.0063783712685108185, -0.07974986732006073, -0.014530353248119354, -0.07653014361858368, -0.007250245660543442, -0.002308501396328211, -0.03478872403502464, -0.009899722412228584, -0.06946868449449539, 0.014435071498155594, -0.06719227135181427, 0.08311524242162704, -0.04047666862607002, 0.03662983328104019, -0.0303786713629961, -0.03711956739425659, -0.009519178420305252, -0.02419988065958023, -0.056813955307006836, 0.1563383787870407, 0.15520793199539185, 0.1593700349330902, 0.08066002279520035, 0.06698524206876755, 0.12139901518821716, 0.1788872480392456, 0.15585115551948547, 0.07917863130569458, 0.10916280001401901, 0.07119165360927582, 0.03712449222803116, 0.014922372996807098, 0.07701348513364792, 0.13698169589042664, 0.14567497372627258, 0.07957247644662857, 0.12348470836877823, 0.05312791094183922, 0.09915116429328918, 0.06212325021624565, 0.06814773380756378, 0.14008060097694397, 0.10020909458398819, 0.11305002123117447, 0.12322960793972015, 0.130329430103302, 0.09997420758008957, 0.102378711104393, 0.10503582656383514, 0.1783633679151535, 0.13831548392772675, 0.12685391306877136, 0.1443663388490677, 0.16551177203655243, 0.1414141058921814, 0.12486182153224945, 0.1387917697429657, 0.21147355437278748, 0.14399324357509613, 0.19155575335025787, 0.1908745914697647, 0.20571427047252655, 0.13164764642715454, 0.14248131215572357, 0.15646706521511078, 0.2515036463737488, 0.1506393551826477, 0.20123469829559326, 0.21192607283592224, 0.2209562510251999, 0.17527402937412262, 0.14786867797374725, 0.22210855782032013, 0.29228565096855164, 0.2433483898639679, 0.1470438539981842, 0.1978241205215454, 0.16723354160785675, 0.16110000014305115, 0.13925327360630035, 0.13827398419380188, 0.2846660614013672, 0.3366747498512268, -0.5638218522071838, -0.5730587244033813, -0.5604528188705444, -0.5226723551750183, -0.516828179359436, -0.44543060660362244, -0.45928624272346497, -0.6145591735839844, -0.5100106000900269, -0.4950917065143585, -0.5661014318466187, -0.48475298285484314, -0.5612233281135559, -0.5958976745605469, -0.6217456459999084, -0.5290521383285522, -0.4711802005767822, -0.44887879490852356, -0.5248454213142395, -0.5412949323654175, -0.5706604719161987, -0.5833740234375, -0.5216188430786133, -0.5556596517562866, -0.4400269687175751, -0.47384437918663025, -0.49702730774879456, -0.5222293734550476, -0.6110122799873352, -0.5463836193084717, -0.5269585847854614, -0.47734564542770386, -0.3917427659034729, -0.443641722202301, -0.4577305018901825, -0.528228759765625, -0.483377605676651, -0.522413969039917, -0.4926532804965973, -0.5313597321510315, -0.4017096757888794, -0.3691835403442383, -0.46361950039863586, -0.461913526058197, -0.49259066581726074, -0.45394426584243774, -0.447354257106781, -0.42978885769844055, -0.4068666994571686, -0.4237898886203766, -0.4256851077079773, -0.42936962842941284, -0.44096237421035767, -0.39689674973487854, -0.39499586820602417, -0.41190963983535767, -0.4208720624446869, -0.35569775104522705, -0.3987194299697876, -0.4201396405696869, -0.43118131160736084, -0.37436261773109436, -0.19391277432441711, -0.317788302898407, -0.5460158586502075, 0.1262245923280716, 0.21202553808689117, 0.1117372214794159, 0.0786813497543335, 0.12396007776260376, 0.08434200286865234, 0.028890229761600494, 0.3402034342288971, 0.14817962050437927, 0.15828125178813934, 0.09986555576324463, 0.1280210167169571, 0.0763821080327034, 0.026663152500987053, 0.15843765437602997, 0.21577034890651703, 0.1558104306459427, 0.08106110244989395, 0.0523734875023365, -0.02313634753227234, -0.09613914787769318, -0.11007459461688995, 0.05758794769644737, 0.21548457443714142, 0.05811455845832825, 0.09568800032138824, -0.031069854274392128, -0.04468510299921036, -0.06063797324895859, -0.052453864365816116, 0.04193710908293724, 0.11412395536899567, 0.07411927729845047, 0.022946828976273537, -0.0031044918578118086, -0.06333689391613007, -0.06603123247623444, -0.05580931901931763, -0.03388743847608566, 0.18330983817577362, 0.04616476595401764, -0.018178075551986694, -0.05747499316930771, -0.0727684497833252, -0.0592866986989975, -0.07714416831731796, -0.04661117494106293, 0.5209360122680664, 0.11720408499240875, -0.0570860356092453, -0.11020024120807648, -0.1508992612361908, -0.13134238123893738, -0.07452967762947083, 0.011226862668991089, 0.1271255612373352, -0.03484521061182022, -0.061466146260499954, -0.17341941595077515, -0.15881995856761932, -0.16069422662258148, -0.09176222234964371, -0.025837630033493042], [-0.011302044615149498, 0.032854191958904266, -0.021299798041582108, 0.02556445077061653, -0.02294188365340233, -0.018850374966859818, 0.020212411880493164, 0.013793490827083588, 0.06353651732206345, 0.04276786372065544, 0.01795131154358387, -0.014756089076399803, 0.004962320905178785, 0.059748344123363495, -0.052894119173288345, 0.07313069701194763, 0.05047564581036568, 0.06459784507751465, 0.02900678664445877, 0.021446384489536285, 0.05126245319843292, 0.05772685632109642, -0.013299128971993923, 0.06818724423646927, 0.04573754221200943, 0.11545582115650177, 0.07720711827278137, 0.02831968665122986, 0.03426126763224602, 0.06232880428433418, 0.1016748771071434, 0.09684280306100845, 0.06595848500728607, 0.11163348704576492, 0.18945682048797607, 0.1518794447183609, 0.007442557718604803, 0.1274740993976593, 0.06449881196022034, 0.06464938074350357, 0.07369539886713028, 0.1993756741285324, 0.18953385949134827, 0.2198929786682129, 1.211388111114502, -1.9793659448623657, 0.4957485795021057, 0.0944862812757492, 0.25672274827957153, 0.26978322863578796, 0.3373374044895172, 0.29578110575675964, 0.6475489139556885, -1.9800000190734863, 0.25748199224472046, 0.3141506314277649, -0.01694398559629917, -0.00309063121676445, 0.030158817768096924, 0.0355406254529953, 0.00333341583609581, -0.03103877604007721, -0.0234745554625988, 0.024744100868701935, 0.016815869137644768, 0.045182373374700546, -0.01090485043823719, 0.010256398469209671, -0.04899603873491287, -0.035546403378248215, -0.02343190833926201, -0.03852890804409981, 0.07634271681308746, 0.005428311415016651, 0.004898890852928162, -0.046479031443595886, 