{"ft.weight": [[-0.005733035504817963, -0.03233525529503822, 0.01915532723069191, -0.02033139578998089, -0.027066107839345932, 0.02264564484357834, 0.022769201546907425, -0.024601038545370102, 0.022551391273736954, -0.020892003551125526, -0.024400535970926285, 0.025287635624408722, 0.25170814990997314, 0.37862783670425415, 0.37494131922721863, 0.170460507273674, -0.0023684317711740732, -0.017955347895622253, -0.02497141622006893, 0.09203803539276123, 0.3780152499675751, 0.42141199111938477, 0.4120619595050812, 0.16511724889278412, 0.03975347429513931, 0.09370391815900803, 0.047335073351860046, 0.1402786821126938, 0.365059494972229, 0.41217994689941406, 0.4564046561717987, 0.19686686992645264, 0.0867457315325737, 0.15183092653751373, 0.1535080075263977, 0.18361510336399078, 0.37495216727256775, 0.41060420870780945, 0.4124366343021393, 0.15263202786445618, 0.0595075860619545, 0.17706677317619324, 0.19130432605743408, 0.2641494572162628, 0.33774054050445557, 0.2351119965314865, 0.35168978571891785, 0.16578780114650726, 0.09468867629766464, 0.05966896191239357, 0.19205555319786072, -0.015133234672248363, 0.33669692277908325, 0.22646738588809967, 0.8717624545097351, 0.26497381925582886, -0.014831114560365677, 0.03397529572248459, 0.03056523948907852, -0.002588599920272827, 0.015100248157978058, 0.016378309577703476, 0.02660137414932251, -0.011773340404033661, -0.08560892194509506, -0.018109144642949104, -0.12267953157424927, -0.08562997728586197, -0.06514711678028107, -0.07405590265989304, -0.18957075476646423, -0.12457206845283508, 0.08899429440498352, -0.08173993229866028, -0.05194197967648506, -0.14600172638893127, -0.14253970980644226, -0.10131482779979706, -0.07925084233283997, 0.02757495455443859, 0.02611004188656807, -0.06348341703414917, -0.10362745076417923, -0.073873370885849, -0.0803268700838089, -0.09850730001926422, -0.09091006219387054, -0.0702459067106247, 0.014934074133634567, -0.021728545427322388, -0.05980021879076958, -0.061762746423482895, -0.05137214809656143, -0.08975818008184433, -0.051433224231004715, -0.05088460445404053, -0.01905701868236065, -0.03514976054430008, -0.059748053550720215, -0.04215984418988228, -0.06889143586158752, -0.06158708781003952, -0.0751933678984642, -0.07958149164915085, -0.02958923950791359, -0.03602030500769615, -0.056626368314027786, -0.03791838511824608, -0.05043339356780052, -0.05209223926067352, -0.020878152921795845, -0.0323580801486969, 0.03803873062133789, -0.04143628105521202, -0.029506264254450798, -0.05685146898031235, -0.0029479688964784145, -0.049961742013692856, -0.022294897586107254, -0.002342174295336008, 0.04863448813557625, -0.036818694323301315, -0.044625911861658096, -0.050652194768190384, -0.0190217737108469, -0.01291356235742569, 0.043975818902254105, 0.30766183137893677, -0.07274486869573593, -0.16240432858467102, -0.10034455358982086, -0.08571621775627136, -0.09147915244102478, -0.05794135853648186, -0.18148328363895416, -0.10247721523046494, -0.11228463053703308, -0.0841529369354248, -0.12555329501628876, -0.07315292954444885, -0.07660702615976334, -0.11583520472049713, -0.10614260286092758, -0.11823365092277527, -0.04006453976035118, -0.09335075318813324, -0.07366576045751572, -0.10228575766086578, -0.0651925802230835, -0.05329221114516258, -0.10922867804765701, -0.045811962336301804, -0.06693410128355026, -0.053023435175418854, -0.07719509303569794, -0.059439580887556076, -0.09494686126708984, -0.11208312958478928, -0.09128677099943161, -0.07423046976327896, -0.04236288741230965, -0.06744935363531113, -0.08513548225164413, -0.06324075162410736, -0.08664613217115402, -0.0975043773651123, -0.09498205035924911, -0.03337450325489044, -0.06390610337257385, -0.09982019662857056, -0.04254884272813797, -0.08066212385892868, -0.07587791234254837, -0.09224401414394379, -0.15912336111068726, -0.047571320086717606, -0.09241300076246262, -0.03453020006418228, -0.08830861747264862, -0.07019825279712677, -0.03967979922890663, -0.10642588883638382, -0.1084001436829567, -0.09947087615728378, 0.03691495582461357, -0.08123242855072021, -0.07093986123800278, -0.051531512290239334, -0.0839802548289299, -0.05532699078321457, -0.09315625578165054, -0.06065238639712334, -0.14943689107894897, -0.15752677619457245, -0.1787157505750656, -0.1506309062242508, -0.16122405230998993, -0.14019402861595154, -0.1611529290676117, -0.1858784407377243, -0.14253954589366913, -0.15902431309223175, -0.14400070905685425, -0.1647210568189621, -0.14399749040603638, -0.14447560906410217, -0.1551685482263565, -0.1685473769903183, -0.1577870398759842, -0.16095204651355743, -0.167178213596344, -0.17097628116607666, -0.15096968412399292, -0.13976652920246124, -0.1513947993516922, -0.18630729615688324, -0.16527539491653442, -0.175456702709198, -0.1582573801279068, -0.16447459161281586, -0.15390649437904358, -0.12910106778144836, -0.1452437788248062, -0.1719243973493576, -0.15776918828487396, -0.1477334052324295, -0.13624607026576996, -0.14557896554470062, -0.1454150378704071, -0.1327931433916092, -0.13375158607959747, -0.16293984651565552, -0.14077886939048767, -0.1323365420103073, -0.09086290746927261, -0.13141928613185883, -0.12241831421852112, -0.14018483459949493, -0.1332373321056366, -0.15795548260211945, -0.1499403864145279, -0.12441819906234741, -0.11834023892879486, -0.13356098532676697, -0.14446885883808136, -0.15997913479804993, -0.1537514477968216, -0.16333481669425964, -0.15899613499641418, -0.14688493311405182, -0.14559289813041687, -0.15032793581485748, -0.1496872901916504, -0.14941337704658508, -0.15858712792396545, -0.1644933521747589, -0.25650888681411743, -0.32481706142425537, -0.2907378077507019, -0.3016630709171295, -0.2776044011116028, -0.23845361173152924, -0.31513047218322754, -0.13540278375148773, -0.24205690622329712, -0.28595709800720215, -0.26494529843330383, -0.28328993916511536, -0.2784278690814972, -0.2752525210380554, -0.22115470468997955, -0.14799457788467407, -0.288450688123703, -0.24816478788852692, -0.27268287539482117, -0.30045458674430847, -0.30195295810699463, -0.3155609965324402, -0.2805446684360504, -0.2522503435611725, -0.2745189666748047, -0.2770755887031555, -0.2747999131679535, -0.3158513307571411, -0.297965407371521, -0.29317039251327515, -0.29015621542930603, -0.22739526629447937, -0.2609837055206299, -0.21494677662849426, -0.2088308036327362, -0.26610928773880005, -0.2833240032196045, -0.34308597445487976, -0.31737416982650757, -0.1809283196926117, -0.2606285810470581, -0.2125113159418106, -0.20372578501701355, -0.26625561714172363, -0.3089549243450165, -0.36819347739219666, -0.3396351635456085, -0.2771509289741516, -0.20000816881656647, -0.185555562376976, -0.1286017894744873, -0.17268872261047363, -0.24732303619384766, -0.34041503071784973, -0.31004083156585693, -0.27625852823257446, -0.020281659439206123, -0.0017357519827783108, -0.05914165452122688, -0.0808163657784462, -0.1109565794467926, -0.1054680347442627, -0.0334397591650486, -0.0583794005215168, -0.03829028084874153, -0.024563530460000038, -0.06297953426837921, -0.05262717232108116, -0.04857667163014412, -0.03827984631061554, -0.07049180567264557, -0.08806414157152176, -0.03611563518643379, -0.040868647396564484, -0.07290282100439072, -0.05982661247253418, -0.040632784366607666, -0.04983923211693764, -0.062335461378097534, -0.07348891347646713, -0.014210199005901814, -0.04887932911515236, -0.07588601857423782, -0.09010843187570572, -0.055886611342430115, -0.04675178602337837, -0.0597589910030365, -0.06598343700170517, 0.01876503974199295, -0.02119280770421028, -0.05886147916316986, -0.07590942084789276, -0.07203246653079987, -0.049249134957790375, -0.04152122512459755, -0.03499404340982437, 0.048419833183288574, -0.0006671518203802407, -0.043755173683166504, -0.05668901279568672, -0.06377851217985153, -0.04975380003452301, -0.03917138651013374, -0.029430242255330086, 0.01434834860265255, 0.0923270434141159, -0.03281239792704582, -0.03182849660515785, -0.0462346076965332, -0.037843603640794754, -0.028201192617416382, -0.0338047556579113, 0.024319184944033623, 0.09010068327188492, 0.0415884293615818, 0.03688010573387146, -0.04213143512606621, -0.02398219145834446, -0.0396527498960495, -0.0027992890682071447, 0.0836474820971489, 0.08875995874404907, 0.03687417507171631, 0.203312948346138, -0.04447490721940994, -0.014927812851965427, -0.0726923793554306, -0.013530438765883446, 0.004833746701478958, 0.003011699765920639, -0.031118780374526978, 0.00835440307855606, 0.0008910112082958221, 0.02148057147860527, -0.005447333678603172, 0.01440417394042015, 0.21503998339176178, 0.1968543380498886, 0.27524223923683167, 0.16362364590168, 0.41728806495666504, 0.31298503279685974, 0.38318386673927307, 0.269510418176651, 0.1831474006175995, 0.26291003823280334, 0.2745288908481598, 0.34372949600219727, 0.40112149715423584, 0.2713804543018341, 0.3338579833507538, 0.22164815664291382, 0.1874629557132721, 0.22505244612693787, 0.24391613900661469, 0.28560346364974976, 0.46832606196403503, 0.48633772134780884, 0.43875396251678467, 0.21128855645656586, 0.1543933004140854, 0.17970891296863556, 0.12635217607021332, 0.22830934822559357, 0.4536778926849365, 0.5257179737091064, 0.47966110706329346, 0.24964269995689392, 0.10842833667993546, 0.0641750618815422, 0.061586905270814896, 0.1431298851966858, 0.46905913949012756, 0.5239265561103821, 0.47422492504119873, 0.24684615433216095, 0.12283750623464584, 0.05082393065094948, 0.07218585163354874, 0.08875423669815063, 0.38112717866897583, 0.504033088684082, 0.4219989776611328, 0.23619097471237183, -0.012583531439304352, 0.021557729691267014, -0.029302118346095085, -0.02124611660838127, -0.031092403456568718, -0.025829020887613297, 0.008237671107053757, 0.03019619733095169, 0.35038870573043823, 0.31152406334877014, 0.2903173565864563, 0.27818813920021057, 0.26651060581207275, 0.26470574736595154, 0.2754111886024475, 0.3481293022632599, 0.39265507459640503, 0.3245321214199066, 0.30571603775024414, 0.2609156370162964, 0.2781575322151184, 0.2637103796005249, 0.2721046805381775, 0.28796643018722534, 0.3504977822303772, 0.2916082441806793, 0.2876300513744354, 0.2760714888572693, 0.270175576210022, 0.2517268657684326, 0.28261885046958923, 0.25889497995376587, 0.35907045006752014, 0.3148120045661926, 0.28979626297950745, 0.2738616168498993, 0.2588310241699219, 0.2606143653392792, 0.2412513792514801, 0.23834063112735748, 0.4251687228679657, 0.33141323924064636, 0.29490047693252563, 0.26949918270111084, 0.2621951103210449, 0.23646624386310577, 0.25302526354789734, 0.25981223583221436, 0.4546586275100708, 0.32409602403640747, 0.24623650312423706, 0.26709023118019104, 0.24961723387241364, 0.2459949105978012, 0.24102577567100525, 0.28284668922424316, 0.5714443922042847, 0.2621067464351654, 0.3257312476634979, 0.21893393993377686, 0.20971888303756714, 0.2644003927707672, 0.2633848488330841, 0.4071010649204254, 0.23366451263427734, 0.48562729358673096, 0.2604529559612274, 0.2772124707698822, 0.3362426161766052, 0.3528846502304077, 0.22471490502357483, 0.34277868270874023, 0.41950809955596924, 0.281130313873291, 0.28708988428115845, 0.32659676671028137, 0.27982571721076965, 0.31770774722099304, 0.21959012746810913, 0.3088225722312927, 0.3057994842529297, 0.3429867625236511, 0.3041338324546814, 0.2893045246601105, 0.35070064663887024, 0.23982839286327362, 0.2391558587551117, 0.23575998842716217, 0.2974115312099457, 0.27763721346855164, 0.3402598798274994, 0.29954323172569275, 0.2609074115753174, 0.2923227846622467, 0.20520144701004028, 0.33158019185066223, 0.34124013781547546, 0.29130545258522034, 0.2939777672290802, 0.2665892541408539, 0.2807174623012543, 0.24759645760059357, 0.29755616188049316, 0.3157411813735962, 0.29689860343933105, 0.3195923864841461, 0.26776427030563354, 0.2873312830924988, 0.25871512293815613, 0.26310864090919495, 0.253383994102478, 0.2693682014942169, 0.3449527323246002, 0.24170295894145966, 0.27932098507881165, 0.24356381595134735, 0.29731273651123047, 0.2961474061012268, 0.24783243238925934, 0.2970655560493469, 0.22448216378688812, 0.25633761286735535, 0.24582310020923615, 0.29935047030448914, 0.2982575297355652, 0.27895376086235046, 0.279647558927536, 0.2719345688819885, 0.30818498134613037, 0.22949694097042084, 0.30403193831443787, 0.3011742830276489, 0.2887473702430725, 0.36102721095085144, 0.20784693956375122, 0.33425018191337585, 0.3751474916934967, 0.3776157796382904, 0.387449711561203, 0.38429737091064453, 0.39300891757011414, 0.4158695638179779, 0.3896017074584961, 0.4018932580947876, 0.3715597987174988, 0.39310604333877563, 0.38544827699661255, 0.38098499178886414, 0.3747161328792572, 0.39119020104408264, 0.38442346453666687, 0.3876422643661499, 0.38978254795074463, 0.392905592918396, 0.40752869844436646, 0.3915291428565979, 0.3889937698841095, 0.4032486379146576, 0.39019808173179626, 0.39331719279289246, 0.3902497887611389, 0.37911462783813477, 0.38252243399620056, 0.380391925573349, 0.3891400694847107, 0.3898341655731201, 0.36919501423835754, 0.38265395164489746, 0.3944135308265686, 0.36793848872184753, 0.36589309573173523, 0.38303080201148987, 0.3845939338207245, 0.38560235500335693, 0.3657507300376892, 0.37041011452674866, 0.40224215388298035, 0.381681352853775, 0.3692122995853424, 0.384939581155777, 0.39212650060653687, 0.382730633020401, 0.39717844128608704, 0.3969653844833374, 0.410553902387619, 0.3960843086242676, 0.38127273321151733, 0.38416191935539246, 0.39584261178970337, 0.4057188630104065, 0.4123609960079193, 0.3940335214138031, 0.4126409888267517, 0.39335107803344727, 0.36155885457992554, 0.38081586360931396, 0.37451115250587463, 0.39739012718200684, 0.38042187690734863, 0.36729469895362854, 0.7130609750747681, 0.7332510352134705, 0.7203706502914429, 0.6440452337265015, 0.6260096430778503, 0.6470826268196106, 0.6446641087532043, 0.6931619644165039, 0.6166719794273376, 0.6086945533752441, 0.6238390803337097, 0.5891032814979553, 0.5596722960472107, 0.4946518540382385, 0.5020408034324646, 0.5388826131820679, 0.5877413749694824, 0.6250926852226257, 0.6043378114700317, 0.5514588356018066, 0.5176771879196167, 0.4753933548927307, 0.4586961269378662, 0.5512613654136658, 0.616798460483551, 0.6076145172119141, 0.5919319987297058, 0.5565905570983887, 0.5463685989379883, 0.484744131565094, 0.49755099415779114, 0.58417809009552, 0.5770362615585327, 0.5679547786712646, 0.5750542283058167, 0.5204471349716187, 0.5515632629394531, 0.5520547032356262, 0.49742990732192993, 0.5472801923751831, 0.5541349649429321, 0.5882227420806885, 0.565151035785675, 0.5474840402603149, 0.5641498565673828, 0.5301065444946289, 0.5311334729194641, 0.4990834891796112, 0.5847169160842896, 0.5573164820671082, 0.5795477032661438, 0.5747760534286499, 0.5553908348083496, 0.5595533847808838, 0.576714038848877, 0.5593724250793457, 0.5512484312057495, 0.5447736382484436, 0.6058791875839233, 0.5300232768058777, 0.6246365308761597, 0.6167809367179871, 0.4786013960838318, 0.5755928754806519, -0.014125305227935314, -0.03214140608906746, -0.08834244310855865, -0.012051820755004883, -0.03971049189567566, -0.08887838572263718, -0.018341273069381714, -0.028667660430073738, 0.005156475119292736, 0.07830039411783218, 0.004346555098891258, -0.016548514366149902, -0.03583749011158943, 0.006482461001724005, 0.013432791456580162, 0.023324646055698395, -0.006285456940531731, 0.09886306524276733, -0.01737564243376255, -0.032561130821704865, -0.008313567377626896, -0.0227791927754879, 0.023336827754974365, 0.023535270243883133, 0.0114785460755229, 0.005827463231980801, -0.03511809930205345, -0.03737078234553337, -0.020525304600596428, -0.005717739928513765, 0.00966110173612833, 0.020389165729284286, -0.010170534253120422, -0.03613673150539398, -0.038795337080955505, -0.043831054121255875, -0.02437381073832512, -0.0011158213019371033, 0.015875445678830147, 0.006699495017528534, -0.07054518163204193, -0.06526663154363632, -0.06501637399196625, -0.06380543857812881, -0.020352555438876152, 0.003991760779172182, -0.010723014362156391, -0.04166296869516373, -0.09835147857666016, -0.061624255031347275, -0.07200200110673904, -0.03887968882918358, -0.015158330090343952, -0.0070509035140275955, -0.02840505540370941, -0.060152817517519, -0.09270626306533813, -0.08059446513652802, -0.0849059596657753, -0.03214077651500702, -0.02142592892050743, -0.011031925678253174, -0.07870782911777496, -0.09293864667415619], [-0.0346500389277935, 0.0030616112053394318, 0.020219530910253525, -0.023364033550024033, 0.01738594099879265, -0.012225102633237839, 0.03400252014398575, -0.01195821724832058, -0.38860243558883667, -0.2149110585451126, -0.39955267310142517, -0.2337437868118286, -0.19191820919513702, -0.1725529134273529, -0.2325030118227005, -0.20004376769065857, -0.2670269012451172, -0.33824673295021057, -0.2754352390766144, -0.2736223638057709, -0.17722509801387787, -0.23678027093410492, -0.1866893768310547, -0.22170591354370117, -0.3696083128452301, -0.29499614238739014, -0.3774370551109314, -0.3111041784286499, -0.29309412837028503, -0.26345500349998474, -0.2806984782218933, -0.18747876584529877, -0.21891024708747864, -0.37504541873931885, -0.22249813377857208, -0.4210958480834961, -0.2361455112695694, -0.4032685160636902, -0.22769521176815033, -0.22630251944065094, -0.34123125672340393, -0.22848999500274658, -0.44838544726371765, -0.21032558381557465, -0.44333890080451965, -0.2623134255409241, -0.3233529329299927, -0.12280891090631485, -0.19410553574562073, -0.22995318472385406, -0.20867390930652618, -0.6365113854408264, -0.09560152888298035, -0.6580467820167542, -0.1317150741815567, -1.9800000190734863, -0.002896960824728012, 0.006218027323484421, 0.0046581849455833435, -0.011310707777738571, -0.010855074971914291, 0.008700031787157059, 0.03441423922777176, -0.00913706049323082, -0.7993361949920654, -0.24224112927913666, -0.198667973279953, -0.1984763890504837, -0.24432723224163055, -0.2333991825580597, -0.2800908088684082, -0.2211683988571167, -0.22307497262954712, -0.22209349274635315, -0.20527637004852295, -0.24202312529087067, -0.2107473611831665, -0.19151628017425537, -0.22545121610164642, -0.25870490074157715, -0.2204062044620514, -0.2189815193414688, -0.2443574070930481, -0.22126270830631256, -0.24210818111896515, -0.2742340564727783, -0.26221343874931335, -0.20304124057292938, -0.16019797325134277, -0.21096806228160858, -0.20641867816448212, -0.26198768615722656, -0.23188583552837372, -0.21738757193088531, -0.2561267018318176, -0.21195432543754578, -0.19548825919628143, -0.18021802604198456, -0.26873666048049927, -0.2595663368701935, -0.28695446252822876, -0.2234172374010086, -0.32955408096313477, -0.19269339740276337, -0.2813315987586975, -0.18140475451946259, -0.23827479779720306, -0.25393468141555786, -0.2667333781719208, -0.3352154493331909, -0.25659677386283875, -0.28535395860671997, -0.3410099446773529, -0.207570418715477, -0.20765931904315948, -0.2344149351119995, -0.2570914328098297, -0.2568036615848541, -0.3035012483596802, -0.19104202091693878, -0.057903531938791275, -0.24161076545715332, -0.19883786141872406, -0.21031029522418976, -0.2641485035419464, -0.2846126854419708, -0.24832764267921448, -0.36606845259666443, -0.19716373085975647, -0.773618757724762, -0.019556958228349686, -0.8138322234153748, -0.0218455009162426, -0.6484102010726929, -0.07880202680826187, -0.9662187695503235, -0.6935716271400452, -0.046815548092126846, -0.7783566117286682, -0.0433485209941864, -0.6689186692237854, -0.04693378508090973, -0.6968609690666199, -0.01790514402091503, -0.03877691179513931, -0.6976261138916016, -0.026452524587512016, -0.7147367596626282, 0.007845466956496239, -0.6603766083717346, -0.040956608951091766, -0.8182662725448608, -0.7620601058006287, -0.02943284809589386, -0.6916278004646301, 0.02642945386469364, -0.6790565252304077, 0.03171797841787338, -0.7367240786552429, -0.07577508687973022, -0.040704891085624695, -0.7742806673049927, 0.03016245923936367, -0.7137479782104492, 0.03897847235202789, -0.7926190495491028, 0.01973021775484085, -0.8255628347396851, -0.7279136776924133, -0.010351442731916904, -0.8024078607559204, -0.021521279588341713, -0.7507137060165405, -0.003128666430711746, -0.76600581407547, -0.02072380669414997, -0.1807183027267456, -0.8046445846557617, -0.06522785127162933, -0.8051611185073853, -0.008768456988036633, -0.8237682580947876, -0.07809329032897949, -0.7685142159461975, -0.8076197504997253, -0.010367237962782383, -0.865298867225647, -0.036146849393844604, -0.8471777439117432, 0.013224584981799126, -0.6912901997566223, -0.4211428463459015, -1.2820082902908325, -1.3099768161773682, -1.3866571187973022, -1.3289625644683838, -1.2391047477722168, -1.174378752708435, -1.1857285499572754, -1.25092613697052, -1.3170377016067505, -1.2632982730865479, -1.2171603441238403, -1.3566126823425293, -1.1673213243484497, -1.2479420900344849, -1.1915843486785889, -1.153735876083374, -1.307612657546997, -1.3318027257919312, -1.3893345594406128, -1.3558082580566406, -1.8560963869094849, -1.250264048576355, -1.4054458141326904, -1.3558272123336792, -1.3144794702529907, -1.3216981887817383, -1.291304111480713, -1.4141165018081665, -1.2208971977233887, -1.2804391384124756, -1.2721565961837769, -1.359640121459961, -1.2814713716506958, -1.294899821281433, -1.289595365524292, -1.3692586421966553, -1.3453211784362793, -1.3638768196105957, -1.3241475820541382, -1.331568956375122, -1.2992048263549805, -1.3618086576461792, -1.3552615642547607, -1.4193392992019653, -1.3488582372665405, -1.4177602529525757, -1.3084572553634644, -1.341427206993103, -1.3164012432098389, -1.3590635061264038, -1.4221981763839722, -1.4001001119613647, -1.4248782396316528, -1.417799949645996, -1.3513648509979248, -1.3673502206802368, -1.331133484840393, -1.3306217193603516, -1.3163901567459106, -1.3054958581924438, -1.2788430452346802, -1.298707127571106, -1.3120027780532837, -1.3193237781524658, -0.9580445289611816, -0.7908865213394165, -0.9537941813468933, -0.8006259799003601, -0.8618422746658325, -0.8072333931922913, -0.9697425365447998, -0.9802698493003845, -0.9783086180686951, -0.9294660091400146, -0.8800261616706848, -0.7836526036262512, -0.8808320760726929, -0.8183531165122986, -0.9774555563926697, -0.892204999923706, -0.9952118396759033, -0.9433194398880005, -0.9270361065864563, -0.9055768847465515, -0.919238269329071, -0.8729891777038574, -0.9092117547988892, -1.019804835319519, -1.007667064666748, -0.9394933581352234, -0.9107518196105957, -0.9998043775558472, -0.9478213787078857, -0.9571695327758789, -0.9831624031066895, -0.9972004294395447, -1.0136208534240723, -0.9772602319717407, -0.9693885445594788, -0.9574708938598633, -1.0001784563064575, -1.0166531801223755, -1.0002447366714478, -0.9475741386413574, -0.9731044173240662, -0.9678407311439514, -0.9457550048828125, -0.9891209006309509, -0.9679673910140991, -1.030688762664795, -0.9881640672683716, -0.9027909636497498, -0.9917848110198975, -0.9655712246894836, -0.9848059415817261, -1.0226771831512451, -1.1181689500808716, -0.951507568359375, -0.8775310516357422, -0.8239103555679321, -1.026665210723877, -0.9378064274787903, -0.9377744197845459, -0.9975156784057617, -1.0287787914276123, -0.990216076374054, -0.9837629199028015, -0.9274042248725891, 0.2691471576690674, 0.22659634053707123, 0.20047666132450104, 0.12697374820709229, 0.13359206914901733, 0.1671711951494217, 0.19653883576393127, 0.2364555448293686, 0.16029731929302216, 0.14348450303077698, 0.1106536015868187, 0.11078694462776184, 0.09857574850320816, 0.13168177008628845, 0.1775198131799698, 0.14653311669826508, 0.16565373539924622, 0.08019064366817474, 0.056947942823171616, 0.044546421617269516, 0.07358401268720627, 0.09021532535552979, 0.11469925194978714, 0.12679611146450043, 0.1747884899377823, 0.08981500566005707, 0.0434020571410656, 0.05379926413297653, 0.05210603401064873, 0.0735209658741951, 0.07822924852371216, 0.13760587573051453, 0.1815362274646759, 0.07343550771474838, 0.10442064702510834, 0.0469634048640728, 0.06121710687875748, 0.015180324204266071, 0.08098171651363373, 0.09505288302898407, 0.16944904625415802, 0.13261863589286804, 0.04331285506486893, 0.08116274327039719, 0.0031775343231856823, 0.08834250271320343, 0.17671430110931396, 0.12177242338657379, 0.1598270982503891, 0.1913706660270691, 0.055385977029800415, 0.11841826885938644, 0.09238354861736298, 0.14111997187137604, 0.18490155041217804, 0.22476597130298615, 0.3000876307487488, 0.18577271699905396, 0.1744845062494278, 0.18047279119491577, 0.14243708550930023, 0.1903069168329239, 0.08817142248153687, 0.14927184581756592, 0.023623183369636536, -0.016828587278723717, -0.0067320093512535095, 0.023085564374923706, -0.020339496433734894, 0.02877085655927658, -0.018453901633620262, -0.027632959187030792, 0.6807290315628052, 0.2410450130701065, -0.4377933740615845, -0.2652588188648224, -0.12549462914466858, -0.15245084464550018, 0.30420559644699097, 0.2381664365530014, 0.12303391098976135, 0.15283910930156708, -0.025133036077022552, 0.00186815089546144, -0.09870128333568573, -0.022702809423208237, 0.1504589170217514, 0.26446911692619324, 0.1542677879333496, 0.01804668828845024, -0.033109404146671295, -0.19836078584194183, -0.048127856105566025, -0.2303820252418518, 0.0824504867196083, 0.12207868695259094, 0.04324334114789963, 0.06297016888856888, -0.11746462434530258, -0.11697609722614288, -0.11495459079742432, -0.02108355052769184, 0.0434364378452301, 0.1552363783121109, 0.18660858273506165, 0.01603085920214653, 0.006772194057703018, -0.09878397732973099, -0.021538715809583664, -0.05276220664381981, 0.11763306707143784, 0.11173278838396072, 0.1477634161710739, 0.11811533570289612, 0.020702363923192024, 0.05930355563759804, -0.0017446004785597324, 0.03783939406275749, 0.08758430927991867, 0.2016201615333557, 0.027520745992660522, -0.024623695760965347, -0.0016684941947460175, 0.00903475284576416, 0.018745146691799164, -0.034257709980010986, 0.0020224638283252716, -0.004381902515888214, 0.2144862413406372, 0.12537531554698944, 0.135776087641716, 0.1476125419139862, 0.19275660812854767, 0.18707962334156036, 0.24366500973701477, 0.08460065722465515, -0.058870211243629456, 0.2077811360359192, 0.20077486336231232, 0.20004871487617493, 0.1748308539390564, 0.2580829858779907, 0.12946940958499908, 0.2348618358373642, 0.16228820383548737, 0.14338673651218414, 0.19654160737991333, 0.18103112280368805, 0.1845468133687973, 0.17594964802265167, 0.17289109528064728, 0.16161952912807465, 0.20105452835559845, 0.22986872494220734, 0.15724758803844452, 0.17654229700565338, 0.15328387916088104, 0.13657963275909424, 0.19423788785934448, 0.1932416409254074, 0.1990032196044922, 0.15633295476436615, 0.25039538741111755, 0.14539892971515656, 0.1449897587299347, 0.12269081920385361, 0.1222330629825592, 0.27255141735076904, 0.23019173741340637, 0.20663337409496307, 0.24971847236156464, 0.2109336405992508, 0.22386865317821503, 0.2608031928539276, 0.25025486946105957, 0.32622191309928894, 0.28819739818573, 0.26143231987953186, 0.2985192537307739, 0.36307862401008606, 0.29033103585243225, 0.2838686406612396, 0.3496699333190918, 0.375895619392395, -0.0724194198846817, 0.4362744092941284, 0.25052741169929504, 0.32356852293014526, 0.3045814037322998, 0.3170451521873474, 0.41396525502204895, 0.2846696972846985, -0.10441883653402328, 0.23267005383968353, -0.02592809498310089, 0.26238226890563965, -0.024552829563617706, 0.30017709732055664, -0.04816587641835213, 0.09468813985586166, 0.17233213782310486, -0.06263858824968338, 0.18725959956645966, 0.019346274435520172, 0.24227574467658997, -0.05997695401310921, 0.22442574799060822, -0.08267608284950256, 0.04544944688677788, 0.22346551716327667, -0.02284380979835987, 0.18685084581375122, 0.00031696699443273246, 0.13521380722522736, -0.03177712857723236, 0.23601911962032318, 0.252712219953537, -0.05556774139404297, 0.17459766566753387, -0.016592692583799362, 0.1766025573015213, -0.026522953063249588, 0.22968633472919464, -0.022175585851073265, 0.011093873530626297, 0.21377862989902496, -0.019214490428566933, 0.15379050374031067, -0.02396293729543686, 0.1726677268743515, 0.0003415959654375911, 0.1995682418346405, 0.2900792360305786, -0.047775279730558395, 0.1857306957244873, -0.00928704533725977, 0.1963910162448883, -0.06588933616876602, 0.1391221433877945, -0.049392662942409515, -0.03201154246926308, 0.25695401430130005, 0.0018443003064021468, 0.2838929295539856, -0.05224556848406792, 0.15606088936328888, -0.13249005377292633, 0.2265152633190155, 0.2767910957336426, -0.03655498847365379, 0.3595961332321167, -0.03477320447564125, 0.2222573608160019, -0.05054667964577675, 0.2040441930294037, -0.21049140393733978, 0.29624420404434204, 0.18762116134166718, 0.20735400915145874, 0.21822544932365417, 0.2468470185995102, 0.22412078082561493, 0.22484734654426575, 0.2027718871831894, 0.21395151317119598, 0.19360414147377014, 0.23500125110149384, 0.22611898183822632, 0.23851977288722992, 0.2425481528043747, 0.15038791298866272, 0.1288309246301651, 0.2073693573474884, 0.19804832339286804, 0.17488262057304382, 0.15173324942588806, 0.12330004572868347, 0.2329002320766449, 0.1824987381696701, 0.22827649116516113, 0.21494004130363464, 0.20808947086334229, 0.1894918978214264, 0.18264472484588623, 0.1614018678665161, 0.20776008069515228, 0.10638086497783661, 0.2227398008108139, 0.22433993220329285, 0.25858843326568604, 0.2368067353963852, 0.2565012574195862, 0.16163012385368347, 0.21162737905979156, 0.09201034903526306, 0.20230820775032043, 0.23884348571300507, 0.2179526537656784, 0.20770838856697083, 0.23852640390396118, 0.22217795252799988, 0.11579836159944534, 0.11674381792545319, 0.15440189838409424, 0.19589751958847046, 0.20996877551078796, 0.1279405653476715, 0.17670369148254395, 0.06729168444871902, 0.12037186324596405, -0.05776190385222435, 0.0941341444849968, 0.17208005487918854, 0.23546630144119263, 0.21626031398773193, 0.18066370487213135, 0.11704764515161514, 0.09837700426578522, 0.052707746624946594, 0.0541972890496254, 0.4686736762523651, 0.5081571936607361, 0.4723034203052521, 0.44199058413505554, 0.48992201685905457, 0.5158947706222534, 0.4561495780944824, 0.5183785557746887, 0.4391202926635742, 0.5818150043487549, 0.577926516532898, 0.6333166360855103, 0.5103127360343933, 0.5443385243415833, 0.4971514046192169, 0.5332919359207153, 0.43434298038482666, 0.5663313269615173, 0.6719947457313538, 0.6108695864677429, 0.5702366828918457, 0.5705163478851318, 0.4932592809200287, 0.4916241466999054, 0.4660095274448395, 0.7326075434684753, 0.6394620537757874, 0.6698095202445984, 0.6065236926078796, 0.5815573930740356, 0.5224656462669373, 0.5645421147346497, 0.6006906032562256, 0.6311269998550415, 0.7664241790771484, 0.6125081181526184, 0.6679023504257202, 0.6203926801681519, 0.5618948936462402, 0.4723280668258667, 0.4910114109516144, 0.6274224519729614, 0.6384034752845764, 0.7094321846961975, 0.7105526924133301, 0.6487665176391602, 0.7289867997169495, 0.36459022760391235, 0.45343315601348877, 0.52861487865448, 0.6466174125671387, 0.7685648202896118, 0.685773491859436, 0.8085324168205261, 0.6535414457321167, 0.5201065540313721, 0.4370153546333313, 0.4792652428150177, 0.5539106130599976, 0.7377205491065979, 0.7432281970977783, 0.6975682377815247, 0.7169644832611084, 0.44141533970832825, 0.1355687379837036, 0.28473541140556335, 0.22276964783668518, 0.3091261684894562, 0.2854836881160736, 0.24941526353359222, 0.3529091775417328, 0.48803579807281494, 0.22746261954307556, 0.30687662959098816, 0.26277363300323486, 0.29243946075439453, 0.24914103746414185, 0.302810400724411, 0.2897891402244568, 0.2983717918395996, 0.25095847249031067, 0.26097533106803894, 0.2616875469684601, 0.22490933537483215, 0.19697070121765137, 0.23246876895427704, 0.23420174419879913, 0.20837442576885223, 0.21967172622680664, 0.23168961703777313, 0.1987604796886444, 0.19410672783851624, 0.1536218672990799, 0.11211889237165451, 0.13282902538776398, 0.10238044708967209, 0.13687856495380402, 0.14135116338729858, 0.1430656909942627, 0.14654503762722015, 0.08652681112289429, 0.09685557335615158, 0.040634799748659134, 0.1164734810590744, -0.008928344585001469, 0.04150844365358353, 0.10841850936412811, 0.09825681149959564, 0.09239298105239868, 0.06821887195110321, 0.07659509778022766, 0.03541013225913048, -0.30603259801864624, 0.0008807561825960875, 0.04390212148427963, 0.10547465831041336, 0.05685078352689743, 0.0977700799703598, 0.0432455912232399, 0.023426780477166176, -0.07416645437479019, -0.15072034299373627, 0.04404154419898987, 0.05785525590181351, 0.08156386017799377, 0.04884808510541916, 0.048279307782649994, 0.01697276532649994], [0.009076781570911407, -0.010558422654867172, -0.016847865656018257, 0.011303447186946869, -0.024666525423526764, 0.03193158656358719, -0.0020532719790935516, 0.01795891299843788, 0.03913251683115959, 0.026059076189994812, 0.021085258573293686, 0.03978416323661804, -0.012456819415092468, -0.011352838017046452, 0.05386803671717644, 0.15899284183979034, 0.019292814657092094, 0.024843288585543633, 0.033447153866291046, 0.012614310719072819, 0.06496655195951462, 0.010359447449445724, 0.1122160404920578, 0.058309439569711685, 0.02242884784936905, 0.038706839084625244, 0.025681033730506897, 0.07983820140361786, -0.0032965608406811953, 0.10493124276399612, 0.02716933935880661, 0.11787600070238113, 0.014365366660058498, 0.05005556717514992, 0.08602835237979889, 0.011473385617136955, -0.017996896058321, -0.0237802155315876, 0.18532401323318481, -0.07915975153446198, 0.032775625586509705, -0.03660515323281288, 0.03663170337677002, -0.02827693335711956, -0.09231863915920258, 0.06147873029112816, -0.1946057379245758, 0.2070143073797226, -0.07286949455738068, -0.07328415662050247, -1.9783717393875122, -0.08088826388120651, -1.9770480394363403, 0.02924928069114685, -1.9799984693527222, -1.5893278121948242, -0.01329849660396576, -0.011145832017064095, -0.015431838110089302, -0.0069162193685770035, 0.01577800139784813, 0.018250703811645508, 0.03194598853588104, 0.0160234235227108, -0.21720610558986664, -0.32008352875709534, -0.2683658301830292, -0.35054147243499756, -0.28906673192977905, -0.3797680139541626, -0.3143876791000366, -0.21517793834209442, -0.2944589853286743, -0.2995899021625519, -0.32607874274253845, -0.3746066689491272, -0.33261826634407043, -0.3811996877193451, -0.2813173830509186, -0.3538561165332794, -0.31307581067085266, -0.3912595808506012, -0.3392014801502228, -0.33497610688209534, -0.3750312626361847, -0.43370044231414795, -0.3068644106388092, -0.39231690764427185, -0.340963751077652, -0.37761297821998596, -0.3520028591156006, -0.3843970000743866, -0.4294561445713043, -0.26330316066741943, -0.4347768723964691, -0.37427887320518494, -0.3722549080848694, -0.33035698533058167, -0.39593732357025146, -0.38491106033325195, -0.45323610305786133, -0.48859474062919617, -0.5877320766448975, -0.33600595593452454, -0.4322275221347809, -0.3327188193798065, -0.44815436005592346, -0.4611939787864685, -0.4984739124774933, -0.4367661774158478, -0.34208229184150696, -0.21360112726688385, -0.3175382614135742, -0.403780996799469, -0.3280079960823059, -0.40168482065200806, -0.30069616436958313, -0.43820786476135254, -1.940222978591919, -1.976520299911499, -0.02536715380847454, -0.24526049196720123, -0.4677164852619171, -0.4261535108089447, -0.572371244430542, -0.3683299124240875, -0.589444100856781, -0.26577961444854736, -0.46505284309387207, -0.07952740043401718, -0.48470398783683777, -0.19147391617298126, -0.4326392710208893, -0.23633217811584473, -0.40669509768486023, -0.377808541059494, -0.20508982241153717, -0.44333767890930176, -0.13252732157707214, -0.48880448937416077, -0.2685202956199646, -0.44311243295669556, -0.311635285615921, -0.4107743203639984, -0.4424836039543152, -0.2323218137025833, -0.4436904489994049, -0.2018812745809555, -0.5127637982368469, -0.25804901123046875, -0.3716632127761841, -0.2651558518409729, -0.2090570479631424, -0.45857974886894226, -0.24830013513565063, -0.47082018852233887, -0.24589332938194275, -0.5317623615264893, -0.2638084590435028, -0.45623576641082764, -0.43323764204978943, -0.2406034767627716, -0.4681374430656433, -0.3281992971897125, -0.5503424406051636, -0.25534889101982117, -0.5934635400772095, -0.1809537708759308, -0.2696259021759033, -0.5175443887710571, -0.34193673729896545, -0.4918445646762848, -0.2957584261894226, -0.5433281064033508, -0.13140545785427094, -0.5609205365180969, -0.5176061987876892, -0.3391614556312561, -0.536329984664917, -0.2612232267856598, -0.6228386163711548, -0.16534866392612457, -0.6226978302001953, -0.23684999346733093, -0.35368794202804565, -0.6374345421791077, -0.3941074311733246, -0.6733399629592896, -0.24624142050743103, -0.6451430916786194, -0.14951646327972412, -0.5134803056716919, -0.4563165009021759, -0.468906968832016, -0.4543963372707367, -0.46193134784698486, -0.4885287284851074, -0.48854246735572815, -0.3957519829273224, -0.5374211072921753, -0.4037882387638092, -0.3870445191860199, -0.43546825647354126, -0.3986663222312927, -0.4510105848312378, -0.4855749011039734, -0.36851316690444946, -0.426580548286438, -0.39618346095085144, -0.40356922149658203, -0.4365479648113251, -0.40422406792640686, -0.41163745522499084, -0.41320285201072693, -0.3257562816143036, -0.46278655529022217, -0.45771369338035583, -0.4652325510978699, -0.46324825286865234, -0.4193633794784546, -0.4411488473415375, -0.5250155329704285, -0.38974401354789734, -0.505448579788208, -0.5141497850418091, -0.4769914746284485, -0.4905432462692261, -0.48641133308410645, -0.5533192157745361, -0.6089354157447815, -0.5257051587104797, -0.5404938459396362, -0.49841904640197754, -0.4704183340072632, -0.5435009002685547, -0.4640921950340271, -0.47985702753067017, -0.4689370095729828, -0.5501744747161865, -0.5787184834480286, -0.4964454174041748, -0.5101908445358276, -0.5040196776390076, -0.4951784908771515, -0.5042678117752075, -0.5637806057929993, -0.5653618574142456, -0.5840832591056824, -0.49401262402534485, -0.4747046232223511, -0.5831468105316162, -0.4836675226688385, -0.5816821455955505, -0.5400230288505554, -0.6495506763458252, -0.650206446647644, -1.0824116468429565, -1.1079596281051636, -1.1553751230239868, -1.1964097023010254, -1.1619768142700195, -1.0922846794128418, -1.1840704679489136, -1.0692625045776367, -1.1013028621673584, -1.0469458103179932, -1.1446685791015625, -1.192632794380188, -1.1549214124679565, -1.1807315349578857, -1.1457031965255737, -1.100714087486267, -1.0764676332473755, -1.1409330368041992, -1.088168978691101, -1.1332263946533203, -1.1672629117965698, -1.1332333087921143, -1.0418742895126343, -1.0626139640808105, -1.0925915241241455, -1.0885308980941772, -1.062859058380127, -1.1319407224655151, -1.112412452697754, -1.2254396677017212, -1.0688332319259644, -1.214470624923706, -1.1562906503677368, -1.0801678895950317, -1.114457607269287, -1.1310439109802246, -1.1911944150924683, -1.2252473831176758, -1.3503389358520508, -1.1696982383728027, -1.0623573064804077, -1.1282684803009033, -1.073420763015747, -1.1240496635437012, -1.1458855867385864, -1.2782927751541138, -1.2769801616668701, -1.3327735662460327, -1.1332594156265259, -1.071129322052002, -1.1089168787002563, -1.1381196975708008, -1.2500276565551758, -1.2398732900619507, -1.2534688711166382, -1.0717710256576538, -1.1283090114593506, -1.1482492685317993, -1.2112383842468262, -1.273302435874939, -1.2400853633880615, -1.2018338441848755, -1.3239903450012207, -1.2895116806030273, 0.03087984398007393, 0.04294179007411003, 0.08348088711500168, 0.17762434482574463, 0.1206357404589653, 0.14692644774913788, 0.04869727045297623, 0.01418638601899147, -0.004745418671518564, -0.022619808092713356, 0.022212469950318336, 0.05103573575615883, 0.07935633510351181, 0.10534314811229706, 0.0631953552365303, 0.07145167887210846, -0.036981936544179916, -0.05768569931387901, -0.004069808404892683, 0.002630010712891817, 0.05696345493197441, 0.055065687745809555, 0.14292998611927032, 0.11094104498624802, -0.01317090354859829, -0.029061753302812576, 0.002785136690363288, 0.028956091031432152, 0.024236051365733147, 0.03604113683104515, 0.13802672922611237, 0.07790229469537735, -0.08347757905721664, -0.014011557213962078, -0.01714272052049637, -0.025476662442088127, -0.02501637674868107, 0.011850530281662941, 0.06411586701869965, -0.021278586238622665, -0.04156023636460304, -0.08323521912097931, 0.024568628519773483, 0.04235357791185379, 0.012873299419879913, 0.08234676718711853, -0.005848236847668886, 0.0013749187346547842, -0.09120378643274307, -0.13104453682899475, -0.05788685008883476, 0.011018619872629642, 0.014549091458320618, 0.1350889950990677, 0.04011387377977371, 0.0018981246976181865, -0.21378709375858307, -0.1985797882080078, -0.11982250958681107, -0.101359061896801, -1.8806782960891724, 0.07295558601617813, 0.07948601245880127, -0.012480227276682854, 0.009097367525100708, 0.013211861252784729, 0.013070009648799896, 0.027126803994178772, 0.02134115621447563, 0.017927885055541992, 0.015690982341766357, 0.014815125614404678, 0.165403813123703, 0.5094800591468811, 0.15062864124774933, 0.6241373419761658, -1.9790531396865845, 0.11057420819997787, 1.2793312072753906, 0.5053438544273376, 0.10516674071550369, 0.09397563338279724, 0.10239870846271515, 0.11315255612134933, 0.2608998119831085, 0.04709722474217415, 0.33550333976745605, 0.42312684655189514, 0.01126224547624588, 0.05979307368397713, 0.02336667850613594, 0.11585908383131027, 0.07109856605529785, 0.14393770694732666, 0.14575600624084473, 0.40003502368927, -0.003871793393045664, 0.033208854496479034, 0.04363105818629265, 0.08790110051631927, 0.03079341910779476, 0.059841979295015335, 0.14805234968662262, 0.25437217950820923, -0.013225155882537365, 0.025714164599776268, 0.0018285111291334033, 0.0992618203163147, -0.04084131121635437, 0.12965546548366547, 0.27096131443977356, -0.16097059845924377, -0.025882933288812637, -0.01261280756443739, 0.010649868287146091, 0.08223393559455872, 0.07094740867614746, 0.1505918949842453, -0.09741271287202835, -0.048030681908130646, 0.0173591710627079, 0.027182847261428833, -0.03351224213838577, -0.02521962672472, -0.03102375939488411, -0.03489553928375244, 0.0010122954845428467, 0.015025440603494644, 0.08917409181594849, 0.18531063199043274, 0.20702113211154938, 0.3539843261241913, 0.35055652260780334, 0.3689449429512024, 0.3881358802318573, 0.24646461009979248, 0.3001895844936371, 0.33058610558509827, 0.3865322470664978, 0.3682054281234741, 0.43038055300712585, 0.38346588611602783, 0.3805276155471802, 0.32069432735443115, 0.3252779245376587, 0.4289657175540924, 0.3767865300178528, 0.41039103269577026, 0.37414613366127014, 0.37296122312545776, 0.4236462414264679, 0.3559814691543579, 0.36582237482070923, 0.349617063999176, 0.402165025472641, 0.41561785340309143, 0.39105236530303955, 0.38799723982810974, 0.41101720929145813, 0.3633418083190918, 0.27941831946372986, 0.4155873656272888, 0.40338605642318726, 0.3216659128665924, 0.38164660334587097, 0.4312606155872345, 0.3653961420059204, 0.39206045866012573, 0.30446523427963257, 0.31842657923698425, 0.29329177737236023, 0.428270548582077, 0.37401747703552246, 0.386244535446167, 0.4193885326385498, 0.3589024245738983, 0.320710688829422, 0.3793650269508362, 0.3362061679363251, 0.32165926694869995, 0.28004881739616394, 0.4642549753189087, 0.4154692590236664, 0.31071463227272034, 0.2900545299053192, 0.30458343029022217, 0.2949640452861786, 0.33741191029548645, 0.3651729226112366, 0.287254273891449, 0.3815954029560089, 0.26957187056541443, 0.29352715611457825, 0.1591266244649887, 0.31362923979759216, 0.23618146777153015, 0.3588535785675049, 0.25982239842414856, 0.3387879431247711, 0.17632699012756348, 0.27362456917762756, 0.3769424557685852, 0.23446115851402283, 0.35628992319107056, 0.2742495536804199, 0.3646872937679291, 0.2798716723918915, 0.4030265510082245, 0.36931630969047546, 0.25950953364372253, 0.3804912567138672, 0.26333335041999817, 0.3942055106163025, 0.28199562430381775, 0.4234609007835388, 0.24368952214717865, 0.26085835695266724, 0.35841313004493713, 0.25181370973587036, 0.4544922709465027, 0.20382286608219147, 0.43454813957214355, 0.25144436955451965, 0.41734424233436584, 0.3406047523021698, 0.28748050332069397, 0.40604472160339355, 0.23421847820281982, 0.3987259566783905, 0.2411070317029953, 0.4990941286087036, 0.2742026150226593, 0.25534912943840027, 0.40890318155288696, 0.28074413537979126, 0.4256090223789215, 0.2605515420436859, 0.5246713161468506, 0.3992270529270172, 0.4720882773399353, 0.4072137773036957, 0.2570209503173828, 0.4209568202495575, 0.2861838638782501, 0.41844865679740906, 0.3147105276584625, 0.38040459156036377, 0.14482642710208893, 0.22362889349460602, 0.4391769766807556, 0.2725887596607208, 0.4492018222808838, 0.2671588957309723, 0.4704214632511139, 0.0176239013671875, 0.33758533000946045, 0.3340897262096405, 0.3589553236961365, 0.29724568128585815, 0.38890156149864197, 0.34461912512779236, 0.2649382948875427, 0.3469613790512085, 0.23733457922935486, 0.34506678581237793, 0.34547731280326843, 0.3498978316783905, 0.36065173149108887, 0.3294052183628082, 0.2714995741844177, 0.29418203234672546, 0.29716891050338745, 0.3246769309043884, 0.32110750675201416, 0.32543402910232544, 0.3558100759983063, 0.34781569242477417, 0.28829145431518555, 0.23784784972667694, 0.28366073966026306, 0.3267579972743988, 0.34919118881225586, 0.3733575940132141, 0.4379243552684784, 0.402776300907135, 0.37034961581230164, 0.2579355835914612, 0.44631171226501465, 0.35858163237571716, 0.3849323093891144, 0.40954461693763733, 0.4495304524898529, 0.36444130539894104, 0.3854010999202728, 0.2759794592857361, 0.4433360993862152, 0.32168155908584595, 0.3622094988822937, 0.33607134222984314, 0.41974031925201416, 0.3319164514541626, 0.32413965463638306, 0.3637653887271881, 0.28361374139785767, 0.3296399414539337, 0.3785373568534851, 0.3845030963420868, 0.41705137491226196, 0.37101948261260986, 0.4138883650302887, 0.2530215084552765, 0.42821210622787476, 0.3265688121318817, 0.341967910528183, 0.323093980550766, 0.34040045738220215, 0.32050955295562744, 0.3154190182685852, 0.17435668408870697, 0.28449946641921997, 0.7103930115699768, 0.7013084888458252, 0.6733658313751221, 0.7550308704376221, 0.795104444026947, 0.7880858778953552, 0.7981874942779541, 0.7965577244758606, 0.6917354464530945, 0.7307712435722351, 0.7356529831886292, 0.7493730783462524, 0.7635030150413513, 0.7429904341697693, 0.8762862682342529, 0.9801193475723267, 0.7352859973907471, 0.7070627212524414, 0.7834470272064209, 0.7570071816444397, 0.8099299669265747, 0.8337244391441345, 0.7953397631645203, 0.7521156668663025, 0.6962876915931702, 0.7631597518920898, 0.7658371925354004, 0.8343058228492737, 0.806313693523407, 0.8431012630462646, 0.7538976073265076, 0.9103390574455261, 0.7489060163497925, 0.7385183572769165, 0.8285890817642212, 0.822139322757721, 0.8162149786949158, 0.8390816450119019, 0.8441107869148254, 0.857105016708374, 0.6891610622406006, 0.7441734075546265, 0.7459046840667725, 0.7852097749710083, 0.7718368172645569, 0.8144829273223877, 0.9281703233718872, 0.8918176293373108, 0.7020877003669739, 0.7294392585754395, 0.7202873229980469, 0.7187577486038208, 0.741280198097229, 0.7281772494316101, 0.6877335906028748, 0.9979336261749268, 0.6700241565704346, 0.6801570653915405, 0.6775290369987488, 0.7255851030349731, 0.6283630132675171, 0.68096923828125, 0.6262620687484741, 0.8957529067993164, -0.14924205839633942, 0.046806275844573975, -0.3758634030818939, -0.24903008341789246, -0.15420283377170563, -0.49644169211387634, -0.34729042649269104, -0.8964273929595947, -0.0079070795327425, 0.01584678702056408, 0.009451931342482567, -0.0381956547498703, -0.07712811231613159, -0.3422836363315582, -0.34602925181388855, -0.7080032229423523, 0.1206086054444313, 0.10163513571023941, 0.13167506456375122, 0.03714553266763687, -0.011248995549976826, -0.12034640461206436, -0.059477921575307846, -0.37445762753486633, 0.12282870709896088, 0.12272512167692184, 0.15135034918785095, 0.07039780914783478, 0.027261139824986458, 0.03742410987615585, 0.05093275010585785, 0.14037325978279114, 0.18573437631130219, 0.18738381564617157, 0.18596868216991425, 0.13021007180213928, 0.06867995858192444, 0.07818958163261414, 0.18531924486160278, 0.12345168739557266, 0.14283324778079987, 0.2250107079744339, 0.16217726469039917, 0.1381635218858719, 0.09660840779542923, 0.13912980258464813, 0.1424148678779602, 0.1424756944179535, 0.21644867956638336, 0.0833117738366127, 0.19515541195869446, 0.08082357794046402, 0.11012636125087738, 0.05306186154484749, 0.11231422424316406, -0.016864439472556114, 0.10318730026483536, 0.11613672226667404, 0.04255049303174019, 0.04996895417571068, -0.08568520843982697, 0.07197970151901245, -0.06476086378097534, -0.2089604139328003], [0.03558267652988434, 0.018755536526441574, -0.03337906673550606, -0.03157623112201691, 0.03408326208591461, -0.007674604654312134, -0.007789658382534981, 0.03348512947559357, -0.8361030220985413, -0.7757641673088074, -0.8113786578178406, -0.7392831444740295, 0.03478815406560898, 0.12485719472169876, 0.11939746141433716, 0.07591057568788528, -0.7310097813606262, -0.827829122543335, -0.7806934118270874, -0.7803769111633301, 0.054863106459379196, 0.12537483870983124, 0.13953225314617157, 0.10861808061599731, -0.8639103174209595, -0.7913278341293335, -0.8971070051193237, -0.7754780650138855, 0.04025387018918991, 0.10438943654298782, 0.12315970659255981, 0.1137310341000557, -0.9073108434677124, -0.9193914532661438, -0.8941100239753723, -0.9258748888969421, 0.029672058299183846, 0.06554938852787018, 0.10464106500148773, 0.12714946269989014, -0.9411284923553467, -0.9233757257461548, -0.47088634967803955, -0.7364956140518188, -0.017040157690644264, 0.026387562975287437, 0.12697488069534302, 0.18847373127937317, -0.31639182567596436, -0.3147733807563782, -0.3119027316570282, -1.0428612232208252, -0.0739060565829277, -0.016295522451400757, 0.142221137881279, 0.1372169554233551, -0.027920257300138474, 0.033846937119960785, -0.00907418318092823, 0.01225154846906662, -0.019621267914772034, -0.02799818478524685, 0.015112016350030899, 0.026391062885522842, 0.2493278682231903, 0.2929728031158447, 0.27691617608070374, 0.3061363697052002, 0.2830992043018341, 0.30877283215522766, 0.27621185779571533, 0.32860812544822693, 0.31848570704460144, 0.3195711374282837, 0.2979586124420166, 0.2998390197753906, 0.30862608551979065, 0.31088119745254517, 0.30490559339523315, 0.26681259274482727, 0.29383012652397156, 0.30801430344581604, 0.3168753981590271, 0.30098095536231995, 0.31402847170829773, 0.3162798583507538, 0.3058691918849945, 0.31265318393707275, 0.2670489549636841, 0.291981041431427, 0.2856777012348175, 0.3006344139575958, 0.3030518889427185, 0.3246709406375885, 0.29086899757385254, 0.2646335959434509, 0.25158271193504333, 0.29546070098876953, 0.2669922411441803, 0.28720760345458984, 0.29029008746147156, 0.2832123935222626, 0.291069895029068, 0.26076140999794006, 0.23165559768676758, 0.2842477560043335, 0.2725113034248352, 0.28310734033584595, 0.2785924971103668, 0.26509150862693787, 0.25754016637802124, 0.2385198473930359, 0.20862135291099548, 0.21894443035125732, 0.2749929428100586, 0.2618970274925232, 0.26558661460876465, 0.25388553738594055, 0.23043613135814667, 0.20198316872119904, 0.1937967985868454, 0.20378611981868744, 0.23700611293315887, 0.24504168331623077, 0.25761303305625916, 0.22433118522167206, 0.28519123792648315, 0.3013288676738739, 0.3070378601551056, 0.3803727626800537, 0.29207512736320496, 0.37841930985450745, 0.3147217035293579, 0.34434837102890015, 0.3141244947910309, 0.36489102244377136, 0.3900696933269501, 0.3356916904449463, 0.3679717779159546, 0.32773327827453613, 0.38261353969573975, 0.33042147755622864, 0.3723955452442169, 0.2849494218826294, 0.2925981283187866, 0.38249480724334717, 0.33448028564453125, 0.40310776233673096, 0.3622317612171173, 0.3835713565349579, 0.3185276985168457, 0.34266427159309387, 0.36609917879104614, 0.2986646294593811, 0.37717583775520325, 0.32802915573120117, 0.3622545301914215, 0.3262825906276703, 0.36898282170295715, 0.273666113615036, 0.31259527802467346, 0.3772881329059601, 0.3179437816143036, 0.3582976758480072, 0.3115764856338501, 0.3513936996459961, 0.2989242374897003, 0.34155577421188354, 0.3610244393348694, 0.315101683139801, 0.36390596628189087, 0.3386833965778351, 0.3576209247112274, 0.2923441231250763, 0.34572869539260864, 0.2674546241760254, 0.306636244058609, 0.3617771863937378, 0.30450060963630676, 0.35735416412353516, 0.29643601179122925, 0.3370361626148224, 0.25805413722991943, 0.33704429864883423, 0.36505091190338135, 0.29548224806785583, 0.34521979093551636, 0.2962305545806885, 0.3565526604652405, 0.24855251610279083, 0.3378942906856537, 0.2459075003862381, 0.5885694622993469, 0.5872991681098938, 0.561447262763977, 0.5678917765617371, 0.5809861421585083, 0.5429213643074036, 0.592936098575592, 0.5772904753684998, 0.5618412494659424, 0.5618859529495239, 0.5625981092453003, 0.5590856075286865, 0.5440619587898254, 0.5530558228492737, 0.5475631952285767, 0.550682544708252, 0.5589885711669922, 0.5547063946723938, 0.5597274303436279, 0.5541586875915527, 0.5617005825042725, 0.567374587059021, 0.5830962657928467, 0.5709011554718018, 0.5546292066574097, 0.555566668510437, 0.5565029382705688, 0.5836544632911682, 0.5754505395889282, 0.5920437574386597, 0.5723621845245361, 0.5754847526550293, 0.5417017340660095, 0.538503110408783, 0.5350643992424011, 0.5459681749343872, 0.5485901832580566, 0.550240159034729, 0.551863431930542, 0.5428303480148315, 0.5329189300537109, 0.5271916389465332, 0.5343768000602722, 0.545674204826355, 0.5234126448631287, 0.5307594537734985, 0.5288435220718384, 0.535061240196228, 0.5305166244506836, 0.5342718362808228, 0.5304969549179077, 0.5283658504486084, 0.5289255976676941, 0.4927712380886078, 0.517645537853241, 0.5128585696220398, 0.5623590350151062, 0.5551590919494629, 0.5519655346870422, 0.522272527217865, 0.5550440549850464, 0.5508453249931335, 0.552227258682251, 0.5513598918914795, 0.7855551838874817, 0.82547527551651, 0.8033277988433838, 0.7794040441513062, 0.7261841893196106, 0.7949902415275574, 0.8493573069572449, 0.8046574592590332, 0.7988153696060181, 0.8109533190727234, 0.8085481524467468, 0.7604324221611023, 0.7975042462348938, 0.7924005389213562, 0.8060905933380127, 0.752437174320221, 0.713643491268158, 0.8059489130973816, 0.8266083598136902, 0.8048632740974426, 0.8464765548706055, 0.8743090629577637, 0.8123588562011719, 0.7798907160758972, 0.736842930316925, 0.8328871130943298, 0.8172931671142578, 0.8613137006759644, 0.8501222729682922, 0.8293566107749939, 0.8320181965827942, 0.7647365927696228, 0.7418059706687927, 0.8101071119308472, 0.8804741501808167, 0.8724609613418579, 0.834138810634613, 0.780052661895752, 0.7706298232078552, 0.7530016303062439, 0.7529582381248474, 0.8112349510192871, 0.8773146867752075, 0.9185819029808044, 0.8347568511962891, 0.7815772294998169, 0.7588824033737183, 0.7290941476821899, 0.7294734120368958, 0.7772907614707947, 0.8222041130065918, 0.8441104292869568, 0.7990531921386719, 0.7898405194282532, 0.7434828281402588, 0.71964430809021, 0.43140873312950134, 0.565850019454956, 0.701545000076294, 0.7333444952964783, 0.7446750998497009, 0.6707813143730164, 0.6781606078147888, 0.39477112889289856, -0.010080273263156414, 0.14356547594070435, 0.09954442083835602, 0.10050418972969055, 0.08626808226108551, 0.058102138340473175, 0.034111179411411285, 0.03549608215689659, 0.12823884189128876, 0.10142411291599274, 0.11626172065734863, 0.11138678342103958, 0.10328918695449829, 0.06540299206972122, 0.06671050190925598, 0.05152653902769089, 0.1374998837709427, 0.11519140005111694, 0.11686623841524124, 0.11454328149557114, 0.09977708756923676, 0.07159358263015747, 0.05592704936861992, 0.04877341538667679, 0.15946370363235474, 0.13359583914279938, 0.1213349848985672, 0.12144775688648224, 0.10361740738153458, 0.083064965903759, 0.06871787458658218, 0.04125477746129036, 0.16033156216144562, 0.1298457533121109, 0.1185978353023529, 0.09287046641111374, 0.09007931500673294, 0.08566015213727951, 0.05961165577173233, 0.05448611080646515, 0.12860971689224243, 0.09243044257164001, 0.04532184451818466, 0.04410615935921669, 0.03762590140104294, 0.07293108850717545, 0.050213493406772614, 0.033727411180734634, 0.0887250229716301, 0.09127368777990341, 0.0332619734108448, 0.003731194417923689, -0.025540221482515335, 0.019289396703243256, 0.005537101067602634, -0.031404759734869, 0.05489497259259224, 0.0408756285905838, 0.025360798463225365, 0.05760357901453972, -0.06526562571525574, -0.08434093743562698, 0.0006378700491040945, -0.024286435917019844, 0.008005507290363312, 0.018801134079694748, -0.03270214796066284, 0.013402637094259262, -0.005842309445142746, -0.00018419697880744934, -0.0343015119433403, 0.009642187505960464, -0.5389621257781982, -0.4726199209690094, -0.7795618772506714, -0.4785514771938324, -0.5023341178894043, -0.48387405276298523, -0.6198252439498901, -0.5539969801902771, -0.5106980800628662, -0.4722038507461548, -0.3853560984134674, -0.351786732673645, -0.21780405938625336, -0.28603848814964294, -0.19634051620960236, -0.16588379442691803, -0.5310261249542236, -0.4024413228034973, -0.4108136296272278, -0.32390114665031433, -0.2445942759513855, -0.19296744465827942, -0.2200106382369995, -0.16482359170913696, -0.44244498014450073, -0.44964170455932617, -0.40997183322906494, -0.3414778709411621, -0.2140696793794632, -0.15050959587097168, -0.18491989374160767, -0.17081435024738312, -0.4354061186313629, -0.40657541155815125, -0.41531217098236084, -0.2797093391418457, -0.19600896537303925, -0.11385244131088257, -0.1572430431842804, -0.16660262644290924, -0.417845755815506, -0.4695175290107727, -0.4342530369758606, -0.23187431693077087, -0.1681884527206421, -0.10482648015022278, -0.14970345795154572, -0.19955280423164368, -0.016312357038259506, 0.012781117111444473, -0.010503359138965607, -0.018988503143191338, 0.03595583140850067, 0.035614147782325745, 0.008944634348154068, 0.01639745384454727, -0.4503316879272461, -0.43655678629875183, -0.4325583577156067, -0.4190889000892639, -0.40972909331321716, -0.4278096556663513, -0.4304198622703552, -0.4081633687019348, -0.48368600010871887, -0.4324549436569214, -0.413516640663147, -0.39439788460731506, -0.4087165594100952, -0.4299735128879547, -0.43895524740219116, -0.459579735994339, -0.45486176013946533, -0.38748037815093994, -0.3973518908023834, -0.40059199929237366, -0.40279343724250793, -0.3872767686843872, -0.41539835929870605, -0.4084487557411194, -0.4018247127532959, -0.4088597297668457, -0.4039829671382904, -0.4220823645591736, -0.3981005847454071, -0.4094870388507843, -0.41412872076034546, -0.40984123945236206, -0.44406136870384216, -0.42596131563186646, -0.4197719991207123, -0.4128786325454712, -0.40939927101135254, -0.4200206398963928, -0.4031869173049927, -0.42069268226623535, -0.4019358456134796, -0.41147565841674805, -0.40228310227394104, -0.40744736790657043, -0.4101690351963043, -0.40569937229156494, -0.4106743335723877, -0.39240992069244385, -0.3367973566055298, -0.3844376802444458, -0.399438738822937, -0.3687862455844879, -0.4044516086578369, -0.39377379417419434, -0.4128919541835785, -0.38529959321022034, -0.4127773344516754, -0.3366926312446594, -0.4259050786495209, -0.34375032782554626, -0.405685156583786, -0.36157941818237305, -0.3750675916671753, -0.222828209400177, -0.3612387776374817, -0.4732254147529602, -0.40134406089782715, -0.492183119058609, -0.40121766924858093, -0.48832201957702637, -0.4490434229373932, -0.49695298075675964, -0.4712112843990326, -0.3728371262550354, -0.4560192823410034, -0.3775118291378021, -0.4796431064605713, -0.4287388026714325, -0.471248984336853, -0.44301846623420715, -0.3441741466522217, -0.4759884774684906, -0.3631818890571594, -0.4202407896518707, -0.3902941346168518, -0.4723174571990967, -0.3764001131057739, -0.4718135595321655, -0.44172966480255127, -0.35527580976486206, -0.43852144479751587, -0.36035671830177307, -0.44138088822364807, -0.3743961453437805, -0.4590725898742676, -0.3956965208053589, -0.3670463263988495, -0.43510740995407104, -0.34929972887039185, -0.43842294812202454, -0.37237995862960815, -0.4568570554256439, -0.3645991086959839, -0.4859306216239929, -0.46237391233444214, -0.3610808253288269, -0.43627479672431946, -0.3477224111557007, -0.46032044291496277, -0.36420199275016785, -0.42120227217674255, -0.38092663884162903, -0.34399309754371643, -0.4617771804332733, -0.3572409451007843, -0.43504172563552856, -0.3589877188205719, -0.4358622431755066, -0.35565730929374695, -0.42617642879486084, -0.4209187626838684, -0.36708417534828186, -0.41419774293899536, -0.358134388923645, -0.44620266556739807, -0.3528384566307068, -0.4514584243297577, -0.3980295658111572, -0.6041795611381531, -0.6194911599159241, -0.6269596815109253, -0.6368113160133362, -0.6341525316238403, -0.6282563209533691, -0.622483491897583, -0.6254564523696899, -0.6268488764762878, -0.636237621307373, -0.6364565491676331, -0.6479111909866333, -0.6442359685897827, -0.6664774417877197, -0.6623731255531311, -0.6841298341751099, -0.6408705711364746, -0.6306888461112976, -0.6485683917999268, -0.6463384032249451, -0.666233479976654, -0.6614058613777161, -0.6738178133964539, -0.6773902773857117, -0.6429830193519592, -0.6322675347328186, -0.6462224125862122, -0.6482386589050293, -0.6649155020713806, -0.6710066199302673, -0.6696677803993225, -0.6639053225517273, -0.64751136302948, -0.6448791027069092, -0.6580067873001099, -0.6471611857414246, -0.6661449074745178, -0.6767032146453857, -0.6780237555503845, -0.6694839596748352, -0.6429470181465149, -0.6435583233833313, -0.6406885385513306, -0.6530625820159912, -0.6660211086273193, -0.6666245460510254, -0.6347439885139465, -0.6676916480064392, -0.6315373182296753, -0.6325126886367798, -0.6461731791496277, -0.638680100440979, -0.6452450752258301, -0.6426149010658264, -0.6177583932876587, -0.641147255897522, -0.64847332239151, -0.6383965015411377, -0.6441059708595276, -0.6465120315551758, -0.6407015323638916, -0.640968382358551, -0.6218850016593933, -0.6744987368583679, -1.0288225412368774, -1.0182597637176514, -1.0613164901733398, -1.0778062343597412, -1.0845263004302979, -1.1180095672607422, -1.0507657527923584, -1.0302679538726807, -1.026110291481018, -1.0460467338562012, -1.030961275100708, -1.0663000345230103, -1.1032949686050415, -1.12762451171875, -1.0741485357284546, -1.0316412448883057, -1.0613148212432861, -1.0705293416976929, -1.0514148473739624, -1.0683873891830444, -1.1167436838150024, -1.106784462928772, -1.0938678979873657, -1.068586826324463, -1.0422440767288208, -1.0407241582870483, -1.0516371726989746, -1.0394355058670044, -1.062187910079956, -1.0674868822097778, -1.0537737607955933, -1.1106206178665161, -1.0166435241699219, -1.0244920253753662, -1.020079255104065, -1.018465280532837, -1.047330617904663, -1.0400892496109009, -1.070115327835083, -1.0697355270385742, -1.0356091260910034, -1.0237443447113037, -0.9780314564704895, -1.0249830484390259, -1.017937183380127, -1.0493748188018799, -1.0612815618515015, -1.0524945259094238, -1.004963994026184, -0.9874930381774902, -0.9732800126075745, -0.9815483093261719, -1.0283936262130737, -1.0470707416534424, -1.0779606103897095, -1.0529900789260864, -0.988286018371582, -0.9770798683166504, -0.9667919874191284, -0.9946099519729614, -1.0346436500549316, -1.0453338623046875, -1.1397709846496582, -1.068966269493103, 0.15555843710899353, 0.13738055527210236, 0.11049961298704147, 0.08349496126174927, 0.10373419523239136, 0.06328455358743668, 0.07526252418756485, 0.12952780723571777, 0.21022646129131317, 0.12150204181671143, 0.09329298883676529, 0.06669265776872635, 0.0893632248044014, 0.08258552104234695, 0.07391053438186646, -0.015518666245043278, 0.1273285448551178, 0.09357687830924988, 0.09019425511360168, 0.08930239081382751, 0.09339843690395355, 0.08988843858242035, 0.07433470338582993, 0.07008914649486542, 0.06270221620798111, 0.08202188462018967, 0.0746116116642952, 0.09635813534259796, 0.09080437570810318, 0.09162075817584991, 0.07441351562738419, 0.08238924294710159, -0.0013995382469147444, -0.05248022451996803, 0.0682397410273552, 0.08488524705171585, 0.08878891915082932, 0.0783618614077568, 0.0747174471616745, 0.06447097659111023, -0.13443458080291748, -0.08572117984294891, -0.01199497003108263, 0.07850383222103119, 0.07614998519420624, 0.07923886924982071, 0.07787491381168365, 0.049591999500989914, -0.12380502372980118, -0.10179866850376129, 0.012082756496965885, 0.08085190504789352, 0.08540588617324829, 0.08402592688798904, 0.07058768719434738, 0.06304921954870224, -0.27103596925735474, -0.10837914049625397, -0.051691100001335144, 0.016528327018022537, 0.07084553688764572, 0.08129826933145523, 0.0773257464170456, 0.045110464096069336], [0.012304607778787613, -0.025637216866016388, 0.030581794679164886, -0.021897412836551666, -0.005787493661046028, -0.013149803504347801, 0.0358441025018692, -0.015065539628267288, 0.045270323753356934, 0.030508100986480713, 0.01621924340724945, 0.49242115020751953, -0.037370793521404266, 0.05929729714989662, 0.06169137731194496, 0.041260961443185806, 0.04331377148628235, 0.022435570135712624, -0.006679444573819637, 0.35256198048591614, -0.031089572235941887, 0.045930467545986176, 0.049797967076301575, 0.04018547758460045, 0.020897138863801956, 0.00860335398465395, -0.07176968455314636, 0.32988467812538147, -0.033461082726716995, 0.03069850616157055, 0.026752686128020287, 0.028519464656710625, 0.021740708500146866, 0.05452960357069969, -0.04715485870838165, -1.9800000190734863, 0.010115028358995914, -0.009664550423622131, 0.019412584602832794, 0.02224830724298954, 0.05006568506360054, 0.059319715946912766, -0.08989720791578293, -0.5906156897544861, -0.04956622049212456, -0.00917850062251091, -0.036258794367313385, -0.004991317633539438, 0.06734564155340195, 0.044308919459581375, -0.524537205696106, -0.5786819458007812, 0.05126764997839928, 0.0951596051454544, -0.02458377741277218, -0.04468056559562683, 0.013996116816997528, 0.020906765013933182, 0.005864918231964111, -0.022128848358988762, 0.030913807451725006, 0.03294411301612854, 0.012206032872200012, 0.02036493644118309, 0.1297273486852646, 0.07271623611450195, 0.04476403817534447, 0.05778658017516136, 0.0634041354060173, 0.09059092402458191, 0.09011906385421753, 0.09252504259347916, 0.10301556438207626, 0.08542539179325104, 0.034280870109796524, 0.1667783558368683, 0.040787506848573685, 0.023607585579156876, 0.09141372889280319, 0.11905542016029358, 0.01522012334316969, 0.047965459525585175, -0.007864393293857574, 0.2276967465877533, 0.0024129757657647133, 0.07735744118690491, 0.01540851965546608, 0.10210409015417099, 0.07487710565328598, -0.005379900801926851, -0.043082933872938156, 0.16896741092205048, -0.0921425148844719, 0.00579215819016099, 0.03900572657585144, 0.07564221322536469, 0.015178953297436237, -0.08029472827911377, -0.00726286182180047, 0.10574982315301895, -0.030812278389930725, -0.023472899571061134, 0.05609111115336418, 0.02266046032309532, 0.07838393747806549, -0.10413680225610733, 0.0019327003974467516, -0.064360111951828, -0.03206293284893036, -0.01567687839269638, 0.06629778444766998, 0.05377648025751114, -0.0714164450764656, -0.118026964366436, -0.03879125043749809, 0.08473051339387894, -0.009258306585252285, -0.09779522567987442, 0.041583407670259476, -0.06156696006655693, 0.012647192925214767, -0.10104664415121078, -0.05731082707643509, 0.04453526809811592, -0.07440108060836792, 0.033065177500247955, -0.0006823164876550436, 0.1442379355430603, 0.00197504716925323, 0.14937584102153778, 0.10739105939865112, 0.05664191395044327, 0.07412388920783997, 0.075172059237957, 0.05829181149601936, 0.02890891209244728, 0.11929593980312347, 0.012993702664971352, 0.13258036971092224, 0.1757408082485199, 0.09124250710010529, 0.027265625074505806, 0.05433278903365135, 0.022217614576220512, 0.03396651893854141, 0.06484202295541763, 0.019506117329001427, 0.25236162543296814, 0.012539421208202839, 0.006851963698863983, 0.030717413872480392, -0.004539873450994492, 0.038380738347768784, -0.01054445095360279, 0.004339635372161865, 0.2299322932958603, 0.0189859326928854, 0.019865814596414566, -0.007871866226196289, 0.010438268072903156, -0.05831291526556015, 0.0020210458897054195, -0.00729704461991787, 0.18091705441474915, -0.015031034126877785, 0.047630421817302704, 0.0324360616505146, 0.08317847549915314, 0.003943701274693012, -0.03804543614387512, -0.00011730906408047304, 0.12695516645908356, 0.026482289656996727, -0.03559387847781181, 0.1793379783630371, 0.09861680865287781, 0.10092149674892426, -0.05195306986570358, 0.01568249985575676, 0.05204618349671364, -0.048366207629442215, 0.12685243785381317, 0.11532368510961533, 0.18571601808071136, -0.037250861525535583, 0.05576905980706215, 0.034001756459474564, -0.0018841647543013096, 0.06691229343414307, 0.011869480833411217, 0.07991611957550049, 0.07018309831619263, 0.06590764969587326, 0.061789046972990036, 0.02350761368870735, -0.22564741969108582, 0.05654772371053696, 0.05795180797576904, 0.06550074368715286, 0.07226985692977905, 0.04229242354631424, 0.05507092922925949, 0.029658591374754906, -0.2261822670698166, 0.04538427293300629, 0.0410572811961174, 0.08804094791412354, 0.1104736477136612, 0.055722784250974655, 0.0870918408036232, 0.06807223707437515, -0.2050776332616806, 0.05717584118247032, 0.07806906849145889, 0.09982497990131378, 0.09993520379066467, 0.07235462218523026, 0.06970026344060898, 0.020429052412509918, -0.07510959357023239, 0.05654725432395935, 0.05871466547250748, 0.07623099535703659, 0.1186271533370018, 0.06855561584234238, 0.08297518640756607, 0.0532570518553257, -0.13022521138191223, 0.03214352950453758, 0.06282881647348404, 0.05934726446866989, 0.06218897923827171, 0.018402986228466034, 0.011432633735239506, 0.03172702714800835, -0.0732591301202774, -0.021857699379324913, -0.004184812773019075, -0.012144839391112328, -0.007400219328701496, -0.028538377955555916, -0.03819377347826958, -0.00803289469331503, -0.05908284708857536, -0.0335540696978569, -0.050187837332487106, -0.05819491297006607, -0.06699244678020477, -0.005176017992198467, 0.006266115698963404, 0.030248932540416718, -0.027940962463617325, -0.048965852707624435, -0.01136380061507225, 0.09288094937801361, 0.026013080030679703, -0.017325425520539284, -0.03530852869153023, -0.03331715613603592, -0.1431492567062378, 0.006807278376072645, 0.02943972311913967, 0.022099046036601067, 0.08072429895401001, -0.023243999108672142, -0.05957644432783127, -0.017813725396990776, -0.11785796284675598, -0.002641391009092331, -0.023658769205212593, 0.0261423010379076, 0.03366804122924805, -0.07800924777984619, -0.07280783355236053, -0.06830587983131409, -0.09998100996017456, -0.04982966184616089, -0.04852829501032829, -0.015676043927669525, -0.0012822774006053805, -0.053969405591487885, -0.10557319968938828, -0.09649193286895752, -0.082159124314785, -0.0708165317773819, -0.0879729837179184, -0.02846907079219818, -0.03476843982934952, -0.08257076144218445, -0.07483797520399094, -0.11870954185724258, -0.1550208330154419, -0.10359947383403778, -0.07938070595264435, -0.08539552241563797, -0.022947410121560097, -0.08028122037649155, -0.1646711230278015, -0.13915853202342987, -0.07789937406778336, -0.10907614231109619, -0.12682493031024933, -0.06803152710199356, -0.04534139484167099, -0.08616665005683899, -0.12203889340162277, -0.10990388691425323, -0.08824239671230316, -0.11221843957901001, -0.070550337433815, -0.14679835736751556, -0.04253892973065376, -0.068864606320858, 0.01337688509374857, -0.04775865375995636, -0.08952271193265915, -0.1277761459350586, -0.0922955647110939, -0.08857271075248718, -0.08120451867580414, 0.10766804218292236, 0.04702639952301979, 0.061895888298749924, 0.036199409514665604, 0.03783855959773064, 0.01977117545902729, 0.04336534067988396, 0.04370483011007309, 0.10695023834705353, 0.05244887247681618, 0.12058696150779724, 0.16704964637756348, 0.04253413900732994, 0.036671895533800125, 0.07093464583158493, 0.04607497528195381, 0.12438322603702545, 0.07458104193210602, 0.09036044776439667, 0.12630049884319305, 0.02141878381371498, 0.03565431386232376, 0.05774237588047981, 0.09393574297428131, 0.07056233286857605, 0.052492473274469376, 0.07918030768632889, 0.1802191138267517, 0.04835705831646919, 0.023273123428225517, 0.04755009710788727, 0.016875239089131355, 0.020532669499516487, -0.015518484637141228, 0.047011908143758774, 0.13277101516723633, 0.024812566116452217, -0.01787777617573738, 0.017236728221178055, 0.04123116657137871, -0.06493678689002991, -0.11327075958251953, -0.020740697160363197, 0.09054144471883774, -0.08459191024303436, -0.06978373974561691, -0.08398483693599701, 0.0032420281786471605, -0.041244734078645706, -0.11001010239124298, -0.06832857429981232, -0.0965966209769249, -0.009366210550069809, -0.08634329587221146, -0.024386880919337273, -0.059731654822826385, -0.06525665521621704, -0.028811544179916382, -0.1353180855512619, -0.1228533685207367, -0.11819231510162354, -0.07543354481458664, -0.05873268097639084, -0.0035479816142469645, 0.005186975002288818, 0.030854858458042145, 0.01513197273015976, 0.025064200162887573, -0.027270767837762833, -0.02190498448908329, 0.0038214512169361115, 0.025943003594875336, -0.5573248267173767, 0.0628822073340416, -0.09953337162733078, -1.9800000190734863, 1.5000460147857666, -1.9795860052108765, -0.16079190373420715, -0.3567746579647064, -0.06984886527061462, -0.05961334705352783, -0.05455963686108589, -0.10307978838682175, -0.04825663939118385, -0.1368032693862915, -0.06013207882642746, -0.021006792783737183, -0.09406562149524689, -0.10701045393943787, -0.09941254556179047, -0.06178715080022812, -0.10501650720834732, -0.12940797209739685, -0.09262555837631226, -0.0631239041686058, -0.08025489747524261, -0.10783275961875916, -0.04376719146966934, -0.03358041122555733, -0.05828311666846275, -0.055602554231882095, -0.07893723994493484, -0.05554581806063652, -0.09651802480220795, -0.08821088075637817, -0.026760682463645935, -0.140208899974823, -0.022898128256201744, -0.014317846857011318, -0.047222480177879333, -0.042253971099853516, -0.09766239672899246, -0.07805076986551285, 0.06203796714544296, -0.09935204684734344, 0.10778293013572693, -0.008216474205255508, -0.022940147668123245, -0.042350027710199356, -0.016005871817469597, -0.025035034865140915, 0.017144951969385147, -0.020402492955327034, 0.0280267596244812, -0.025614731013774872, -0.0030460581183433533, 0.031473055481910706, -0.06226983293890953, -0.052641477435827255, -0.18853051960468292, -0.13503427803516388, -0.08686484396457672, -0.08003141731023788, -0.09849821776151657, -0.01654887944459915, -0.05052141100168228, 0.03717062622308731, -0.10564465075731277, -0.08620299398899078, -0.08343575894832611, 0.11962880939245224, -0.05115411803126335, -0.04531635344028473, -0.092167928814888, -0.06379453092813492, 0.03793935850262642, -0.02136475034058094, 0.12098591029644012, -0.13160456717014313, -0.09304117411375046, -0.08098096400499344, 0.0016023274511098862, -0.08103364706039429, 0.06617172062397003, 0.08624506741762161, 0.0625002533197403, -0.057820674031972885, -0.0019076965982094407, -0.04570474848151207, -0.02574468031525612, -0.048259664326906204, 0.017664333805441856, -0.04629728943109512, 0.06198820099234581, -0.0007652643835172057, -0.011219576932489872, -0.03964357078075409, -0.012809988111257553, 0.008350187912583351, -0.030993008986115456, -0.09132318198680878, -0.005498968996107578, 0.01579301804304123, -0.005874167196452618, -0.02629939466714859, -0.09600800275802612, 0.030527938157320023, -0.0574878565967083, -0.06837581098079681, -0.029312007129192352, 0.12191751599311829, -0.05738300830125809, -0.023772764950990677, -0.13031236827373505, -0.07299068570137024, -0.07620859146118164, -0.07041425257921219, -0.0003859546559397131, -0.012591875158250332, -0.05481318011879921, 0.0036514780949801207, -0.03365016728639603, -0.005425035022199154, -0.11649766564369202, -0.05663324147462845, -0.0916842669248581, -0.05102970823645592, -0.11723759025335312, -0.019443329423666, -0.015516260638833046, -0.0200555007904768, 0.023741750046610832, -0.14392617344856262, 0.07828601449728012, -0.12553121149539948, -0.029714256525039673, -0.053295768797397614, -0.015035034157335758, 0.07745176553726196, -0.04894737899303436, -0.09213963150978088, -0.08115547895431519, 0.01978801004588604, -0.0949450358748436, -0.020137740299105644, 0.05322270095348358, -0.011343400925397873, 0.015803348273038864, -0.003340562805533409, -0.06681129336357117, -0.03520605340600014, -0.010112308897078037, -0.0557914599776268, -0.07556311786174774, -0.00872638076543808, 0.034133512526750565, -0.06749191880226135, 0.10549900680780411, -0.04513021558523178, -0.05274639278650284, -0.03327539190649986, -0.09464015811681747, 0.031334590166807175, 0.009909710846841335, -0.10011573135852814, 0.034197114408016205, -0.016838252544403076, -0.05266694724559784, -0.027471400797367096, 0.013580496422946453, -0.014965830370783806, -0.020640768110752106, -0.11850476264953613, 0.033378757536411285, 0.0058574373833835125, -0.005316784605383873, -0.03580620139837265, -0.016152273863554, -0.04576701298356056, -0.09003393352031708, -0.08571895956993103, 0.004635137971490622, 0.005730303470045328, 0.0887250006198883, 0.020860889926552773, -0.1334460973739624, -0.015708617866039276, 0.01581355184316635, -0.06102859973907471, -0.12207016348838806, -0.09827359765768051, -0.03408706188201904, -0.0800190344452858, -0.11075904220342636, -0.11569470167160034, -0.09140481054782867, -0.10571885108947754, -0.09812892228364944, -0.13780443370342255, -0.10340146720409393, -0.08563511818647385, -0.05516291409730911, -0.07320866733789444, -0.05450650677084923, 0.11530783772468567, -0.07237117737531662, -0.09676247835159302, -0.05193515121936798, -0.04616205766797066, -0.04136307165026665, -0.04727296158671379, 0.008340051397681236, 0.2554781138896942, -0.03808800131082535, -0.05683255195617676, -0.061861276626586914, -0.058158136904239655, -0.05395381525158882, -0.01030572596937418, 0.010456996038556099, 0.21792861819267273, -0.00577184185385704, -0.034884341061115265, -0.07256928086280823, -0.07463844865560532, -0.044479720294475555, -0.0468384325504303, 0.002279432024806738, 0.04772752523422241, -0.021966438740491867, -0.05420420318841934, -0.0645345151424408, -0.07353398948907852, -0.0546204149723053, -0.05905117094516754, -0.022614479064941406, 0.02443898469209671, -0.06295915693044662, -0.003053611610084772, -0.06962847709655762, -0.08310576528310776, -0.08040058612823486, -0.07008687406778336, -0.05404626578092575, -0.01601029932498932, -0.06189754605293274, -0.050543319433927536, -0.06386031955480576, -0.07944224029779434, -0.1719156801700592, -0.14687256515026093, -0.19286231696605682, -0.1690388172864914, -0.20033299922943115, -0.2222556471824646, -0.28699204325675964, -0.2040763944387436, -0.09243927150964737, -0.12080683559179306, -0.11984173953533173, -0.18754427134990692, -0.170136958360672, -0.22843919694423676, -0.08756115287542343, -0.12154953181743622, -0.06757277995347977, -0.09365038573741913, -0.10545381158590317, -0.14132897555828094, -0.15740732848644257, -0.12580415606498718, -0.1357201337814331, -0.0648406594991684, -0.0708383172750473, -0.06889596581459045, -0.0759078860282898, -0.09399208426475525, -0.0769442468881607, -0.0896376371383667, -0.06553228944540024, -0.052000243216753006, -0.08455267548561096, -0.0763011947274208, -0.019764620810747147, -0.04028042033314705, 0.04258556663990021, -0.05712215602397919, -0.04253729432821274, -0.061691444367170334, -0.07517530769109726, -0.014140383340418339, -0.03643368184566498, -0.12313853949308395, -0.030479796230793, -0.019685687497258186, -0.029221221804618835, -0.06432704627513885, -0.040879737585783005, -0.019963454455137253, -0.0390133410692215, -0.17050772905349731, 0.008764900267124176, -0.01652337983250618, -0.015174318104982376, -0.041054654866456985, -0.047358982264995575, -0.05957390367984772, -0.09362494945526123, -0.15495361387729645, -0.052273984998464584, -0.06132223457098007, -0.09231121093034744, -0.13543717563152313, 0.5369814038276672, 0.3099195659160614, 0.3947557806968689, 0.22813402116298676, 0.21319609880447388, 0.19253957271575928, 0.15569007396697998, -0.04727492108941078, 0.1778106391429901, 0.13121278584003448, 0.3285817503929138, 0.1693505495786667, 0.36377668380737305, 0.16719260811805725, 0.012997564859688282, 0.028405793011188507, 0.17252761125564575, 0.2526782751083374, 0.1807115226984024, 0.2074531614780426, 0.1577620506286621, 0.16782987117767334, 0.026792868971824646, 0.06741458177566528, 0.1713411957025528, 0.06960391998291016, 0.04798261448740959, 0.14990682899951935, 0.1397724598646164, 0.09475591778755188, 0.07753830403089523, 0.009706506505608559, 0.0500691682100296, 0.03284037113189697, 0.06884213536977768, 0.06741809844970703, 0.11358948796987534, 0.06624364852905273, 0.021567167714238167, 0.0038247026968747377, -0.07505767047405243, -0.04597603157162666, 0.04777812585234642, 0.1067296490073204, 0.08185962587594986, 0.012555049732327461, 0.01877417415380478, -0.025166982784867287, -0.12210100144147873, -0.0823993980884552, -0.0034911546390503645, -0.06358179450035095, 0.04115110635757446, -0.0040015350095927715, -0.024129798635840416, -0.009749972261488438, -0.11545171588659286, -0.05771328881382942, -0.0126112699508667, -0.12278886139392853, -0.023922022432088852, -0.043971363455057144, -0.0047119189985096455, -0.04795020446181297], [0.010111264884471893, -0.018100013956427574, 0.007939599454402924, 0.0022272318601608276, 0.030114032328128815, 0.03536941111087799, 0.03396347910165787, -0.0225457102060318, -0.11971970647573471, -0.1201520562171936, -0.1458248347043991, -0.1672399640083313, -0.1940283626317978, -0.205436110496521, -0.21143092215061188, -0.0629362165927887, -0.1281423270702362, -0.17016993463039398, -0.16715168952941895, -0.2079971730709076, -0.1743067502975464, -0.24308209121227264, -0.21982219815254211, -0.09712352603673935, -0.15411411225795746, -0.16727249324321747, -0.18906660377979279, -0.19619470834732056, -0.24662929773330688, -0.26091307401657104, -0.2099549025297165, -0.08975164592266083, -0.12949520349502563, -0.1614057421684265, -0.15039730072021484, -0.17790289223194122, -0.1960897147655487, -0.25133419036865234, -0.09067727625370026, -0.13404406607151031, -0.1725553274154663, -0.11577543616294861, -0.09793338924646378, -0.14185713231563568, -0.09546690434217453, -0.09107983112335205, -0.031088532879948616, -0.1186378002166748, 0.0836053267121315, -1.9800000190734863, 0.07482223957777023, 0.0561649464070797, 0.0406293123960495, 0.14334817230701447, 0.264823853969574, -1.9793261289596558, 0.02388564869761467, 0.005356013774871826, -0.02645019441843033, -0.030575361102819443, 0.027713321149349213, -0.006128581240773201, -0.017283950001001358, -0.005483362823724747, 0.08913969993591309, 0.15168023109436035, 0.1267794817686081, 0.10410844534635544, 0.13649410009384155, 0.0962858572602272, 0.10213171690702438, 0.11453135311603546, 0.1464039534330368, 0.12710793316364288, 0.14207741618156433, 0.11045737564563751, 0.1478991061449051, 0.07302065938711166, 0.10048980265855789, 0.0527532622218132, 0.14503879845142365, 0.14318086206912994, 0.10707864910364151, 0.13839900493621826, 0.08503042161464691, 0.14363481104373932, 0.09131623059511185, 0.11310215294361115, 0.12262975424528122, 0.1400516778230667, 0.11307603120803833, 0.14183376729488373, 0.07338495552539825, 0.07626365125179291, 0.020706497132778168, 0.06022908538579941, 0.14650903642177582, 0.17466674745082855, 0.12863841652870178, 0.10869750380516052, 0.0704449936747551, 0.09993532299995422, 0.10315346717834473, 0.1512206345796585, 0.15493708848953247, 0.12611472606658936, 0.09437467157840729, 0.13326574862003326, 0.17119021713733673, 0.0711808055639267, 0.14208415150642395, 0.1512395739555359, 0.18875187635421753, 0.1688057780265808, 0.093708835542202, 0.07719854265451431, 0.13509249687194824, 0.12032734602689743, 0.2864680588245392, 0.20810872316360474, 0.1251806765794754, 0.24058635532855988, 0.11761612445116043, 0.09088104218244553, 0.08877452462911606, 0.047234147787094116, 0.1157541573047638, 0.14760194718837738, 0.12585234642028809, 0.033824242651462555, 0.16247230768203735, 0.05900487303733826, 0.14407967031002045, 0.046154558658599854, 0.13905176520347595, 0.04121113196015358, 0.08839993178844452, 0.1872100830078125, 0.02832363359630108, 0.15955837070941925, 0.05163627862930298, 0.12883086502552032, 0.05579475685954094, 0.13935740292072296, 0.19904622435569763, 0.0703614354133606, 0.15826420485973358, 0.06579551100730896, 0.13436798751354218, 0.05777568370103836, 0.10144077986478806, 0.03980078548192978, 0.08770604431629181, 0.17322131991386414, 0.05457306653261185, 0.10396060347557068, 0.0319347158074379, 0.0988713800907135, 0.09453791379928589, 0.10274679958820343, 0.1665041297674179, 0.06176117807626724, 0.12138780206441879, 0.04619496688246727, 0.09314670413732529, 0.10476527363061905, 0.1497264951467514, 0.13532423973083496, 0.0803699791431427, 0.17071783542633057, 0.07885296642780304, 0.1295507401227951, 0.09322793036699295, 0.16111916303634644, 0.16888828575611115, 0.13168618083000183, 0.1230798289179802, 0.10832375288009644, 0.15554791688919067, 0.056724026799201965, 0.1826520711183548, 0.22892065346240997, 0.24387642741203308, 0.16306693851947784, 0.0021315168123692274, 0.194565549492836, 0.13551349937915802, 0.22217106819152832, -0.08858174085617065, 0.25682535767555237, 0.1480173021554947, 0.042001910507678986, 0.010175086557865143, 0.02359156683087349, 0.02737382985651493, 0.0416959673166275, 0.031612444669008255, 0.041906602680683136, 0.006717344745993614, 0.04598395153880119, -0.01861991360783577, 0.025764890015125275, 0.02236386388540268, 0.03728821128606796, 0.03580983728170395, 0.015370936132967472, 0.015455742366611958, 0.09620349854230881, -0.00695108063519001, 0.03956577926874161, 0.0284271202981472, 0.04118246212601662, 0.026794210076332092, -0.014511652290821075, -0.009084297344088554, -0.01196234580129385, 0.03973125293850899, 0.06367714703083038, 0.043660905212163925, 0.021541694179177284, 0.07132195681333542, 0.050103895366191864, 0.056236423552036285, 0.06616785377264023, 0.031025037169456482, 0.02248285710811615, 0.023531382903456688, 0.03857716545462608, 0.04281003028154373, 0.0875764712691307, 0.04886447265744209, 0.10578472912311554, 0.006509441416710615, 0.03312068432569504, 0.03581135347485542, 0.010001628659665585, 0.06901266425848007, 0.06867371499538422, 0.07883347570896149, 0.05148010328412056, -0.00054688542149961, 0.025578290224075317, 0.010310589335858822, -0.005585400853306055, -0.004513272549957037, 0.033897195011377335, 0.009759671054780483, 0.030741332098841667, 0.013968352228403091, 0.019571717828512192, 0.007110710255801678, 0.017002521082758904, 0.008443673141300678, 0.029128650203347206, -0.009433524683117867, 0.07144974172115326, 0.6709641814231873, 0.6980694532394409, 0.6941710114479065, 0.7456053495407104, 0.6739952564239502, 0.691781222820282, 0.6481897234916687, 0.7354968786239624, 0.6658401489257812, 0.7117131948471069, 0.6958691477775574, 0.7473256587982178, 0.6796415448188782, 0.6594568490982056, 0.6282216310501099, 0.6854057312011719, 0.7015489339828491, 0.7044299840927124, 0.7240774035453796, 0.7592784762382507, 0.7030317187309265, 0.6824110150337219, 0.6217080950737, 0.6152867078781128, 0.7176583409309387, 0.7069236636161804, 0.7080063819885254, 0.7027033567428589, 0.7026152014732361, 0.6525391936302185, 0.6484650373458862, 0.6724998950958252, 0.7924900650978088, 0.7118393778800964, 0.7028805613517761, 0.7546311616897583, 0.72084641456604, 0.7126352190971375, 0.6713929176330566, 0.7661088705062866, 0.7893862724304199, 0.764282763004303, 0.7511621117591858, 0.7197653651237488, 0.7557154297828674, 0.7438333034515381, 0.7913773655891418, 0.7027603983879089, 0.7823492288589478, 0.79715496301651, 0.74822598695755, 0.7570884823799133, 0.77592933177948, 0.8065177202224731, 0.7416421175003052, 0.6970342397689819, 0.7685511708259583, 0.7669179439544678, 0.7315483689308167, 0.7299284934997559, 0.6709213852882385, 0.6674484014511108, 0.6740211248397827, 0.6966519355773926, -0.04712515324354172, 0.012486028485000134, -0.04707556590437889, -0.026258772239089012, -0.07939893007278442, -0.018037255853414536, 0.019013842567801476, 0.07479999214410782, -0.02209641970694065, -0.012734168209135532, 0.002377356169745326, 0.01615585945546627, -0.015117215923964977, -0.008871935307979584, 3.731068136403337e-05, 0.03536862134933472, 0.02632983773946762, -0.013998385518789291, 0.008428849279880524, -0.005222976207733154, -0.005736900959163904, -0.02640417218208313, 0.009120579808950424, 0.04419748857617378, -0.08189402520656586, -0.001989362994208932, -0.10772169381380081, -0.016313817352056503, -0.10739950835704803, -0.042865365743637085, -0.06159266456961632, 0.015544554218649864, 0.027389703318476677, -0.12362916767597198, -0.031172743067145348, -0.0702834352850914, -0.04025747627019882, -0.15672190487384796, -0.04048048332333565, -0.02854277193546295, -0.05811625346541405, -0.04704474285244942, -0.08691304177045822, -0.08992888778448105, -0.06676814705133438, -0.07835470139980316, -0.06305885314941406, -0.06142841652035713, -0.006725616287440062, -0.014891120605170727, -0.06805773079395294, -0.10931797325611115, -0.10893723368644714, -0.16682370007038116, 0.008935000747442245, 0.3398497998714447, 0.19346891343593597, -0.04942064732313156, -0.12840639054775238, -0.21755243837833405, -0.19256405532360077, -0.252321720123291, 0.03984464332461357, -0.19702918827533722, -0.0032597482204437256, -0.0074318647384643555, 0.011859215795993805, 0.011953722685575485, -0.019191009923815727, 0.007834352552890778, -0.0330091156065464, 0.02089446410536766, -1.978245735168457, 0.4079798758029938, 0.3559803366661072, 0.3088773787021637, 0.32871800661087036, -1.8956058025360107, -1.9800000190734863, 0.2757498323917389, 0.34338733553886414, 0.2850140631198883, 0.3115057647228241, 0.2742060124874115, 0.2590681314468384, 0.21467269957065582, 0.21976816654205322, 0.3006528317928314, 0.23357638716697693, 0.1768067479133606, 0.22888612747192383, 0.11803419888019562, 0.1268286406993866, 0.09662127494812012, 0.1869029551744461, 0.15545864403247833, 0.17586451768875122, 0.17679689824581146, 0.12970393896102905, 0.10940554738044739, 0.09234321117401123, 0.08142420649528503, 0.16768254339694977, 0.2281343638896942, 0.1842845380306244, 0.16389580070972443, 0.1646982729434967, 0.06692837178707123, 0.1140546128153801, 0.1145138144493103, 0.28381916880607605, 0.20657239854335785, 0.1879851222038269, 0.1959773451089859, 0.158196821808815, 0.1304006576538086, 0.1592753529548645, 0.23479865491390228, 0.3207464814186096, 0.2169504016637802, -0.02160690166056156, 0.014452457427978516, -0.03220750391483307, 0.004340458661317825, 0.004070021212100983, 0.024561405181884766, -0.03497457504272461, -0.0066039077937603, 0.3134498596191406, 0.10983014851808548, 0.08791420608758926, 0.038176704198122025, 0.05618922412395477, 0.1046849936246872, 0.09021807461977005, 0.09471457451581955, 0.014788337051868439, 0.10816735029220581, 0.03916414454579353, 0.053395628929138184, 0.005205801222473383, -0.012208109721541405, 0.09220880270004272, 0.1413038969039917, 0.03922396898269653, -0.010630881413817406, -0.01235119067132473, -0.03891390189528465, 0.0009270576410926878, -0.06306355446577072, -0.03590165823698044, -0.043365560472011566, -0.003049920778721571, -0.0434986911714077, 0.00395044032484293, -0.0417550764977932, -0.05867622792720795, -0.051472052931785583, -0.03188544884324074, -0.011768500320613384, -0.03155779466032982, -0.05070663243532181, -0.0006086757639423013, -0.07167454063892365, -0.025045722723007202, -0.0585690438747406, -0.021370790898799896, -0.07710239291191101, -0.09404624253511429, -0.06703817844390869, -0.09468767791986465, -0.05003301054239273, -0.07665660977363586, -0.048060838133096695, -0.052797481417655945, -0.11554847657680511, -0.05460328981280327, -0.038044821470975876, -0.0795159786939621, -0.10060139000415802, -0.08966963738203049, -0.06825269758701324, -0.0393998958170414, -0.09655052423477173, -0.017057130113244057, -0.08802074939012527, -0.07126717269420624, -0.09672773629426956, -0.09193247556686401, -0.04972633346915245, -0.09586890786886215, -0.06486844271421432, -0.053224384784698486, 0.04042014479637146, -0.12801821529865265, 0.06643292307853699, -0.1355305314064026, 0.10922297090291977, -0.134336918592453, 0.045392703264951706, 0.019819989800453186, -0.001704572350718081, 0.03362630680203438, -0.15849697589874268, 0.07615829259157181, -0.14342419803142548, 0.194094717502594, -0.17515631020069122, -0.11736179143190384, 0.057745128870010376, -0.10153178870677948, 0.0556320920586586, -0.16091810166835785, 0.06888768076896667, -0.19006778299808502, 0.05872092396020889, 0.04450087249279022, -0.15952378511428833, 0.05963543802499771, -0.11781356483697891, 0.02339852787554264, -0.22536130249500275, 0.030701661482453346, -0.17080432176589966, -0.13096126914024353, 0.009394574910402298, -0.13549679517745972, 0.015543789602816105, -0.11422703415155411, 0.008013071492314339, -0.15701207518577576, 0.028634734451770782, -0.03320794180035591, -0.14251229166984558, -0.015641674399375916, -0.15198911726474762, -0.0783204585313797, -0.178228959441185, 0.025386609137058258, -0.1336362361907959, -0.20186997950077057, -0.04242333397269249, -0.14723436534404755, -0.07852731645107269, -0.18479405343532562, -0.023352516815066338, -0.11489729583263397, -0.04208528250455856, -0.08563681691884995, -0.13865900039672852, -0.0824030265212059, -0.20042654871940613, -0.06205339729785919, -0.16591672599315643, 0.012121590785682201, -0.05608999729156494, 0.2788184881210327, 0.3236360251903534, 0.32309219241142273, 0.360340416431427, 0.35496786236763, 0.2759367525577545, 0.26280373334884644, 0.26624324917793274, 0.32697710394859314, 0.3513528108596802, 0.32313796877861023, 0.33374515175819397, 0.3250417709350586, 0.2925131320953369, 0.28959232568740845, 0.26521915197372437, 0.31299877166748047, 0.33212101459503174, 0.33712834119796753, 0.3406405746936798, 0.3456422984600067, 0.28491321206092834, 0.3102746307849884, 0.2539714574813843, 0.30731990933418274, 0.3206268548965454, 0.31410256028175354, 0.30147862434387207, 0.2861768305301666, 0.26559653878211975, 0.2593933045864105, 0.23747137188911438, 0.3283303678035736, 0.34847718477249146, 0.28983381390571594, 0.2901461720466614, 0.264242559671402, 0.2564595639705658, 0.2604823410511017, 0.2118498533964157, 0.28721627593040466, 0.3123827278614044, 0.24809829890727997, 0.2793775796890259, 0.2276001274585724, 0.23879840970039368, 0.24026238918304443, 0.17830902338027954, 0.31534475088119507, 0.3209902346134186, 0.30798402428627014, 0.2955019474029541, 0.30029454827308655, 0.2893249988555908, 0.247499480843544, 0.21096765995025635, 0.2997778654098511, 0.33471211791038513, 0.3120180368423462, 0.3271632790565491, 0.306327223777771, 0.2673044204711914, 0.2506362199783325, 0.2666468024253845, -0.18782372772693634, -0.15233547985553741, -0.16360194981098175, -0.191117525100708, -0.18088644742965698, -0.1586126834154129, -0.18457438051700592, -0.14508472383022308, -0.125117227435112, -0.14277124404907227, -0.11632613092660904, -0.15188443660736084, -0.15324656665325165, -0.1488511860370636, -0.17755433917045593, -0.11124859005212784, -0.1252533346414566, -0.08911862224340439, -0.13124482333660126, -0.1716061383485794, -0.17985206842422485, -0.16980351507663727, -0.13597747683525085, -0.142824187874794, -0.13567140698432922, -0.14226996898651123, -0.16351819038391113, -0.20117980241775513, -0.2198818176984787, -0.22497504949569702, -0.1384028196334839, -0.21310894191265106, -0.20249466598033905, -0.18506251275539398, -0.2185656577348709, -0.25489309430122375, -0.22976119816303253, -0.2036871463060379, -0.19439861178398132, -0.21468544006347656, -0.16736027598381042, -0.19604544341564178, -0.20955371856689453, -0.22216536104679108, -0.27975282073020935, -0.23389464616775513, -0.22256150841712952, -0.21133556962013245, -0.16569937765598297, -0.15645696222782135, -0.1848127692937851, -0.23127177357673645, -0.2396094650030136, -0.22915871441364288, -0.23580174148082733, -0.22002780437469482, -0.06611733883619308, -0.15505032241344452, -0.1531456857919693, -0.21790334582328796, -0.2378566563129425, -0.17496207356452942, -0.16502061486244202, -0.1879751980304718, -0.1485789567232132, -0.10751117765903473, -0.2421843260526657, -0.20086605846881866, -0.18684284389019012, -0.16463492810726166, 0.018710536882281303, -0.1922779679298401, -0.05057370662689209, -0.19200602173805237, -0.19019421935081482, -0.16246896982192993, -0.10210468620061874, -0.07241784036159515, 0.017628872767090797, 0.020767904818058014, -0.05235036835074425, -0.16912485659122467, -0.16643843054771423, -0.1425102800130844, -0.09753985702991486, -0.005636093206703663, -0.08436133712530136, 0.008518749848008156, -0.24889929592609406, -0.09811341017484665, -0.09014859050512314, -0.05935326963663101, -0.04686380922794342, -0.04444510489702225, -0.08447563648223877, -0.34000468254089355, -0.196941539645195, -0.08829471468925476, -0.14195655286312103, -0.08156738430261612, -0.06968426704406738, -0.07292605936527252, -0.08737010508775711, -0.10110214352607727, 0.0042901309207081795, -0.1182013675570488, -0.13973693549633026, -0.1532057523727417, -0.07697455585002899, -0.070866160094738, -0.05399170145392418, -0.022474905475974083, 0.13537971675395966, 0.08507250994443893, -0.06334473192691803, -0.08990183472633362, -0.1004585325717926, 0.0034221129026263952, 0.0780254676938057, 0.07487570494413376, 0.3110859990119934, 0.17238584160804749, 0.10656264424324036, -0.04562726616859436, 0.09043541550636292, 0.018996234983205795, 0.1072186678647995, 0.03619556874036789], [0.023208118975162506, 0.009585477411746979, 0.025847483426332474, -0.011383051052689552, -0.003973841667175293, -0.03204259276390076, 0.015774372965097427, -0.010967934504151344, -0.09220940619707108, -0.08050550520420074, -0.05906698852777481, -0.08305425196886063, -0.08451591432094574, -0.10953455418348312, -0.0755264014005661, 0.6988036632537842, -0.11400843411684036, -0.06399703025817871, -0.07238683849573135, -0.04092967137694359, -0.10349572449922562, -0.08881045877933502, -0.1255231499671936, 0.627851665019989, -0.0847766250371933, -0.09440053254365921, -0.05325761437416077, -0.07712971419095993, -0.09257001429796219, -0.06962539255619049, -0.10664515942335129, 0.6518431305885315, -0.12080880999565125, -0.08381055295467377, -0.095751091837883, -0.12734287977218628, -0.13264955580234528, -0.06126942113041878, -0.20624688267707825, 0.9028922319412231, -0.12090388685464859, -0.18738125264644623, -0.16411875188350677, -0.21737852692604065, -0.122022345662117, -0.21979472041130066, -0.2877124547958374, 0.9442638754844666, -0.14805759489536285, -0.18677648901939392, -0.1952132284641266, -0.088553287088871, -0.027132021263241768, -0.2429840862751007, -0.209959015250206, 1.025999665260315, -0.023117531090974808, -0.032675303518772125, 0.009903945028781891, 0.0035108178853988647, 0.01910236105322838, 0.010202720761299133, 0.004230167716741562, 0.027675531804561615, -0.17508521676063538, -0.1750144213438034, -0.1852319836616516, -0.19993939995765686, -0.2422759234905243, -0.18626326322555542, -0.17104950547218323, -0.21786446869373322, -0.19152814149856567, -0.2031102329492569, -0.19314663112163544, -0.1555694043636322, -0.182480588555336, -0.18099868297576904, -0.2505330741405487, -0.21573443710803986, -0.1325482428073883, -0.1680963933467865, -0.13237807154655457, -0.18777205049991608, -0.2315881997346878, -0.25280117988586426, -0.17806264758110046, -0.14123769104480743, -0.15985049307346344, -0.17126095294952393, -0.18572412431240082, -0.210138201713562, -0.2927696406841278, -0.2399865835905075, -0.2530559301376343, -0.11609175056219101, -0.17861422896385193, -0.15323173999786377, -0.19228462874889374, -0.23293782770633698, -0.28527823090553284, -0.2911109924316406, -0.23290081322193146, -0.13598762452602386, -0.19154995679855347, -0.20782333612442017, -0.20822638273239136, 