{"ft.weight": [[-0.021826721727848053, -0.021741587668657303, -0.03576303645968437, 0.012855853885412216, 0.02226068452000618, -0.024441346526145935, 0.028299570083618164, -0.000981610268354416, -0.02128099463880062, -0.006248300429433584, -0.005857364274561405, -0.023751474916934967, -0.007375628221780062, -0.01077121403068304, -0.03169742971658707, -0.07295204699039459, -0.011929158121347427, -0.008105355314910412, -0.007629443425685167, -0.012850702740252018, -0.005097468849271536, -0.020831873640418053, -0.028131665661931038, -0.07227426767349243, -0.01393826026469469, 0.003410769160836935, -0.01271168515086174, -0.00048017597873695195, -0.007876330055296421, -0.028227293863892555, -0.05545787140727043, -0.10855945199728012, -0.024745972827076912, -0.02162892185151577, -0.015322379767894745, 0.006184362340718508, -0.022150734439492226, -0.04084015637636185, -0.10580471158027649, -0.17664332687854767, -0.02192861959338188, -0.04008069261908531, -0.03397656977176666, -0.018833260983228683, -0.0001280759461224079, -0.010090633295476437, -0.26921314001083374, -0.35544225573539734, -0.08113846927881241, -0.07541805505752563, -0.0881502702832222, -0.016637062653899193, -0.022391846403479576, -0.13940690457820892, -1.5180343389511108, -1.9800000190734863, 0.02593577280640602, 0.022239945828914642, -0.028891239315271378, 0.031641118228435516, 0.001784585416316986, -0.013814570382237434, -0.020363103598356247, 0.012995608150959015, -0.10290850698947906, -0.052421316504478455, -0.06423456221818924, -0.056693002581596375, -0.06417232006788254, -0.03552008420228958, -0.059442806988954544, -0.005091272294521332, -0.046301405876874924, -0.02886916883289814, -0.040760718286037445, -0.053199976682662964, -0.05074508488178253, -0.05975661054253578, -0.06043870747089386, -0.017086636275053024, -0.038222525268793106, -0.031065750867128372, -0.034734491258859634, -0.05457132309675217, -0.0370294526219368, -0.06028972193598747, -0.013431290164589882, -0.08120189607143402, -0.015449532307684422, -0.043954748660326004, -0.03815477713942528, -0.026676561683416367, -0.045299846678972244, -0.04767121002078056, -0.011548727750778198, -0.02173687517642975, -0.029306799173355103, 0.003432192374020815, -0.025372110307216644, -0.02738369069993496, -0.05071530491113663, -0.005688454955816269, -0.06015191599726677, -0.007008087821304798, -0.021520474925637245, -0.016464943066239357, -0.05058638006448746, -0.006554015446454287, -0.08035309612751007, -0.04139687865972519, -0.0911017507314682, -0.05189015716314316, -0.016568699851632118, -0.02026226371526718, -0.011168106459081173, -0.049569327384233475, -0.0616116002202034, -0.06926821172237396, -0.04080668464303017, -0.007107700686901808, 0.08843280375003815, -0.03564092889428139, -0.03883800283074379, -0.06406756490468979, -0.054411932826042175, -0.15920008718967438, -0.03966539353132248, -0.2063727080821991, -0.07514720410108566, -0.08183281868696213, -0.04835224151611328, -0.0556643083691597, -0.06113295629620552, -0.06391117721796036, -0.04742439463734627, -0.020169932395219803, -0.07673729956150055, -0.06140923127532005, -0.0681227445602417, -0.049710340797901154, -0.05147339031100273, -0.06019594892859459, -0.03303035348653793, -0.028166353702545166, -0.0418948195874691, -0.07897944003343582, -0.06855552643537521, -0.07362116873264313, -0.06743960827589035, -0.05944935604929924, -0.05441231280565262, -0.04836240038275719, -0.03369158133864403, -0.035198695957660675, -0.07579866051673889, -0.077632375061512, -0.08141734451055527, -0.03542247414588928, -0.051975544542074203, -0.025032727047801018, -0.03132740035653114, -0.03590058162808418, -0.03572246804833412, -0.06701259315013885, -0.0614430196583271, -0.08163943886756897, -0.030343178659677505, -0.005434341728687286, -0.04527439549565315, -0.02899337373673916, -0.03507561981678009, -0.00778427766636014, -0.055264540016651154, -0.04495026171207428, -0.09166443347930908, -0.08543438464403152, -0.04542459547519684, -0.0491793267428875, -0.03567657619714737, -0.027561724185943604, -0.033301904797554016, -0.05096778646111488, -0.05290535092353821, -0.06309311836957932, -0.0054312050342559814, -0.006227859295904636, -0.0006690653972327709, -0.017782755196094513, -0.026270145550370216, -0.040078792721033096, -0.0680469498038292, -0.042503878474235535, -0.05849079415202141, -0.04548182711005211, -0.05539804697036743, -0.07374060899019241, -0.08125993609428406, -0.060623399913311005, -0.1014021560549736, -0.10360826551914215, -0.07987477630376816, -0.03868570923805237, -0.06930585205554962, -0.07979139685630798, -0.1071031242609024, -0.0807306319475174, -0.11146849393844604, -0.1550733894109726, -0.06378034502267838, -0.03798096626996994, -0.05880995839834213, -0.06955525279045105, -0.08025731146335602, -0.07945416122674942, -0.08295141160488129, -0.09653840959072113, -0.05919918417930603, -0.024240637198090553, -0.04973595216870308, -0.054141297936439514, -0.07123623788356781, -0.04874134436249733, -0.07006639987230301, -0.05546828359365463, -0.015039470046758652, -0.0011235680431127548, -0.023985091596841812, -0.030527804046869278, -0.03843025118112564, -0.025357622653245926, -0.05111250281333923, -0.006349307484924793, 0.02339932508766651, 0.02619686722755432, 0.006386709399521351, 0.004697072319686413, -0.0005846184794791043, -0.028087234124541283, -0.02401609532535076, 0.07034292072057724, 0.023217670619487762, 0.02541358396410942, 0.0021006143651902676, 0.006497724913060665, -0.03836028650403023, -0.03074805438518524, -0.0609738789498806, 0.010942429304122925, -0.0444088876247406, -0.007905295118689537, -0.01817440055310726, -0.018328934907913208, -0.047752730548381805, -0.056910958141088486, -0.025669964030385017, 0.01795719750225544, -0.007773865479975939, -0.07179299741983414, -0.042681727558374405, -0.025723101571202278, -0.06089095026254654, -0.052626386284828186, -0.06039998307824135, -0.08101417124271393, -0.05474662408232689, -0.028550518676638603, -0.03189730644226074, -0.033031437546014786, -0.05292002856731415, -0.055054109543561935, -0.05651150271296501, -0.07539619505405426, -0.005660717841237783, -0.03344723582267761, -0.029497135430574417, -0.04883977025747299, -0.0377640575170517, -0.04912134259939194, -0.05195412039756775, -0.030813679099082947, 0.0014357059262692928, 0.003138540545478463, -0.03997256979346275, -0.00017456861678510904, -0.04101129621267319, -0.004620445892214775, -0.027004331350326538, 0.0007699447451159358, 0.04153943061828613, 0.022123560309410095, 0.03236669674515724, 0.024503884837031364, 0.020244061946868896, -0.010866880416870117, 0.03407580778002739, 0.049453653395175934, 0.06296180188655853, 0.08342179656028748, 0.03725610300898552, 0.06062077358365059, 0.028507042676210403, 0.00695520406588912, 0.016524167731404305, 0.11078256368637085, 0.08322487026453018, 0.05126078426837921, 0.06086711958050728, 0.04284878075122833, 0.027861109003424644, 0.01673063263297081, -0.14057853817939758, -0.08655742555856705, 0.011081592179834843, 0.053110163658857346, 0.025051651522517204, 0.057330843061208725, 0.015413694083690643, 0.05106271058320999, 0.037397295236587524, -0.06521911174058914, 0.1174287348985672, 0.07735447585582733, 0.05933510139584541, 0.019272126257419586, 0.06098531186580658, 0.02558838203549385, 0.045522358268499374, 0.04605371505022049, 0.07519631832838058, 0.08228302001953125, 0.05321464315056801, 0.027764862403273582, 0.026409097015857697, 0.02371750958263874, 0.00502071063965559, 0.031766101717948914, 0.07616570591926575, 0.06107172742486, 0.04994884133338928, 0.024998268112540245, 0.0228944830596447, 0.006858561187982559, 0.014597183093428612, 0.02689262665808201, 0.06676123291254044, 0.05288572236895561, 0.032898224890232086, 0.02556062676012516, 0.020464496687054634, 0.00991485919803381, 0.0032819698099046946, 0.0629102811217308, 0.03316069021821022, 0.0469626821577549, 0.03910030797123909, 0.0430779755115509, 0.032634370028972626, 0.02902090921998024, 0.02410493977367878, 0.07001762092113495, 0.07259852439165115, 0.052299126982688904, 0.04626306891441345, 0.05376790836453438, 0.05022384226322174, 0.023479018360376358, 0.02505907043814659, 0.05511320009827614, 0.06103777512907982, 0.07399193942546844, 0.05561557412147522, 0.0631573274731636, 0.05232953652739525, 0.030603351071476936, 0.028351377695798874, 0.13009369373321533, 0.2163432538509369, 0.08462363481521606, 0.05206083878874779, 0.05778218433260918, 0.03405560180544853, 0.04910161718726158, 0.016143493354320526, 0.052508506923913956, 0.011224668473005295, -0.026723992079496384, -0.0009815245866775513, 0.02427143231034279, -0.008132096379995346, -0.021984614431858063, 0.01420580968260765, 0.013480454683303833, 0.03852880373597145, -0.001695445622317493, -0.01894097775220871, -0.022505424916744232, -0.022575942799448967, -0.0020463415421545506, 0.07271581888198853, -0.09029800444841385, -0.013973372988402843, -0.0471486896276474, -0.04980826377868652, -0.032187387347221375, -0.04880973696708679, -0.023268096148967743, 0.055291976779699326, 0.12930206954479218, -0.03686617314815521, -0.031695641577243805, -0.03260789066553116, -0.014320051297545433, -0.012257135473191738, 0.01128464937210083, 0.06890612840652466, 0.17242498695850372, -0.046476393938064575, -0.047382619231939316, -0.031498413532972336, -0.01025701779872179, 0.0014846421545371413, 0.013314560987055302, 0.12635941803455353, 0.21636608242988586, -0.057213541120290756, -0.051684409379959106, -0.03188800811767578, -0.025022320449352264, -0.019916221499443054, 0.0031825259793549776, 0.20235975086688995, 0.2796308398246765, -0.045509837567806244, -0.06111057847738266, -0.07445868104696274, -0.0180281363427639, -0.042554475367069244, -0.0067978971637785435, 0.25431397557258606, 0.29496192932128906, 0.015555303543806076, 0.006328612565994263, -0.02857689931988716, -0.03206027299165726, -0.01575992815196514, -0.026935257017612457, 0.012536287307739258, -0.014631027355790138, -0.05339697003364563, 0.012527288869023323, 0.025333238765597343, 0.037533435970544815, 0.03118942119181156, 0.030931182205677032, 0.027363285422325134, 0.011845593340694904, 0.0063044289126992226, 0.031345635652542114, 0.040389977395534515, 0.03382179141044617, 0.027151256799697876, 0.02674628049135208, 0.04807041585445404, 0.05760625749826431, 0.020592685788869858, 0.029745157808065414, 0.03783126547932625, 0.04396624490618706, 0.04488036781549454, 0.034820716828107834, 0.03127172961831093, 0.05983369052410126, 0.03440970182418823, 0.039935316890478134, 0.03977152705192566, 0.04731845483183861, 0.03751733899116516, 0.041837964206933975, 0.049883101135492325, 0.08225838840007782, 0.04256653040647507, 0.021297480911016464, 0.03379504010081291, 0.03827786073088646, 0.043014705181121826, 0.04734237119555473, 0.0680064782500267, 0.09603429585695267, 0.06009971350431442, 0.04829545319080353, 0.0367477610707283, 0.042152803391218185, 0.0465400293469429, 0.06827252358198166, 0.07216601073741913, 0.07092724740505219, 0.02918267995119095, 0.04591428115963936, 0.034726332873106, 0.04595332592725754, 0.049742985516786575, 0.051196202635765076, 0.0829840749502182, 0.1503169983625412, 0.02953624352812767, 0.06870344281196594, 0.02279641665518284, 0.04243764281272888, 0.04665655642747879, 0.0849936231970787, 0.0909242033958435, 0.09400684386491776, 0.12409024685621262, 0.08396228402853012, 0.13083000481128693, 0.11008405685424805, 0.11156196147203445, 0.07038794457912445, 0.11931884288787842, 0.07833657413721085, 0.07169780135154724, 0.12236876785755157, 0.08433278650045395, 0.1111675575375557, 0.08299286663532257, 0.09518284350633621, 0.04720529541373253, 0.09197909384965897, 0.06930407136678696, 0.07321634888648987, 0.095884770154953, 0.06669897586107254, 0.09910900145769119, 0.050347764045000076, 0.08440425246953964, 0.08159817010164261, 0.05028728023171425, 0.0715545192360878, 0.07411570847034454, 0.10330671072006226, 0.05982222035527229, 0.0854334756731987, 0.04732872545719147, 0.125858336687088, 0.060203760862350464, 0.04865996912121773, 0.0715147852897644, 0.05117597430944443, 0.0974573940038681, 0.057096678763628006, 0.11481280624866486, 0.09931907057762146, 0.06227581948041916, 0.057615481317043304, 0.044290099292993546, 0.07684111595153809, 0.05704854801297188, 0.09563883394002914, 0.11050184816122055, 0.17243421077728271, 0.07120902836322784, 0.04892520606517792, 0.04402849078178406, 0.06345035880804062, 0.0719624012708664, 0.061179790645837784, 0.18647697567939758, 0.19666056334972382, 0.06178940460085869, 0.07749954611063004, 0.08879989385604858, 0.057299207895994186, 0.06999324262142181, 0.11051376909017563, 0.1533879041671753, 0.2181742787361145, 0.17294324934482574, 0.15119661390781403, 0.14706209301948547, 0.16444998979568481, 0.15359017252922058, 0.19727465510368347, 0.20612381398677826, 0.24450848996639252, 0.16589011251926422, 0.155130535364151, 0.15122801065444946, 0.16780318319797516, 0.17425139248371124, 0.19073085486888885, 0.23118723928928375, 0.2705804407596588, 0.15415258705615997, 0.15040723979473114, 0.13772481679916382, 0.1616317182779312, 0.15963152050971985, 0.2191488891839981, 0.2383238822221756, 0.28161856532096863, 0.1601569652557373, 0.15235213935375214, 0.13857975602149963, 0.15494486689567566, 0.16593988239765167, 0.19242332875728607, 0.23981644213199615, 0.2826959490776062, 0.15517236292362213, 0.1495589166879654, 0.14165867865085602, 0.15400268137454987, 0.16636690497398376, 0.1931159645318985, 0.23897887766361237, 0.297815203666687, 0.14802198112010956, 0.15169911086559296, 0.14079341292381287, 0.17630119621753693, 0.17552450299263, 0.19649198651313782, 0.24404260516166687, 0.25883182883262634, 0.17841030657291412, 0.18537773191928864, 0.17484334111213684, 0.19322478771209717, 0.18829885125160217, 0.23863722383975983, 0.28081318736076355, 0.26975753903388977, 0.19187456369400024, 0.1982440948486328, 0.18653257191181183, 0.1967153251171112, 0.21515893936157227, 0.25907567143440247, 0.2574363350868225, 0.30250978469848633, 0.2863313555717468, 0.29536357522010803, 0.27285036444664, 0.2732880711555481, 0.27709928154945374, 0.27414146065711975, 0.2715049386024475, 0.2966732680797577, 0.30717697739601135, 0.2914305627346039, 0.26961758732795715, 0.24955682456493378, 0.24040041863918304, 0.24765190482139587, 0.28841474652290344, 0.26779139041900635, 0.30734702944755554, 0.2671569287776947, 0.26527920365333557, 0.2553679049015045, 0.24994415044784546, 0.27378031611442566, 0.27016395330429077, 0.2517378032207489, 0.2823285460472107, 0.27425500750541687, 0.2562727630138397, 0.2565571665763855, 0.24693399667739868, 0.26595383882522583, 0.28342247009277344, 0.2980313003063202, 0.3028401732444763, 0.2568700611591339, 0.26171866059303284, 0.2352299839258194, 0.2707921862602234, 0.273822158575058, 0.30610519647598267, 0.30606546998023987, 0.30831223726272583, 0.29866790771484375, 0.2676261067390442, 0.2905723750591278, 0.2668222486972809, 0.3026808202266693, 0.3372058570384979, 0.35663947463035583, 0.32366156578063965, 0.3197166323661804, 0.30660954117774963, 0.30823397636413574, 0.32512253522872925, 0.3527529239654541, 0.3850542902946472, 0.30819404125213623, 0.33430805802345276, 0.33632585406303406, 0.32613396644592285, 0.3574132025241852, 0.3438286781311035, 0.3576328754425049, 0.31835973262786865, 0.2797486484050751, -0.07997581362724304, -0.15709665417671204, -0.10466407239437103, -0.15841268002986908, -0.21045972406864166, -0.18688800930976868, -0.3450240194797516, -0.311601847410202, -0.11413451284170151, -0.1322053074836731, -0.11579834669828415, -0.10386981070041656, -0.1358651965856552, -0.10627657920122147, -0.2849970757961273, -0.31774455308914185, -0.12326765805482864, -0.12490145862102509, -0.1252998560667038, -0.11034304648637772, -0.10973914712667465, -0.09707421809434891, -0.10733158886432648, -0.02063252590596676, -0.1396356225013733, -0.1200786679983139, -0.10724146664142609, -0.10897724330425262, -0.0904289111495018, -0.09427788853645325, -0.012368878349661827, 0.021330218762159348, -0.16424906253814697, -0.1444009393453598, -0.11569533497095108, -0.0963578000664711, -0.09293398261070251, -0.07107986509799957, 0.07386747002601624, 0.2682161033153534, -0.15116143226623535, -0.1681351214647293, -0.11896005272865295, -0.10078620165586472, -0.0802033320069313, -0.007196622900664806, 0.27204132080078125, 0.4206730127334595, -0.17229533195495605, -0.16367338597774506, -0.15476953983306885, -0.10933642089366913, -0.08390358090400696, -0.023814059793949127, 0.32947221398353577, 0.42338886857032776, -0.20026107132434845, -0.2065085470676422, -0.18653962016105652, -0.1480114758014679, 0.07636731117963791, -0.008492366410791874, 0.39126676321029663, 0.44914859533309937], [-0.022290721535682678, -0.016530422493815422, 0.013192921876907349, 0.027019783854484558, 0.008534945547580719, -0.03216131031513214, 0.020604338496923447, -0.020633816719055176, 0.08019975572824478, 0.0004997384385205805, -0.43741485476493835, -0.6865323185920715, -0.21434763073921204, 0.02867884933948517, 0.048094797879457474, 0.06414160132408142, 0.08286356180906296, 0.04435098543763161, -0.0828775018453598, -0.24183343350887299, 0.0014064395800232887, 0.052797477692365646, 0.06431962549686432, 0.05238328129053116, 0.06811615824699402, 0.05336714908480644, 0.0024191634729504585, -0.009479867294430733, 0.016953660175204277, 0.03031245991587639, 0.052200425416231155, 0.038518551737070084, 0.044434502720832825, 0.01750069111585617, 0.015988219529390335, 0.011884298175573349, 0.0034491082187741995, 0.020338483154773712, 0.023283232003450394, 0.015480113215744495, -0.01915479078888893, -0.05257236212491989, -0.05269428342580795, -0.061829838901758194, -0.08003924787044525, -0.05793460085988045, -0.06298542767763138, -0.03545820340514183, -0.10524752736091614, -0.1177808940410614, -0.13499128818511963, -0.13023734092712402, -0.2823113203048706, -0.25853145122528076, -0.2534432113170624, -0.06786298751831055, 0.015598088502883911, 0.011422812938690186, 0.02593398466706276, 0.00793445110321045, -0.021242573857307434, -0.02693542093038559, -0.018702637404203415, 0.022785872220993042, -0.38724783062934875, -0.4921633005142212, -0.6625841856002808, -0.7574222683906555, -0.5535672903060913, -0.40307819843292236, -0.28624507784843445, -0.035200126469135284, -0.5308434367179871, -0.8226742148399353, -0.4256274998188019, -0.4210939109325409, -0.6011084914207458, -0.4927534759044647, -0.2714596688747406, -0.09489445388317108, -0.3222757577896118, -0.3595600426197052, -0.41560012102127075, -0.2963590621948242, -0.3919074535369873, -0.14292791485786438, -0.10393807291984558, -0.06074957922101021, -0.07801308482885361, -0.2788526713848114, -0.1890024095773697, -0.2102699875831604, -0.17716474831104279, -0.13170327246189117, -0.026990823447704315, 0.02099069580435753, -0.025882430374622345, -0.017093202099204063, -0.08524788916110992, -0.07566966861486435, -0.03571983426809311, -0.010245027020573616, 0.014403015375137329, 0.008021438494324684, 0.0006515723653137684, -0.001097197993658483, 0.0122990682721138, -0.006451846100389957, 0.001660028239712119, 0.026393268257379532, 0.016783148050308228, 0.02482769824564457, 0.0438401997089386, 0.023754633963108063, 0.03258849307894707, 0.014226656407117844, 0.02536475658416748, 0.03774014115333557, 0.03661573678255081, 0.05761377885937691, 0.04962829500436783, 0.03181670606136322, 0.06392058730125427, 0.040746986865997314, 0.04946534335613251, 0.028727132827043533, 0.04667952284216881, 0.06862258166074753, -0.034730102866888046, -0.3935004770755768, -1.1567497253417969, -1.930013656616211, -0.8305144309997559, -0.2124210000038147, -0.055691197514534, -0.00961792841553688, -0.003741778898984194, -0.2845771908760071, -1.405305027961731, -1.9800000190734863, -1.0713014602661133, -0.2287144660949707, -0.01296209916472435, 0.004150303080677986, -0.338176965713501, -0.81956547498703, -0.4804016053676605, -0.4123513102531433, -0.5275612473487854, -0.5448622107505798, -0.23528869450092316, -0.06946098804473877, -0.8710125088691711, -0.47036316990852356, -0.2424398958683014, -0.07433679699897766, -0.26703736186027527, -0.5143117308616638, -0.7939124703407288, -0.39221110939979553, -0.512342095375061, -0.2322298139333725, -0.08458160609006882, -0.048629093915224075, -0.0698646828532219, -0.2766873836517334, -0.4927375912666321, -0.8551405668258667, -0.25767379999160767, -0.09213320910930634, -0.041185490787029266, -0.04732833057641983, -0.04305245354771614, -0.1174876019358635, -0.31255462765693665, -0.5609365701675415, -0.0634433925151825, -0.0371798574924469, -0.05616218224167824, -0.07754790782928467, -0.0810886099934578, -0.057249948382377625, -0.11703722178936005, -0.3868006765842438, -0.012253652326762676, -0.0443708673119545, -0.05673268064856529, -0.1448039561510086, -0.15165989100933075, -0.11509820073843002, -0.0710987001657486, -0.11306818574666977, -0.2000856101512909, -0.16592884063720703, -0.3507222831249237, -0.5933303236961365, -0.24413210153579712, -0.2265133559703827, -0.24621091783046722, -0.293533593416214, -0.09096861630678177, -0.06404848396778107, -0.2335970550775528, -0.2976427376270294, -0.10937388986349106, -0.1256254017353058, -0.1270800232887268, -0.11788519471883774, -0.01998518407344818, -0.023532066494226456, -0.22846682369709015, -0.2765039801597595, -0.10784361511468887, -0.02889527566730976, 0.004173340275883675, -0.03239362686872482, 0.015952467918395996, 0.011843266896903515, -0.22144107520580292, -0.32458484172821045, -0.07133471965789795, 0.006280997768044472, 0.03978143632411957, 0.021051470190286636, 0.03009946644306183, 0.027773477137088776, -0.17709629237651825, -0.2268139272928238, -0.04169110953807831, 0.02188444510102272, 0.04695717617869377, 0.05129431188106537, 0.022800376638770103, 0.004960522521287203, -0.22385194897651672, -0.27267757058143616, -0.09380657970905304, -0.013715257868170738, 0.04186324030160904, 0.02508186176419258, 0.018602684140205383, -0.012089062482118607, -0.21552298963069916, -0.30486929416656494, -0.09731186926364899, -0.025164233520627022, 0.012549666687846184, -0.0027019192930310965, -0.00292930263094604, -0.02377481386065483, -0.16934195160865784, -0.25384828448295593, -0.11237984150648117, -0.03868424519896507, 0.005904673133045435, -0.00334420008584857, -0.21162019670009613, -0.0954279750585556, -0.07369460165500641, -0.07353421300649643, -0.07483033090829849, -0.07889959961175919, -0.07759902626276016, -0.08017578721046448, -0.08219235390424728, -0.12231498956680298, -0.08125882595777512, -0.14759401977062225, -0.12292248010635376, -0.07629372924566269, -0.08705443143844604, -0.030503109097480774, -0.10384320467710495, -0.09291353821754456, -0.1462511271238327, -0.18700039386749268, -0.1677296906709671, -0.12235864251852036, -0.07946231216192245, -0.0821978971362114, -0.10602118819952011, -0.070670947432518, -0.13869372010231018, -0.20488686859607697, -0.09713882952928543, -0.14759933948516846, -0.11711643636226654, -0.10487065464258194, -0.08024866133928299, -0.06549637764692307, -0.12723110616207123, -0.1813717931509018, -0.116963692009449, -0.08198599517345428, -0.0907583236694336, -0.10651324689388275, -0.05026531219482422, -0.05660049617290497, -0.12152332812547684, -0.19276078045368195, -0.09199433773756027, -0.13024184107780457, -0.07679908722639084, -0.10036031901836395, -0.05977905914187431, -0.06292311102151871, -0.1542602926492691, -0.23181836307048798, -0.14306682348251343, -0.10432504117488861, -0.04938563331961632, -0.05364043265581131, 0.08619517832994461, 0.0049317628145217896, -0.07067233324050903, -0.15535703301429749, -0.0991801843047142, -0.043442752212285995, 0.03358113393187523, 0.037333086133003235, 0.17535516619682312, -0.08997485041618347, -0.8667563796043396, -1.9800000190734863, -1.9367753267288208, -0.07455728948116302, 0.17703381180763245, 0.23930130898952484, 0.19963929057121277, -0.033219967037439346, -1.149361491203308, -1.8646843433380127, -1.580151915550232, -0.0267296452075243, 0.14211173355579376, 0.21172787249088287, 0.20383727550506592, 0.005932214669883251, -0.14710938930511475, -0.3191756010055542, -0.15123209357261658, 0.053509995341300964, 0.17002145946025848, 0.22676582634449005, 0.2384880781173706, 0.21137674152851105, 0.15056069195270538, 0.13344420492649078, 0.11087232828140259, 0.16602793335914612, 0.21093051135540009, 0.2282102406024933, 0.24464483559131622, 0.21607425808906555, 0.2289343923330307, 0.20241856575012207, 0.19696156680583954, 0.20159724354743958, 0.20786160230636597, 0.22977523505687714, 0.24002772569656372, 0.2542990744113922, 0.26143282651901245, 0.23679831624031067, 0.22235111892223358, 0.22484445571899414, 0.24110275506973267, 0.21858523786067963, 0.24947676062583923, 0.3051641881465912, 0.2816423773765564, 0.2543589770793915, 0.26614609360694885, 0.2435634881258011, 0.24308443069458008, 0.19007332623004913, 0.21405747532844543, 0.3012692928314209, 0.30963465571403503, 0.2924007475376129, 0.2861788272857666, 0.25811803340911865, 0.2257547229528427, 0.1996355503797531, 0.023068364709615707, -0.004366721957921982, 0.029925063252449036, -0.024881310760974884, 0.011012852191925049, -0.016156364232301712, 0.02559978887438774, 0.009430412203073502, -0.07149345427751541, 0.17981021106243134, 0.7152011394500732, 0.9445276856422424, 0.6045234799385071, 0.35794001817703247, 0.11228298395872116, 0.05877400189638138, -0.07906734198331833, 0.12645559012889862, 0.5146743655204773, 0.5670526623725891, 0.39737072587013245, 0.1659085750579834, 0.00529873464256525, -0.00906035304069519, -0.04329903796315193, 0.028932254761457443, 0.18169839680194855, 0.30323755741119385, 0.06460550427436829, 0.033425234258174896, -0.002290160860866308, 0.008605221286416054, -0.012734273448586464, 0.011530785821378231, 0.0380517952144146, 0.06655044108629227, 0.02424514666199684, 0.004251977428793907, -0.019455289468169212, -0.0050334143452346325, 0.0014115739613771439, -0.011981618590652943, 0.027196168899536133, 0.028727980330586433, 0.015488623641431332, 0.0001943188108270988, -0.006884281057864428, -0.0013135414337739348, 0.012324651703238487, 0.0011716383742168546, 0.04624701291322708, 0.025012776255607605, 0.032866399735212326, 0.022556781768798828, 0.013684568926692009, 0.005478950683027506, -4.299730062484741e-05, -0.021621419116854668, -0.006619492545723915, -0.004997029900550842, 0.030598081648349762, -0.018425192683935165, 0.000724397599697113, -0.018521172925829887, -0.022992592304944992, 0.01915590837597847, -0.03287922590970993, -0.027055636048316956, -0.02101930044591427, -0.01936911977827549, -0.09437346458435059, 0.03281734138727188, -0.005213881377130747, 0.03078300878405571, -0.03986356407403946, -0.08145232498645782, -0.028179651126265526, -0.0026727719232439995, -0.025592179968953133, -0.14926184713840485, -0.09229273349046707, -0.03875860944390297, 0.012565454468131065, 0.015400059521198273, 0.04030793532729149, -0.0595279186964035, -0.06061197817325592, -0.1160694807767868, -0.11638524383306503, -0.047438424080610275, -0.021042682230472565, -0.021994011476635933, -0.020446481183171272, -0.02681279554963112, -0.03828723728656769, -0.1341177523136139, -0.10521426051855087, -0.08272890746593475, -0.06529498100280762, -0.017762742936611176, -0.059871118515729904, -0.02700013667345047, -0.08302275836467743, -0.08672717958688736, -0.18778781592845917, -0.06618940085172653, -0.08654037117958069, -0.058694709092378616, -0.07738317549228668, -0.035198986530303955, -0.05391471087932587, -0.10265622287988663, -0.16002953052520752, -0.1372828483581543, -0.12758450210094452, -0.09691645950078964, -0.08362597227096558, -0.06452760845422745, -0.13459528982639313, -0.1544731706380844, -0.09309838712215424, -0.1847304254770279, -0.1758773773908615, -0.13827015459537506, -0.15464729070663452, -0.13615354895591736, -0.14315810799598694, -0.07270577549934387, -0.16127049922943115, -0.11683425307273865, -0.11930956691503525, -0.13028380274772644, -0.12392289936542511, -0.16435471177101135, -0.1803135722875595, -0.23028068244457245, -0.1849592626094818, -0.014098760671913624, -0.02839788608253002, -0.03574197739362717, -0.043793853372335434, -0.0512070506811142, -0.12789519131183624, -0.1995248794555664, -0.02944893389940262, -0.020506668835878372, -0.06857713311910629, -0.08434587717056274, -0.06136232987046242, -0.035885557532310486, -0.049584466964006424, -0.13905411958694458, -0.001645974931307137, -0.018880005925893784, -0.06354666501283646, -0.0576365664601326, -0.03925507143139839, -0.014645574614405632, -0.014112778007984161, -0.06531324982643127, -0.047576237469911575, -0.05790221318602562, -0.05559710040688515, -0.08301907032728195, -0.061335571110248566, -0.05495665594935417, -0.04593471437692642, -0.04298102855682373, -0.0712558701634407, -0.10112851113080978, -0.06950053572654724, -0.07539350539445877, -0.08051133900880814, -0.08671056479215622, -0.07209602743387222, -0.07588627934455872, -0.13777878880500793, -0.09798108786344528, -0.1007194072008133, -0.07864056527614594, -0.11107255518436432, -0.08149591833353043, -0.09239789843559265, -0.09386438131332397, -0.09131000936031342, -0.09193488210439682, -0.1167725995182991, -0.14584505558013916, -0.08421681821346283, -0.13298140466213226, -0.08728207647800446, -0.10058992356061935, -0.00033790190354920924, -0.07866530865430832, -0.321504682302475, -0.27682724595069885, -0.09083232283592224, -0.08460365980863571, -0.07186898589134216, -0.049594756215810776, -0.2410878837108612, -0.21627451479434967, -0.19827775657176971, -0.18133139610290527, -0.157789945602417, -0.17171961069107056, -0.2153843343257904, -0.22474566102027893, -0.20374548435211182, -0.1614837795495987, -0.09841741621494293, -0.10732940584421158, -0.0862397849559784, -0.0960349291563034, -0.11143375188112259, -0.1338067352771759, -0.16689391434192657, -0.09935741126537323, -0.0238539669662714, 0.0020581837743520737, -0.006055376026779413, -0.04193326458334923, -0.06844348460435867, -0.10059381276369095, -0.1614937037229538, -0.08381249010562897, 0.008720707148313522, 0.015393710695207119, 0.003634575754404068, -0.0657549500465393, -0.04007324203848839, -0.14097993075847626, -0.1516730636358261, -0.10202442854642868, -0.011520454660058022, 0.017891936004161835, -0.036104243248701096, -0.09022954851388931, -0.0765119269490242, -0.11500830203294754, -0.10563812404870987, -0.08461327105760574, 0.006130083464086056, 0.024957317858934402, 0.00020121516718063504, -0.08778669685125351, -0.0961938202381134, -0.1116604283452034, -0.09602431952953339, -0.08359980583190918, 0.030346738174557686, 0.05475360155105591, -0.011591149494051933, -0.058933790773153305, -0.06493619829416275, -0.05711297318339348, -0.07836905866861343, -0.054998792707920074, -0.048158910125494, -0.07463255524635315, -0.053612120449543, -0.09242510795593262, -0.01976216770708561, 0.03375636041164398, -0.17788369953632355, -0.046195466071367264, 0.01059308648109436, 0.010705949738621712, -0.03776010870933533, -0.0509808249771595, 0.03966359421610832, 0.03478825092315674, -0.1294875591993332, 0.002025267807766795, 0.03243299201130867, -0.0009408273035660386, 0.014455264434218407, -0.04141800478100777, 0.007291743997484446, -0.0735870972275734, -0.046090591698884964, 0.01595955528318882, 0.028335411101579666, 0.018954725936055183, -0.005572596099227667, 0.019556690007448196, 0.01389870885759592, -0.021382831037044525, -0.12705206871032715, -0.07362283021211624, 0.016405507922172546, 0.025357261300086975, 0.014799187891185284, -0.06656050682067871, -0.059783488512039185, -0.028468364849686623, -0.224486842751503, -0.10324952006340027, -0.0190871749073267, 0.013800146989524364, -0.05534130707383156, -0.11226470023393631, -0.1627252697944641, -0.12278266996145248, -0.5618321895599365, -0.18003977835178375, -0.04104301333427429, -0.03151446208357811, -0.07387769222259521, -0.1678381711244583, -0.25702840089797974, -0.4000086784362793, -1.298405408859253, -0.17507843673229218, -0.036108050495386124, -0.01912522129714489, -0.05791667848825455, -0.2243461161851883, -0.19643214344978333, -0.1240961030125618, 0.2559812068939209, 0.2201327681541443, 0.10310889780521393, 0.08897306770086288, 0.09649859368801117, 0.18583594262599945, 0.19286850094795227, 0.1577596366405487, 0.22144727408885956, 0.19692263007164001, 0.19959820806980133, 0.22269612550735474, 0.2006721943616867, 0.22994211316108704, 0.22528284788131714, 0.21851429343223572, 0.22018545866012573, 0.20512525737285614, 0.21963082253932953, 0.24929960072040558, 0.2502247989177704, 0.24418731033802032, 0.22962374985218048, 0.19051876664161682, 0.2058248519897461, 0.1930580586194992, 0.2111395001411438, 0.21809913218021393, 0.21924656629562378, 0.18688257038593292, 0.1983180195093155, 0.10677558928728104, 0.11252938956022263, 0.14722977578639984, 0.14519719779491425, 0.12483618408441544, 0.10431016236543655, 0.08081423491239548, 0.052394405007362366, 0.01099404226988554, 0.041713014245033264, 0.06157789006829262, 0.07686930894851685, 0.06464657187461853, 0.042772598564624786, 0.02488597296178341, 0.006630264688283205, 0.003944181837141514, 0.044130563735961914, 0.03495113551616669, 0.07395865023136139, 0.05588167905807495, 0.04651686176657677, 0.032454587519168854, 0.030098827555775642, 0.04031648859381676, 0.034960150718688965, 0.03063703142106533, 0.017284980043768883, 0.04916045069694519, 0.024464303627610207, 0.030664844438433647, 0.03110688179731369, 0.03726688772439957], [-0.011895470321178436, 0.005830883979797363, -0.02728043869137764, -0.006122041493654251, 0.00582287460565567, 0.03585350513458252, -0.028642375022172928, -0.029749497771263123, 0.28534772992134094, 0.3905334770679474, 0.3375042676925659, 0.23293668031692505, 0.19639258086681366, 0.14072316884994507, 0.19133394956588745, 0.15336178243160248, 0.23555564880371094, 0.41549548506736755, 0.37554731965065, 0.3507007360458374, 0.23713938891887665, 0.14476345479488373, 0.2132442742586136, 0.1351994127035141, 0.3900188207626343, 0.5436033010482788, 0.544079601764679, 0.40888237953186035, 0.22285234928131104, 0.14638906717300415, 0.14948835968971252, 0.14980514347553253, 0.5356221795082092, 0.687137246131897, 0.6654242277145386, 0.4844810664653778, 0.27718088030815125, 0.1533821076154709, 0.1224362850189209, 0.11359621584415436, 0.71900475025177, 0.7861225008964539, 0.7022985816001892, 0.5896297097206116, 0.4006636142730713, 0.21213573217391968, 0.1116267591714859, 0.0765131488442421, 0.8851147890090942, 0.8469201326370239, 0.8226579427719116, 0.5875744819641113, 0.5576542615890503, 0.2830865979194641, 0.2200896441936493, 0.13220779597759247, 0.0004228763282299042, 0.01995282992720604, 0.03081274777650833, 0.025710362941026688, 0.028886400163173676, -0.0130587387830019, 0.005129929631948471, 0.009555839002132416, 0.046127256006002426, 0.07217651605606079, 0.02900165319442749, 0.05906946212053299, 0.028501873835921288, 0.08464444428682327, 0.20281536877155304, 0.1326083540916443, 0.003223980776965618, 0.09310679137706757, 0.04046059772372246, 0.06029875576496124, 0.06149609014391899, 0.10700833797454834, 0.13466493785381317, 0.06047866865992546, 0.08773817867040634, 0.0417233482003212, 0.0785597711801529, 0.0697241872549057, 0.08078103512525558, 0.10103019326925278, 0.0949997752904892, 0.1481916606426239, 0.09905936568975449, 0.10440695285797119, 0.1381075084209442, 0.06686954200267792, 0.03812233358621597, 0.06944772601127625, 0.10589560121297836, 0.051947448402643204, 0.16241522133350372, 0.08549761027097702, 0.07637862861156464, 0.09438779950141907, 0.053175732493400574, 0.06238090991973877, -0.020399337634444237, 0.028006084263324738, 0.15117430686950684, 0.14929895102977753, 0.1054769903421402, 0.07974225282669067, 0.055278949439525604, 0.0232834555208683, 0.025249803438782692, -0.0020140695851296186, 0.11690445244312286, 0.14701586961746216, 0.12770594656467438, 0.06680825352668762, 0.062109027057886124, 0.05018242448568344, 0.0980340838432312, 0.0036107669584453106, 0.003674583975225687, 0.0695318877696991, 0.15273034572601318, 0.05925746262073517, 0.06260804831981659, 0.058154646307229996, 0.09296130388975143, 0.071847103536129, 0.16157101094722748, -0.2339760661125183, 0.23415997624397278, -0.2708827257156372, 0.1991039365530014, -0.27524203062057495, -0.07185661047697067, -0.23429955542087555, -0.1376776248216629, 0.1607763171195984, -0.1870911866426468, 0.2515110671520233, -0.24478280544281006, 0.06380471587181091, -0.2880193591117859, 0.06058517098426819, 0.12400423735380173, -0.11524271965026855, 0.19142097234725952, -0.07448361814022064, 0.22578123211860657, -0.26670041680336, 0.16428694128990173, -0.404991090297699, -0.08684186637401581, 0.176858052611351, -0.03743048012256622, 0.18697592616081238, -0.08637714385986328, 0.2454153448343277, -0.28323304653167725, 0.21540389955043793, 0.11995705217123032, 0.0836346447467804, 0.170943945646286, -0.03530615195631981, 0.18500009179115295, -0.07361847162246704, 0.29798561334609985, -0.08610791712999344, -0.08160319179296494, 0.18006964027881622, 0.05844864994287491, 0.1706707924604416, -0.10476777702569962, 0.21931783854961395, -0.21217060089111328, 0.14226964116096497, 0.15253683924674988, 0.00151851586997509, 0.1889163702726364, -0.12979090213775635, 0.20824410021305084, -0.14244110882282257, 0.25447672605514526, -0.1780596524477005, -0.2004203349351883, 0.14181028306484222, -0.197212353348732, 0.22554825246334076, -0.17907743155956268, 0.1555810272693634, -0.14697231352329254, 0.1352630853652954, 0.666748046875, 0.6753523945808411, 0.7046040892601013, 0.6837092638015747, 0.6900065541267395, 0.6304696798324585, 0.6635967493057251, 0.6391287446022034, 0.6754468083381653, 0.6706562638282776, 0.7040784358978271, 0.6896543502807617, 0.6889929175376892, 0.6500699520111084, 0.6959428191184998, 0.5919605493545532, 0.668703019618988, 0.6506145000457764, 0.6797730326652527, 0.6576650142669678, 0.6854493618011475, 0.6652215123176575, 0.6948289275169373, 0.5988108515739441, 0.6498045325279236, 0.6698876023292542, 0.6761361956596375, 0.6881210803985596, 0.6868306398391724, 0.7027401924133301, 0.6878312230110168, 0.647731602191925, 0.6315091848373413, 0.6855649352073669, 0.7016348242759705, 0.6823750734329224, 0.692033588886261, 0.6648420691490173, 0.6609125733375549, 0.6724597811698914, 0.565110981464386, 0.6500625610351562, 0.661628007888794, 0.6828396320343018, 0.6736759543418884, 0.6581314206123352, 0.6372902393341064, 0.6882776618003845, -0.0028123350348323584, 0.6104044914245605, 0.6105884909629822, 0.6394950151443481, 0.642620861530304, 0.6280593276023865, 0.574485719203949, 0.6629140973091125, -0.3287127614021301, -0.33258187770843506, -0.22417500615119934, 0.6384738087654114, 0.6857436299324036, 0.6574245095252991, 0.6492319107055664, 0.6383915543556213, 0.9436773657798767, 0.8699796199798584, 0.9473892450332642, 0.9626389145851135, 1.1026524305343628, 1.1189075708389282, 1.0614196062088013, 0.5015430450439453, 0.9984993934631348, 0.9997584819793701, 0.9831418991088867, 1.0962125062942505, 1.0428394079208374, 1.0679289102554321, 0.9623561501502991, 0.7182880640029907, 0.980743944644928, 0.9811474084854126, 0.9827308654785156, 1.0440809726715088, 1.0295425653457642, 1.0424575805664062, 0.9902815818786621, 0.8614506125450134, 0.9141950011253357, 1.0127251148223877, 0.9650722146034241, 0.9684516191482544, 0.9667060971260071, 1.0193833112716675, 0.9159100651741028, 1.0209407806396484, 1.044166922569275, 0.9851003289222717, 0.9638931751251221, 0.9468090534210205, 0.9903950691223145, 0.968375027179718, 0.9456694722175598, 0.8347107172012329, 1.0657559633255005, 1.0043479204177856, 0.9682317972183228, 0.9923292994499207, 0.9350695013999939, 0.9467599987983704, 0.8664648532867432, 0.8312614560127258, 0.8204501271247864, 0.8933021426200867, 0.9858354330062866, 0.969997763633728, 0.9159528613090515, 0.956696093082428, 0.9234377145767212, 0.9363088011741638, 0.8073774576187134, 1.0084967613220215, 0.9739102125167847, 1.027137279510498, 0.9868460297584534, 0.9796884655952454, 0.9027204513549805, 0.9194160103797913, -0.6807818412780762, 0.00952964648604393, -0.08055542409420013, -0.12321041524410248, -0.252379834651947, -0.41111740469932556, -0.5433927178382874, -0.6128543615341187, 0.20477132499217987, 0.18999186158180237, 0.1409655511379242, 0.06700033694505692, -0.0379265621304512, -0.18248876929283142, -0.18850643932819366, -0.35480183362960815, 0.31049254536628723, 0.332871675491333, 0.2807810604572296, 0.23341144621372223, 0.11119035631418228, 0.002264288254082203, -0.13402105867862701, -0.3075297176837921, 0.43490496277809143, 0.4262221157550812, 0.4003179371356964, 0.35893070697784424, 0.31131842732429504, 0.1476573795080185, -0.03134366124868393, -0.24375508725643158, 0.468778133392334, 0.4568788409233093, 0.44691818952560425, 0.4103320837020874, 0.36442503333091736, 0.27188634872436523, 0.0016459382604807615, -0.06267224997282028, 0.45248571038246155, 0.4736323952674866, 0.46721309423446655, 0.43337690830230713, 0.38236844539642334, 0.3141685128211975, 0.1220824345946312, -1.194885015487671, 0.39261844754219055, 0.4550865590572357, 0.47835302352905273, 0.43641141057014465, 0.41108304262161255, 0.37721872329711914, 0.16484235227108002, -1.1898086071014404, 0.38830727338790894, 0.45929911732673645, 0.46114596724510193, 0.41919270157814026, 0.4316542148590088, 0.48559749126434326, -0.506499171257019, -1.369317889213562, 0.011532425880432129, 0.014084380120038986, -0.015197142958641052, -0.017553947865962982, -0.032901864498853683, -0.029524248093366623, 0.01596810296177864, -0.016951505094766617, -1.2724785804748535, -1.369928002357483, -1.8733618259429932, -0.874197781085968, -0.8138709664344788, -1.0303963422775269, -0.9570587277412415, -1.005836844444275, -0.47965654730796814, -0.5381203293800354, -0.6917918920516968, -0.7458066940307617, -0.8657087087631226, -0.9256500005722046, -0.8754114508628845, -0.9022110104560852, -0.3345288932323456, -0.26861879229545593, -0.34203022718429565, -0.4475345015525818, -0.674235463142395, -0.7016342878341675, -0.664071798324585, -0.6478831768035889, -0.27036046981811523, -0.2610122859477997, -0.39442506432533264, -0.32090604305267334, -0.38192030787467957, -0.42666196823120117, -0.37478601932525635, -0.31666800379753113, -0.36130785942077637, -0.4978281557559967, -0.9068845510482788, -0.5005460381507874, -0.3086802065372467, -0.176479771733284, -0.14072886109352112, -0.15455231070518494, -0.5605006217956543, -0.6926629543304443, -0.6552070379257202, -0.6317834258079529, -0.28136736154556274, -0.19733089208602905, -0.161781445145607, -0.1736924797296524, 0.013765059411525726, 0.0042325034737586975, -0.016100158914923668, -0.010704070329666138, -0.01869410276412964, 0.02673611044883728, -0.018212512135505676, -0.010742664337158203, -0.7412459850311279, -0.6039872765541077, -0.5893928408622742, -0.5904356241226196, -0.5662707090377808, -0.5845726728439331, -0.6363822221755981, -0.5959135890007019, -0.5702489018440247, -0.5316263437271118, -0.5930287837982178, -0.6265473365783691, -0.6573308110237122, -0.618511438369751, -0.6641954779624939, -0.613661527633667, -0.6769125461578369, -0.6509786248207092, -0.659489631652832, -0.6978707909584045, -0.7545173764228821, -0.6319656372070312, -0.6322242617607117, -0.6062472462654114, -0.8118477463722229, -0.7262507081031799, -0.7754783630371094, -0.8401830792427063, -0.7281883358955383, -0.7060171961784363, -0.63217693567276, -0.6087811589241028, -0.8776190280914307, -0.894245982170105, -0.870169997215271, -0.8398812413215637, -0.8167585134506226, -0.7010341286659241, -0.6191041469573975, -0.5950746536254883, -0.7930254936218262, -0.7090995907783508, -0.8643293380737305, -0.8576677441596985, -0.8201618790626526, -0.6708482503890991, -0.6078003644943237, -0.5943174958229065, -0.8491315245628357, -0.7405567765235901, -0.6430090665817261, -0.6602669358253479, -0.7218957543373108, -0.6401159763336182, -0.5918863415718079, -0.5672469139099121, -0.7519388198852539, -0.799339234828949, -0.7972096800804138, -0.687386155128479, -0.7594170570373535, -0.6817052364349365, -0.5447661280632019, -0.49466022849082947, -0.6263946294784546, -0.6523909568786621, -0.5669302940368652, -0.700049877166748, -0.5713992118835449, -0.8023586273193359, -0.726728081703186, -0.8082528710365295, -0.7453117370605469, -0.5811542868614197, -0.6430444121360779, -0.5835067629814148, -0.7287135124206543, -0.693492591381073, -0.777076244354248, -0.7406234741210938, -0.6556979417800903, -0.7117676734924316, -0.5935180187225342, -0.696643590927124, -0.6843879222869873, -0.7484641075134277, -0.7040680646896362, -0.7312015295028687, -0.8242297768592834, -0.716821551322937, -0.8111653327941895, -0.6567226052284241, -0.7617167234420776, -0.7045477628707886, -0.6535056829452515, -0.5972114205360413, -0.6369607448577881, -1.0392032861709595, -0.7538057565689087, -0.9774073958396912, -0.6855967044830322, -0.6894084215164185, -0.5640214681625366, -0.5942464470863342, -0.7697038054466248, -0.8353450894355774, -1.4085805416107178, -0.7691593766212463, -0.7056474089622498, -0.5824446678161621, -0.6226938366889954, -0.5007423758506775, -0.6665480136871338, -0.9852834343910217, -0.7517258524894714, -0.8250122666358948, -0.588158369064331, -0.6543946862220764, -0.5389763116836548, -0.5736302733421326, -0.9704856872558594, -0.7676247954368591, -0.7181687951087952, -0.6178149580955505, -0.7907083034515381, -0.5561292767524719, -0.6414559483528137, -0.5390033721923828, -0.8048240542411804, -0.792203962802887, -0.7737204432487488, -0.7918142080307007, -0.8011569380760193, -0.7679712176322937, -0.7773892283439636, -0.7648305296897888, -0.7998488545417786, -0.7871401309967041, -0.7705949544906616, -0.7812326550483704, -0.8147074580192566, -0.754581868648529, -0.7841023802757263, -0.7575594186782837, -0.8013998866081238, -0.7996603846549988, -0.7730109691619873, -0.7767871618270874, -0.7926851511001587, -0.7730399370193481, -0.7938405871391296, -0.7966721057891846, -0.8542157411575317, -0.8477334380149841, -0.7924662232398987, -0.7867560982704163, -0.8125854134559631, -0.7961629629135132, -0.8015800714492798, -0.7633041143417358, -0.908812940120697, -0.9091969728469849, -0.8968925476074219, -0.8830245733261108, -0.8431198000907898, -0.8470077514648438, -0.8326736688613892, -0.7600404024124146, -0.8966271281242371, -0.8758291602134705, -0.8503163456916809, -0.8910462856292725, -0.8822819590568542, -0.822716474533081, -0.8243049383163452, -0.79883873462677, -0.884190559387207, -0.8720618486404419, -0.8345321416854858, -0.8601557612419128, -0.8597052097320557, -0.8099087476730347, -0.8046166300773621, -0.7863028049468994, -0.878034770488739, -0.8450526595115662, -0.8407379984855652, -0.8111985325813293, -0.8413415551185608, -0.831290602684021, -0.8267107009887695, -0.8256188035011292, -1.9421021938323975, -1.9465233087539673, -1.9213792085647583, -1.8242846727371216, -1.8593940734863281, -1.9165303707122803, -1.9721462726593018, -1.764885425567627, -1.9471063613891602, -1.9591529369354248, -1.9266465902328491, -1.936532974243164, -1.8836299180984497, -1.8725641965866089, -1.9481793642044067, -1.9318026304244995, -1.9438103437423706, -1.9799189567565918, -1.9730756282806396, -1.922550916671753, -1.9059193134307861, -1.9154413938522339, -1.9430721998214722, -1.9756304025650024, -1.9776219129562378, -1.972561240196228, -1.9768069982528687, -1.9797693490982056, -1.9058811664581299, -1.9226678609848022, -1.9746180772781372, -1.923526406288147, -1.8620496988296509, -1.9785571098327637, -1.8841208219528198, -1.978938102722168, -1.9621461629867554, -1.978005290031433, -1.9792317152023315, -1.9336191415786743, -1.6153703927993774, -1.813423991203308, -1.9800000190734863, -1.9497791528701782, -1.9799752235412598, -1.9709337949752808, -1.9761714935302734, -1.9777535200119019, -1.7179765701293945, -1.9219038486480713, -1.9636662006378174, -1.9781949520111084, -1.9476872682571411, -1.9694005250930786, -1.9784899950027466, -1.9619102478027344, -1.6513224840164185, -1.6633737087249756, -1.974361777305603, -1.977101445198059, -1.9714285135269165, -1.973451018333435, -1.9800000190734863, -1.9503703117370605, 0.3136231303215027, 0.29955512285232544, 0.2905391752719879, 0.27876871824264526, 0.2815187871456146, 0.31630146503448486, 0.3256593346595764, 0.36786749958992004, 0.272034227848053, 0.28214192390441895, 0.21658067405223846, 0.24431024491786957, 0.26322126388549805, 0.3013836145401001, 0.3096528947353363, 0.35362136363983154, 0.12703683972358704, 0.1453009396791458, 0.06286509335041046, 0.17669039964675903, 0.23006078600883484, 0.26006582379341125, 0.26392069458961487, 0.28502410650253296, -0.09801145642995834, -0.13804200291633606, -0.03367495536804199, 0.08370661735534668, 0.16806454956531525, 0.22359280288219452, 0.22932055592536926, 0.2903134822845459, -0.6329697966575623, -1.541216254234314, -1.1930105686187744, -0.058178141713142395, 0.09833336621522903, 0.19887104630470276, 0.2258516401052475, 0.31761759519577026, -0.8634794354438782, -1.0910224914550781, -1.3441442251205444, -0.20351772010326385, 0.004635936114937067, 0.18959741294384003, 0.22251543402671814, 0.2844649851322174, -1.1138421297073364, -1.6314934492111206, -1.9777053594589233, -1.9800000190734863, 0.0021204182412475348, 0.18134571611881256, 0.22828534245491028, 0.27516621351242065, -1.9409689903259277, -0.7281219959259033, -1.9791901111602783, -0.46613091230392456, -0.09534142166376114, 0.19237911701202393, 0.27449190616607666, 0.24722792208194733], [0.02857779711484909, -0.0166816096752882, 0.023162372410297394, 0.0036040842533111572, -0.002301465719938278, -0.019076738506555557, 0.009814463555812836, -0.02387068048119545, 0.005479828454554081, 0.024141505360603333, -0.01836857758462429, -0.07184352725744247, -0.005878728348761797, -0.019692139700055122, -0.02310231141746044, -0.022290484979748726, 0.009788102470338345, 0.030164901167154312, 0.020592639222741127, -0.05291299894452095, -0.005908153019845486, -0.03675120696425438, 0.016235563904047012, -0.025070421397686005, 0.010451557114720345, 0.03892257437109947, -0.039443276822566986, 0.021370599046349525, -0.17093825340270996, -0.09651549905538559, -0.01289639063179493, -0.0017696954309940338, 0.010901917703449726, 0.0664580911397934, -0.03150974214076996, -0.03077574074268341, -0.21682830154895782, -0.051082756370306015, -0.0426410548388958, 0.025730617344379425, 0.03560659661889076, 0.02509249933063984, -0.019264502450823784, 0.07806704193353653, -0.32578375935554504, 0.009642782621085644, -0.014930753968656063, 0.06018167734146118, -0.1016869992017746, -0.0008448365842923522, 0.021126816049218178, -0.18602587282657623, -0.06869421899318695, -0.055066920816898346, 0.024228379130363464, -0.003118667285889387, -0.013153545558452606, -0.008430419489741325, -0.0010209418833255768, -0.012046370655298233, 0.03581710159778595, -0.027763593941926956, -0.014596855267882347, -0.03549400344491005, 0.03967331349849701, -0.013239678926765919, 0.0795079842209816, -0.0629485547542572, 0.09576869010925293, -0.04634719714522362, 0.040610603988170624, -0.05231597274541855, 0.0028202724643051624, 0.05299156531691551, -0.008856448344886303, 0.006670376285910606, -0.0164601132273674, -0.007234103046357632, 0.0012755162315443158, 0.08101794123649597, 0.018599357455968857, 0.059775181114673615, -0.09763756394386292, 0.07990711182355881, -0.17750518023967743, 0.04115888476371765, -0.12190768867731094, 0.040630634874105453, -0.0037423523608595133, -0.007928007282316685, -0.02988872490823269, -0.04448835551738739, -0.1082833930850029, -0.1298002004623413, -0.023183463141322136, -0.0318705290555954, 0.04121988266706467, -0.042239341884851456, 0.05508152395486832, -0.2396193891763687, 0.1104772761464119, -0.16838735342025757, -0.0043339719995856285, -0.03442859649658203, 0.07395946234464645, -0.04557645320892334, 0.02558133751153946, -0.03737699240446091, 0.12739582359790802, -0.053381748497486115, 0.0008424663683399558, -0.09486772865056992, 0.06048394739627838, 0.037645984441041946, -0.1365797072649002, 0.010704655200242996, -0.22204197943210602, 0.017324410378932953, -0.1731155514717102, 0.09041973948478699, 0.05226884409785271, 0.1656172275543213, 0.05937967821955681, 0.14180336892604828, 0.0047879586927592754, 0.1128561869263649, 0.0034527857787907124, 0.0989433079957962, -0.06484188139438629, -0.019696135073900223, 0.027454018592834473, 0.0031344443559646606, 0.021724600344896317, -0.01072150468826294, 0.02838536538183689, 0.03413548320531845, -0.1325310468673706, -0.041910748928785324, 0.0023455098271369934, 0.028879079967737198, -0.0036760633811354637, 0.0027499578427523375, -0.04030944034457207, 0.09306075423955917, 0.031667985022068024, -0.1038830578327179, -0.03602038323879242, 0.0035769545938819647, -0.015110407955944538, -0.02728458121418953, 0.016853848472237587, -0.12831585109233856, -0.015327165834605694, 0.027286069467663765, -0.13573449850082397, -0.018381351605057716, -0.10984012484550476, 0.009444613009691238, -0.09915703535079956, -0.029862340539693832, 0.03588222712278366, -0.011307626962661743, 0.02402307465672493, -0.3146689236164093, 0.10622448474168777, -0.24872629344463348, -0.033662497997283936, 0.005675852298736572, 0.010123404674232006, 0.02614959143102169, -0.07922914624214172, 0.04210371896624565, 0.06548701971769333, 0.05936634540557861, -0.05402323231101036, 0.052443649619817734, 0.020421599969267845, -0.054745618253946304, 0.029848311096429825, -0.06287539005279541, 0.032529864460229874, -0.08425643295049667, 0.0359199158847332, -0.057439371943473816, -0.10471455007791519, 0.03887209668755531, -0.0514899305999279, 0.006806318182498217, 0.02704974263906479, 0.014876277185976505, -0.09903018176555634, 0.0014881786191836, -0.02194812335073948, -0.01758638210594654, -0.017975615337491035, -0.07294577360153198, -0.04330576956272125, -0.05917700007557869, -0.04171748086810112, -0.020162157714366913, -0.009563663974404335, -0.015691420063376427, -0.011658058501780033, -0.0812220573425293, -0.03681807965040207, -0.06984729319810867, -0.03926072642207146, -0.014886528253555298, -0.00869961827993393, -0.017430605366826057, -0.004971100017428398, -0.0684138834476471, -0.041574545204639435, -0.05525515228509903, -0.016234999522566795, 0.010295445099473, -0.04141475632786751, -0.04781631380319595, -0.03857942298054695, -0.11223672330379486, -0.12039708346128464, -0.10500901937484741, -0.042209114879369736, -0.022007767111063004, -0.07042787969112396, -0.09630773216485977, -0.10364650189876556, -0.18969275057315826, -0.17420199513435364, -0.16677984595298767, -0.1395564079284668, -0.11837068945169449, -0.06471230834722519, -0.09846382588148117, -0.08938931673765182, -0.09152219444513321, -0.07751432061195374, -0.08296391367912292, -0.10232661664485931, -0.10145493596792221, -0.04813969135284424, -0.04771959036588669, -0.04485047236084938, -0.0904407799243927, -0.022056082263588905, -0.11093162000179291, -0.036283817142248154, -0.04899490997195244, -0.03513311222195625, -0.01932365633547306, -0.02349102310836315, -0.061594780534505844, -0.03914063423871994, -0.0506061390042305, -0.02742650918662548, -0.01635776460170746, -0.11492316424846649, -0.11719704419374466, -0.08239419758319855, -0.11978249251842499, -0.08239343017339706, -0.10611267387866974, -0.10803604871034622, -0.11933702975511551, -0.13874422013759613, -0.10020196437835693, -0.12572534382343292, -0.10518918186426163, -0.067174531519413, -0.12624488770961761, -0.1383495032787323, -0.07134491950273514, -0.09344973415136337, -0.13383084535598755, -0.12161944806575775, -0.1375333070755005, -0.0867580696940422, -0.1449030339717865, -0.12054372578859329, -0.15129494667053223, -0.11322493851184845, -0.12146825343370438, -0.17946910858154297, -0.1778033971786499, -0.18007589876651764, -0.13288003206253052, -0.17691509425640106, -0.11528366804122925, -0.1175164207816124, -0.15004827082157135, -0.159014493227005, -0.2343418449163437, -0.1341894268989563, -0.18228831887245178, -0.1330166608095169, -0.13784383237361908, -0.14221063256263733, -0.1730329394340515, -0.1844162791967392, -0.14540435373783112, -0.05482042580842972, -0.1554156094789505, -0.17050977051258087, -0.1127670407295227, -0.14374609291553497, -0.13133448362350464, -0.11043786257505417, -0.19778285920619965, -0.12619899213314056, -0.22925959527492523, -0.14037317037582397, -0.16028286516666412, -0.13350802659988403, -0.09631042182445526, -0.18448728322982788, -0.11954569816589355, -0.14673778414726257, -0.13006635010242462, -0.16986992955207825, -0.12796351313591003, -0.09332389384508133, -0.14937591552734375, -0.15470820665359497, -0.12967512011528015, -0.11948952078819275, -0.13119906187057495, -0.13747629523277283, -0.14727632701396942, -0.12100420892238617, -0.11336042732000351, -0.11861942708492279, -0.13585294783115387, -0.12998360395431519, -0.13094834983348846, -0.13898873329162598, -0.13686707615852356, -0.09964844584465027, -0.1039201095700264, -0.1385326236486435, -0.205523282289505, -0.17553167045116425, -0.19111645221710205, -0.15283958613872528, -0.11610113084316254, -0.08641969412565231, -0.1366700977087021, -0.2453596591949463, -0.280272513628006, -0.3371215760707855, -0.305363267660141, -0.2344120591878891, -0.1739642173051834, -0.08680807799100876, -0.1764526516199112, -0.19305619597434998, -0.29554542899131775, -0.20341499149799347, -0.322708398103714, -0.2076205164194107, -0.14140191674232483, -0.026968520134687424, -0.0570390559732914, -0.18540425598621368, -0.14201320707798004, -0.1892319619655609, -0.1068429946899414, -0.08129700273275375, 0.014650493860244751, -0.02096663787961006, -0.02902347780764103, -0.1279846429824829, -0.22454795241355896, -0.1545696258544922, -0.17567534744739532, -0.006565447896718979, -0.0007621689001098275, -0.039041485637426376, 0.04707726463675499, -0.13264580070972443, -0.20428316295146942, -0.17820847034454346, -0.1175701916217804, -0.19328363239765167, -0.05635847896337509, 0.0028191693127155304, -0.013374298810958862, 0.02713274210691452, -0.004010844975709915, -0.029687033966183662, -0.00811108760535717, -0.004040665924549103, -0.01772434264421463, 0.06725353002548218, -0.05756714567542076, -0.0025900236796587706, -0.05644146725535393, -0.23873068392276764, 0.024540238082408905, -0.014432104304432869, -0.06970731168985367, 0.018316064029932022, -0.018667690455913544, 0.033742159605026245, 0.07565166056156158, -0.1554759293794632, 0.06400682777166367, 0.046567123383283615, 0.07399200648069382, -0.010184922255575657, -0.004222671501338482, -0.038525570183992386, 0.11327368021011353, -0.16259177029132843, 0.08592712879180908, -0.04668368771672249, 0.044158935546875, -0.024948153644800186, 0.008099358528852463, -0.0424802340567112, 0.03091118484735489, 0.13000811636447906, 0.036014873534440994, -0.009914038702845573, 0.020031889900565147, -0.04206278920173645, 0.023744303733110428, 0.056481003761291504, 0.004142052959650755, 1.5392813682556152, -0.010087448172271252, 0.08858437836170197, 0.02869744412600994, -0.023420238867402077, 0.025440989062190056, 0.053213637322187424, -0.10163087397813797, 1.433752417564392, -0.007070280145853758, 0.06922582536935806, 0.022267110645771027, 0.0035857558250427246, 0.00086241215467453, -0.03044826164841652, -0.027652647346258163, -0.01969638280570507, 0.010422483086585999, 0.022272378206253052, 0.015296250581741333, -0.13100123405456543, -0.007516583427786827, -0.002869821386411786, 0.016691287979483604, -0.012987452559173107, -0.004364910069853067, -0.033435922116041183, -0.02723081223666668, -0.04995538666844368, -0.012271957471966743, 0.015426525846123695, -0.011605187319219112, -0.021889597177505493, -0.025602193549275398, -0.022021397948265076, 0.012344841845333576, -0.010403676889836788, -0.01751946285367012, -5.55739134142641e-05, 0.012654554098844528, -0.008527454920113087, -0.01135757751762867, 0.02176571451127529, -0.02637147530913353, 0.006091498304158449, -0.0039201234467327595, -0.013825705274939537, 0.002624238608404994, -0.03889548033475876, 0.02084401808679104, 0.013479202054440975, -0.05611944571137428, -0.04956532642245293, 0.012616898864507675, 0.03709151968359947, -0.06407317519187927, 0.11158120632171631, -0.03019687347114086, 0.04447545111179352, 0.028592411428689957, 0.04301147907972336, -0.010798472911119461, -0.00961377564817667, 0.033521972596645355, 0.1286245882511139, 0.027635794132947922, -0.04301602393388748, 0.008688476867973804, -0.08569587767124176, 0.02546011470258236, 0.09159788489341736, -0.015325159765779972, -0.04129454493522644, 0.011308110319077969, 0.11825889348983765, 0.021543337032198906, -0.0645279660820961, -0.038092680275440216, 0.0051955063827335835, 0.04234619438648224, 0.05305173248052597, 0.03894314542412758, 0.02510676346719265, -0.0694270208477974, 0.02930290810763836, 0.024790002033114433, 0.016272015869617462, 0.03867350518703461, -0.016556285321712494, 0.04344065859913826, -0.013868208043277264, 0.0035735012497752905, 0.07769298553466797, 0.010789338499307632, 0.04413653910160065, 0.017386214807629585, 0.02596009336411953, 0.014140889048576355, 0.028546854853630066, 0.03128485009074211, -0.021081876009702682, 0.058513954281806946, 0.02570359781384468, 0.03686366230249405, -0.0288848914206028, 0.03367568179965019, 0.010904619470238686, 0.07878948003053665, 0.0357300266623497, 0.018648484721779823, 0.046811025589704514, 0.0411885567009449, -0.006824049632996321, 0.03409259393811226, 0.05153730884194374, -0.004607576876878738, 0.002123842481523752, 0.032717544585466385, 0.034319814294576645, -0.023170659318566322, 0.12280280888080597, 0.06189902126789093, 0.014837167225778103, -0.017652088776230812, 0.04694702476263046, 0.014236061833798885, 0.007784435525536537, 0.013963787816464901, 0.20812253654003143, 0.0009492264944128692, 0.01710359752178192, 0.01357897836714983, 0.06494931876659393, 0.0215064138174057, 0.003650468308478594, 0.16430063545703888, -0.00458742119371891, 0.19455881416797638, 0.014822807163000107, -0.005525144748389721, 0.0038540558889508247, 0.003755433950573206, 0.1928374171257019, -0.016611875966191292, 0.06585352122783661, 0.022004349157214165, 0.18543177843093872, -0.006867850199341774, 0.06294093281030655, 0.04072490707039833, 0.05717436224222183, 0.0555487722158432, 0.044549815356731415, 0.085345059633255, 0.06334564089775085, 0.02575041353702545, 0.0381866954267025, 0.01641399972140789, 0.03495953604578972, 0.03459947183728218, 0.04580232873558998, 0.05447635054588318, 0.039398111402988434, 0.011571483686566353, 0.02709822542965412, 0.01944829523563385, 0.018672959879040718, 0.033510252833366394, 0.028427118435502052, 0.05771518871188164, 0.0031993219163268805, -0.0199755746871233, 0.020432787016034126, -0.0018037707777693868, 0.0014371850993484259, 0.048942990601062775, -0.006278525106608868, 0.03430622071027756, -0.030297424644231796, -0.024318885058164597, 0.012583006173372269, 0.006912609096616507, 0.013536185026168823, 0.015166833065450191, 0.06230153143405914, -0.029296383261680603, -0.021744946017861366, -0.024726422503590584, 0.048037365078926086, 0.050872866064310074, 0.07110408693552017, 0.10883606970310211, 0.009234528057277203, 0.1072404608130455, 0.06281518936157227, 0.06862406432628632, 0.004542000126093626, 0.01018558256328106, 0.01869375631213188, 0.04745405539870262, 0.17830128967761993, 0.02075137197971344, -0.009260120801627636, -0.002659869845956564, 0.00534595875069499, 0.014592491090297699, 0.01989550143480301, 0.0619758777320385, 0.1671304851770401, 0.03422313928604126, -0.0038066720589995384, -0.003931060433387756, 0.12332689762115479, 0.09485557675361633, 0.1261107325553894, 0.13101030886173248, 0.09724678844213486, 0.15808577835559845, 0.12450391054153442, 0.0914141908288002, 0.12000802159309387, 0.10251390933990479, 0.10217923671007156, 0.11603888124227524, 0.10632172226905823, 0.11051955074071884, 0.1180628091096878, 0.10834819078445435, 0.08240967243909836, 0.11019771546125412, 0.10339628159999847, 0.10855520516633987, 0.07633215934038162, 0.16917219758033752, 0.11069619655609131, 0.14899682998657227, 0.10326172411441803, 0.09117788821458817, 0.12480880320072174, 0.12978751957416534, 0.09731381386518478, 0.12181911617517471, 0.11362849920988083, 0.10564587265253067, 0.07196387648582458, 0.08844226598739624, 0.113644540309906, 0.10954104363918304, 0.156067356467247, 0.11288178712129593, 0.1158185750246048, 0.10538540780544281, 0.12225295603275299, 0.12870638072490692, 0.1504063606262207, 0.152865469455719, 0.1284656673669815, 0.1562655121088028, 0.14294084906578064, 0.1379772275686264, 0.10187190026044846, 0.0953911617398262, 0.10519867390394211, 0.17531172931194305, 0.1567659080028534, 0.16207368671894073, 0.07631689310073853, 0.07378329336643219, 0.07454992085695267, 0.07448694109916687, 0.15493838489055634, 0.1300835907459259, 0.15701234340667725, 0.10815488547086716, 0.10144481062889099, 0.0514601394534111, -0.15500207245349884, -0.2251989245414734, -0.20041579008102417, -0.18601681292057037, -0.026347719132900238, -0.1018875390291214, -0.1614179164171219, -0.1689685881137848, -0.1995094269514084, -0.22681410610675812, -0.17650233209133148, 0.04395873844623566, -0.04324971139431, 0.11172018945217133, -0.14557558298110962, -0.15826000273227692, -0.17308884859085083, -0.21781575679779053, -0.09070643037557602, 0.03249119222164154, -0.03609104081988335, 0.07197857648134232, -0.12024493515491486, -0.13384172320365906, -0.22192738950252533, -0.1892128437757492, -0.11223149299621582, -0.029543578624725342, -0.08234785497188568, -0.029223769903182983, -0.11662553995847702, -0.1236797347664833, -0.15105554461479187, -0.1980821192264557, -0.12093321233987808, -0.11333521455526352, -0.035562556236982346, -0.11541006714105606, -0.13427892327308655, -0.15363675355911255, -0.1969318687915802, -0.1949893683195114, -0.1506650745868683, -0.08423186838626862, 0.00610924419015646, -0.12043341994285583, -0.15237127244472504, -0.14805787801742554, -0.15874923765659332, -0.1851942241191864, -0.15363895893096924, -0.1603393703699112, -0.1444765031337738, -0.15935344994068146, -0.15122509002685547, -0.17263320088386536, -0.16054117679595947, -0.14158347249031067, -0.17770840227603912, -0.1891241818666458, -0.2018939107656479, -0.14232732355594635, -0.17795348167419434, -0.15493343770503998], [0.0242006778717041, 0.03458324819803238, -0.02936488762497902, 0.02512490749359131, 0.01684938743710518, 0.01493096724152565, 0.011864379048347473, -0.005812745541334152, 0.019047508016228676, -0.007850660011172295, -0.0468941293656826, -0.08132493495941162, -0.04315166920423508, 0.03631814196705818, 0.21579644083976746, 0.09563368558883667, -0.0005976122920401394, 0.015820130705833435, -0.011316834017634392, -0.00510399742051959, -0.00429175840690732, 0.0024090372025966644, 0.03613990545272827, 0.06612538546323776, 0.0013186533469706774, 0.002123288344591856, -0.0012526626233011484, 0.016647810116410255, -0.04349677264690399, -0.00782728474587202, 0.015488335862755775, -0.0032663464080542326, 0.0019798390567302704, 0.03751228004693985, 0.0043846191838383675, -0.02416459284722805, -0.0369022935628891, -0.024751104414463043, -0.017567574977874756, -0.04499603062868118, 0.03831557184457779, 0.05002107471227646, 0.050894808024168015, 0.017926208674907684, -0.010022733360528946, -0.03968622535467148, 0.016730807721614838, -0.006329655647277832, 0.0919107049703598, 0.11416434496641159, 0.024774430319666862, 0.01408085785806179, -0.003965330310165882, -0.08074668794870377, 0.08396683633327484, 0.00023689433874096721, -0.001224074512720108, 0.03071744740009308, 0.024525422602891922, 0.009350799024105072, -0.03446025401353836, -0.0016399361193180084, -0.024761371314525604, 0.0058205388486385345, 0.0004591171455103904, -0.006507863290607929, 0.026519959792494774, 0.04647587984800339, 0.0683145746588707, 0.12178797274827957, 0.2294986993074417, 0.20551128685474396, 0.022649845108389854, 0.02434796653687954, 0.0471930131316185, 0.02217208966612816, 0.05652408301830292, 0.08100193738937378, 0.12357509136199951, 0.12587475776672363, 0.01881832256913185, 0.029796335846185684, 0.03479602560400963, 0.06787481904029846, 0.07822559028863907, 0.05021714046597481, 0.1100652813911438, 0.10898014903068542, 0.030146611854434013, 0.05150143802165985, 0.06051989272236824, 0.053017303347587585, 0.044062502682209015, 0.0684039518237114, 0.06162913888692856, 0.09652365744113922, 0.047271981835365295, 0.06949874013662338, 0.06346217542886734, 0.07542101293802261, 0.06980195641517639, 0.046182356774806976, 0.07739682495594025, 0.06910198926925659, 0.0661582350730896, 0.06320188194513321, 0.07250223308801651, 0.06428610533475876, 0.05575327202677727, 0.04779684543609619, 0.08133086562156677, 0.06908220797777176, 0.0886976420879364, 0.05665724724531174, 0.0947350338101387, 0.08273393660783768, 0.06799915432929993, 0.049599356949329376, 0.018050583079457283, 0.01768963783979416, 0.13648536801338196, 0.08229611068964005, 0.07004654407501221, 0.08427198231220245, 0.04164315387606621, 0.06616399437189102, 0.04216543212532997, 0.01584095135331154, 0.009487203322350979, 0.08253946155309677, 0.025230679661035538, 0.11420539766550064, 0.04905925318598747, 0.2397814244031906, 0.11839500069618225, 0.14601455628871918, 0.07419683784246445, -0.0019365171901881695, 0.08172857016324997, 0.03446980565786362, 0.07166904956102371, 0.0914415493607521, 0.21639586985111237, 0.14349164068698883, 0.021014036610722542, 0.09703809022903442, 0.03060636669397354, 0.09246308356523514, 0.02001286670565605, 0.1418178826570511, 0.10238993912935257, 0.2169777899980545, 0.09995926171541214, 0.013555007055401802, 0.09781587868928909, 0.020607559010386467, 0.11082787811756134, 0.0453401580452919, 0.12450791895389557, 0.047231387346982956, 0.01659797504544258, 0.0765974298119545, 0.02814883552491665, 0.12980666756629944, 0.043071478605270386, 0.08693233877420425, 0.030496377497911453, 0.11379687488079071, 0.09299336373806, 0.033265721052885056, 0.14015482366085052, 0.07088813185691833, 0.10683812946081161, 0.016781611368060112, 0.06335171312093735, 0.02928057499229908, 0.054386548697948456, 0.13717879354953766, 0.09369973093271255, 0.1110910028219223, 0.04550297558307648, 0.0722251757979393, -0.002850448014214635, 0.07737606018781662, 0.14451435208320618, 0.08628329634666443, 0.11821524053812027, 0.046087756752967834, 0.09189074486494064, 0.01259777881205082, 0.07927653938531876, -0.0008455456700176001, 0.10473290830850601, 0.10721462965011597, 0.09707939624786377, 0.12165791541337967, 0.10954036563634872, 0.0824916884303093, 0.05702829360961914, -1.9736829996109009, 0.1494395136833191, 0.14782240986824036, 0.1254531592130661, 0.13512657582759857, 0.13167639076709747, 0.14915712177753448, 0.15908092260360718, 0.04775122180581093, 0.12122032791376114, 0.13561111688613892, 0.12303587794303894, 0.11220943182706833, 0.11555056273937225, 0.14373421669006348, 0.17113645374774933, 0.12018200755119324, 0.09678295254707336, 0.11075101047754288, 0.1109025850892067, 0.1052398681640625, 0.09565494954586029, 0.11882717907428741, 0.15273651480674744, 0.10534828901290894, 0.07664306461811066, 0.10519959777593613, 0.09378974139690399, 0.08004792779684067, 0.07959599047899246, 0.10098094493150711, 0.12064192444086075, 0.12408512830734253, 0.0797329917550087, 0.1051362007856369, 0.0945836529135704, 0.08638446778059006, 0.05608538165688515, 0.09387488663196564, 0.1157924085855484, 0.03943939879536629, 0.07028958201408386, 0.09275317192077637, 0.10871676355600357, 0.07266289740800858, 0.06170332059264183, 0.05893885716795921, 0.12236427515745163, 0.02024502493441105, 0.10616769641637802, 0.07780799269676208, 0.09288550168275833, 0.11819982528686523, 0.11082075536251068, 0.13293632864952087, 0.13730929791927338, 0.11321959644556046, 0.18736344575881958, 0.22810578346252441, 0.23073802888393402, 0.2333340346813202, 0.27542510628700256, 0.23971550166606903, 0.23029592633247375, 0.16604851186275482, 0.2560104727745056, 0.2587614357471466, 0.22719210386276245, 0.21477876603603363, 0.23531030118465424, 0.2526625394821167, 0.23875916004180908, 0.19702214002609253, 0.21090111136436462, 0.2256297618150711, 0.24059395492076874, 0.25008660554885864, 0.24925556778907776, 0.23932431638240814, 0.27699634432792664, 0.23485279083251953, 0.20456744730472565, 0.22047914564609528, 0.2239491045475006, 0.2215704321861267, 0.2174326628446579, 0.23244605958461761, 0.28257113695144653, 0.27980536222457886, 0.19440920650959015, 0.2250586748123169, 0.19407586753368378, 0.19053901731967926, 0.2094176560640335, 0.21315979957580566, 0.2707403004169464, 0.28582990169525146, 0.17808693647384644, 0.17376002669334412, 0.1741536259651184, 0.1592951864004135, 0.19882416725158691, 0.2243507206439972, 0.27331769466400146, 0.27627435326576233, 0.20602618157863617, 0.1943807303905487, 0.19359423220157623, 0.1668076068162918, 0.18200542032718658, 0.21367087960243225, 0.3194285035133362, 0.3246574103832245, 0.1848597526550293, 0.1882265955209732, 0.17160142958164215, 0.16784325242042542, 0.16312363743782043, 0.194041445851326, 0.24723990261554718, 0.25301647186279297, -0.1827673614025116, -0.20638634264469147, -0.202119842171669, -0.14011302590370178, -0.14527547359466553, 0.1737591028213501, 0.49466273188591003, 0.3647526204586029, -0.10226785391569138, -0.13690690696239471, -0.1476677507162094, -0.165357306599617, -0.06742364168167114, 0.05078139528632164, 0.2045609951019287, 0.3330264985561371, -0.1468537151813507, -0.12403172254562378, -0.16660258173942566, -0.1325056254863739, -0.07374461740255356, 0.057391539216041565, 0.10687343031167984, 0.18624791502952576, -0.13875988125801086, -0.1605018675327301, -0.13225728273391724, -0.14233259856700897, -0.10594445466995239, -0.033828675746917725, 0.04654844105243683, 0.06009881943464279, -0.21888220310211182, -0.1756075918674469, -0.15427172183990479, -0.17088016867637634, -0.15381427109241486, -0.12115233391523361, -0.18531765043735504, -0.15239523351192474, -0.15464450418949127, -0.1704482138156891, -0.1476035714149475, -0.20067963004112244, -0.19186128675937653, -0.2138369232416153, -0.27822381258010864, -0.37020406126976013, -1.6581753492355347, -0.14037835597991943, -0.18114711344242096, -0.1756531000137329, -0.2289694845676422, -0.21579253673553467, -0.2090601921081543, 0.0695279911160469, -0.33533406257629395, -0.26869192719459534, -0.19711031019687653, -0.17699521780014038, -0.1297038495540619, -0.12576870620250702, -0.18287421762943268, -0.04033025726675987, 0.01576535776257515, -0.02914777770638466, -0.035023659467697144, 0.012016810476779938, 0.029354438185691833, -0.010467655956745148, -0.03299817442893982, 0.010664671659469604, -0.01856144145131111, -0.04919961094856262, -0.052813414484262466, -0.2030893713235855, -0.22239291667938232, 0.34450167417526245, 0.27597951889038086, 0.3270655572414398, -0.04875935614109039, -0.05537495017051697, -0.09481578320264816, -0.14741437137126923, -0.11172781884670258, -0.12492094188928604, 0.3557044267654419, 0.4002733826637268, -0.06910816580057144, -0.044858403503894806, -0.052341029047966, -0.04553430154919624, -0.040014442056417465, 0.035218704491853714, 0.11064480245113373, 0.21372948586940765, -0.057789161801338196, -0.0095952358096838, -0.007708828430622816, -0.009107454679906368, -0.024749450385570526, 0.0325639434158802, 0.07029962539672852, 0.10919259488582611, -0.03162863850593567, 0.008424129337072372, -0.010008729994297028, -0.012629838660359383, -0.04412166774272919, 0.009122777730226517, 0.06662876904010773, 0.09107588231563568, -0.03701245039701462, 0.0012868393678218126, -0.014119168743491173, -0.05659237504005432, -0.017591504380106926, 0.0258975550532341, 0.07690506428480148, 0.08899398148059845, 0.02815333753824234, 0.035402826964855194, -0.0038191676139831543, 0.029250368475914, -0.03210335969924927, 0.019392196089029312, -0.010968223214149475, -0.011164771392941475, 0.0484449528157711, -0.023302476853132248, -0.08229450136423111, -0.11513067036867142, -0.21982534229755402, -0.045034073293209076, 0.0007770261727273464, 0.11595373600721359, 0.02983078733086586, -0.03336581215262413, -0.0889672040939331, -0.19950096309185028, -0.16126807034015656, -0.018789006397128105, 0.13523715734481812, -0.11248888820409775, 0.020710306242108345, -0.04512883350253105, -0.05996724218130112, -0.0967150405049324, -0.12244726717472076, -0.21765409409999847, -0.06415901333093643, -0.07191463559865952, 0.014202631078660488, -0.011752182617783546, -0.03787459805607796, -0.0907706767320633, -0.048810333013534546, -0.1429065465927124, -0.12304781377315521, -0.18731939792633057, -0.018149759620428085, 0.008265546523034573, -0.0411025807261467, -0.05815186724066734, -0.0917786955833435, -0.09268735349178314, -0.14373573660850525, -0.08590429276227951, -0.01733943447470665, 0.0014791059074923396, -0.040146354585886, -0.03786248713731766, -0.07264344394207001, -0.08277975767850876, -0.11635138094425201, -0.06428943574428558, 0.007670387625694275, -0.009165975265204906, -0.016621965914964676, -0.045662350952625275, -0.05329027399420738, -0.07764837145805359, -0.07894190400838852, -0.12519365549087524, 0.030787581577897072, -0.02990874834358692, 0.013832970522344112, -0.030331434682011604, -0.03541651368141174, -0.06524185091257095, -0.035461053252220154, -0.13170038163661957, 0.019590402022004128, -0.08187572658061981, -0.001033290638588369, -0.06555843353271484, -0.02224973775446415, -0.10485391318798065, -0.008986295200884342, -0.16128556430339813, -0.07925860583782196, -0.041477303951978683, -0.06678701937198639, -0.008146833628416061, -0.09805097430944443, -0.08440840989351273, -0.056511566042900085, -0.03720259666442871, 0.004774162545800209, -0.06167365983128548, -0.008323698304593563, -0.08605361729860306, -0.04588647931814194, -0.14160563051700592, -0.09916460514068604, -0.13996541500091553, -0.05037353187799454, -0.00022667263692710549, -0.08068335056304932, -0.07652390748262405, -0.1408967673778534, -0.06717517971992493, -0.08172887563705444, -0.03940577805042267, 0.011062846519052982, -0.07877856492996216, -0.08410556614398956, -0.1585879921913147, -0.07378751039505005, -0.10309849679470062, 0.0037872144021093845, -0.07213449478149414, -0.0729881078004837, -0.06805816292762756, -0.15271757543087006, -0.09348279237747192, -0.1216791495680809, -0.017534956336021423, -0.06314238160848618, 0.0008184953476302326, -0.08060228824615479, -0.14431792497634888, -0.09918875247240067, -0.10958623141050339, -0.033052653074264526, -0.09207458794116974, -0.016338054090738297, -0.047428324818611145, -0.17971697449684143, -0.12730148434638977, -0.12475601583719254, -0.01414044015109539, -0.06896737217903137, -0.02649073302745819, -0.08631424605846405, -0.04478337988257408, -0.005022379104048014, -0.06780698150396347, -0.07028038054704666, -0.1390201896429062, -0.11077234894037247, -0.07764441519975662, -0.02517598494887352, -0.04026605188846588, -0.16884972155094147, -0.19334031641483307, -0.1993727833032608, -0.2150925099849701, -0.1765114665031433, -0.16532228887081146, -0.16657936573028564, -0.06926285475492477, -0.1243416890501976, -0.14539723098278046, -0.15411457419395447, -0.13634289801120758, -0.11990463733673096, -0.10740327090024948, -0.1430463343858719, -0.09527663886547089, -0.11224529892206192, -0.14510604739189148, -0.13390962779521942, -0.1476060301065445, -0.10892985016107559, -0.09271503984928131, -0.1222214624285698, -0.10172394663095474, -0.08817942440509796, -0.12023245543241501, -0.1159764751791954, -0.10943679511547089, -0.10879194736480713, -0.09067650884389877, -0.13332894444465637, -0.09671885520219803, -0.0930757150053978, -0.10063572227954865, -0.095097117125988, -0.11167576164007187, -0.10801147669553757, -0.11184892803430557, -0.16079604625701904, -0.1537419855594635, -0.08108281344175339, -0.1043068915605545, -0.10946023464202881, -0.11522404104471207, -0.11510477215051651, -0.12246927618980408, -0.1939512938261032, -0.17398659884929657, -0.09225639700889587, -0.08756595849990845, -0.09893039613962173, -0.10460948199033737, -0.07782817631959915, -0.11484231054782867, -0.16916324198246002, -0.1400335729122162, -0.24813038110733032, -0.24213962256908417, -0.25027623772621155, -0.285282164812088, -0.34246474504470825, -0.34538590908050537, -0.42623430490493774, -0.3507894277572632, -0.13812164962291718, -0.18844375014305115, -0.24030861258506775, -0.23441259562969208, -0.2674625515937805, -0.38053834438323975, -0.4082818925380707, -1.9320777654647827, -0.1599690467119217, -0.19762729108333588, -0.20680713653564453, -0.22341708838939667, -0.27140894532203674, -0.2869320213794708, -0.3571799397468567, -0.28856411576271057, -0.205234557390213, -0.2143571823835373, -0.23737013339996338, -0.26153382658958435, -0.26478105783462524, -0.27938079833984375, -0.3292953670024872, -0.33355095982551575, -0.23546357452869415, -0.2199166715145111, -0.27184319496154785, -0.3011722266674042, -0.28138938546180725, -0.2787292003631592, -0.31347063183784485, -0.3339206278324127, -0.1937125325202942, -0.2620236873626709, -0.29581597447395325, -0.304450124502182, -0.3086017072200775, -0.2950338125228882, -0.3170630633831024, -0.3626101613044739, -0.20707039535045624, -0.2497270107269287, -0.3291229009628296, -0.33225369453430176, -0.2999724745750427, -0.3155302405357361, -0.34087416529655457, -0.3614165484905243, -0.26698026061058044, -0.2744905650615692, -0.32840821146965027, -0.33666476607322693, -0.29646581411361694, -0.2798822224140167, -0.33904752135276794, -0.35896238684654236, -0.09334202110767365, 0.10422978550195694, 0.1362059861421585, 0.09863771498203278, 0.05782444030046463, -0.03841007128357887, -0.16731330752372742, 0.044465575367212296, -0.014859266579151154, 0.1160491555929184, 0.09419117122888565, 0.03603233024477959, 0.005932720843702555, -0.05632495880126953, -0.43534860014915466, -0.09898149222135544, 0.07134877145290375, 0.08444381505250931, 0.05153302103281021, 0.05592619627714157, 0.04601841792464256, 0.02321775257587433, 0.032546233385801315, 0.082414411008358, 0.07769792526960373, 0.024448588490486145, 0.0373605377972126, 0.030899105593562126, 0.06969910860061646, 0.09256231784820557, 0.12396539747714996, 0.12042981386184692, 0.059996385127305984, 0.06318241357803345, 0.010352822951972485, 0.030737316235899925, 0.024959532544016838, 0.07685194164514542, 0.08981650322675705, 0.11479819566011429, 0.04935537651181221, 0.019220013171434402, 0.028077779337763786, 0.013481277972459793, 0.029408199712634087, 0.032746780663728714, 0.04834558814764023, 0.038812294602394104, 0.0016722893342375755, 0.02619761787354946, 0.019289156422019005, 0.02590424008667469, 0.0296091940253973, 0.028358561918139458, 0.013899044133722782, -0.0030810567550361156, 0.018198536708950996, 0.00932278297841549, 0.013599690981209278, 0.04945184662938118, 0.01222977414727211, 0.0298562403768301, 0.007917465642094612, 0.0021734279580414295], [0.015043001621961594, -0.0320671908557415, -0.020322170108556747, 0.02223484218120575, 0.02836901694536209, 0.020320061594247818, 0.020018383860588074, 0.009041406214237213, 0.041994042694568634, 0.04569797217845917, 0.0558474175632, 0.06351911276578903, 0.05017593130469322, 0.03036551922559738, 0.08564302325248718, 0.32173168659210205, 0.0395631343126297, 0.04706753045320511, 0.049417536705732346, 0.0431247241795063, 0.04144470393657684, 0.022131146863102913, 0.12656384706497192, 0.3431755006313324, 0.025008996948599815, 0.04035761207342148, 0.028190800920128822, 0.039892710745334625, 0.028184548020362854, 0.024532953277230263, 0.0731673315167427, 0.3377877175807953, 0.04074233025312424, 0.037603434175252914, 0.02468973770737648, 0.029788684099912643, 0.007330991327762604, 0.007419271860271692, 0.047052010893821716, 0.36288830637931824, 0.049539368599653244, 0.05016954243183136, 0.04674145579338074, 0.030231472104787827, 0.059660591185092926, 0.03772386163473129, 0.1217237189412117, 0.42248132824897766, 0.08408884704113007, 0.16417913138866425, 0.09766483306884766, 0.06578286737203598, 0.13873890042304993, 0.06833391636610031, 0.08678727596998215, 0.3468662202358246, 0.0006463862955570221, 0.00975809246301651, 0.0013747885823249817, 0.0074552930891513824, 0.021560251712799072, -0.011288240551948547, 0.004820290952920914, -0.010787956416606903, 0.1312047392129898, 0.14940683543682098, 0.14886508882045746, 0.13638508319854736, 0.16124089062213898, 0.0990915298461914, 0.17653155326843262, 0.053164899349212646, 0.14880862832069397, 0.15064497292041779, 0.14269669353961945, 0.15150186419487, 0.16734282672405243, 0.10758587718009949, 0.21652190387248993, 0.09763719886541367, 0.15751589834690094, 0.1558712124824524, 0.14555007219314575, 0.15602535009384155, 0.11328157782554626, 0.178442120552063, 0.09330860525369644, 0.2707119882106781, 0.16287823021411896, 0.13500063121318817, 0.15115702152252197, 0.1654222458600998, 0.16898857057094574, 0.19580985605716705, 0.1314787119626999, 0.2304924875497818, 0.1402357816696167, 0.1520342081785202, 0.1431112438440323, 0.1608934998512268, 0.14048302173614502, 0.1582179218530655, 0.23763877153396606, 0.15687018632888794, 0.12254724651575089, 0.12891361117362976, 0.13812005519866943, 0.17590977251529694, 0.1760321408510208, 0.15957526862621307, 0.20695428550243378, 0.13280126452445984, 0.12601877748966217, 0.12819553911685944, 0.10626549273729324, 0.13521212339401245, 0.1513788104057312, 0.12796995043754578, 0.19359780848026276, 0.19117125868797302, 0.04523377865552902, 0.06888795644044876, 0.0974065512418747, 0.11897556483745575, 0.10644897818565369, 0.15288642048835754, 0.0826219916343689, 0.041601087898015976, 0.1961398869752884, 0.16856913268566132, 0.21496763825416565, 0.19438442587852478, 0.22279593348503113, 0.1838117241859436, 0.1789587438106537, 0.28079402446746826, 0.2104903608560562, 0.1829151213169098, 0.17143048346042633, 0.22820354998111725, 0.1987696886062622, 0.20670178532600403, 0.17268365621566772, 0.24376623332500458, 0.17563845217227936, 0.19448687136173248, 0.18796131014823914, 0.1894514262676239, 0.227129265666008, 0.16704832017421722, 0.26583346724510193, 0.23775584995746613, 0.1945495754480362, 0.18592046201229095, 0.18509554862976074, 0.1887393742799759, 0.1859201341867447, 0.23383395373821259, 0.23127974569797516, 0.30223503708839417, 0.1984129101037979, 0.1950809210538864, 0.17695735394954681, 0.1991356760263443, 0.2086130827665329, 0.1861397922039032, 0.2870435118675232, 0.20474250614643097, 0.1852656900882721, 0.19643589854240417, 0.1846679002046585, 0.2369365692138672, 0.19826483726501465, 0.2336965948343277, 0.22138941287994385, 0.20854203402996063, 0.17305482923984528, 0.1771441102027893, 0.24396726489067078, 0.19481398165225983, 0.24668148159980774, 0.20366542041301727, 0.14893732964992523, 0.20638404786586761, 0.15341204404830933, 0.24366475641727448, 0.19732818007469177, 0.2487308382987976, 0.18617716431617737, 0.16296447813510895, 0.18416166305541992, 0.16376429796218872, 0.3018762171268463, 0.3070996403694153, 0.3125709295272827, 0.2852315604686737, 0.2713342308998108, 0.29302796721458435, 0.3310353755950928, 0.29739096760749817, 0.31062939763069153, 0.3067261576652527, 0.3053871989250183, 0.2858370542526245, 0.27478939294815063, 0.28950461745262146, 0.31272009015083313, 0.29160210490226746, 0.3138144314289093, 0.3085537552833557, 0.31382349133491516, 0.28844505548477173, 0.2892880439758301, 0.3066263496875763, 0.3075530529022217, 0.33296269178390503, 0.29741600155830383, 0.3158509433269501, 0.30111974477767944, 0.29189327359199524, 0.2812447249889374, 0.3118824064731598, 0.32985183596611023, 0.33892279863357544, 0.30515432357788086, 0.3189049959182739, 0.3101808428764343, 0.3047734797000885, 0.29246780276298523, 0.3178309500217438, 0.2836434245109558, 0.37941381335258484, 0.30406656861305237, 0.3113088309764862, 0.31582096219062805, 0.31638920307159424, 0.2981761693954468, 0.28939637541770935, 0.25711897015571594, 0.3810962438583374, 0.31363117694854736, 0.31560471653938293, 0.3267275393009186, 0.32734057307243347, 0.31340229511260986, 0.30740228295326233, 0.28967902064323425, 0.36642855405807495, 0.2919083535671234, 0.28846728801727295, 0.28744953870773315, 0.3127994239330292, 0.3122729957103729, 0.3072234094142914, 0.2836102247238159, 0.39272454380989075, 0.6434842944145203, 0.6490120887756348, 0.6686533093452454, 0.6476637125015259, 0.673717200756073, 0.7070701718330383, 0.777306854724884, 0.6464502811431885, 0.6636703014373779, 0.640547513961792, 0.6447271108627319, 0.6771439909934998, 0.6595861911773682, 0.6975836157798767, 0.7225754261016846, 0.6846391558647156, 0.6709962487220764, 0.6433559060096741, 0.6619274616241455, 0.6580696105957031, 0.6939232349395752, 0.6525417566299438, 0.7451689839363098, 0.6800840497016907, 0.6512157320976257, 0.6593599915504456, 0.6605473756790161, 0.6549090147018433, 0.6516103148460388, 0.7150737643241882, 0.7068896293640137, 0.7378034591674805, 0.6622845530509949, 0.6732737421989441, 0.6776566505432129, 0.6684899926185608, 0.6851447224617004, 0.6745315194129944, 0.7519676089286804, 0.7110692858695984, 0.6634846329689026, 0.6712518930435181, 0.6641688346862793, 0.6945875883102417, 0.6866769790649414, 0.6914774179458618, 0.7037479877471924, 0.7597907781600952, 0.6660909056663513, 0.6700534820556641, 0.6873875856399536, 0.6807855367660522, 0.7228388786315918, 0.712498128414154, 0.7291368842124939, 0.7719135880470276, 0.6356598734855652, 0.6811497211456299, 0.6645054221153259, 0.6907223463058472, 0.6947837471961975, 0.7294918894767761, 0.7320156097412109, 0.733191192150116, -0.001268173917196691, -0.00993660930544138, -0.016888877376914024, 0.0024781173560768366, 0.017601745203137398, 0.016812080517411232, 0.04892502352595329, 0.15092560648918152, -0.0450349785387516, -0.029691528528928757, -0.03270457684993744, -0.009915990754961967, 0.007543740328401327, 0.04827287793159485, 0.05599967762827873, 0.18305915594100952, -0.051605723798274994, -0.05468927323818207, -0.041172873228788376, -0.027056263759732246, 0.0179717019200325, 0.006414880510419607, 0.06267953664064407, 0.15279962122440338, -0.08509425073862076, -0.06946004927158356, -0.06333264708518982, -0.015269302763044834, 0.004449081141501665, 0.016726188361644745, 0.0710785835981369, 0.1602352261543274, -0.11181501299142838, -0.09073478728532791, -0.06377702206373215, -0.027937818318605423, 0.011076264083385468, 0.021206757053732872, 0.10865914076566696, 0.13010470569133759, -0.09841499477624893, -0.1055976077914238, -0.07686822861433029, -0.043979015201330185, -0.005154245067387819, 0.02553015574812889, 0.06311098486185074, 0.12589047849178314, -0.12780769169330597, -0.1150469183921814, -0.10431662946939468, -0.0818522647023201, -0.03466174751520157, 0.003089550184085965, -0.012293015606701374, 0.03419233858585358, -0.12756392359733582, -0.045401934534311295, -0.09630364924669266, -0.049338098615407944, -0.09472732245922089, -0.03347259759902954, 0.04153132811188698, 0.6185097694396973, 0.017860382795333862, -0.025522876530885696, 0.0022360756993293762, 0.0057184696197509766, -0.03425660729408264, -0.001375250518321991, 0.0276290625333786, -0.010704001411795616, -0.1460409164428711, -0.07159164547920227, -0.12472488731145859, -0.14492066204547882, -0.08939225226640701, -0.3560278117656708, -0.1887800395488739, 0.5965085029602051, -0.06981537491083145, -0.0983281210064888, -0.10613135993480682, -0.10321656614542007, -0.10488799214363098, -0.04898351430892944, -0.2728213965892792, 0.5927812457084656, -0.05227465555071831, -0.0625697523355484, -0.07640255987644196, -0.06827015429735184, -0.06542382389307022, -0.03877582773566246, -0.22858861088752747, 0.5458844304084778, -0.04664875939488411, -0.05329200625419617, -0.03935300558805466, -0.03130178526043892, -0.05856025964021683, -0.004363869316875935, -0.19232764840126038, 0.466864675283432, -0.04825080558657646, -0.04291405901312828, -0.060841210186481476, -0.04042835161089897, -0.05649133399128914, -0.059896357357501984, -0.1288686990737915, 0.022772232070565224, -0.044872790575027466, -0.03351781517267227, -0.040425948798656464, 0.03114709071815014, -0.04788316786289215, -0.04976730793714523, -0.09903142601251602, 0.04371075704693794, 4.854053258895874e-06, -0.02459137886762619, -0.023090632632374763, -0.005409488454461098, 0.034407906234264374, 0.010336324572563171, -0.031394846737384796, -0.010825982317328453, -0.16995176672935486, -0.16334234178066254, -0.14766058325767517, -0.15397992730140686, -0.17328009009361267, -0.21521246433258057, -0.25167161226272583, -0.27948954701423645, -0.11521143466234207, -0.15723931789398193, -0.17433294653892517, -0.18982069194316864, -0.17001815140247345, -0.2774171531200409, -0.20921654999256134, -0.13002631068229675, -0.15903478860855103, -0.17751039564609528, -0.1583576798439026, -0.17049947381019592, -0.17151205241680145, -0.17406921088695526, -0.2329731434583664, -0.16074620187282562, -0.11951898783445358, -0.1508817821741104, -0.15845872461795807, -0.1649535745382309, -0.20857542753219604, -0.16396290063858032, -0.18968652188777924, -0.09736330807209015, -0.1384277492761612, -0.14096848666667938, -0.15800067782402039, -0.17276552319526672, -0.17415909469127655, -0.19812442362308502, -0.19568826258182526, -0.220927894115448, -0.14537881314754486, -0.13830099999904633, -0.15694794058799744, -0.18393930792808533, -0.18139974772930145, -0.1806892454624176, -0.18525420129299164, -0.189379021525383, -0.1475648283958435, -0.13389013707637787, -0.15562789142131805, -0.13986262679100037, -0.16350072622299194, -0.1791967749595642, -0.17857420444488525, -0.16844604909420013, -0.10266371071338654, -0.1441984623670578, -0.14600031077861786, -0.15560169517993927, -0.16959498822689056, -0.15233726799488068, -0.19835080206394196, -0.18628181517124176, -0.22256727516651154, -0.18949291110038757, -0.2390928864479065, -0.20785489678382874, -0.2575036287307739, -0.22886469960212708, -0.26068204641342163, -0.18834325671195984, -0.1919175684452057, -0.24339301884174347, -0.19583766162395477, -0.22816163301467896, -0.18485474586486816, -0.22783614695072174, -0.331699937582016, -0.21230490505695343, -0.201856791973114, -0.1826740801334381, -0.23192110657691956, -0.201832577586174, -0.230833500623703, -0.18272943794727325, -0.30637985467910767, -0.1854633390903473, -0.16817879676818848, -0.20886363089084625, -0.1979290395975113, -0.2043849229812622, -0.21675020456314087, -0.24765455722808838, -0.2225380390882492, -0.18201299011707306, -0.19539953768253326, -0.1956261694431305, -0.18553026020526886, -0.20317019522190094, -0.2606284022331238, -0.22012802958488464, -0.2505320906639099, -0.23226813971996307, -0.21997199952602386, -0.18913178145885468, -0.22025182843208313, -0.22493907809257507, -0.18851317465305328, -0.26823484897613525, -0.17494186758995056, -0.3024995028972626, -0.1668199747800827, -0.20075997710227966, -0.22411051392555237, -0.1877102255821228, -0.24841758608818054, -0.18716341257095337, -0.2398463934659958, -0.16649237275123596, -0.197979137301445, -0.2311679869890213, -0.17257453501224518, -0.23634418845176697, -0.18444174528121948, -0.2509993612766266, -0.18661628663539886, -0.17099612951278687, -0.374415785074234, -0.3682803511619568, -0.36959224939346313, -0.3514842689037323, -0.3410935699939728, -0.3908100128173828, -0.43620115518569946, -0.32503166794776917, -0.3405105769634247, -0.3449579179286957, -0.343321293592453, -0.3398282527923584, -0.3471109867095947, -0.3716537058353424, -0.39828744530677795, -0.29595693945884705, -0.35051625967025757, -0.35353007912635803, -0.35518261790275574, -0.33788615465164185, -0.3396611511707306, -0.3793793022632599, -0.4082469940185547, -0.2756037712097168, -0.3386979103088379, -0.3417108356952667, -0.3417186439037323, -0.32915446162223816, -0.31710323691368103, -0.33682119846343994, -0.4218231737613678, -0.28607311844825745, -0.3345675468444824, -0.34030598402023315, -0.33428728580474854, -0.32024917006492615, -0.3256780803203583, -0.3454950153827667, -0.3327674865722656, -0.3290975093841553, -0.30875200033187866, -0.32971054315567017, -0.3321925103664398, -0.31153932213783264, -0.3061548173427582, -0.3521408438682556, -0.33327871561050415, -0.26520320773124695, -0.2975151538848877, -0.31602877378463745, -0.3033182621002197, -0.30842146277427673, -0.2916361689567566, -0.31995877623558044, -0.3192675709724426, -0.2745872139930725, -0.31693434715270996, -0.31552624702453613, -0.3100970685482025, -0.305351585149765, -0.3268046975135803, -0.3236193060874939, -0.32947883009910583, -0.3749956786632538, -0.7282666563987732, -0.683280348777771, -0.7308209538459778, -0.7113662958145142, -0.6974712014198303, -0.7046601176261902, -0.7833371162414551, -0.7120963931083679, -0.6905556321144104, -0.7121499180793762, -0.6955530047416687, -0.7129185199737549, -0.6843407154083252, -0.6818364858627319, -0.7560156583786011, -0.6450929641723633, -0.6922618746757507, -0.6845873594284058, -0.7123249173164368, -0.6906449794769287, -0.6935366988182068, -0.7263489365577698, -0.7514955997467041, -0.6462631821632385, -0.6667675375938416, -0.697565495967865, -0.6882307529449463, -0.6953916549682617, -0.6976785063743591, -0.7108739614486694, -0.7662358283996582, -0.6247921586036682, -0.6763267517089844, -0.6930016279220581, -0.6786484718322754, -0.6906501650810242, -0.7207064628601074, -0.7287072539329529, -0.7371432185173035, -0.6538662314414978, -0.6806826591491699, -0.6759740710258484, -0.6698950529098511, -0.7181291580200195, -0.6983364224433899, -0.7438796162605286, -0.730444073677063, -0.6493246555328369, -0.6598996520042419, -0.6635214686393738, -0.6677893996238708, -0.6929264068603516, -0.7160744667053223, -0.6802447438240051, -0.7495235800743103, -0.6166662573814392, -0.6726581454277039, -0.6751867532730103, -0.670017659664154, -0.7010964155197144, -0.6890795826911926, -0.7125870585441589, -0.7418329119682312, -0.6749868988990784, -0.04378420114517212, 0.0490904226899147, 0.06476862728595734, 0.07061976194381714, -0.010796265676617622, 0.07008829712867737, 0.06253346055746078, 0.15518201887607574, 0.056947868317365646, 0.0835435539484024, 0.04054441303014755, 0.02526981569826603, -0.009191717952489853, -0.027553290128707886, -0.07588879019021988, 0.0284096822142601, 0.046611033380031586, 0.03838052600622177, 0.021951446309685707, 0.02912095934152603, 0.009448137134313583, -0.02728813886642456, -0.15367357432842255, -0.026186304166913033, 0.05213194712996483, 0.05376611277461052, 0.031913597136735916, 0.03335195034742355, 0.027306346222758293, -0.02786831557750702, -0.09088480472564697, -0.05596273019909859, 0.060909584164619446, 0.04435250908136368, 0.05506698787212372, 0.049148593097925186, 0.02433762513101101, -0.0037681974936276674, -0.03403041511774063, -0.036768797785043716, 0.050919417291879654, 0.07690837234258652, 0.04066850617527962, 0.06553739309310913, 0.03864368051290512, 0.008121619932353497, 0.0007171779288910329, -0.026836484670639038, 0.07579164952039719, 0.06811640411615372, 0.07995075732469559, 0.06856326013803482, 0.05286794155836105, 0.04213682562112808, 0.008768772706389427, 0.014247136190533638, 0.07894736528396606, 0.09719488769769669, 0.08593980222940445, 0.0863223448395729, 0.044666193425655365, 0.06643130630254745, 0.020823178812861443, 0.04764346778392792], [0.018492955714464188, -0.035688817501068115, -0.03251102194190025, -0.027838625013828278, -0.011329058557748795, -0.005041167140007019, 0.014284297823905945, -0.008377553895115852, -0.1540367156267166, -0.16725455224514008, -0.16650868952274323, -0.1287686675786972, -0.16108492016792297, -0.1506344974040985, -0.15951000154018402, -0.14893485605716705, -0.15578053891658783, -0.1659119427204132, -0.15638922154903412, -0.13295473158359528, -0.1539030522108078, -0.14664773643016815, -0.1658359169960022, -0.14640577137470245, -0.15282991528511047, -0.1710089147090912, -0.1514931172132492, -0.14702706038951874, -0.16744984686374664, -0.13811403512954712, -0.16648338735103607, -0.13811592757701874, -0.16023559868335724, -0.18027305603027344, -0.18578022718429565, -0.16582198441028595, -0.15509483218193054, -0.13601906597614288, -0.1668073534965515, -0.13858911395072937, -0.20841051638126373, -0.22660771012306213, -0.21880505979061127, -0.23111695051193237, -0.16283071041107178, -0.14322054386138916, -0.2003265768289566, -0.14417298138141632, -0.34537816047668457, -0.4811415374279022, -0.32246994972229004, -0.3725771903991699, -0.354400634765625, -0.21386747062206268, -0.08186648786067963, -0.23705077171325684, -0.035894975066185, 