#ifndef WEIGHTS_HPP
#define WEIGHTS_HPP

float weightsDense32[769][32] = {{ 0.0610705,-0.036125667,0.061743706,0.07607137,0.0567967,-0.08082743,0.035223722,-0.056768335,-0.077753946,-0.010205336,-0.05952563,-0.07043365,-0.017804787,-0.023499735,0.017900057,0.065077454,-0.050988745,0.066969916,-0.04241595,0.006460972,0.06692165,-0.08604332,0.054630607,0.017444462,0.038451955,0.06070654,0.06646983,-0.07589905,-0.030274186,-0.011694752,-0.08394037,0.0055405125 },{ 0.041430533,0.07979685,-0.02519814,-0.055488937,-0.032329947,0.03973688,0.0336951,-0.024855085,0.008231349,-0.052533153,0.006693423,-0.068779334,0.04960935,0.03983821,-0.060444932,0.0129283,0.055335328,-0.059221167,-0.01819396,0.07194489,-0.044278093,0.059164688,-0.050457295,0.04567571,-0.002195932,0.08022711,-0.017204233,-0.029332045,-0.084499225,-0.081010565,-0.07332177,-0.0021108538 },{ 0.04213509,-0.07230649,0.028441384,-0.051270902,-0.037391942,0.032517143,0.064931005,0.028599903,-0.050560158,-0.06713323,-0.05512923,0.039931417,-0.053937823,0.08417156,-0.08646665,0.0014438555,-0.03995416,-0.0467646,0.08092593,0.031844325,-0.04787277,0.028972626,0.033003688,-0.03982668,-0.026905809,0.06622706,-0.08159695,0.0057244524,-0.019228525,-0.05106111,0.078945145,0.07629661 },{ 0.002827622,-0.06937139,0.06644857,0.03690228,-0.0030635372,0.05168964,-0.010515146,-0.06524045,-0.04621326,0.024450459,-0.060342997,0.053054407,-0.019106306,-0.02256009,-0.0057789534,0.041582346,-0.014268093,0.05682504,0.012615494,0.022424437,-0.03917175,-0.013999157,-0.04327493,0.015880637,-0.07654696,0.080092564,0.045866996,0.06004879,-0.016556196,-0.06540002,-0.0045363232,-0.038207572 },{ -0.04704538,0.06826538,0.023179501,-0.008971192,-0.028958019,0.07006149,0.029800162,-0.008234881,0.0028132424,0.0031756684,0.07083388,-0.038942542,0.08628908,-0.03447916,-0.009574361,-0.02560027,0.04788123,0.07671587,0.07966165,-0.017418772,0.026870131,-0.030551683,-0.022867732,-0.046844624,-0.06795923,-0.037978195,0.07539545,0.0014213622,-0.0124763325,-0.04304628,0.049654126,-0.024394002 },{ -0.038017422,0.002226241,0.05504097,0.015648045,0.025414802,-0.056011677,-0.041909635,0.08105706,0.034038253,0.0017537922,-0.06371554,0.056279868,0.0540099,-0.067916036,-0.005899541,-0.05733575,0.038737223,-0.06927857,-0.0099513605,-0.07478204,-0.043629374,-0.064619526,0.07621235,0.07301897,-0.028316215,-0.036629055,-0.0004722029,0.056398004,0.076186866,0.079251125,-0.0012074187,0.001315318 },{ -0.07861279,-0.06923576,-0.037399452,0.07114777,-0.057836987,-0.053694703,0.07350692,0.022659257,-0.06268925,-0.04140103,-0.03510561,-0.03195526,0.07401158,-0.016809613,0.020407327,0.04157704,0.02531419,0.074220285,-0.004896261,-0.04055321,-0.058533616,-0.008409739,0.0026480183,0.0048189983,-0.057972103,0.05080305,-0.048036054,0.022912987,-0.060981624,-0.083379604,-0.03342792,-0.08071541 },{ 0.063255,0.06912424,-0.008846946,0.046671018,-0.0008023605,0.061242893,0.08616662,0.053220376,-0.057337936,0.0045042783,-0.034713466,0.064065605,-0.010279827,0.08470893,-0.019827843,0.04436843,-0.057802178,-0.08123462,0.06998812,-0.0451138,0.06620845,0.07617895,0.073687,0.041676715,-0.07655294,-0.017347686,-0.023697622,0.06366183,0.009521641,0.08138788,0.053683415,-0.07433167 },{ -1.9027877,1.688308,0.8352066,1.0904927,-1.172205,-2.9025884,0.7266434,1.296369,-1.0055289,-0.36972642,-0.009487262,0.6830742,0.7003056,1.0116318,-1.7963096,-0.050861638,0.72274965,-0.47968942,0.8772248,-0.13514943,2.055279,-0.058913432,0.6356775,2.12588,0.5866475,0.037423383,-0.12853955,1.2502749,2.4375074,1.6245035,-0.3441747,-0.15073416 },{ -1.2807667,-0.6941568,-0.5053908,-0.34222472,-0.956336,-3.633379,-0.47931743,0.89994544,-2.2895737,-0.20906255,0.59583104,1.4034578,-0.3846943,-1.7521602,-1.5775996,0.54868484,1.3304546,-2.8233304,-1.3068957,-0.2523848,1.2320421,-1.2104195,-0.57261914,1.1864431,-0.56441176,-0.24895526,-1.4776965,2.0447917,2.782633,1.2693006,1.8978179,-0.19766134 },{ -0.14770807,-0.4530151,-0.25478458,-3.336091,-1.2490728,0.8007681,-0.1795745,0.8297982,-0.90092736,0.27376702,-0.9294809,-0.10313308,-0.14329231,0.47187632,-0.5357047,0.4715243,0.3451436,-2.55092,-0.23937891,-4.1228623,0.62848413,-2.610191,-0.3174288,3.1936588,-0.22724056,0.45820814,-0.578184,2.3516595,2.6227398,1.3937072,-2.1517913,0.8211483 },{ 0.38627896,4.40873,-0.44045627,0.2716453,-0.7296955,1.5593307,-0.2185364,2.1003442,2.0119011,1.5529841,2.6443396,1.3012385,-0.38175896,-0.94083303,0.08626411,1.4022349,2.3973901,1.3153653,0.6983815,3.7910652,0.27225327,0.21193449,-0.3871825,-0.23440675,-0.38768974,0.6834762,0.28800732,1.3425171,0.48815084,1.7825478,-2.1130943,1.3152786 },{ 0.9248223,-0.50238204,-0.7443966,1.5827258,-2.9797506,1.6162302,-0.9276661,0.62486964,-1.9729412,-0.41489506,2.4721968,0.85053617,-1.0274484,1.2468934,-3.8729737,4.0484834,0.25650892,-1.0616622,0.6361383,-1.6648335,-0.066691905,-2.0574334,-0.8371811,-1.6981996,-1.0229297,-0.40471882,-0.2939162,-0.57477534,1.6855017,-0.9665665,-1.2203674,-3.0017836 },{ -2.5173872,2.3036993,-1.8319117,1.8193079,-1.2749302,-0.941641,-1.735615,0.14429615,-1.7369574,0.3597509,1.4726043,0.657914,-1.6940199,0.13646337,-1.0612783,-0.6459108,0.6014401,-1.2447175,0.35929164,-1.6657757,2.133514,-2.5883026,-1.7844726,-0.46224266,-1.7339598,0.21582504,-2.3734243,-3.9473636,3.2092257,1.83062,-1.4431472,-0.15089567 },{ -2.5503445,0.5515121,-1.4035301,-0.35364333,-2.1689386,0.66879547,-1.3376712,-0.30730227,-1.0646287,-0.926377,-0.67245525,0.86230135,-1.3487211,0.13092153,-0.68304795,-0.012850342,1.022147,-1.6847278,0.8199817,0.63769245,0.9684938,-2.526487,-1.3506323,2.8226914,-1.4188249,-0.30239174,-1.5608183,-1.6381333,3.672181,1.0648814,1.4673568,0.7397929 },{ -1.6384196,0.8778924,-0.4760855,1.5582542,-1.5008937,0.50111264,-0.63608044,0.5457181,0.040161632,-0.5440782,1.8293018,0.70027494,-0.5212244,0.97392553,0.19848324,0.82857686,-0.92359906,0.013890114,1.2431479,0.40926194,0.68293947,-1.4620355,-0.645449,2.35784,-0.66280437,0.87098455,-1.1187758,0.12848812,1.4544566,1.2119577,-0.2783456,-0.91757715 },{ -0.39740586,2.1830869,0.74898046,0.5474386,0.7007414,-1.2349246,0.64360857,1.2127286,-0.39578837,0.1984754,1.0281543,1.5722492,0.6919071,-0.05009058,-0.6911691,0.23515686,2.729118,-0.4097128,0.6131636,1.4192511,2.0196402,-1.0095928,0.64005876,-0.7297422,0.65549004,0.41016665,0.054455597,1.6275189,2.5944433,2.0485032,0.18339823,0.9762692 },{ 0.21269912,0.5443136,-0.5938056,-1.7679052,-0.87284774,-2.6044962,-0.7693792,0.68443817,-0.21893452,2.0948882,0.89086956,1.2123915,-0.7246103,0.062397074,-2.030455,0.14515728,2.012937,-2.9622426,0.7191618,-3.718665,0.827553,-0.19214828,-0.5780299,2.0424972,-0.7038913,0.75022817,-0.9165249,1.3643091,2.5574121,1.296614,-0.03446922,1.5531712 },{ -1.1874552,-2.5188732,-0.071585394,0.15636991,-1.3856372,0.04015251,-0.19985226,0.63363063,-1.563833,-0.015976137,-0.022023028,1.4838471,-0.051140755,-3.2118623,-2.4408667,-0.06524265,2.104274,-0.09724372,-0.51012546,-0.46067467,0.8355286,-1.6050045,-0.066807754,-0.77555895,-0.23214859,1.5200176,0.020318247,2.0964315,2.5923076,0.40018848,4.5913568,0.7025568 },{ -2.3100235,-1.2828586,-0.44118267,0.28024516,0.055839803,3.284434,-0.58794165,1.3248817,-0.7713978,0.009526421,-0.2699672,1.1964809,-0.44094574,-0.7836825,-2.077271,-0.15725145,-0.8401242,-2.5704832,0.7177048,-0.39096984,-1.5060195,0.14792147,-0.3778758,-2.978662,-0.5952945,-0.96044767,-0.8352468,2.0918117,2.7701037,-0.74523306,-1.915253,-0.8777845 },{ -1.0272352,3.0406694,-0.46781257,0.39277938,-0.81789374,-0.26137948,-0.43655133,0.31960198,-1.4580296,2.472024,1.260198,1.0205443,-0.40102407,-0.44841385,-1.8274839,-1.1613603,-0.9039901,-0.56110746,0.8539334,2.319818,0.990607,-1.0086851,-0.46384448,-1.1786885,-0.49997556,0.5795862,-0.3859827,0.03499584,2.9617069,-0.32759964,-4.849219,-0.8593645 },{ -0.73622006,0.9652236,-0.7353154,-2.2777827,0.4751529,-0.3145838,-0.8176954,0.23632291,-1.3662313,-0.61218256,0.30225217,0.09642808,-0.76300377,0.31099543,-0.42986426,1.559375,1.5884764,-0.7400946,3.1389852,2.1145806,1.0922396,-1.398019,-0.70002717,0.99255097,-0.74497485,0.35445896,-0.6836555,1.2979925,1.934143,0.3983551,1.0561512,1.0146158 },{ -1.5514748,1.4871677,-1.3034741,1.2481946,0.36384946,0.29395384,-1.3677281,0.25087643,-0.926321,0.65245956,0.46971577,1.9400805,-1.2376058,1.2739482,-1.1747432,0.52408016,1.1419607,-0.38890222,2.1597772,-0.90366304,1.1368233,-0.5528636,-1.3331639,1.3151815,-1.4540223,0.36762786,-2.0841842,-0.99220246,2.2101793,0.61911076,1.3976637,0.28887996 },{ -0.473631,0.90733814,-0.5756377,1.89276,0.15884997,0.2934732,-0.44489172,0.39093077,-1.0028988,-0.3385823,0.8361463,-1.3957443,-0.50579643,1.2460871,-0.38952228,0.51172084,1.3614855,-0.50489855,1.073599,0.24697024,0.64530647,-0.48549238,-0.5932647,0.8381989,-0.7124981,1.12593,-1.1432723,1.2265501,1.6603055,0.6017596,2.0089033,-0.7985074 },{ -0.32415357,2.363337,0.34864888,-1.1407336,-0.057389125,1.8943332,0.48055273,1.4300152,-1.2660283,1.6994911,0.08136844,-1.4232402,0.35361296,-1.2107344,-0.36511236,-0.9090315,-1.3479735,-0.0891449,0.89993966,0.2236028,1.5970798,0.4046597,0.4878748,0.7859148,0.37037793,1.0938324,0.017422475,1.117449,2.7017338,1.8573674,0.75007147,0.9384276 },{ 1.8458546,1.7543528,-0.4331255,0.44239485,-0.081141874,0.32118738,-0.46005842,1.0806714,-0.09633251,-0.3928388,-0.6969856,0.5022271,-0.3895132,1.8867935,0.8313754,0.9334924,2.7862933,-0.8885277,0.46169966,-0.37346506,1.55019,0.74143964,-0.44878855,0.7632573,-0.517357,1.8590561,-0.11188893,1.9614352,4.6527033,0.7529204,1.6859066,0.74499846 },{ -0.41153622,2.3263917,-0.59945077,-0.49274212,-1.9543916,-1.2605345,-0.6499317,-0.18481901,-0.059876774,1.998609,2.7110887,0.6749866,-0.6914743,4.048729,-1.1021572,-1.4161733,1.1308473,1.5344082,1.7282282,-2.7506816,0.52405685,-1.4998003,-0.6988452,0.20275319,-0.6566979,1.5790226,-1.0285251,1.7426437,2.393722,2.875769,-0.51485044,1.8302325 },{ 0.36589605,-0.34398973,-0.3798648,-2.2956185,0.5659216,-0.14052567,-0.37650383,0.06019711,-1.6665033,2.1164558,-0.8179877,1.0295023,-0.454945,0.7307484,-0.95278853,-1.212989,0.31706816,-2.822112,1.3954136,1.336295,-1.1257764,-0.88332987,-0.4103036,-2.9611623,-0.33035186,0.9975781,-0.46470895,1.0393839,4.385218,1.5256599,2.24186,-1.5339757 },{ -0.6317194,3.0653234,-0.6375014,-3.5060647,-1.1270126,0.92621696,-0.67469627,0.25729096,-0.024007982,0.06703559,-1.0337158,0.7022989,-0.669321,-0.78079957,-1.5338879,0.6236068,0.7861295,1.1188754,0.5930772,0.9409348,1.4292548,-0.7471377,-0.82388335,0.9372259,-0.7410189,0.31731063,-1.0214032,2.366822,3.8344092,0.91088504,2.297657,-0.7037121 },{ -1.6984478,0.038911548,-0.44491354,-0.11590376,0.18445812,-0.31154895,-0.55031884,-0.09555638,-0.27840936,1.7394221,0.45891848,-0.036162607,-0.5697307,0.6047332,-2.0464127,0.8425853,0.19806334,-2.6418393,1.6221194,0.31523782,0.70304686,-0.49024785,-0.5510562,1.1202009,-0.55231756,2.3902788,-0.67951185,3.3542464,2.8736656,0.031097725,-1.59092,0.1071649 },{ -0.77616936,0.084975086,-1.249767,2.584892,-0.99178994,-0.7920536,-1.2100465,0.67285067,1.6042261,1.0120625,0.9156717,-1.1228361,-1.1664134,0.7297204,-0.32453346,0.2615791,1.3110847,-0.12631483,2.934816,-1.3597544,1.1645193,0.25759482,-1.1706163,0.29643822,-1.1603659,0.743779,-0.9624005,2.8036447,1.7194259,0.72789717,2.185932,-0.26434964 },{ -0.43517083,1.0582739,0.028787684,-0.03276272,-1.075304,0.9117347,0.005998042,0.3168823,0.056495354,0.6062931,-1.0463403,1.3628533,0.0038899696,-0.3209981,0.4803137,0.37160078,-0.27901053,-0.42051637,1.559407,0.6843798,1.1858675,-0.63166595,-0.012575814,0.42122066,-0.060205113,0.6396706,-0.3170135,1.0189204,2.29111,0.07385832,2.6519728,1.1864172 },{ 2.3702414,2.2609174,0.7666545,0.6144541,0.33417898,0.6352913,0.7713938,1.3139244,1.0857592,1.5518734,1.6879933,-1.5651213,0.764664,0.47983405,-0.4542148,-1.4236761,0.7251809,-1.0894651,1.1258259,2.6925302,1.563183,1.2632967,0.7836181,1.3776152,0.7611196,1.7099348,1.2917571,1.4130137,4.9012585,2.603917,0.74679166,0.13269755 },{ 0.28267404,2.0162532,-0.5022899,0.20702349,0.8445705,1.7229109,-0.5963186,1.3579478,1.8676323,1.605819,0.095214106,-1.6599708,-0.61719036,4.1162653,0.23985061,0.31835723,0.057499226,0.31964275,0.46995974,1.5377018,1.4909586,2.1776671,-0.61703616,1.3901868,-0.562138,2.1022243,0.1654937,0.90549135,4.398226,2.666379,1.7586211,0.5424104 },{ -0.43381792,2.387017,-0.5160703,3.1612978,1.4851382,0.49114498,-0.46949655,0.5465244,1.028894,1.1135665,-4.062425,-2.3587186,-0.5460442,2.1987743,-0.770646,2.316636,2.4502015,0.8830843,2.1744268,3.1813748,2.6176417,-0.043800402,-0.52360386,-1.8167179,-0.62654823,1.135381,-0.5118826,1.7737538,2.6093802,2.0543995,0.32917407,1.1272116 },{ 1.4370855,-0.052598707,-0.3139448,-0.26019114,0.56884676,0.42820245,-0.33439746,0.18936566,1.8348167,0.7133783,1.5323832,0.5178147,-0.31764877,0.60668164,0.77755517,2.602807,0.9607325,-0.48755813,0.7733468,0.65367657,3.6709988,-0.78493387,-0.39780018,1.0465673,-0.3813394,0.69336814,-0.004461807,3.1052623,5.298967,2.711228,2.3544548,1.3961148 },{ -0.15870371,0.596238,-0.037047166,1.1854333,0.4514557,-1.5118406,-0.045621376,0.22877896,0.9516398,0.61948514,0.86021584,2.1815627,0.058437273,0.97457767,0.83361405,1.4432076,-0.20290042,1.1850635,1.347225,0.4410771,-1.2144688,1.674492,-0.033566747,1.2393932,-0.017327566,3.1843152,-0.17334436,4.1625648,4.305454,3.9532375,3.6013248,1.4030505 },{ -0.7622728,0.88786423,-1.1513983,0.32661495,-0.0425857,0.07063535,-1.0864794,0.05108936,-0.09263292,0.6404837,0.5314466,2.592368,-1.139934,0.121210515,1.4033977,1.2358574,1.2476903,0.682877,2.1379232,0.048392963,1.6303416,-0.46296144,-1.1650497,0.519957,-1.073108,-0.5138297,-1.225954,2.824318,3.8960805,3.726219,2.13861,1.2957532 },{ 1.6224084,1.3703742,0.94318646,0.14602265,0.7623703,2.737484,0.9155611,0.6677729,0.95145917,2.4140427,3.1831055,-0.23122159,0.92537487,0.5312403,0.36032653,1.8085797,1.1558613,0.35418072,1.0419109,1.0049193,2.4590542,1.8963014,0.90073323,0.4457484,0.916313,2.8391416,0.99773306,3.7582006,3.2683666,2.8604348,-0.5537299,1.8439744 },{ -0.62815386,0.8624093,0.3147955,0.46042162,0.6334507,0.5507958,0.2690898,0.7553343,-0.19160314,1.9536836,0.28080618,1.0563308,0.17860498,-0.19841288,-0.8014932,-0.23233034,1.8085579,0.04932201,1.662599,0.86938417,-0.40371528,-0.5385611,0.28128433,1.0805283,0.24181816,1.2026306,0.3154633,0.5106815,3.3109396,1.8201445,1.8796731,0.2251451 },{ 1.0175188,1.8335627,1.2426344,3.9490933,0.40795162,3.1520228,1.0999495,1.820534,1.4477326,0.60700506,1.3493755,0.51562047,1.1972111,2.9953647,1.1594366,2.8115206,1.8484212,-0.28155813,1.3957812,3.318742,2.5659778,1.5818233,1.1107117,0.5407631,1.1352576,2.073045,1.3381,0.23914908,4.7428317,3.6431377,-2.0719473,1.3912739 },{ 0.29633158,4.489835,0.8595133,-3.9689403,0.7730624,2.5469398,0.72555345,0.11622306,0.30734447,2.2941217,1.8020065,2.834577,0.85140836,2.1660633,-1.5729623,4.490623,1.5605102,1.4478127,0.32604226,2.4371347,0.80683124,0.08586835,0.84213597,2.5756905,0.8638969,1.8886627,0.9935222,2.8151195,5.062298,3.4041321,3.1508434,2.2462764 },{ 0.6171268,2.4565396,0.7324139,0.61164296,2.3534334,3.0207942,0.7130664,0.3321691,0.9993495,1.939999,1.7555996,2.691101,0.6883858,2.9005408,-0.3084514,2.1870074,2.0898495,0.26092392,0.28598994,1.6322889,3.1680117,1.1570323,0.7219937,4.3495107,0.65707487,1.5556043,0.6851709,2.9964347,6.1938844,1.1960776,-1.8514553,2.3659766 },{ -0.48815185,1.2736993,0.21128346,2.5536058,0.32698625,-2.332601,0.11955302,-0.02798822,-0.90365785,-2.6110897,0.027653627,-0.040516257,0.19416802,-0.6864375,-1.4038516,1.2831156,-1.1742059,0.03299571,-0.23583889,1.9948859,2.7291965,0.59230494,0.06843145,2.1580362,0.24584186,1.936496,0.04409755,5.0419393,4.343669,4.116145,0.87633365,-0.4139854 },{ -1.236841,-1.0112329,-0.51741165,4.3524356,0.69092566,0.8020332,-0.5827458,-0.11981773,0.39684343,2.542041,0.9860601,3.3462913,-0.5402279,-0.029809106,-0.5384722,2.654368,-2.7036662,-0.08179082,0.8865507,2.4962173,-0.07212128,-1.3506848,-0.6014436,-0.2809154,-0.6393117,2.4168856,-0.65356,3.5568354,4.0479016,2.8681495,0.17252223,2.6472263 },{ 0.33341488,0.34187913,0.5190053,1.5350714,0.9761386,0.87031853,0.47314674,0.50632316,-0.7804447,0.48300225,-1.3805604,0.7421155,0.4185062,1.8992864,-0.1471533,2.1829748,1.0870084,0.60042137,1.5699947,1.5217505,2.2912736,-0.15420686,0.4690532,1.0699923,0.5275399,0.12625454,0.17865105,4.925947,3.5214176,5.2872357,3.4450336,0.91255826 },{ 0.42466238,1.3312467,0.64861727,2.3398457,2.4230547,2.355206,0.66258115,1.0761688,0.6200252,1.4446576,2.327753,1.727349,0.7160958,1.9834485,0.72749627,-0.12755534,0.8900532,0.5581037,1.6432896,3.3002508,0.7579151,0.5545722,0.52115065,3.73724,0.6297932,0.3964508,0.7723032,4.1299033,2.8418388,4.2471337,0.03813889,0.64978933 },{ 0.48741862,2.5083914,-0.11715379,2.6262383,2.2997818,1.4932597,-0.25567904,0.7052666,-0.5461786,0.55757004,2.070665,1.9112172,-0.20102392,1.5252894,0.8287159,1.031002,2.0522692,1.672964,0.08978469,0.0052423617,2.6456425,-0.1284572,-0.2521056,2.493543,-0.15245777,0.21060601,0.19323912,3.1564226,2.1103144,3.9210374,2.2672884,0.5946052 },{ -0.7898665,2.9390059,-1.1504148,2.2066455,0.19402622,1.4373151,-1.0917573,-0.020787556,0.094514966,3.0852628,1.6539817,0.6288913,-1.0070788,2.5826912,0.47484386,1.6899902,0.5481684,-0.9138503,0.40807822,1.7453405,4.043973,0.34906667,-1.0873818,1.399185,-1.0976886,2.939013,-0.82463104,1.503528,6.9090705,4.682024,1.6155353,1.9728357 },{ -0.7246715,3.844121,-0.029343441,3.1190443,-1.1461953,1.7628714,-0.15583162,1.0470706,-0.16986588,-0.20660947,0.43967387,2.5531425,-0.07070956,0.8476004,0.20536663,2.3075404,2.2554295,-0.68528914,-0.37608126,1.974846,3.0180955,0.19216359,-0.11334182,1.6291189,-0.07812576,0.8859788,-0.19500427,0.94859385,6.466186,4.0986576,0.48492524,2.0579243 },{ -0.76286066,1.8273975,-0.23452201,2.8718665,-0.28131604,1.0211716,-0.3378611,0.18436494,-0.35647964,1.402733,2.8432946,0.92880356,-0.25938958,0.6945934,-0.2640449,2.6513712,1.465631,-0.38168004,3.081529,2.1221445,4.2755837,-1.1465887,-0.23502442,3.751997,-0.2992532,1.6996804,-0.32618135,-1.6347613,6.665074,5.378042,-0.12649341,4.0879726 },{ -0.4896857,3.4673686,-0.8429679,2.2265756,-0.35616064,1.3920182,-1.0456383,1.2662451,0.9207155,1.3559333,0.45833743,0.48104438,-0.95273846,2.6543112,-0.16312797,2.139147,1.7772479,-1.0937612,-3.0049503,1.3707676,3.3577888,-0.14709881,-1.2622894,2.6882842,-1.0090003,1.7662956,-0.9097401,3.1233964,4.26757,3.676334,2.0186512,2.0052288 },{ 0.59500396,3.135926,0.5233974,-0.040914644,1.7487072,0.38258892,0.3508363,2.8114262,0.5430903,0.67289966,1.7015823,0.13398036,0.45221663,0.6083934,-0.24059448,1.7608589,0.5962597,0.2573356,-1.0332696,0.5526681,0.92525536,0.71315926,0.37027138,3.1076944,0.38649935,0.64397883,0.6438206,3.4264338,4.9153028,3.2856631,1.6500235,1.2153237 },{ -1.1841031,1.2995814,-2.1454906,1.1025022,-1.3418865,3.1567912,-2.1082723,1.6969175,-1.0064534,1.55533,0.7363605,2.3130555,-2.1233845,0.5578379,-2.0362678,3.0674706,-0.37300342,-0.12046277,-4.928979,2.285146,-1.4733607,-0.86249506,-2.2012346,3.858919,-2.1451101,0.034270808,-2.0987384,4.4938564,-3.6313493,1.4715077,0.849734,1.275702 },{ 1.4553434,2.5872822,2.179992,1.7395632,-1.673572,2.4054315,2.1836827,3.293851,-0.8532826,2.4795804,1.8377337,0.80616695,2.1817691,1.753755,0.9691247,1.8937974,1.8987882,-1.0083722,0.6319374,2.2028098,-0.9393848,0.27444637,2.1447027,2.9544063,2.1890965,-0.17703561,2.2117898,3.9555244,-7.062191,4.1962404,2.4104247,1.5038716 },{ 0.80986047,4.0772696,1.4145186,2.2821043,-0.58003026,0.9775166,1.354931,1.1466699,0.7195312,0.91178906,0.5702598,1.7456938,1.1863583,1.2841891,0.15585674,2.0840714,1.9387307,-1.9690607,-3.6552758,2.3260221,2.3014293,0.4005635,1.1976961,2.802747,1.4061368,-0.47308055,1.2013175,4.8456826,-4.1007385,4.888911,2.5617695,1.1772819 },{ -0.02852539,-0.027661663,-0.057078082,-0.06722935,0.08550008,0.04402992,0.07838036,0.082389295,-0.039173856,-0.011875942,-0.08336145,0.049929142,-0.005979128,-0.08388904,-0.07266655,0.037509724,-0.005478181,-0.043990318,-0.00032417476,0.03053204,-0.018937096,-0.00067834556,0.0444628,-0.04332852,0.01761695,-0.034452498,0.043530717,-0.053125184,-0.054748934,0.07131964,-0.07701906,0.006148681 },{ -0.07327402,-0.05477326,0.0061621964,-0.036978215,0.07826562,-0.023235112,-0.06726842,-0.019958764,-0.0033668503,-0.040400945,-0.078826874,-0.014300838,-0.02720328,0.014595568,0.008394964,-0.05572306,0.053546622,0.03698121,-0.035508566,0.0053063706,-0.02569453,0.027822182,-0.07053062,0.00010750443,-0.007875316,0.027342543,-0.06189409,0.08433887,-0.030026115,0.0701403,-0.064518504,-0.06400482 },{ 0.040045813,-0.040073637,-0.08468081,-0.0031670257,-0.06922539,-0.04618654,0.07903764,0.043641567,0.05832331,0.076715425,0.009419642,0.01898846,-0.06594922,-0.07868924,-0.014984861,0.013367362,0.0421727,-0.030405506,0.060140595,0.035467915,-0.05131044,0.03204506,0.08586143,-0.01995945,0.06711064,0.0023680627,0.083599985,-0.036069542,-0.067422345,0.0122669935,0.047328696,0.04059072 },{ -0.075973846,-0.0040431544,-0.050402716,-0.06530223,0.02109766,0.014815122,-0.07908631,0.025175072,0.03110329,-0.054846577,0.0386689,0.01737748,-0.059245147,-0.029659703,-0.0415016,-0.07613726,-0.05439026,0.07990305,-0.040779095,-0.010250486,-0.04438688,-0.0729368,-0.064876705,0.03744933,-0.032977343,-0.017989218,-0.026464928,-0.07203116,0.06138219,0.041897148,0.008677639,-0.053221155 },{ 0.028250538,-0.039436147,-0.06689833,0.07896964,0.080070555,-0.05444973,0.0033554211,-0.02848474,-0.08277379,0.04138644,0.04590738,0.070803806,-0.01907453,-0.016980842,-0.029444773,0.048486844,0.0011811554,0.051319987,0.05537826,-0.08061017,-0.045283604,-0.04148528,-0.07731697,-0.010832898,-0.006416671,-0.058573194,0.04961069,0.03779523,-0.07497612,0.0055372566,-0.060673214,-0.015689105 },{ -0.08109581,0.035869017,0.083926424,0.031512626,0.06527357,-0.067439474,-0.08079654,-0.0029805675,0.07101162,-0.05937791,-0.067961164,-0.04645995,0.016828738,0.051420987,-0.051466644,0.016747423,-0.061006073,-0.020719923,-0.056537576,-0.056720793,0.04505542,0.0545433,0.082261324,-0.03417616,0.05841221,-0.00269036,-0.041071594,-0.08075713,-0.048612546,0.047626123,-0.00925003,-0.054387245 },{ -0.014449701,-0.06899447,0.021721907,0.020280197,-0.008351609,0.08248977,0.018700518,0.071995035,0.07912959,-0.009242125,0.08440012,-0.055820458,-0.03744357,0.02566801,0.07366833,0.063018516,0.07403734,0.06655486,-0.070110336,-0.016849086,-0.022835232,-0.055944823,0.063252285,-0.06665793,-0.012655236,0.025781527,0.08442539,0.047700122,0.05609165,0.07448843,0.027720965,-0.04477733 },{ -0.04554133,0.030111566,-0.03645498,-0.06416367,0.0781316,0.034726694,-0.048073526,0.06664552,-0.050389983,0.013786644,-0.015036054,0.08589938,-0.02261316,-0.039734337,-0.07191931,-0.074958496,0.050224736,0.02482023,-0.018372163,0.073385924,0.061497003,-0.026380777,-0.019275941,-0.00425829,-0.038301274,-0.04390033,-0.0063186735,-0.067383245,-0.04117916,-0.040081166,-0.06181275,-0.015736483 },{ -1.24408,0.32702795,-0.65823835,1.5678024,0.20659101,2.0097148,-0.534944,3.1838164,-0.9131355,3.169606,0.41943002,2.497003,-0.72964805,1.3037695,-0.7333506,1.1669004,0.29905298,-1.8170792,-1.6667018,2.1955693,1.7842089,-0.07001612,-0.70891714,0.114565514,-0.5974682,1.9561552,-0.46744803,-0.24055357,-2.3351202,4.327686,-0.2417461,0.6856949 },{ -2.2681687,3.1558363,-0.19180019,-0.13574828,-1.9141433,0.72904855,-0.0043536527,2.8082051,-4.0771174,-1.5755713,0.51378316,-1.3745737,-0.08413652,1.0246353,-2.9342148,1.2249365,-5.836462,-3.1276526,0.58713007,1.981464,-0.25237212,0.5501667,-0.2010064,0.8124155,-0.09992817,2.465053,0.68422997,0.19269599,-0.26923215,-2.3691158,1.6237745,-2.4222891 },{ 1.5322021,-1.8996024,-0.5669639,0.80349326,-3.0383973,2.8018394,-0.68057066,2.8788476,-3.3653786,2.0597508,2.2733476,-1.2449378,-0.6103076,2.1219838,-2.2692418,-0.09695468,2.4152277,-1.4784222,1.9223626,1.3116816,3.3301258,-1.7774667,-0.7021426,-0.99599564,-0.7397129,-1.4079823,-0.69025517,-1.7115486,-0.32929587,1.1117284,3.1735625,2.7751076 },{ -2.9695222,0.8314967,-1.6636547,0.7078484,-2.1013606,-0.9482082,-1.7377077,3.0611894,-0.46090811,0.8829303,2.6448245,2.2298667,-1.5303572,2.385959,-4.786403,-0.27022466,2.7838194,-2.0932171,1.2580457,0.33647245,0.12305322,-2.9171145,-1.6250496,0.7342718,-1.6578914,0.036179226,-1.0770029,2.8573103,-2.3886845,0.5734222,2.5483963,2.829445 },{ -1.2689764,2.16072,-0.59957784,3.0432043,-2.2648792,3.1386025,-0.70299083,3.4005518,-2.4718468,-3.261165,2.2018313,-1.0959674,-0.56475544,2.0693474,-2.938557,1.4231395,1.846648,-0.9547869,2.531505,1.7672484,0.65711284,2.4139652,-0.65040386,2.1258662,-0.51280856,0.12604707,-0.9695104,1.6467475,-1.0397379,2.582625,3.739075,1.7489061 },{ -0.90396166,2.9205337,-1.5280775,-1.9342986,-2.6294947,0.4574238,-1.2731708,3.5169616,-0.21198624,1.3926504,-0.9297664,3.4968114,-1.5296878,1.1410056,-0.5161734,1.0643067,3.1314454,-1.3636243,-0.44531474,-1.7024868,3.6247807,0.17681597,-1.3473554,0.92969286,-1.4180557,1.6720364,-1.5622916,-2.637427,0.1735241,2.6124942,1.4628518,1.6193053 },{ -0.4226735,1.8207766,-1.4833723,1.3345355,-2.9562335,0.6971603,-1.4855411,3.4403605,-3.2580159,1.8811361,2.8896687,3.9153452,-1.5725048,-0.26772085,1.2034103,1.2307255,-0.02319851,-4.894684,1.129614,-0.5114198,-4.965728,1.6256813,-1.4038271,4.620161,-1.5364361,0.4245574,-2.1053252,0.11153232,-1.6609111,4.5579624,-0.3630185,-0.7738322 },{ -1.6798164,2.166236,-0.70205855,-4.5738554,-0.8588889,-3.3784907,-0.61972827,2.6481204,-1.7702644,-2.4692354,2.831898,-0.59980065,-0.62663144,2.1573339,-2.2304962,0.17200717,-0.107844494,-2.591371,2.453241,0.7202014,-1.1128643,-2.3604157,-0.6313357,1.4277444,-0.7475841,5.184903,-0.39532655,2.4697502,1.4326646,-0.3489349,1.0026834,2.4185808 },{ 0.19359449,4.313151,1.1940988,-0.6777933,-2.7330685,0.58969474,1.2196631,3.4077682,-2.4227884,5.738221,4.0430765,1.5190426,1.0968759,0.8509635,1.521873,0.6521246,1.243565,-1.4121996,1.30074,1.038136,2.0232239,-1.6141578,1.4256076,-0.30163217,1.2521601,3.2996387,1.5014241,2.8870325,0.38070685,-0.8674139,0.43187904,4.586245 },{ 0.87338847,1.1600717,0.07584207,1.0154215,-3.0334947,2.6422522,0.23573233,4.312878,0.88525504,1.9601886,1.8581542,-1.5552664,0.25054502,1.8598726,0.75958115,2.886361,1.5193369,-0.82959783,2.573143,3.8132737,1.0596485,1.7899503,0.034006417,-2.0622215,0.13631491,3.229337,0.58971035,4.031976,1.2902275,1.1470963,2.9767337,2.0876746 },{ -0.32602727,2.1029677,0.32971004,2.8776944,-2.7093525,0.69393164,0.41677433,2.9473028,-0.89746636,2.3989065,2.7960012,2.1173518,0.44270468,4.846164,-0.31435984,3.0164964,2.8763309,-2.339475,1.5221808,3.5374217,0.3815058,0.31503245,0.32647666,-1.3620206,0.2581083,2.1477616,0.5235137,3.1505115,0.005597845,2.955542,3.5857508,1.6699518 },{ -1.3259596,0.033810556,-1.7542542,-0.00985411,-3.9380639,-1.2209909,-1.5370817,2.6281471,-1.3632382,1.8986933,-0.91314965,-2.7268229,-1.5116681,0.8642678,-2.0758824,3.5310814,0.6003057,-2.2054,-0.07868694,-0.13366108,3.1919823,-1.644812,-1.5580882,-0.4177853,-1.6241443,2.345049,-2.1220565,0.7823193,0.7328353,-0.30408084,-0.89550954,3.2100835 },{ -0.7156102,2.433239,-0.37495834,3.390371,-3.2202864,1.1996055,-0.25590187,2.412145,-1.1523001,3.3844893,-0.6236337,-0.5719407,-0.4434818,2.6434743,-3.2140913,-0.76343536,1.2893764,-3.3395376,0.88689834,2.1558623,0.53202826,-3.7087274,-0.40478674,2.176985,-0.2544007,2.4719036,-0.6549905,2.6081958,1.6663773,-0.37086797,-0.5765783,-0.52052486 },{ 0.01607495,0.35658702,-0.6638051,1.2484986,-2.2714753,3.4268062,-0.8919428,3.0169597,-3.2864184,3.5840418,0.35471225,2.6847837,-0.9869852,4.064361,-2.6196325,1.1031367,0.571148,-3.5751793,1.5437768,1.0373287,3.1600444,-1.4356372,-0.77356756,-1.1231552,-1.0013363,-2.8515623,-0.8828286,1.672612,0.50795925,-0.44324723,1.4890044,0.8413084 },{ 0.25156537,0.4439439,0.0756988,1.5299729,-0.40033126,0.6989931,0.081894174,3.5379624,-2.3200746,5.782105,0.31209484,-0.16455026,0.05537948,2.0746415,-0.43568555,-0.15557359,1.8791945,-1.873079,1.3613136,3.1265495,0.070122644,-3.4021988,0.10987178,4.9042525,0.12876125,2.7630475,-0.37481993,0.16888425,-2.4062195,0.4469047,4.2006874,1.2197542 },{ -0.56607425,1.0492009,-1.58856,-0.7290043,-3.3781648,4.6012735,-1.4621114,3.9162982,1.7030398,1.0876995,1.4481782,2.391742,-1.6437542,-0.07346706,-0.67553073,3.3934054,2.6262546,-2.464294,-0.3177813,-0.83155084,0.61328864,0.46123227,-1.5217624,4.077836,-1.4868473,1.9756005,-1.0270152,2.6964803,-1.51354,3.5438201,2.600957,2.4552915 },{ -1.0520475,2.4900331,-1.3350941,0.9739968,-3.1486654,3.1496985,-1.2462151,3.24845,-0.25327012,0.24990499,-0.74605036,0.7516491,-1.3192441,-1.9690148,-4.6771636,-0.8233166,-0.7449739,-2.3950737,-0.7905033,-2.3783617,-0.22696775,-2.259359,-1.2810668,-1.0064745,-1.3607177,-0.6012542,-1.7646233,0.83729076,0.12273324,0.7493516,0.5601096,0.77377963 },{ 0.07063526,0.23573524,-0.616081,0.18454085,-2.4727013,-0.018938495,-0.3671838,2.6994157,-4.5044494,0.4613183,0.82191396,0.52836806,-0.43546858,0.27911448,-1.96552,2.4078157,3.1592774,-4.2190943,1.2394768,2.5389593,1.8318686,-0.7983964,-0.5168061,1.5118604,-0.32508644,1.3820765,-1.3616709,0.941404,1.8072994,2.4969568,1.1129735,3.330406 },{ -2.8558002,1.0020585,-0.7012783,3.745171,-1.2656175,0.8948735,-0.7880471,3.1406546,-1.5842566,-1.044468,3.7680848,1.3400403,-0.78664804,2.1972692,-3.159184,0.6123072,-1.0337003,-4.3774366,1.2034036,-3.1916013,1.5752954,-3.5866919,-0.7635801,-0.56492597,-0.76930296,1.0478262,-2.3332412,2.279805,1.506499,-1.2944341,2.4221137,-0.24368541 },{ -0.23808138,2.1422994,-0.04440959,-0.47826505,-2.3093274,-1.083615,-0.11864881,3.3697617,-2.1967032,3.6310682,-0.6935569,-0.39820382,-0.17527848,1.6907365,-1.788093,2.36384,2.3722122,-1.449111,1.7485373,3.430753,1.8434728,-1.8786288,-0.021342129,1.4248633,-0.119034916,2.5403457,-0.2963894,0.15803252,2.4338574,3.7685294,2.5861762,1.2886583 },{ -0.7582476,3.1140149,-0.67012364,-0.029109031,-1.5220903,3.389432,-0.7458473,3.544594,-2.9563982,2.0212257,2.8728054,2.3791695,-0.692842,-2.6229484,-2.3738964,-0.95810765,-3.1162977,-1.6603856,1.2077225,1.8989738,3.0412054,-3.9309936,-0.7719043,2.3679688,-0.7650985,2.149836,-0.971799,3.4362936,2.9493325,0.3780337,0.08586559,-0.7196094 },{ -1.5089765,0.5987532,-1.5356581,0.62548274,-5.932278,0.5394798,-1.5337715,2.1364384,-5.5312357,2.1606202,-2.0144546,-0.9078901,-1.6374226,1.6032956,-3.1059432,-0.5688658,4.48379,-3.070757,2.6997664,0.9061903,0.18950698,0.34026212,-1.5551208,2.0513754,-1.5474452,0.16917425,-2.2685635,1.6533041,-0.35407233,1.3229579,2.5245113,1.8836378 },{ -2.0005722,-0.7259808,-0.8037243,-0.06873738,-2.8556252,2.48217,-0.9164878,3.0010598,-1.388834,1.6306943,3.8930407,0.35928681,-0.88375,1.634079,-0.23452029,1.9338017,-0.51154524,-1.7600423,2.1206474,1.7997519,1.9481205,-1.6597317,-0.7077647,2.045537,-0.8299133,1.8976798,-0.50699526,2.038732,1.0655731,1.6485184,0.75779873,4.3500195 },{ 0.09428768,2.3520682,-1.0615969,1.37278,-3.4313293,2.1861498,-1.125496,3.041114,-2.6910033,2.6224356,0.5710777,-0.6310523,-1.0787404,-0.8749198,-3.4420683,0.34464377,2.0988584,-3.8084807,2.5591426,3.2003405,-0.54918396,-0.0961319,-1.1079072,0.4571944,-1.2789472,-1.1619734,-0.4844143,1.2489084,-0.23292597,0.98770934,4.238991,-2.2117186 },{ -3.0050945,0.9168285,-0.75404423,0.89945173,-6.332837,-0.22603333,-0.75794405,1.9017453,0.105714515,-0.30423227,2.1450272,-0.06300016,-0.75245714,1.9863827,-1.0529169,4.4819984,0.92310506,-3.7085106,0.04620166,2.4454992,1.8506424,-0.36784998,-0.863047,0.47250733,-0.71111465,2.1017544,-0.41827065,3.2906566,1.9015718,0.6328684,-1.6364045,3.39866 },{ -0.14938752,1.096154,-0.12223296,1.7891678,-3.316301,3.0862916,-0.107054375,4.507547,-1.606651,1.8062419,0.53306794,-1.4173396,-0.10297903,1.4830693,-2.4218085,0.22842534,4.460678,-3.4571533,0.9251525,-1.1212778,0.12227531,-1.3872449,-0.20133564,2.2412226,-0.23239154,2.6117868,-0.3718535,1.7396253,0.76894164,2.1548338,1.8389835,-1.2923667 },{ 0.17770122,-0.8281051,-0.46669987,0.0314514,-2.8392231,4.218268,-0.7238628,2.8696065,-3.2038026,3.8092594,1.136134,2.3933597,-0.50953555,3.72141,-2.132682,0.78741884,1.5088949,-4.3523426,1.065217,2.4819086,3.131087,1.5604427,-0.5707807,2.714169,-0.5763194,1.8166866,-1.0486442,2.6591277,3.3831604,-0.81380606,1.586478,1.1820996 },{ 0.010050952,3.2943933,0.06625261,1.0036345,-3.509111,2.3555164,0.17173146,3.0953982,-2.9982827,2.8206563,2.244186,1.1786531,0.12955625,-2.6505682,-2.3189147,2.2167509,1.4683594,-2.15432,0.81827,1.8897606,-2.1710699,-1.431733,0.18368682,1.5384786,0.063433155,2.0965774,0.37490365,2.6900795,4.0655704,2.4718893,0.6438526,2.108946 },{ -1.3503304,1.1552664,0.15922911,1.4760123,-2.7235677,1.5948561,0.05785881,2.984249,-3.053733,0.55619,0.051666748,4.06734,0.19912997,1.417072,-2.907336,0.012180713,3.023556,-2.2669249,1.3597474,0.95625085,4.810355,-0.6625735,0.13472307,0.85963106,0.101203665,1.0652,0.33714586,2.339758,3.038027,3.2043247,1.7251767,1.6227353 },{ -1.975587,3.2960596,0.507359,2.9208302,-2.6148014,-0.18457384,0.44734725,2.1633072,-1.2125617,1.9519242,0.7637547,1.1523799,0.5240888,0.9622487,-2.8429174,2.7053435,-0.21948673,-3.5784867,3.5430033,2.312813,-0.24718112,-2.9157176,0.49915838,1.3856854,0.4621359,3.3595397,0.623427,3.6877227,2.0252707,3.6164567,1.4596262,3.0328238 },{ -1.4493022,5.1454387,-0.12844083,-0.619433,-0.30456036,1.8786215,-0.1255725,2.4906409,-1.5951303,1.6598737,2.6757991,1.9213262,-0.12823841,2.104921,-3.1223137,0.88015664,3.8752816,-2.9582524,1.9909494,1.8051587,0.8116882,-0.43248272,-0.1965847,0.35910192,-0.26769415,0.84557873,-0.7172078,0.8923448,1.0775107,2.3293207,3.3194513,1.4731908 },{ 0.6657755,1.7718215,-0.8525582,1.5816059,-2.2842665,1.0148288,-0.84113514,2.5390966,-2.8448007,4.989843,-0.4037906,-0.73348033,-0.85568845,1.5369763,0.6016066,1.7035633,0.66465604,-1.8583359,0.58494765,5.279091,-0.062044177,-1.3668426,-0.9264613,2.5275962,-0.78516597,4.8389626,-0.17071731,2.3525004,0.16599788,2.533793,0.15113117,2.6870308 },{ -0.9248616,-0.21421504,-1.5096835,0.42026603,-0.26820678,2.175672,-1.6853596,1.7653403,-2.0131128,0.7677599,1.2146571,3.735015,-1.7233094,3.3043,-2.6440024,-1.6460543,4.545452,0.8069555,3.406696,3.1522121,2.7894917,-2.782104,-1.6225603,0.06800166,-1.7968822,2.7074625,-1.1859958,2.7482383,3.0532022,2.034971,3.371844,-0.7561171 },{ -2.528538,2.5416496,-1.5943693,0.16544156,-4.082029,1.6239923,-1.6706266,2.3785918,-2.0558987,1.8417743,1.5432898,2.2026515,-1.6998702,0.8868477,-1.100596,4.4160166,2.1408992,-3.238855,0.6083663,-2.6520789,0.28690714,-3.7901514,-1.6791832,1.5398078,-1.8622663,0.43895808,-2.2420592,1.6392472,1.8623173,0.71891445,-0.69793034,1.3197957 },{ -1.9715478,0.20721085,0.43543833,0.1730557,-0.64158803,1.7426585,0.31765825,2.7770503,-0.6770019,1.4802845,1.1393256,3.9901378,0.27775913,2.2564826,-1.0239676,4.277463,2.804711,-1.145277,1.6459895,4.477294,1.2653018,-0.8184449,0.22695579,1.0288738,0.3107805,2.6357665,-0.05703318,3.091896,3.882672,2.3500383,1.3064231,1.6224108 },{ -2.7376091,1.3495572,-0.5778333,0.5290873,-0.9484955,2.9721284,-0.5730099,2.692613,-0.96167696,2.5183318,2.6959195,3.425466,-0.53718555,1.0645822,-1.9641808,1.9064815,0.98361754,-2.3820817,2.4608958,-1.16651,2.5492036,-1.30774,-0.53221494,1.7667311,-0.6745969,3.960051,-1.2690116,5.5886135,4.733797,1.437484,1.2754936,3.8072088 },{ -2.332763,1.769607,-0.13413702,1.6741288,-2.949881,-0.5538843,-0.14535853,2.0424023,-3.715381,1.642267,1.0158044,0.824134,-0.09173448,0.797119,-2.2305937,1.9104482,1.103878,-1.661848,1.5900946,3.1301897,1.5308453,-4.5220017,-0.067732625,-0.94610643,-0.0970279,3.4357035,-0.5775751,3.708743,3.360163,2.9178746,1.6805438,1.2255285 },{ -1.6232231,2.917288,-0.3269719,-1.8370861,-3.2479806,1.8347577,-0.29749978,2.4202645,-1.193042,2.9137897,2.5099537,0.73120314,-0.20900439,0.6578649,-1.7166296,-0.3123146,2.6906898,-2.7630932,4.5277057,-0.49389115,3.263133,-1.8643718,-0.23275419,2.682286,-0.38487345,2.2678893,-0.35481668,2.5800562,4.59862,-2.2137454,1.3435074,3.839105 },{ -0.690785,2.6042805,-0.32300538,5.045318,-2.9548447,3.9277625,-0.30777153,2.067174,-2.5273168,1.0930862,1.1192352,-2.398842,-0.24527414,5.2537365,-3.4119065,3.1169233,2.9277115,-1.2864028,0.46265393,0.9294654,2.2980864,-0.39543012,-0.087111056,1.287464,-0.12320182,2.548117,-0.4370546,1.1785342,1.6966482,4.186267,0.85339737,0.62059104 },{ -0.3962802,-0.08086737,-0.77441955,-1.1933863,0.5001154,-3.827578,-0.83513486,4.675307,0.323769,2.5004575,3.1748703,2.1530957,-0.9031685,2.2506392,-1.9306723,2.509389,2.7520506,-0.13104448,1.9311364,-0.25008315,2.8974714,-0.041502763,-0.8066087,3.3744242,-0.84421843,1.6429131,-0.822445,-1.1507388,3.8398995,2.7022047,3.0990486,1.4414114 },{ -0.5263421,2.2176785,-0.8798832,-0.058683407,-5.7286134,3.212891,-0.88745683,1.7079571,-1.4849899,1.1103922,-1.4537086,2.2469907,-0.97960705,2.3477914,-1.6393391,2.0518076,2.4508567,-3.4603975,1.366604,3.042248,1.4565996,-1.4055614,-0.98608387,0.8460338,-0.9452255,0.33836025,-0.67508805,3.6662877,3.1881652,2.382846,1.7329143,1.6200923 },{ -2.146798,0.38242412,-1.3793389,2.4821148,-1.328787,3.0235164,-1.3292432,1.8650316,-1.4339255,1.203399,3.0919666,3.3955302,-1.3107238,1.4451734,-2.7599685,1.754243,2.2599092,-2.5422642,1.3506163,3.455292,1.7532939,-0.35414737,-1.4076889,1.9996552,-1.3490598,0.93642807,-1.6244266,3.2840247,2.9790552,2.1178167,2.7806916,-1.1935722 },{ -2.3711958,3.1546571,-0.9369596,0.3962596,-1.3395733,2.3548405,-0.9206719,1.2716079,-2.9993098,2.393252,2.523469,-0.2118355,-0.9416335,3.010392,-0.28802183,3.9849145,3.7532887,-2.5847125,3.5011084,2.6814964,0.030155368,-1.6951962,-1.0615609,1.8267778,-1.0222507,3.6605794,-0.81424046,2.7836344,2.5092287,4.568318,2.4900866,2.8677664 },{ -0.30823654,2.2447314,-0.22399423,1.7428421,-0.38200054,3.4026306,-0.22818996,1.8128965,-2.0251858,2.9906225,0.17334889,2.5281425,-0.31422848,1.6133733,-2.7563944,3.329766,3.286852,-1.0108541,1.8745906,2.8011768,3.6256711,-2.0661316,-0.29619282,1.896683,-0.22218755,2.7864552,-0.7517427,4.995468,3.691791,2.7285202,1.2424992,2.3229997 },{ 0.7131311,0.91154546,-0.046194423,1.9582027,-1.428761,2.6683939,-0.008406878,3.5476158,-1.2003764,1.8516448,1.2773747,2.375126,0.0031848797,2.567385,-0.35274246,2.8005378,-0.15811963,-0.48940763,4.4522834,0.1028766,0.085227795,0.071153216,-0.07419001,0.64437973,-0.079429746,2.6628494,-0.14209898,1.9906797,5.8921676,2.5604403,3.6596718,3.832649 },{ -2.7374327,4.063664,-1.3796041,2.3775613,-3.124586,-1.8589163,-1.2919446,0.57321364,-3.6833022,0.30089813,2.3731601,1.7925195,-1.4165505,4.6713853,-2.2595465,2.1302278,2.019853,-3.4461663,3.301548,0.5168783,0.22222495,-2.330927,-1.4065909,3.4490538,-1.4260664,2.754151,-1.7813244,1.0263497,5.862455,0.6366301,0.13277873,2.32782 },{ -2.4870555,3.1725326,-1.252254,-0.019898677,-3.808773,2.1591203,-1.2582856,2.6363373,-1.0630394,4.7206984,1.3311241,3.6920586,-1.3007357,1.0823244,-3.1437354,1.5156533,0.04372778,-2.4443781,4.2436433,-0.19402424,2.6996405,-2.546954,-1.2182738,-0.9537628,-1.1210666,2.7496383,-2.0636501,1.4007844,4.1446524,1.9553709,1.6962329,1.6905518 },{ -0.2753133,0.92409575,-0.18589792,1.0371549,-0.33637765,2.1319463,-0.17630799,3.039375,0.23621877,0.76300454,4.6434546,2.2600133,-0.19607073,3.4887226,-0.75793684,3.6653779,1.2738645,-2.0410247,4.6925926,0.7054895,2.352707,0.47839582,-0.058022022,2.625477,-0.14724539,2.833472,-0.39932033,2.011661,2.8935702,1.8926578,2.5799658,-0.17923646 },{ -1.283587,4.6142406,-0.38734287,1.1335112,-2.5939753,3.452286,-0.5100914,1.3991776,-0.37668413,3.913512,2.800912,2.5576546,-0.34479007,4.0594196,-1.5503784,2.6256287,1.5745825,-1.4422718,3.6602547,2.0555754,1.6863086,-1.0050467,-0.39347664,1.4111437,-0.43128675,1.7688694,-0.29870647,2.329261,4.397887,0.074719846,0.324145,4.383202 },{ -2.251896,1.8062118,-0.24608254,0.5449168,1.0197971,0.016608004,-0.3855883,3.9067433,-0.74808013,0.3911969,-2.365978,-1.0897722,-0.39939114,-0.8034172,-2.8086016,2.0655406,0.76446617,-0.37446675,2.989489,-0.34204736,3.6352437,-1.3733007,-0.3567669,1.0859345,-0.4017572,3.4096909,-0.7014601,4.789434,4.1595693,0.0007828553,0.9709644,1.6693895 },{ -1.0781062,-1.9384484,-1.4014204,3.0172405,-2.2764328,0.87926334,-1.7455518,1.3934536,-1.2603067,1.5662096,3.590287,0.49726045,-1.6301006,3.000015,-0.11189158,3.0280697,1.1673701,-0.9554318,3.186053,-2.822052,1.9733547,-0.9896214,-1.7187052,3.906425,-1.6505572,2.4919827,-1.5954592,5.0009007,4.4559274,3.4281437,4.4345627,1.8462689 },{ -1.691273,1.6469358,-0.39676425,1.476525,-2.0895758,2.634135,-0.48932558,2.948281,-3.1704164,1.4428794,1.0541923,0.44491112,-0.5356448,-0.6283699,-2.6670012,2.5566168,-0.6037307,-1.58355,3.7320395,1.8621011,4.450639,-2.4718137,-0.42399454,-1.1626937,-0.4070261,-2.0730526,-0.5964733,-0.26855904,5.2608457,1.7251327,-0.10217779,-2.1032262 },{ -2.5934713,4.645017,-0.8619692,1.6489023,-1.8664596,1.7941613,-0.9586444,2.1988358,-2.3992593,1.9166529,0.805794,1.9652103,-0.9286051,4.1875277,-0.6311579,2.8382115,1.509933,-0.4180459,-0.024617698,2.679018,1.7691051,-3.1360593,-0.8909079,2.4485354,-0.9784069,1.0760854,-1.2176646,3.079878,3.4486892,2.9268284,-1.1323367,2.6653156 },{ -0.5872327,3.500719,-1.0734614,4.621374,-0.3665775,2.3913624,-0.9550506,2.6405113,-0.81365424,2.507277,3.6013954,2.7317448,-1.0389165,2.863165,-3.299571,0.48727188,-1.4405559,-0.15853138,2.3810096,0.016345983,1.4205105,0.5111725,-1.0825028,2.906698,-1.1372796,2.4159396,-1.2901082,3.9655855,3.9066575,2.5559206,1.3243214,-0.95543134 },{ -1.6980783,2.6374855,-1.7405938,4.041998,-1.426293,4.144294,-1.6935514,1.5120084,-1.0297631,2.6358428,1.4423798,2.4886029,-1.6519247,2.6034667,-0.6443157,-0.3910653,2.067832,-0.7926843,5.3033457,2.8638628,1.3758954,-1.2642952,-1.587481,1.1537544,-1.6446218,2.656966,-1.3685089,0.8478076,4.4203815,3.5007262,3.1758282,1.193492 },{ -2.8810606,0.28187346,-3.110055,4.0576854,-2.2712133,1.711587,-2.8736644,-1.6411606,-1.9987121,2.7147262,2.1617713,1.8254964,-3.0612383,2.6129606,-1.7902416,4.3493533,1.229777,-2.1855483,2.7203977,5.0253997,1.5710337,-1.9534081,-2.8822541,1.0776749,-3.0039399,3.3092444,-2.8864422,2.5984888,4.250318,3.654854,2.3858461,1.9786804 },{ 0.4232716,1.2260108,-0.33225077,2.6883214,-0.631691,1.417022,-0.2719748,-0.2083502,-4.7477226,1.2955557,3.642447,4.135571,-0.42383796,1.4403052,-0.8899712,2.2563744,0.2629691,-2.7371006,0.91734123,-0.0029483708,2.6041763,-1.9562668,-0.21669492,4.3194656,-0.3353368,0.17393897,-0.12603319,2.6090279,2.1595635,-2.877536,2.1715338,0.88096565 },{ -1.3637338,1.5168211,-1.9210641,1.3115999,-0.96581453,2.6320004,-2.0063107,2.460453,-1.113364,0.54442984,1.3921969,3.4568887,-1.9395527,1.328017,-1.5863954,1.6825929,1.3571084,-1.5792582,1.7867059,0.01678099,-0.11318711,-0.5389484,-1.9981191,2.2458935,-1.9673915,1.3205589,-1.7587441,-2.630325,3.2665968,1.4797791,1.2897441,1.642537 },{ -2.0145688,3.3509455,-2.5803833,1.5272564,0.24231829,2.8415387,-2.577249,-1.0139205,-1.8295819,3.3020818,4.09351,3.6514716,-2.6258297,4.557513,-1.4013399,0.74916905,-0.21215044,-0.601007,4.6060057,2.092056,3.3335102,-1.0292654,-2.4384098,3.3855202,-2.443306,3.2558434,-2.3201613,4.6802664,3.611384,1.9085184,0.5369007,1.4067595 },{ -1.4902773,5.044671,-0.92782223,0.23422015,-0.6744621,1.4721947,-1.0040171,1.2394388,0.4712608,3.2114718,2.3264678,1.4119323,-0.84886974,3.0516791,-1.6482886,2.5128143,2.3589432,-0.6183622,1.9471594,2.9713883,2.6495755,-1.2760657,-0.9394779,2.7615054,-0.98722297,2.0668564,-1.2434272,-0.6901521,1.4139748,3.7605965,3.3164613,2.2817993 },{ -2.5213974,0.8815016,-3.6002283,0.26639038,-0.42682678,-0.4534183,-3.5254824,1.471723,-0.86404765,1.1022905,1.111917,1.8118235,-3.7276735,3.1666796,-2.2910678,-0.2172219,3.0248659,-0.3540372,3.2810605,0.992981,2.4317667,-1.9801826,-3.6072843,2.9405239,-3.6785812,2.8189027,-3.5085893,1.2544425,3.7104766,1.922547,1.7992443,1.7660315 },{ 1.0555674,0.8257697,1.4137232,-1.3334138,-0.48592204,0.026153393,1.39095,3.4927971,-1.3157916,2.0444105,1.2039407,1.4504938,1.5065846,0.3927305,-0.9049293,0.56699616,1.515098,-2.4601378,-1.9724021,0.78423595,-1.285021,-0.88812065,1.5541964,1.4742663,1.4815868,-0.742724,1.4520099,0.79168695,1.456175,4.3415813,2.2965035,0.74462867 },{ -1.754032,4.267795,-1.6533481,2.870663,-3.0636632,2.6436887,-1.7431694,-2.885674,-2.4201114,1.793445,2.9251702,2.362866,-1.6463403,1.4114026,-1.778375,2.0339496,1.98631,-1.9790314,2.0673056,3.1894648,1.2627342,-1.8593667,-1.6907419,2.8003783,-1.7922168,2.4294367,-1.6834123,2.020475,3.987797,-0.049837887,1.6912969,2.5036108 },{ -2.605351,-0.16001122,-2.8172626,-0.9668601,0.10821671,3.577875,-2.798958,2.803487,-0.87809646,1.1427519,2.4438028,2.649686,-2.7798665,-1.5190258,-2.8375432,-1.2028279,0.9132571,0.16833527,-0.4856619,2.7024686,2.5290785,-1.449453,-2.9087296,4.9481106,-2.8415325,4.1398387,-3.3747725,4.365215,3.9690573,2.1895225,-0.3980114,1.4054146 },{ 0.710974,2.5434923,-2.3404925,4.3443246,-2.6418815,-0.5852472,-2.5033972,2.321434,-1.1316327,2.21268,2.2520022,-1.8340468,-2.3763573,1.9000247,-2.0898814,2.7016804,0.9063232,-5.1287436,-0.3372022,0.6555551,4.4953904,-1.3707631,-2.4165313,2.8257966,-2.2969918,1.1791492,-2.4360723,0.9860188,0.08929195,1.2997382,0.58743626,0.056132175 },{ -3.7450342,1.3091929,-2.9040985,0.6616349,-1.6728438,2.3451238,-2.8555205,2.538954,-1.1250635,1.1684127,1.1224133,2.2255735,-2.8872323,0.89931947,-2.9366865,0.48929423,0.75646585,-2.9418712,1.1290432,-3.269427,-0.2863066,-1.9001482,-2.9877217,4.375,-2.837034,0.36980656,-3.3497536,2.7078114,1.3688606,2.4264867,2.526116,1.071715 },{ -2.4547508,-0.616119,-1.1696805,2.3749342,-4.9977474,0.66190493,-1.2615559,2.3644884,-2.9613972,2.2202253,-2.2728815,3.2647123,-1.1908039,1.2758383,-0.65269977,-0.8186466,0.18990837,-6.74386,-0.5999117,-4.722888,1.3268816,-2.6391382,-1.0925689,0.31270885,-1.2495269,-1.3270789,-2.6620317,2.0634239,-0.09836247,1.3824413,2.8048055,2.6716316 },{ -1.2058789,2.7021463,-1.9533689,1.5442891,-1.1355175,3.2936826,-1.8556098,3.498014,-0.6915434,2.3821125,0.8765067,1.9515904,-1.8806473,-1.0061722,-2.122268,2.0669816,0.16294508,-2.9700632,0.24304429,1.0845885,0.96283007,-2.8066888,-1.8755864,-3.0097573,-1.8422711,0.77411735,-1.9224946,1.3848683,-1.5212554,1.1373404,4.3503895,2.3633084 },{ -1.1858515,3.0232742,-2.0193667,2.2058785,-0.39288008,1.1690909,-2.0283523,3.1377146,-1.3140323,-1.7596257,2.0314326,-0.6723707,-2.0130022,3.8354557,-1.4257455,2.5032992,2.8876476,-3.2870371,1.7159188,1.1428887,-1.0070741,-0.8905158,-2.1162848,-0.15664986,-2.1253526,3.1209745,-1.8741342,0.83011246,-0.5996172,1.1768867,-0.10598929,1.9379404 },{ -1.8515075,2.9801285,-1.7798411,0.30429316,-2.214794,1.9158486,-1.5181063,2.5506449,-2.537115,-0.76781195,1.9416918,1.547513,-1.4747634,1.5843296,-4.0754294,0.7515952,0.45726493,-1.8506749,1.2362242,1.8326694,2.34873,-2.161452,-1.5778795,0.6508825,-1.4403242,1.9624419,-1.8930594,-3.34272,2.3313708,1.7417517,2.4884553,3.8518112 },{ -2.4005823,-3.5377493,-1.2840449,4.689563,-2.8770676,2.0291097,-1.4018489,0.15107068,-5.0577273,2.0656505,2.4852827,4.0087094,-1.2874901,1.7007802,-3.715598,1.784638,0.073506415,-2.5924153,-0.83693475,3.85483,2.044549,-5.3990955,-1.3436203,1.8728955,-1.3552067,0.16710684,-1.2625446,1.2425382,-0.19729084,1.994006,1.4915243,3.1612499 },{ -2.080596,3.822396,-1.3529654,3.0451398,-0.35293233,1.5092452,-1.3791566,2.4022064,-1.1597801,0.8321141,2.7634234,0.8726185,-1.3126656,1.4670688,-1.1870067,4.6571546,1.6818697,-1.3763995,1.7181461,2.7032802,2.032103,-3.793676,-1.4385545,1.7613858,-1.3708339,4.8298426,-1.3353717,-0.74741155,1.4557698,2.3880534,-1.0934062,0.6341278 },{ -0.11640119,1.6329039,-0.99867874,1.4986106,-0.20269543,-0.4750435,-1.0282037,5.2057056,0.4041044,0.23617475,2.5488858,1.9924531,-0.9918482,1.6215531,0.026705546,-0.98135924,1.6793897,1.112902,1.6769729,2.789094,2.7990818,-0.408212,-1.0192595,2.2038941,-1.0452957,0.33280596,-0.84140384,1.9452883,3.871461,1.7609658,2.4091237,0.090355664 },{ -1.9293382,0.8646116,-2.123171,2.3181474,-4.185509,-0.44747633,-2.0679688,1.3966318,-5.5578527,1.394768,1.0945001,0.6515176,-2.2321677,0.5611499,-3.6642811,2.6545362,-2.2550752,-6.569257,-0.18319051,2.7207625,0.14138801,-3.6397126,-2.2633085,2.73272,-2.188458,-0.9333576,-2.4167526,2.7996395,2.3002167,-0.24322194,-3.091443,0.09745093 },{ -1.8279222,0.76747334,-2.7802007,0.3713315,-2.8857496,1.9113448,-2.7756388,2.5197878,-2.198412,1.6034083,3.0154295,2.993619,-2.88125,1.8109668,-1.3872241,3.0926414,1.2527384,-1.4448942,0.5538821,1.1560078,0.64644724,-0.88143,-2.8395004,2.7925615,-2.841514,1.2152761,-2.7320573,-0.43547738,1.4688532,2.7127843,5.0285883,4.398304 },{ -3.1585002,-1.2328696,-1.1407046,0.24208644,-1.725848,4.0360126,-1.0456158,2.6570826,-3.529698,-2.297356,3.6809933,1.9872105,-1.1155888,2.814828,-1.7906371,-1.1505449,2.6343985,-3.7421758,0.54554176,0.3955051,2.4395497,-2.0138392,-1.029637,-1.0496504,-1.1512362,0.6070919,-1.5936891,2.5119493,0.5054197,1.6066722,2.2962995,0.87555814 },{ -3.2716124,1.4373248,-2.4710283,1.2553668,-2.6918628,1.2807653,-2.8162756,3.2334971,-2.8863878,0.23694499,1.9640929,-1.3609401,-2.6517844,-0.13306934,-2.0120056,1.3176382,-1.7293164,-2.438777,0.7580769,4.1887803,-0.15749542,-3.709635,-2.4213572,-3.7170691,-2.6119277,1.0357306,-2.5437713,0.8575816,0.838731,1.4780754,0.0019826759,0.79046184 },{ -0.77283,-0.2983461,-2.1352768,0.39595473,-0.26464346,4.277287,-2.218392,1.8951917,-2.901567,0.7680742,3.7258446,-2.9162042,-2.1327486,2.3313367,-2.3619602,0.15107949,4.3443947,-2.7879689,0.39672944,1.1130193,2.7857804,-2.515586,-2.0552456,1.4883494,-2.0532699,3.5833027,-2.3423505,1.9237663,0.65033215,-0.82241946,3.7107701,1.4578656 },{ -2.1506958,0.39912474,-2.3808424,3.1234477,-4.2872143,1.232119,-2.4701045,1.2594448,-3.1217844,-0.35979462,0.9677824,3.5109282,-2.4749084,3.8754647,-5.9867496,2.9629471,1.2990471,-2.1378968,0.80188465,1.3765023,-0.4857504,-2.6698632,-2.5252593,-0.17990077,-2.626737,0.45971012,-3.7099893,0.9634054,1.8576702,1.5300192,0.20448865,-0.5654542 },{ -1.0196708,0.10524552,-1.9374853,-0.11019689,-3.725605,2.3336482,-1.841191,1.9034401,-3.381626,-4.4195814,3.4911864,3.9602802,-2.0464075,2.154329,-3.4482567,3.740617,1.6262834,0.77213013,1.5946105,3.7378166,1.4370729,-3.302877,-1.9797273,1.0387928,-2.0758066,-0.60542995,-1.4092891,-1.8813198,2.0764115,2.4023483,0.8515965,2.9779735 },{ -1.9434398,2.5404277,-2.2795444,0.69498247,-0.6571747,1.0822957,-2.2900016,2.4848235,-1.0065529,2.0107536,0.81845975,4.0870647,-2.2430108,4.7202735,-2.5829966,1.9026703,0.64276403,-2.869261,1.6444455,1.988286,1.5605612,-1.0849468,-2.2837446,3.1726782,-2.3382888,-0.1793967,-2.4161737,1.9443698,1.2216761,1.6623846,3.2328365,1.1881261 },{ -2.4585016,1.7342182,-2.2220116,0.6309563,-2.486551,2.8813193,-2.058009,2.9649494,-1.2311,2.1575534,-1.4414182,0.8769362,-1.9560033,2.7661986,-1.8140458,2.32888,3.0549603,-0.49145314,0.5825153,-0.30505458,-1.134383,-1.621401,-2.1351,0.6270889,-2.24452,0.42734522,-2.551986,-0.4199517,1.0864187,3.5145147,2.637358,2.2528458 },{ -0.39592847,1.6303076,-1.3740457,2.859988,-1.1950206,0.6819268,-1.5452244,3.0637143,-3.2145617,0.6709208,1.6287647,1.8753104,-1.4916857,3.9622436,-3.2423878,1.5220795,1.2743182,-3.7486987,1.0833795,2.4602702,2.8174543,-0.5407087,-1.6520313,2.759062,-1.6239964,0.9604439,-1.06279,2.8113387,1.4460777,2.5318549,-2.4954479,2.1172376 },{ -0.95963776,-2.504923,-1.4280396,1.0644387,-3.2132773,2.805736,-1.2674778,3.1608474,-3.081747,2.4998684,1.1540754,0.9852717,-1.2951027,1.3567783,-0.73764646,0.41801924,2.6353815,0.25557873,2.7104297,4.6778574,1.0056554,-1.7481662,-1.3230436,-1.3071856,-1.4853287,3.2908342,-0.65663046,1.8790885,4.2441883,2.9172246,1.5432286,3.4753048 },{ -2.7788103,4.369644,-2.060172,0.8095399,-2.5586922,2.537678,-1.9752363,2.5320072,0.16230287,2.3777437,2.7116451,-2.5615208,-1.9795662,0.56648105,-4.28548,1.89878,1.8527185,-2.7200952,0.54418635,1.9011148,1.5859945,-1.5422071,-1.9472048,2.6276667,-1.9043396,3.3526208,-2.1717513,1.2039827,1.0734669,-0.28553048,2.4928637,0.755111 },{ -0.35169405,-0.094178945,-1.1010153,2.9635935,-1.083764,-0.40323618,-1.0411618,3.1938128,-2.5637789,1.1875424,1.7857155,1.59155,-1.1799669,2.300044,-3.09522,4.177921,0.5670288,0.4458678,2.3912702,2.936646,1.7946416,-3.8037076,-1.242412,1.1324285,-1.1313496,2.8679733,-1.128923,1.1226635,3.1780214,-1.1875579,-0.080391295,2.9429402 },{ -3.188628,1.6658238,-2.5527475,3.7864861,-3.039986,3.6501858,-2.6602135,2.07814,0.42033148,2.6262329,2.7763188,1.8286439,-2.6910484,1.875774,0.38830972,2.4010725,1.469646,-1.1005962,0.61794764,1.7066867,1.9984994,-3.1365051,-2.7299602,0.62080765,-2.5278134,0.41242525,-2.1736648,1.6638877,0.8474739,0.44877857,2.7127073,4.375845 },{ -4.100057,-1.0778159,-2.2186046,3.109023,-2.1728585,5.0355906,-2.264491,2.9952064,0.3948875,0.7124792,1.9764109,0.71992975,-2.2439423,3.0349562,-1.9275911,0.7309264,-0.33307615,0.12516342,1.6854621,2.7809932,0.87498593,-2.524554,-2.1819623,1.9223742,-2.3754919,-0.507057,-2.693581,0.91126996,2.5804646,1.5014294,-0.2061189,2.7102032 },{ -2.531833,2.6594942,-2.072263,0.69129246,-0.7178593,5.985514,-1.9548724,2.2062402,-2.0181901,1.4420263,3.719436,0.19381697,-1.895021,2.458303,-1.0687343,0.91074604,1.759787,-0.5278074,3.7106574,2.8501174,0.3814694,-1.3480494,-1.9808881,2.0800376,-2.1670523,2.9992297,-1.9228534,1.2711563,2.5619638,-2.6347542,1.5836645,4.768616 },{ -2.3586063,2.7020688,-1.3665837,3.7059171,-3.05437,-1.9570099,-1.2074745,1.9954197,-1.4564334,-4.5887127,1.7424685,1.6289835,-1.1314429,0.47644824,-4.25359,2.021485,3.7386897,-3.144957,1.5325832,2.5366187,1.8196442,-1.5364203,-1.2972641,0.50399387,-1.2301476,2.6829338,-1.9431366,3.503291,-0.47293895,2.3170173,1.4745684,0.90470064 },{ -3.5985143,1.390822,-1.5688345,1.268449,-0.72071177,1.1050974,-1.4832441,2.795602,-2.0069609,3.5595722,0.26537076,2.0093405,-1.5359261,1.3747222,-3.7254221,0.87660235,0.46264082,-1.0282748,1.628882,0.7234005,3.1952553,-4.3947234,-1.7538954,1.5281847,-1.645054,-0.6879471,-1.6934026,2.1098244,1.8908283,2.9569516,-0.58613175,3.4050684 },{ -1.6345646,1.6648394,-1.3524125,1.6445906,-2.4003751,2.9432156,-1.5232606,2.7178087,-1.2995775,1.4590834,3.8211603,2.9306502,-1.3623495,0.4194491,-0.48854,0.45365,2.06771,-3.9619167,2.2517834,3.625959,1.943361,-2.7574425,-1.3678143,1.4808763,-1.4884852,0.8458531,-1.6116874,1.7502719,2.5521686,0.9364309,1.8963097,2.0921147 },{ -1.4289454,0.8403131,-1.0888524,2.405798,-2.7216856,4.723012,-0.94803566,2.4149919,-3.3919332,3.2457373,-0.4527643,0.4644498,-1.0814602,2.8502793,-3.5561118,-0.8519661,1.0136148,-2.1181982,-0.57080495,1.7267534,3.5088797,-2.7712507,-1.0357156,-0.41214478,-0.9596025,1.0047557,-0.6145316,2.0945363,2.7212472,2.0132644,3.545748,1.3073454 },{ -2.979666,3.595209,-1.9928687,1.3481698,-0.39476195,-1.153318,-1.8509102,2.992819,-0.52530116,1.7795614,0.83274937,-0.04722954,-1.965125,2.3840718,-2.789613,3.7357898,1.9617971,-2.5003672,1.7328013,2.6637375,1.446378,-2.2889419,-1.8952779,0.17148034,-1.8675327,4.9092402,-2.1453507,0.61231,2.6325305,1.4338828,0.0009576385,2.8498993 },{ -1.8354983,0.98553306,-1.9099569,0.4757882,-3.6385145,3.2708795,-1.8483387,1.3108562,-1.5130553,2.1397955,3.4496627,1.8342221,-1.9980824,2.0613058,-1.0471443,1.4693087,1.3447334,-2.586518,1.6749202,1.8531083,-0.20070043,-0.6393944,-1.8545609,1.5059565,-1.9292175,4.524051,-2.3253195,3.5879683,0.4898626,0.9124867,4.771848,1.6172434 },{ -3.3471637,0.11190124,-3.0052402,3.3611436,-1.278702,3.273087,-3.0111082,2.8329608,-1.398566,2.6601639,1.342339,2.6141572,-2.8188107,4.7574725,-2.7851582,0.6135223,1.1547991,-0.8167256,1.0755259,4.1401477,1.1632828,-2.3371983,-2.9865081,3.8455117,-2.9694607,-1.5179846,-4.317213,3.4354315,-1.640495,-1.2566787,3.115506,-1.035882 },{ -1.8388147,3.6320546,-1.6293137,0.29670656,-2.0002754,3.2454362,-1.6815215,0.9611905,-1.6155089,4.507726,2.8251524,1.3128654,-1.5657084,0.8114125,-0.43572754,2.1861436,0.9788434,-0.19563583,3.435329,0.9614205,2.59846,-2.382111,-1.6105613,1.1243526,-1.6269381,1.8391558,-1.6740123,4.720225,2.1227663,2.644737,0.5528257,4.2626295 },{ -2.499319,4.1799736,-2.6173787,2.816065,-1.7222714,0.86014473,-2.4872541,2.0273063,-2.2589362,1.2511001,1.8579787,0.9883116,-2.4428434,0.87866175,-3.0663319,3.0306249,3.1827016,-2.2355912,1.8545605,3.0500052,3.273982,-1.3919123,-2.456111,0.25075397,-2.501244,3.4722533,-2.2649791,1.3181187,0.77243483,1.7218646,-2.4081445,2.6026814 },{ -0.8893938,1.1721507,-1.8980879,1.636932,-1.8228465,1.4308331,-1.852652,2.0335352,-1.0578756,1.7316074,1.0510179,0.76203316,-1.7415363,0.7891514,-2.0208962,3.546447,2.7905726,-4.7389975,1.3948631,1.2977521,2.3641827,-0.78706586,-1.9780159,-1.1414135,-1.8476524,2.2475069,-1.5584649,0.9783984,3.8322833,3.720303,2.5443778,1.5024103 },{ -1.9756111,1.4662364,-1.2082227,3.4718597,-1.0746512,4.503763,-1.1096905,1.4719821,-2.6748507,1.6548822,4.1702123,-0.4998857,-1.1787415,2.9156241,-2.6289747,-0.022452025,1.4971611,-2.157267,3.3550153,1.8978344,2.991674,-1.7696823,-1.1108615,1.4514576,-1.1752645,3.1533723,-0.9284862,3.6480863,3.3203468,1.7412603,3.3479698,1.8264042 },{ -3.6302192,1.4978597,-1.1952493,0.53906417,-2.6156263,2.173978,-1.2628807,1.3737881,-2.9014883,2.0650826,2.8072207,-0.57212776,-1.1110867,2.8443122,-1.7985362,2.8416035,1.6898923,-2.0240707,2.8063335,1.4352587,3.9200873,-4.041601,-1.2953901,0.948886,-1.1644936,1.4451094,-1.3748342,4.195189,4.0037966,5.174054,0.3138437,2.8279576 },{ -2.2117326,1.0428913,-1.7442656,0.30284244,-2.0417447,2.7021081,-2.0969534,1.9634705,-2.1488986,4.6123805,3.4545212,4.282712,-1.8418677,0.9080269,-0.60637426,1.959536,3.2091663,0.18178816,2.4519389,4.158098,-1.7260824,-2.827124,-1.9474281,-0.45742476,-1.8949593,3.2144344,-1.6400716,2.8223069,2.2078924,2.0551164,3.1260827,2.6188571 },{ -1.8551402,0.39803326,-1.8732955,-0.65844077,-1.4101623,2.7239783,-2.012184,2.439432,-2.6615734,1.1275823,2.5381114,3.565996,-2.0702355,4.716545,-0.15135099,2.1243076,4.848445,-1.5026236,1.4693261,1.0841334,2.8317509,-3.8817718,-1.8988996,0.7826649,-2.082524,-1.5616788,-3.291046,1.1251545,0.44363257,0.040524546,3.8674128,2.559992 },{ -2.7655165,0.3867231,-1.7097257,0.5596128,-3.372033,2.1358712,-1.5594072,2.701595,-1.4932389,1.6971698,1.9910744,0.63831234,-1.6475419,1.47499,-2.4428399,2.6368437,2.5194085,-1.7825572,1.7081743,1.6718112,3.001283,-2.8413334,-1.6131233,2.3448198,-1.7635677,1.0938158,-1.7679365,0.71510434,-0.92893493,2.3776538,3.118693,2.4807682 },{ -2.098954,4.156016,-1.5339712,3.0239415,-1.6027082,3.147222,-1.421552,2.0913444,-1.4727731,0.5334615,1.6760793,-0.066302165,-1.4386618,2.4571564,-1.1845427,3.277739,2.3006904,-1.7112525,3.1972523,1.6098936,2.5544553,-2.097225,-1.4222455,3.0827363,-1.3413815,3.5004966,-1.7047727,1.6348509,1.2350924,-1.2571505,2.169807,1.4632878 },{ -4.0305505,0.18748723,-3.7502296,1.6967145,-2.8698483,1.2708954,-3.7794712,2.0255423,-2.3967245,1.975757,3.2636943,1.0448222,-3.866602,0.9570647,-2.2639847,0.48968214,1.3229359,-2.671317,1.3304889,-0.9677202,2.1823916,-1.0238943,-3.921079,3.335448,-3.9398727,1.1092623,-4.358425,4.8392553,1.9691082,1.5333765,1.1970419,1.6446174 },{ -1.4513956,1.8759599,-1.8352644,1.1279093,-1.8645232,0.5938035,-1.8494489,2.6939094,-2.1154413,2.8248432,0.41987047,4.2439604,-1.8352544,2.031741,-2.8336039,1.5725377,4.073438,-1.5795661,2.1494687,2.4666097,2.5288718,-2.4302375,-1.8163621,-0.27751628,-1.8141184,0.7383683,-2.0532022,2.395591,2.1653628,-1.3766485,1.3278759,2.5295491 },{ -3.2293,1.3286473,-3.2063296,1.0757716,-2.1114063,2.4328146,-3.1977842,3.2572412,-2.7602878,0.74443984,3.237782,2.3008215,-3.2837648,0.62177294,-2.1969962,2.6070855,2.1532886,-1.8653926,0.16600098,3.0074615,3.4169185,-2.524029,-3.2765956,1.97266,-3.2734408,-0.44324487,-3.17166,1.8320663,1.3617208,1.6565707,-3.407079,-1.3478783 },{ -2.5817592,3.1084256,-2.315085,5.222477,-2.3682725,2.4998932,-2.319724,2.7740932,-2.225583,-0.33874378,2.4290981,-1.5715847,-2.3362634,4.2001,-1.8342489,-1.6080201,-2.4088075,-1.4251007,2.8210108,3.9146132,0.7948918,-1.9735479,-2.231924,-1.9632158,-2.237633,1.3085042,-2.257369,2.3930302,0.7395267,1.9079398,0.9405931,0.427359 },{ -1.8351996,1.9351537,-0.06282089,2.1774871,-2.5480783,2.3386724,-0.035686262,3.9574876,-3.5206227,1.2694899,0.81803364,0.6091799,-0.23282355,-3.8922946,-1.8941697,0.667036,-0.47120756,-3.9271903,0.69114774,1.4093574,0.9925533,-1.9000435,-0.15158576,2.3006678,-0.19102244,0.11028857,-0.16127858,4.87405,2.8140612,0.42450136,1.1256177,2.0141056 },{ -3.666582,-2.5703647,-3.7063644,2.567356,-2.0820386,4.244279,-3.7303503,1.8501738,-1.4418174,3.4343393,3.1740336,3.6253462,-3.7015922,2.9214432,-1.5126857,2.385305,3.9307332,-0.0011263473,0.8903018,1.3341534,0.76859707,-5.3488584,-3.8007958,-1.2775224,-3.9024072,1.3016918,-3.5262625,1.5268083,2.2814248,1.3266958,2.899043,1.4540421 },{ -0.44350088,1.39263,-1.776478,5.8313904,-1.588633,0.99886256,-1.6442598,2.6759171,-1.8182294,5.3025236,1.4825587,1.992852,-1.932887,3.6987424,-0.8915002,-0.78438437,3.0892098,0.21917908,1.0155935,1.3527125,2.1289701,-0.23126872,-1.7505058,0.14803739,-1.752923,2.1885688,-1.3230921,4.703385,2.6032047,1.6365061,2.3675585,1.4027628 },{ -2.0642202,5.677973,-2.8935866,2.5654628,-0.37332577,2.7747896,-2.857316,3.2608986,-0.6068867,2.2332222,2.9543414,1.2808495,-2.855396,5.777668,-0.30280665,2.4031672,3.7081764,-0.055003293,2.9003747,3.7318594,1.8782827,-2.0393243,-2.927109,3.9411964,-2.8422377,-1.9207932,-2.3215058,-2.4117453,-1.9425021,-0.14412019,0.7132991,-0.04615441 },{ -2.841118,1.2547585,-1.9395391,1.738737,-2.6264207,1.8873562,-2.1052547,1.6339725,-1.5803553,3.083505,-0.8022632,0.7371425,-1.9567617,1.1019008,-2.8033473,2.5068176,3.551537,-1.5813507,-0.31029728,1.4400253,2.8714283,-1.8382676,-1.9595448,3.4327555,-2.0291097,1.9244213,-1.9194456,4.4901934,1.6943386,1.6007105,3.2715423,2.9307656 },{ -2.1572084,1.0862774,-1.1672379,2.9148889,-1.5232466,2.310137,-0.9799063,2.5414872,-1.4601367,2.7328987,1.6236992,1.7429426,-1.0621991,2.2936604,-1.7999042,2.797791,2.5136113,-3.9001017,-1.652668,0.79185116,4.3416076,-1.8800194,-0.95011437,1.0020839,-1.0791315,-0.18912117,-0.8545819,-1.7053064,0.96731097,4.67021,1.1548777,3.6079633 },{ -2.5695431,0.36387956,-2.4232304,0.25355756,-3.1677365,1.8447682,-2.2241411,2.0042696,-2.7871199,1.7227637,3.0369935,1.2631416,-2.4228055,2.1354613,-3.043593,1.017986,0.337223,-3.4163344,1.6873065,3.7158308,3.102125,-2.9653673,-2.458599,-1.5855311,-2.3363855,2.5380638,-2.1284735,0.16249824,-1.2099421,3.6515024,2.3368459,2.4650364 },{ -1.8592324,3.102355,-0.70362604,0.28082356,-1.9971459,-0.18787834,-0.6721396,2.3595436,-2.8381789,0.13268685,-0.50105816,1.1102967,-0.7142436,-0.6089927,-2.6248715,2.4954753,-0.35995877,-2.5659535,-2.1151354,3.1302643,2.6569285,-2.8116107,-0.81208146,4.373648,-0.86774397,1.5192772,-0.77894855,2.5005426,2.3661637,1.936938,2.9188447,3.8386567 },{ -3.3239174,1.2906761,-4.3445745,3.7625616,-1.4682988,2.9066677,-4.3945365,1.9349643,-2.2446563,2.3548315,2.8520067,2.5013192,-4.467365,2.9052343,-1.6954811,0.8729411,3.3003774,-1.8095148,3.0739143,2.9063854,0.48083892,-2.2976735,-4.36687,-1.1725532,-4.527401,0.9948162,-4.355633,1.138763,0.5655215,-0.30597615,3.2078073,3.4774375 },{ 0.27903116,0.19703254,-0.07092352,0.9835592,-3.8300955,2.3614125,-0.11774471,3.0926602,-4.487911,0.60330516,-1.9235805,2.944854,-0.12789792,0.26530766,-2.3019183,0.3595287,1.1651387,-3.4449587,0.9728544,1.7588233,-0.137504,-3.081126,-0.013485783,4.055764,-0.2073614,1.4501232,0.3279353,1.8761082,-0.6801966,2.647631,2.455821,-0.06911327 },{ -1.1411396,4.0154734,-0.8154456,4.927844,-1.1631129,0.76550096,-0.83655536,-1.154563,-2.8877656,1.6380489,2.3898063,2.4776313,-0.8517168,2.525052,-2.5696154,3.8456576,0.014538065,-1.7334722,2.3679273,2.5366995,3.3068576,-2.2258751,-0.8208543,1.9553058,-0.78378284,2.6529326,-1.0329993,5.6574035,3.6993284,0.046219643,3.8574548,3.144148 },{ -2.1466393,1.0834056,-3.187929,4.1179514,-1.5690023,3.673215,-3.0082874,1.2771991,-0.48103267,0.9081402,3.6282685,2.7376344,-3.035773,3.7022674,-0.6566661,-0.98024344,2.914514,-0.9955418,2.314448,2.1962,1.5833565,-1.6847486,-3.084442,4.6964455,-3.3114088,0.84803826,-3.4993174,2.4532154,-0.36418575,-2.9100592,3.2253299,2.362315 },{ -1.6880575,1.4724549,-1.966187,2.6548169,-0.95087296,1.380797,-1.9617075,4.586345,-1.2955145,2.7036715,2.1585298,1.727122,-1.8717697,1.8209549,-1.6857704,1.7942634,2.133498,-1.4168628,0.5789305,3.7408347,0.57572955,-1.0077453,-1.9687473,2.2151887,-2.0444937,0.40840745,-1.9503896,-1.3316479,-4.375871,-0.18995957,2.7556393,1.2056421 },{ -1.4180688,-0.3519582,-2.16215,0.59511,-1.7543849,0.5267355,-2.3600795,1.590444,-1.6868873,2.6825454,1.4785277,-1.3807863,-2.2436416,2.9327786,-2.340778,3.0564945,3.5063958,-1.6212089,4.398313,2.450353,0.67028296,-2.668072,-2.292445,0.75277776,-2.2525241,3.7193053,-2.3289766,1.4145677,0.06620322,1.0829657,3.5042503,1.0169647 },{ -2.2853143,-0.6012394,-2.7385242,3.2624815,-2.2309444,1.7310426,-2.85818,2.3094263,-3.5800285,1.8795779,3.237468,1.500498,-2.7448018,1.4052552,-3.3837235,1.2245424,0.79415405,-2.0164523,0.66244775,0.20294213,2.4886181,-2.2667413,-2.82579,3.8089426,-2.7277417,0.43165287,-2.8069923,2.9953363,0.2684422,0.7158723,2.1105595,2.4213333 },{ -2.7717218,1.4701725,-2.883839,-1.4309785,-2.310252,-0.12040855,-2.885384,3.7035532,-2.7078521,1.3858536,2.5973735,0.5739674,-2.8420417,2.119764,-2.6258717,2.247152,1.1349007,-2.3881502,0.48853952,2.282279,-0.09858002,-2.9493718,-2.9511573,0.49659717,-2.966031,1.9025378,-2.802152,2.1034663,0.3658605,-0.38299423,3.0283663,1.0345846 },{ -0.9770234,-1.5378982,-1.2291565,-1.928691,-2.954621,1.3015051,-1.1611202,4.8469286,-1.4930049,3.3289764,-0.07581255,3.112157,-1.1585635,1.8910526,-1.7921426,2.3867574,3.7780826,-1.3898013,-1.3426139,-0.6609331,1.2149653,1.1292737,-1.1031184,2.9878318,-1.3138494,2.407822,-0.8989914,1.3773687,-3.660658,-0.7691658,2.7704055,3.397636 },{ -2.2118423,0.51908445,-1.955485,0.014171265,-2.6026943,2.5080779,-2.042181,2.6665657,-2.1627145,0.6064026,-0.29611504,1.514302,-2.0978394,3.3807309,-2.5337172,0.40782982,1.7573135,-2.37282,2.4018135,0.90621275,2.9514942,-2.1309767,-2.1834214,1.5159299,-2.0762868,2.1796715,-2.1435685,0.7748035,-1.0731423,-1.4909188,2.4530323,1.3994162 },{ -0.10856404,2.4012926,-0.118062556,0.65834594,-0.9339382,-0.81638247,0.0042506,3.085115,-0.27826554,3.2580283,2.1656322,0.87787527,-0.09425909,3.3029225,0.11335137,3.3972561,0.2753219,-0.95976335,2.1159918,2.301716,3.566356,0.37466767,-0.044795044,3.3638096,-0.070740156,3.0972035,-0.07811647,3.490976,-4.139711,1.5271044,3.5739658,3.712629 },{ -2.9357553,1.8513176,-3.0499332,0.52736896,-4.358827,4.741366,-2.8469021,3.25044,-3.238885,1.8387412,4.0765266,1.6972847,-2.8770542,1.2005638,-5.5167084,2.1460667,2.2603052,-5.723619,3.4727867,2.623853,0.9717813,-4.323556,-2.9022715,1.6812061,-2.969329,2.8872142,-3.410506,1.680969,3.0298207,2.0602045,2.0085466,0.0106958905 },{ -3.531655,1.8498094,-1.6011506,2.3978329,-3.1965213,4.3193784,-1.4543229,4.0837445,-3.6625488,-0.00653942,2.570156,2.0726578,-1.5378201,3.591826,-5.070962,1.7919838,1.8863952,-4.2088933,3.3731685,4.9595175,2.6344283,-2.2824268,-1.5731447,0.25230145,-1.6926583,2.533437,-2.2033453,2.2970662,4.053316,2.0097687,0.39424798,1.04041 },{ -1.924467,3.2539415,-3.1235542,1.6265233,-4.8622212,1.3682907,-3.2395933,3.5395105,-3.3157668,2.3331842,1.5662967,1.0230198,-3.279208,1.2081747,-2.8632882,5.8392057,1.7511224,-4.6978216,2.9082289,4.917775,2.9292555,-2.8040526,-3.23949,3.057097,-3.24649,1.5835507,-3.2122598,1.5545816,3.582616,2.1852438,1.421313,2.8012588 },{ -2.6247027,3.7793412,-2.7727807,3.618592,-4.2847576,1.9740758,-2.8317604,3.044138,-3.718723,-0.117357485,1.5471213,2.2754788,-2.7552989,3.421942,-3.7467382,2.73321,3.1141696,-5.22906,2.6444542,2.1733465,3.239471,-3.0358293,-2.7945538,4.481722,-2.6548653,2.281031,-3.0706663,2.5070977,3.2376504,2.3078167,2.966746,1.0922189 },{ -2.6353235,0.7683417,-2.170144,3.1370702,-4.7757716,-0.03826205,-2.0612726,3.3406258,-3.8615668,2.283447,0.40259936,4.952001,-2.0977266,2.3287845,-4.2817755,3.7179909,2.8529935,-3.963639,2.2794783,1.5079765,2.291778,-3.077484,-2.2648213,3.7065077,-2.0672164,1.7612666,-1.8659477,2.454498,4.002103,4.679972,2.9670908,5.0831933 },{ -3.299082,0.4738065,-2.1152627,3.933456,-4.4683948,1.7460406,-2.234734,3.2289805,-4.597343,1.5677752,0.8049981,2.9330997,-2.3115838,3.1005425,-4.194056,-0.11845737,1.0577362,-4.175641,0.8811793,3.8704128,1.9386132,-3.561704,-2.101601,3.515544,-2.3449209,2.5889146,-2.979174,3.2920263,2.7176123,2.2174373,2.9056735,1.54076 },{ -2.9200935,3.2345674,-1.756091,0.8604045,-2.8405142,1.5777781,-1.7225657,3.2237523,-1.6492927,4.4393253,3.4667704,4.8861575,-1.8490529,1.1119579,-5.1271214,3.006982,1.6109098,-1.6447401,4.1261053,3.833678,3.5106597,-3.8020868,-1.8180993,4.9303317,-1.8856956,2.9950247,-1.8724015,5.3788586,2.6383247,4.1754637,0.324432,5.04811 },{ -3.7064981,0.77390474,-2.4434216,0.33593246,-6.3575153,1.5333773,-2.3653903,2.9410715,-4.4233484,4.359782,2.2460957,4.4073625,-2.285095,0.7506185,-1.6896465,1.3338248,2.884348,-4.9290905,2.640246,0.40757656,2.1409206,-2.3932605,-2.3490984,0.027094202,-2.2729962,3.118935,-2.578897,3.5675428,3.0806165,2.3305564,1.8421414,1.1275346 },{ -0.8587547,1.9037591,-2.0345535,1.5797956,-1.4385462,2.6544554,-1.9718188,4.4461627,-2.0737827,4.0826664,4.953801,4.0702367,-2.0204937,4.906269,-1.7924969,2.5970523,-0.28965223,-1.0237087,5.464161,2.5781667,3.823932,-2.3097765,-1.9794637,2.865855,-1.9112216,2.459116,-1.789107,1.5617311,0.85348517,1.7007403,5.1468377,3.547054 },{ -2.821622,4.9765778,-2.601585,4.2305193,-3.9778178,3.6693397,-2.7918599,3.0037522,-2.8994184,4.244835,4.4380484,2.6361175,-2.6231406,3.2410135,-0.9999856,3.3354604,4.437187,-3.4690907,4.198045,2.9026494,2.284528,-2.4600534,-2.6516252,0.673752,-2.6392846,4.378977,-2.62935,1.5726936,2.1609495,0.21865508,4.9785943,1.8560475 },{ -2.2921402,3.0593562,-1.9824426,1.547753,-2.1960518,0.9260981,-2.047206,3.6263936,-2.368481,1.566149,1.317625,3.1358163,-2.1460302,2.655634,-6.110518,1.2201627,2.7502854,-3.6478293,2.3820293,4.070932,0.7921203,-4.2452593,-2.0663354,4.327936,-2.1755946,2.380276,-1.8626244,1.8501124,3.7353652,0.42016992,5.4730797,1.4747753 },{ -2.7256248,5.5569634,-1.672119,2.0295894,-2.4357264,-0.15508431,-1.7827946,4.5212145,-2.3064635,-2.6950228,4.841997,3.926928,-1.746643,3.2858536,-3.8270175,1.2425764,3.8096752,-3.0968847,2.8898995,3.7730534,3.173084,-1.3519604,-1.7498717,5.3096642,-1.9615228,0.8811489,-1.9709916,3.4498158,1.615879,2.501051,3.1634252,1.7496245 },{ -2.8080227,0.8651569,-2.5592892,3.6693046,-3.2654634,2.9741728,-2.5286148,4.3900886,-2.0849247,2.7700036,2.4917758,3.624609,-2.5598562,5.3155556,-1.7443317,1.2481838,3.475498,-3.4918866,3.117577,1.998266,2.7193215,-2.1030698,-2.6032238,4.1540055,-2.722171,1.8721197,-2.6892958,3.0010214,1.982858,4.307566,5.0785604,3.8131006 },{ -3.6700585,1.1159997,-2.6196961,2.9842236,-2.6959355,5.352451,-2.4207816,4.823465,-3.0713525,1.8134983,3.622469,3.160164,-2.4698458,4.549683,-1.9371585,3.6165714,2.204595,-0.17150049,3.9057539,-0.21113664,0.025350036,-3.1306474,-2.6340785,2.8844562,-2.5326643,-0.045002498,-2.617517,2.9578063,3.9701326,3.0335147,3.0589557,3.5503027 },{ -2.4587982,1.7725399,-2.2552018,1.5677365,-2.8960426,2.7479641,-2.2174473,2.7307491,-2.4132502,2.922944,4.021755,2.936381,-2.3110678,0.8610321,-1.9815265,1.8677268,2.1046016,-2.3047292,2.2314734,3.4401588,5.0277076,-2.68855,-2.2200127,5.5939813,-2.2481802,4.3881707,-2.2841024,3.6451268,3.5776975,3.507655,2.851432,4.494643 },{ -1.3186178,3.1856449,-0.14087139,3.5309427,-2.970707,2.1335342,-0.23628715,3.2344632,-3.9668405,2.9371037,1.485258,3.825985,-0.046910584,0.6925827,-2.49871,3.6076682,1.6932287,-3.9084084,2.0005112,4.41821,2.710966,-2.1015017,-0.18406597,5.136485,-0.11458332,4.190935,-0.4399108,3.898889,2.131974,2.7438138,-1.1766723,1.6114074 },{ -1.0937155,0.7873209,-2.924673,3.5282629,-3.687239,2.6670468,-2.9239624,5.0414495,-1.0438187,-0.3379254,4.76426,4.4623637,-2.9412634,5.2929916,-1.6565373,3.0251086,4.3803744,-4.471168,3.2028627,1.4618934,4.300588,-1.3836066,-2.8921504,2.7834826,-2.85893,0.77239585,-2.6895835,2.0047898,1.3062549,2.961984,2.0816061,1.4778268 },{ -2.639837,2.7937531,-2.9666436,4.3862634,-3.4520135,2.5081384,-2.9963543,4.3210483,-2.2064407,3.0733557,2.9305117,2.160796,-2.9574072,2.1101089,-2.2505136,1.4366229,1.2139404,-1.9503474,3.4605656,1.5108365,3.6943464,-2.0892174,-2.9634252,5.152189,-3.0586994,2.3541386,-2.787573,2.311474,2.3115225,-0.12258008,4.873484,3.0997357 },{ -3.56004,3.9312189,-2.9948807,0.7171661,-2.1870124,2.151863,-2.988537,4.493502,-1.2297441,2.8805008,1.1812049,3.916924,-3.0171275,3.2501028,-1.3306413,0.91030014,5.7586684,-1.5548482,2.7206879,4.250722,3.2552068,-2.6033854,-3.0805743,3.0717585,-3.0405476,3.6193037,-3.5050187,3.6045947,0.6369408,3.0780272,5.063114,3.5638714 },{ -3.3232052,3.8224993,-2.7551916,4.8129506,-3.0748916,4.8455653,-2.721894,4.025292,-1.9743147,2.2217329,3.4820716,4.2177787,-2.847616,3.8260183,-3.5851724,3.4689512,4.5512953,-2.0931098,3.1367862,2.7677345,4.0867753,-2.183128,-2.6988404,3.3841949,-2.9616663,2.9983015,-2.7810757,1.3075168,1.6770396,2.9492283,1.6882073,2.8899179 },{ -2.471974,1.4177479,-2.0758488,3.3493514,-4.6908813,2.5569282,-2.0060506,3.5477567,-2.9562752,2.3873448,2.9144347,5.3042464,-2.034802,2.217983,-1.9749948,2.4484375,3.3340375,-2.1592853,4.2790585,2.4413395,2.7475507,-0.48192227,-2.0493264,4.6601214,-2.0046313,6.497899,-2.2744381,2.0978754,1.8622975,5.669392,4.822085,3.8501918 },{ -1.865653,3.4906821,-1.7869138,1.4714736,-1.6557583,1.6392465,-1.7574059,5.480869,-1.1146473,-0.9044113,4.233819,5.030292,-1.8361038,3.1532235,-3.2669573,2.4040623,1.6772587,-4.2732463,3.4588463,1.4007463,3.0549119,-2.4217422,-1.8315569,3.0485208,-1.8101907,1.6051154,-1.8213867,2.6879056,2.2654312,3.7022903,3.3132937,3.6364934 },{ -1.8522326,1.4013983,-2.1297495,2.846082,-1.1601638,2.5533826,-2.2725399,4.212479,-3.6153135,2.414838,2.0366855,4.062199,-2.1093557,1.1462433,-3.1927598,2.4203258,2.04412,-3.5878894,1.5398656,3.4673903,1.0110581,-1.2085503,-2.1171472,4.808007,-2.1314335,4.055859,-2.3131254,3.074655,1.9576364,5.922955,3.7644908,4.8050404 },{ -2.9989722,3.0602415,-2.0903482,6.0930576,-2.462483,4.0041623,-2.1424234,2.2345796,-3.5775392,3.0346806,1.6974398,3.512215,-2.1574516,3.9574676,-2.6088884,5.4052835,4.4568214,-3.3762214,1.0730509,5.5359178,2.794855,-2.6821752,-2.2198224,1.6719837,-2.2379231,2.1026156,-2.35369,4.252186,0.95355046,4.328424,0.6710534,3.8813236 },{ -1.8961917,3.4308805,-3.0630457,2.069391,-3.964351,2.42576,-3.2328084,5.1689386,-0.9108582,3.470538,4.4014926,3.190533,-3.0824988,4.170799,-0.52503914,3.8545065,1.8229145,-3.836804,3.7799397,2.7168458,3.5445838,-1.3317457,-3.1851757,2.9046416,-3.1309857,2.988526,-2.866925,3.4604716,3.365179,1.4498161,4.1296105,2.523228 },{ -2.383139,2.4016483,-2.4452746,3.3572001,-4.1430044,2.785609,-2.5577435,4.3741913,-2.2644563,3.3279533,1.4148836,3.7388322,-2.5407155,2.8922875,-2.1613536,1.084774,2.7876487,-1.7674143,3.706193,1.955721,2.836421,-2.707877,-2.5493405,2.2188616,-2.5773106,4.3774743,-2.3828611,4.0479245,3.7505095,3.942292,4.936734,3.2387235 },{ -1.8307297,2.9039326,-2.0655994,2.3083808,-3.1417403,1.3582052,-2.19487,5.260563,-2.2624936,3.592431,3.771076,3.0792663,-2.119462,4.390947,-2.6285458,3.801147,3.8953412,-2.3236983,3.3387768,3.527002,4.1571007,-1.8737944,-2.1524615,2.8441544,-2.161512,2.5271657,-2.2716854,3.8091068,4.0221953,1.8369092,0.18358302,1.9990935 },{ -2.0976052,1.6225103,-2.6022823,1.5988141,-2.1328146,3.7438035,-2.8021488,4.4116817,-2.1223924,3.0185425,3.94022,2.1479337,-2.704438,2.3875575,-3.0605533,2.520529,3.7177706,-1.670754,2.7744884,3.0723393,3.2740297,-2.9739656,-2.6672485,3.067033,-2.7336159,4.6406565,-2.7762747,2.8806195,3.9504945,4.845381,3.7762432,4.0793314 },{ -2.4734821,3.0671997,-2.938196,3.0151348,-3.5451105,4.878782,-3.0635324,5.514418,-0.705641,2.000316,1.1893262,2.6490529,-3.0105443,2.9673913,-2.187386,2.8888261,5.1382847,-1.1308112,1.9156675,3.0305974,2.8400624,-2.7129588,-3.053089,1.8442839,-3.1089082,1.125258,-3.380279,3.1648004,0.9754084,5.482877,3.2056365,1.8785585 },{ -0.86267936,4.9540114,-1.6315842,4.2950964,-3.8539932,2.8353179,-1.7643158,3.4993713,-2.13077,1.5455657,4.08287,4.640903,-1.6554499,3.381879,-3.080304,5.413361,3.8574314,-3.2816336,4.955731,5.517671,2.2177575,-0.79637307,-1.5735183,3.9499967,-1.7324189,4.5423355,-1.3025547,5.2538033,0.77974385,1.5066905,4.3891115,5.2567487 },{ -2.2582276,3.792973,-2.2123826,3.798584,-1.0554843,4.199279,-2.3197498,4.543375,-2.124487,1.9058837,3.5834293,1.1633856,-2.381646,4.055947,-2.5057845,3.1222143,2.8734086,-2.478521,3.8621984,3.1053536,2.9580333,-1.725711,-2.265902,3.9052699,-2.5091505,3.9824574,-2.5585263,3.7098331,3.920903,4.721371,3.7882078,3.482711 },{ -4.521521,2.9882827,-3.0474675,4.9303045,-0.22372417,2.7001126,-3.1061924,3.5617297,-2.3792815,3.8668787,3.344224,3.6224875,-3.089373,1.5467019,-3.6031425,-0.9615595,2.4603872,-2.3544114,5.414161,4.4075503,2.9082413,-3.5025916,-3.0272982,0.78414005,-3.048802,5.034914,-3.4901469,2.6303353,6.1604424,2.4060547,2.0290356,5.1311707 },{ -1.3654081,3.955967,-3.261116,2.966398,-2.8199036,2.4523635,-3.170744,3.0761497,-3.2069874,2.0433745,4.1596527,3.3579383,-3.0684042,0.99773127,-2.0540266,1.7037095,2.730356,-3.196587,3.4248536,4.9058046,4.4960647,-1.8689011,-3.1926017,2.2952724,-3.238796,3.5529573,-2.644286,2.739543,3.5339062,4.3121862,3.834865,2.597223 },{ -2.604532,2.0718448,-2.6098304,0.9102315,-2.6194038,1.7870162,-2.6138809,4.453545,-3.2630818,4.0814962,1.5786812,2.641622,-2.5869133,3.633776,-3.5710537,3.425613,3.1473866,-2.6677988,4.1284857,2.7667325,2.5355647,-2.5132232,-2.601415,1.658862,-2.6682513,3.8603413,-2.7374568,3.2205098,4.157828,5.4382544,2.1061094,2.9447482 },{ -3.4143662,4.845568,-3.5419438,2.0730827,-0.92665625,0.84648126,-3.6569908,4.117395,-2.1778753,2.2506344,3.5654988,2.7286468,-3.6423256,1.9378915,-3.0167844,2.9438806,2.4371843,-2.1839468,3.9758081,3.9769404,4.8768573,-2.5256486,-3.615675,2.1751764,-3.6321898,3.8230104,-3.7762904,3.62011,6.8512497,2.6817222,2.3486466,2.7182581 },{ -2.1976943,1.8692051,-2.1756666,1.938378,-4.358336,1.5129936,-2.4026177,3.7270572,-2.291902,3.3124313,4.0234895,2.9418156,-2.245427,1.2503535,-4.6456513,3.4074755,2.9808764,-3.5109112,4.2586823,2.7538142,5.1793265,-3.5657606,-2.2439353,1.0773479,-2.3062372,3.2986448,-2.3829029,4.0136566,6.3057275,3.4715288,1.067384,4.013877 },{ -2.6341417,3.8410892,-1.8430946,2.523463,-2.7092524,5.0427346,-1.9016173,4.5417557,-3.7684827,3.833623,0.94415617,4.963853,-1.8612163,1.1778677,-2.0396307,2.1589682,3.3390026,-2.507502,3.7824748,3.892191,3.3545415,-2.6396196,-1.895015,1.0502492,-1.9917183,2.8229702,-2.2078872,3.5321982,4.117143,2.6184576,4.8215575,3.9320827 },{ -1.1486894,4.120489,-0.85682434,3.2545967,-3.0973663,3.2885194,-0.872551,4.9202313,-1.9600525,4.712158,0.49288803,2.0969782,-0.8591306,2.6210914,-2.140128,2.316442,2.364061,-3.1953077,2.6407788,4.430677,4.7037683,-1.5910623,-0.8465969,0.33508012,-0.88914704,4.3869405,-0.9222606,6.0826735,4.229315,4.6698484,4.6942673,3.6922014 },{ -2.932517,1.5390548,-3.1491098,2.540184,-1.7423431,3.9595273,-3.3688328,4.383618,-2.8581595,3.4344063,1.3705279,2.3229601,-3.2975626,2.9515128,-1.7058382,2.7087119,1.9784276,-2.0977979,3.1972258,4.7874517,3.2943685,-2.7863004,-3.2302663,2.372009,-3.3791425,2.4544568,-3.2451706,3.7568846,4.5239024,3.8610709,3.069599,3.0753815 },{ -2.564696,5.08757,-2.6750603,1.5868884,-2.2167704,3.3546426,-2.635528,4.500681,-1.1825639,3.3800197,2.6015658,2.593026,-2.6383119,4.8022604,-1.4678422,5.067127,4.494735,-1.8962429,2.544568,2.5284524,3.6371443,-1.1455032,-2.557448,3.0322971,-2.5435832,2.3491125,-2.5770066,4.8529925,5.302775,2.7870665,5.2030196,3.6019971 },{ -3.2644036,2.6871877,-3.0982885,3.171694,-2.317084,3.0389836,-3.1172466,4.803931,-2.1103237,2.385279,3.29838,1.2209897,-3.1389842,3.3307705,-2.50101,1.8472744,2.3671217,-2.3830516,3.1979742,2.3895235,3.1107247,-2.8749454,-3.1070316,2.6132054,-3.0917423,3.5445168,-3.1653984,4.387623,4.1355567,2.944239,3.3353696,2.6722841 },{ -2.7809746,5.070575,-3.0312297,3.7880392,-2.0219858,4.843162,-3.248851,3.0673616,-1.3575014,3.048989,4.8997912,5.3977757,-3.157564,4.856389,-2.2193964,3.776415,3.3235466,-1.5082506,3.998539,2.6924021,5.135019,-2.1443748,-3.327426,0.3381707,-3.2278895,3.4051125,-2.8994856,4.623098,5.378214,4.798512,2.8150501,3.9614549 },{ -2.8090553,4.4875855,-2.8545878,3.7134619,-2.5746377,4.2015414,-2.9271984,4.026013,-2.3943825,1.2880744,0.88043237,2.7237298,-2.8994808,1.5802464,-2.0966992,3.973069,2.669545,-1.9106681,3.6170514,4.1883545,4.726273,-2.4649825,-2.9445324,4.081804,-2.9488432,2.820176,-2.8174763,3.2185154,7.2732787,3.5769424,1.3253454,2.9740899 },{ -3.6718745,3.0152109,-3.7892373,4.531865,-2.6929119,1.7608874,-3.7698326,3.2458153,-2.6569118,1.049815,4.680038,2.277396,-3.6603584,3.212144,-3.079027,4.4608126,2.9814808,-0.4636037,4.10689,1.9208233,3.3442636,-4.6091022,-3.8195682,2.2304156,-3.7315214,3.8662453,-3.7255342,4.934574,7.5673304,6.5257773,1.0928539,2.5174882 },{ -2.0674129,3.7729278,-1.4829444,1.5034037,-2.3945434,2.4239814,-1.5697749,5.3242655,-2.103376,3.7446277,2.9928741,1.8924459,-1.5252187,3.2195098,-1.7195314,2.3879378,3.889506,-1.681077,3.0868123,2.4605622,6.387159,-1.6287905,-1.5418392,1.5498279,-1.6724117,4.2604322,-1.6527691,5.440688,4.7653384,6.346658,2.325947,4.3229365 },{ -2.2228951,2.5754745,-2.0105596,4.8392754,-1.3665644,5.0455112,-2.009278,3.782871,-1.632764,4.426845,3.7359695,4.9302883,-1.9480911,4.788751,-1.3311567,2.5866678,3.6493607,-1.9542496,4.682185,4.3178105,3.3791924,-2.4240787,-1.9108745,3.409236,-1.9965361,5.026211,-1.8937733,3.8076956,3.531424,3.7445345,1.9426564,4.1968303 },{ -2.1062224,2.752049,-2.303914,3.8298233,-2.8683279,2.5415432,-2.2314336,3.4514947,-2.6088703,3.3421583,3.070194,4.2781873,-2.2105403,1.8027114,-2.316602,2.8941898,2.683674,-2.5332441,4.793511,4.3738265,3.6736472,-2.5031035,-2.1985173,3.270335,-2.333857,2.9936302,-2.2036004,4.1356516,4.937361,5.4588213,3.4485512,2.8729799 },{ -3.8874786,2.4862082,-3.995699,2.4725432,-4.481023,3.1305823,-4.159826,2.045031,-3.94368,3.2349455,4.763868,3.785012,-4.0429935,4.086811,-2.8515625,3.2739663,3.4193673,-3.314297,3.7213008,2.9015787,3.4776778,-3.994577,-4.0454288,4.8062806,-4.1390314,3.0634174,-4.1426992,3.7102587,5.544645,4.0778713,1.248216,2.0256383 },{ -2.3296638,3.2794828,-3.4901474,1.7179525,-1.9300705,2.0646455,-3.5402172,3.522107,-2.8086717,5.2221384,2.5525715,3.7622864,-3.4798489,4.000356,-2.2844856,2.5569012,4.349557,-1.5771585,5.5180626,2.6209283,3.7613885,-5.0063314,-3.485588,2.6849878,-3.607482,3.0854087,-3.3362167,5.0953197,5.26517,4.4479384,2.4537764,0.834578 },{ -3.0501225,3.3556404,-2.5860229,4.105888,-1.6620493,4.7943487,-2.5884197,5.1591687,-0.7918823,3.5837414,3.414042,0.96645725,-2.538228,1.6800494,-1.355616,1.564332,2.2552752,-0.6109369,5.78298,2.843843,4.6041794,-2.3674128,-2.578964,2.3019826,-2.4568164,4.8540015,-2.7603793,3.5150423,6.0850425,4.012893,1.6822923,2.644631 },{ -2.5793452,3.055858,-1.730942,1.7929637,-0.94972384,3.311959,-1.6888916,5.0037985,-2.1768029,1.4657555,1.0222735,3.1975863,-1.7189915,1.3324457,-1.0200044,2.9924898,2.8630395,-1.170254,5.303966,3.215878,5.6761894,-2.0516596,-1.8357847,2.0462704,-1.7528337,4.2368875,-1.8828514,5.6286263,7.6405087,5.162185,2.3214161,3.2882433 },{ -1.8200971,2.5492318,-1.7401564,3.7046292,-1.7440374,2.1448913,-1.8115547,4.638946,-2.491085,2.6504855,2.7306442,1.6930028,-1.7683575,3.0057204,-2.8993604,2.1655226,2.337641,-2.8017206,5.180226,2.0088248,4.8010273,-2.4327836,-1.8088194,3.6102765,-1.8774953,3.742331,-1.920745,4.250491,8.084813,5.355401,2.9308467,2.031356 },{ -2.9146035,5.013141,-2.473833,2.9459796,-2.8785446,4.5389485,-2.5682127,2.8559294,-3.45109,4.8554835,3.6946132,2.4869308,-2.5758924,4.717309,-2.7888427,3.005669,3.3641155,-3.0048022,6.137111,1.6094685,6.1919303,-3.096803,-2.5222228,3.0486472,-2.7211692,4.372935,-2.601621,6.0092635,5.775265,5.3382597,3.8923664,2.79123 },{ -3.065847,3.9101548,-2.8282132,5.238763,-2.5915353,4.4179053,-2.8184376,1.0514375,-2.2038188,3.9938962,3.9845018,5.0600066,-2.919733,3.0934522,-1.9069761,3.0970411,3.5483236,-1.6778979,4.5717115,3.9840064,4.1400986,-3.0466776,-2.8428247,4.4295573,-2.9135673,3.7162185,-3.1082428,6.0952206,6.8890767,5.3216357,3.9189281,2.5682106 },{ -2.7711604,3.068458,-2.0773253,4.5999203,-3.103132,3.0358648,-2.3572638,3.7491963,-3.028794,1.4817059,2.8010297,3.5664587,-2.1973205,3.4857478,-1.7339771,2.5717256,2.3601608,-2.7636478,4.177583,4.5642004,4.9867797,-2.1820128,-2.1810076,1.4499817,-2.222264,5.546103,-2.3033667,4.0331006,6.3248315,4.5350103,2.3267398,2.9420357 },{ -4.04007,4.3706245,-3.8201764,0.62444365,-1.8231127,3.5623438,-3.5891104,2.9258165,-2.7173154,1.7071981,3.5680766,3.9652846,-3.8635497,3.5530033,-1.927752,4.0750747,3.6122165,-1.7427387,4.6995645,3.048118,5.0377417,-2.926294,-3.6992142,3.035518,-3.462121,3.1130729,-4.2419744,4.0871778,5.0068827,3.6224265,2.5731401,3.3589804 },{ -3.762214,0.8344402,-1.089789,1.4163297,-4.146542,1.2576158,-1.1652712,5.8150215,-4.58697,3.1017883,1.2733833,3.0189655,-1.054254,0.961819,-4.382811,1.9473461,1.7336417,-3.736951,4.4171495,2.6155293,2.8942037,-4.7033777,-1.1730995,0.60959876,-1.0615121,2.1818223,-1.7429135,2.8533049,3.9540746,4.818434,2.0302176,1.9625344 },{ -3.2270398,1.8965015,-2.02419,2.3084638,-3.3626134,2.8045912,-2.0103028,5.5548053,-3.5417788,2.1221273,3.2136073,2.094248,-1.9787871,1.0547568,-4.2938128,1.9601803,3.5504165,-3.9914434,0.71632516,3.5623271,3.9940455,-2.9371367,-2.0651016,1.278661,-2.1216893,3.3833501,-2.081462,4.6950417,3.535837,3.9069333,2.4512775,3.3521063 },{ -1.7892246,1.7693827,-0.6873671,1.2229538,-4.6891212,2.9226882,-0.6168618,3.9881284,-5.6453867,3.423834,3.5933828,2.0831196,-0.6703738,1.957961,-4.5179315,2.1766813,2.6122208,-5.7989907,2.8099277,2.2502093,3.706409,-4.128855,-0.69303995,2.95218,-0.59182155,2.183779,-0.679229,4.554786,5.582985,5.2489066,4.4317436,1.9191103 },{ -4.8175197,3.7529063,-1.8968192,4.4913464,-3.9908736,2.515096,-1.9330521,2.284954,-6.299115,4.412607,2.9235382,3.058027,-1.7391154,0.69197965,-5.75555,3.059845,1.1256082,-6.0591893,2.7334359,2.74513,1.002102,-6.4968457,-1.981143,2.5534055,-1.8318167,2.9581335,-2.1222723,3.600232,4.332187,3.4771574,0.83745307,0.81250876 },{ -3.2581995,0.8503316,-1.5584843,-0.7532276,-4.4178457,2.5829642,-1.6724452,6.4528027,-4.023696,3.828197,-0.08054345,1.2135279,-1.6257128,1.3283186,-4.4840064,3.1279538,1.4873149,-5.406032,-2.3352118,2.2314887,4.0244017,-3.7245455,-1.6136214,3.844715,-1.7159729,0.50436044,-1.8418638,3.4535892,0.6225472,4.1417136,3.1434398,1.6655413 },{ -1.4625652,2.6008403,-0.6476695,1.5884145,-4.020753,4.474675,-0.72867215,6.1113915,-2.8122377,3.2889261,2.806095,2.4754016,-0.5569656,2.9852042,-3.1548774,1.6398379,2.049127,-3.7851567,4.1864047,4.187214,2.475422,-1.9618553,-0.5607634,3.2806768,-0.62104994,2.3423235,-0.6718375,1.9698263,2.506847,0.67200845,1.7449708,1.7961446 },{ -2.865399,3.3317635,-2.7604058,3.174756,-2.1343153,1.9873675,-2.8714197,4.7839513,-2.3572195,2.9264143,2.9291978,3.9849412,-2.8786085,1.8066134,-2.3000033,3.8118343,3.3895276,-2.354193,3.599785,4.4890084,1.7372112,-2.5276613,-2.882603,3.8715284,-2.896151,4.2438207,-2.8043454,5.245925,5.2003546,2.963405,3.3000817,1.8922005 },{ -3.9365454,2.4297006,-3.6251903,-1.6426672,-3.639578,4.481858,-3.6412094,3.212606,-4.2679205,4.704854,3.3293202,2.8655102,-3.6464083,3.7522361,-3.4943573,2.7349377,4.132064,-3.322462,4.4239464,3.7344365,2.9014547,-3.7342112,-3.7716637,1.9472376,-3.7381554,2.7952507,-4.0566177,3.8756418,5.40032,1.4524057,2.1959105,2.9428236 },{ -4.559811,4.7993717,-5.8887634,6.025272,-6.5146575,6.374223,-5.825374,3.332739,-7.7782993,7.1770887,6.091141,4.731905,-5.81525,3.5159101,-6.390438,6.163636,0.6270521,-6.028572,4.7570367,2.1191664,1.8138831,-6.7864957,-5.8133364,6.4056497,-5.870168,0.54107046,-5.4846787,5.582845,4.698643,-0.279815,3.3242443,5.5687785 },{ -4.6899137,8.655308,-4.144143,5.214418,-9.05274,5.1170826,-4.106074,7.8227024,-5.8128963,5.249295,6.5997963,4.892656,-3.9981945,5.2702775,-4.1462307,7.846652,4.839558,-7.8589053,2.865319,6.592148,2.2876775,-3.9415684,-4.086864,4.4593067,-4.337963,5.061306,-4.1068196,1.7660344,4.053345,4.243767,5.1442466,7.026529 },{ -3.6624591,6.5349507,-4.259947,7.144478,-9.402893,6.0285745,-3.9338768,7.232622,-3.8614614,6.5795856,4.1076627,3.8863318,-4.2318635,6.145569,-5.7101927,5.9403157,7.401363,-9.061143,3.8588836,9.376541,4.4716454,-3.888359,-4.1568637,2.9981112,-4.0963883,5.5133595,-3.6382325,3.0343025,3.1796672,4.7393827,7.568115,3.0698602 },{ -5.5504637,3.566387,-4.6956315,5.670315,-8.471772,5.749658,-4.821183,0.2002959,-8.66777,4.2166796,6.2563543,6.8521247,-4.866533,2.0273972,-4.822865,3.0091035,5.7702956,-9.719868,2.8013744,5.3895087,3.7029705,-4.658992,-4.687059,5.5186696,-4.7186146,5.749942,-4.986282,2.9645185,4.3911457,4.993658,6.008039,6.091677 },{ -5.26124,4.2671766,-4.8424463,6.509739,-6.503059,6.784479,-4.807457,6.7314553,-7.80335,3.6124613,2.3717248,6.0989857,-4.7485943,2.268395,-6.038257,0.3640285,7.90319,-6.099213,6.21756,6.3982453,1.7835356,-6.722542,-4.837198,8.7520895,-4.906785,3.0404716,-4.992186,5.00145,3.4026637,6.269291,8.5309,4.980529 },{ -4.705704,5.016749,-5.6760225,5.647861,-5.6666975,6.5242157,-5.530354,7.989769,-4.5635023,6.1795034,6.1868014,4.4411645,-5.729043,8.994319,-3.2756872,5.843471,6.8186784,-6.235352,4.8694005,4.377611,3.9638386,-3.4846544,-5.598926,3.6966586,-5.751343,6.542387,-5.356525,8.657227,1.4002877,0.4081213,4.2821207,1.9278672 },{ -2.7556484,5.781225,-2.4638243,3.1349902,-6.11541,2.593404,-2.5922885,6.513833,-5.9660654,6.2468786,6.871604,4.990627,-2.6472561,4.166259,-7.1563344,3.4429176,4.503048,-8.814446,6.120752,6.555982,6.884254,-4.0002737,-2.6090257,6.6405325,-2.5470808,6.2857614,-2.521791,4.1847095,3.918858,1.8777516,3.1798775,6.708475 },{ -6.2638254,6.080705,-5.3018746,2.9812827,-5.772211,7.60451,-5.404213,4.7315297,-3.9768858,6.243917,3.0135152,5.8737507,-5.4872503,6.7946677,-3.191997,4.3608108,5.298375,-2.8624465,5.1723685,5.86231,2.7323618,-6.095854,-5.338347,4.531941,-5.4881644,4.6736436,-5.660071,4.1491294,4.9689946,5.383018,4.42546,7.403534 },{ -2.6458178,5.625519,-4.497211,3.774332,-8.095997,8.549419,-4.4984574,6.755059,-7.258847,6.260381,5.143236,7.4447274,-4.503018,5.114961,-4.0499463,5.4213347,4.899405,-8.93355,4.41517,4.640676,6.367942,-2.4834287,-4.4165606,6.622404,-4.4233217,4.547755,-4.270785,4.3342733,4.2089305,3.2495399,4.5381355,7.3255987 },{ -5.3381863,5.2940984,-5.3799276,5.2636642,-6.6723876,4.628583,-5.6244497,6.2327824,-3.9326122,4.9647746,3.4673991,3.851642,-5.490793,7.893352,-5.3989625,6.127033,3.0551805,-9.000293,3.1871908,6.811424,5.555913,-8.808945,-5.303199,4.480793,-5.3677244,2.7714708,-5.0361443,3.5167208,4.0173573,5.8624115,3.771051,6.637269 },{ -7.443022,5.1419435,-5.295583,4.671129,-10.571878,5.5861073,-5.2831173,5.947209,-7.1700287,4.5804024,5.3384795,3.3886445,-5.170698,7.176603,-7.575539,5.2924438,5.4625874,-6.2446656,3.7010455,4.058364,4.23388,-5.991687,-5.2852077,5.5321627,-5.2503395,3.3364434,-5.429105,3.7150176,4.056336,5.033108,4.909083,3.2902806 },{ -4.031256,6.4114847,-4.8224344,3.168831,-6.893415,2.6438785,-4.8843117,6.422444,-6.4369373,6.484236,5.7858667,6.3080893,-4.885025,5.429295,-5.4557166,7.6503005,5.241166,-8.482174,4.1335063,4.1997795,5.4101877,-5.866815,-4.7971034,5.448661,-4.811641,6.8242536,-5.129937,5.9915357,3.6279094,4.647817,7.2314787,7.331218 },{ -6.3772116,3.301664,-5.286041,3.6608863,-7.922745,4.4367347,-5.012301,7.3688183,-8.239258,5.6797976,4.5916243,5.8302145,-5.2188025,5.6978917,-8.050512,4.901697,5.8557806,-7.772348,1.7256328,6.604374,4.6708565,-6.8665924,-5.135594,3.6677828,-5.2909837,2.974733,-5.926918,4.5700436,4.5749373,4.839405,4.556297,3.478099 },{ -3.1742227,7.2370424,-4.512916,7.9812965,-7.681901,5.585887,-4.729425,7.628115,-7.3615193,3.743683,4.7759438,3.2712352,-4.535736,7.216976,-5.469663,6.6665416,5.6900215,-6.9779587,5.0561814,5.639395,5.127237,-3.4673069,-4.5206366,8.634085,-4.539291,2.4166636,-4.3499923,6.374273,3.2157803,6.283677,5.1417856,5.220755 },{ -4.402082,5.7225046,-5.5545692,9.016473,-4.2009473,5.490123,-5.6155477,7.5046687,-5.7764564,8.310658,5.3998804,6.1970034,-5.5417285,2.68394,-4.970368,7.182623,4.2792153,-4.4166236,1.9830245,7.5594516,1.8395427,-6.1461024,-5.575239,5.1044865,-5.644926,8.485843,-5.4573154,7.8299003,3.4118962,5.7855706,5.7027326,6.5068355 },{ -6.466562,0.48045465,-4.7921767,-2.3460472,-6.0332894,5.148424,-4.920553,5.8114424,-7.8275084,6.3093853,7.575856,7.8002014,-4.8078456,7.4049034,-9.02906,5.260076,1.3252218,-6.984341,4.2461677,-1.8414732,8.117513,-5.844926,-4.825707,6.3055773,-4.7780886,6.5507126,-4.650052,7.353053,5.722817,6.493298,4.8446136,7.1897254 },{ -2.3480685,4.699556,-5.4022274,7.287585,-4.8899426,4.673622,-5.7057962,7.8717556,-4.546749,6.7626524,4.5248184,4.846604,-5.58785,4.655306,-4.686093,7.1939063,3.5939863,-7.4077067,5.2175264,6.6030326,6.111141,-4.3913913,-5.4906316,5.655941,-5.584694,5.966771,-4.3297834,4.8572145,5.300381,3.9626358,3.2890623,5.724611 },{ -4.794319,6.152749,-5.56748,6.242958,-7.3191657,4.707891,-5.597218,7.3241286,-7.111945,5.0697284,4.6259212,2.9819694,-5.4937363,2.589963,-7.249778,3.9364576,4.716463,-6.2031837,4.1106963,6.35272,1.8065652,-6.3289146,-5.514967,7.4889255,-5.4008517,6.0311155,-5.7488523,2.6768804,3.43395,1.056666,5.890481,3.9205842 },{ -5.774191,4.255613,-4.980444,6.9070907,-4.7303805,0.21395099,-4.715543,8.0313225,-4.0203795,6.0325027,4.139209,7.7288494,-4.8541546,3.700464,-7.0074997,6.236793,6.448888,-5.6503124,2.908668,5.6867886,4.785933,-5.677119,-4.853673,5.348316,-4.942786,5.4950943,-5.744927,5.581416,3.5960727,8.112862,4.837823,6.641124 },{ -4.457118,8.064173,-4.2737246,8.402996,-5.1609945,4.566616,-4.2583485,7.3424025,-5.857783,8.605376,6.985653,6.34742,-4.3325396,1.7545406,-4.1435103,5.699243,6.480989,-6.4173713,5.6097655,5.034775,6.487331,-6.3204226,-4.2882247,4.8451166,-4.3651676,5.9492784,-3.4744911,3.507073,4.0081673,3.9140534,5.784025,7.348812 },{ -3.9924242,5.81073,-5.6075997,6.3700724,-5.0686393,7.1645603,-5.6047335,8.2350025,-3.679669,5.587202,2.5921116,5.4958544,-5.692195,6.9337792,-5.7615914,6.7476134,5.9847155,-6.2534676,5.162931,7.5732336,6.121845,-5.205332,-5.65165,5.381378,-5.7171326,5.5679398,-4.868701,7.701663,4.148265,5.422569,5.6191015,3.8637466 },{ -5.5752397,4.994753,-5.1891546,5.838382,-5.254057,6.4989405,-5.233604,8.759616,-5.2863727,5.328134,4.9318385,8.454883,-5.1234527,6.5049043,-5.103934,6.2482996,5.2991223,-5.8171387,3.480378,5.718751,6.6239996,-6.316426,-5.2856812,7.0736275,-5.1786413,4.6186657,-5.3314567,3.8085368,3.404357,5.3023353,6.1272054,6.650362 },{ -5.960968,5.2687945,-4.973969,4.6493115,-6.4985924,3.3022435,-5.134327,6.495576,-4.1485248,4.5069723,3.8217356,6.4182916,-4.979142,7.974114,-5.266286,4.062186,3.5225303,-8.889208,2.8936183,3.8002841,3.4366348,-5.927422,-4.9843674,5.839031,-5.034193,8.464071,-5.0968122,7.8630447,4.0363073,6.994705,7.9894185,6.531877 },{ -6.125536,7.4478016,-4.9114323,3.8981316,-5.2225866,5.6011467,-4.9135184,6.5859895,-5.275945,6.761562,5.161976,2.6201348,-5.0189867,6.645352,-5.8678904,4.225868,5.091311,-3.4100895,7.385171,5.6832123,4.761868,-6.464985,-4.9631724,3.7342973,-4.9494405,5.029873,-5.3566136,8.182244,4.1860967,4.7990813,7.5545244,6.1479006 },{ -5.150802,4.916471,-4.033053,6.3413982,-8.531226,5.054151,-3.9293182,6.9248424,-4.0991187,7.024072,5.4633865,6.329637,-3.9228215,7.83926,-3.5925603,4.5308337,9.717253,-6.65409,3.8490844,7.3117757,3.1902645,-6.889952,-4.045641,6.0852814,-4.226954,7.70435,-4.0294847,5.7859535,4.641224,5.754393,8.1565485,2.891506 },{ -4.814128,4.0815997,-4.5754924,5.5885005,-8.843216,6.0609965,-4.501339,7.2548914,-5.789666,4.415658,5.7977476,6.7782145,-4.701619,6.3654504,-5.772056,8.566011,4.0396924,-7.536494,3.030795,5.830686,6.7282877,-6.382358,-4.612138,5.70042,-4.910006,3.2955325,-4.56931,4.7770886,4.8740997,6.5646234,5.657747,5.3907614 },{ -4.7726536,9.121183,-4.773325,4.1165,-6.2158513,5.36944,-4.9188395,7.997017,-6.37413,3.9792743,6.5551167,5.672765,-4.9683557,4.335984,-6.670713,6.155342,7.8970814,-5.717682,1.752194,6.300888,6.125621,-5.7836413,-4.8258896,7.845086,-4.8842597,5.9172745,-5.089766,6.3801117,3.1000452,0.17000945,4.841474,6.1636424 },{ -5.1145153,6.7337227,-5.075077,6.6040044,-4.8544188,8.122885,-5.1928453,9.144167,-3.6546202,5.3123894,7.014714,3.8178818,-5.070893,7.8385434,-3.7118173,5.372047,6.9544816,-6.4939885,7.197077,2.1458116,6.8142343,-5.2664585,-5.166312,5.666557,-5.1249905,5.2894483,-5.1094747,5.298177,5.6677213,6.2318177,2.9149058,7.561913 },{ -5.253231,5.6323123,-4.391106,4.7064304,-9.131061,4.892937,-4.3032966,7.879588,-3.5828354,6.4083557,5.475059,3.849788,-4.2990575,6.854032,-4.423111,6.9177547,4.048923,-6.5967555,5.3547897,5.749956,5.686947,-5.446351,-4.440129,6.0895605,-4.386959,5.5941978,-4.9637804,5.1795535,4.4078913,6.891627,6.555067,7.6773205 },{ -5.2769547,6.7334056,-4.867929,6.266729,-5.5519934,4.7235622,-4.842457,8.187505,-5.295526,5.573795,5.680218,4.9317317,-4.7386675,5.862898,-3.728719,6.7431,5.751365,-4.1455483,3.5403852,6.7573237,6.197941,-3.9735265,-4.802679,8.491463,-4.8638334,6.25311,-4.3629966,5.582659,4.379552,5.0180516,8.489259,6.0863795 },{ -4.4477468,6.859583,-6.8887167,5.581503,-6.4876976,5.3125167,-6.91437,6.6921563,-6.2613525,2.859633,4.3661227,4.0477633,-6.9687314,4.693639,-3.6492248,4.9649496,6.8809237,-8.632355,6.508884,5.8800397,4.18416,-4.0100975,-7.112825,5.609517,-7.0074277,6.4950852,-6.1423316,1.7032909,5.4756055,4.7666407,7.97285,5.98835 },{ -4.3136396,5.362427,-4.156259,4.663706,-4.618796,6.679307,-4.3506126,8.70605,-2.0582373,3.6969984,6.380827,5.3227906,-4.2797103,7.761711,-3.1120489,6.924183,8.578276,-4.643349,3.2842362,6.081098,8.650435,-2.9986491,-4.2465014,7.159896,-4.3134923,7.9362216,-4.448072,6.030323,5.019816,6.5635533,7.696499,7.965733 },{ -5.7807016,4.107391,-4.6870337,7.2092185,-6.497083,4.4121566,-4.532661,5.849308,-4.8297634,6.7389207,2.7726405,3.670642,-4.6879354,6.1722164,-3.9515023,6.044068,6.041505,-5.3488584,5.455837,4.6561165,8.551225,-6.147518,-4.61743,8.3586,-4.9212184,3.057323,-5.0368085,3.797431,6.5837884,6.974827,7.761542,6.0097785 },{ -4.4366355,6.9405017,-5.108974,6.9196963,-5.722437,6.5278664,-5.1176114,8.601112,-5.5441594,3.001173,3.3049562,6.3148513,-4.9968634,4.55454,-7.7659335,4.620296,7.830377,-6.1434145,3.5833635,4.5406394,5.748136,-5.82543,-5.1667314,8.1988735,-5.164277,3.129538,-4.437541,1.0540642,6.036018,4.841043,4.3150635,6.2861185 },{ -4.36647,7.0378566,-4.0413547,5.075647,-7.122299,7.8420157,-4.0857024,9.886914,-4.1293063,2.7473714,7.249044,5.8831997,-4.137086,4.625384,-3.5238883,6.779062,6.117289,-5.172714,3.2684016,6.1588054,4.6421,-3.835295,-4.1198125,4.523235,-4.058638,6.511789,-4.46526,4.928908,2.4223607,9.271788,5.909895,3.1599882 },{ -6.1211333,5.9739914,-4.637533,4.2688727,-5.2146926,7.19598,-4.7538657,8.010163,-4.8400745,7.011148,7.56895,5.3045454,-4.7771444,6.4048195,-3.7315857,5.740015,5.3136153,-4.87222,7.2771325,4.0602927,9.755018,-5.0040565,-4.782569,5.1594324,-4.731458,6.077228,-4.9283233,5.4820566,8.406799,8.756375,7.856407,6.5112696 },{ -4.9927697,2.9534569,-5.0961246,6.576793,-4.145124,7.586306,-5.2388577,8.654957,-4.6574397,7.0578566,6.340443,6.282725,-5.0471735,7.4400444,-4.35465,7.1733603,6.3784227,-4.7926755,6.606937,4.889417,6.5355577,-3.5321767,-5.1215005,5.830739,-5.151821,7.678196,-5.118749,7.533263,5.6599307,6.7775226,8.073424,6.61672 },{ -4.1693325,5.064959,-4.3103504,7.876341,-6.793575,6.620063,-4.430423,8.00283,-6.9489737,5.820766,5.1143584,5.714293,-4.335366,6.877298,-6.3958955,4.09754,6.0624886,-7.84587,3.73647,6.800837,8.816147,-6.0849,-4.272888,3.726961,-4.327062,4.5105906,-4.721348,4.448644,5.498773,9.066117,6.366296,5.86622 },{ -4.0922356,8.109682,-3.6349802,7.9766884,-5.462428,5.700317,-3.54888,10.200227,-5.177438,3.6765814,5.1493125,6.528281,-3.6768284,4.3432345,-5.1769986,7.261831,4.592851,-5.159509,6.286351,9.414948,5.720684,-4.907139,-3.7517292,6.1339054,-3.6580079,6.5972166,-3.7723794,7.341122,7.181876,7.5709567,5.5687833,5.8703966 },{ -4.4355545,3.9436326,-4.101915,6.3212237,-2.7027745,6.6036515,-4.1423087,7.417828,-4.596778,8.042867,6.4144406,8.3676195,-4.1361427,6.580393,-7.195194,6.8145747,4.076139,-9.179212,7.1659865,4.692859,7.6495934,-3.944152,-4.2092247,6.6318655,-4.19697,6.4596653,-4.4162025,7.220024,4.4588504,6.673373,4.711316,8.965603 },{ -6.4177866,4.351479,-6.1291823,5.003588,-5.2363415,7.450562,-6.1093273,6.984896,-3.8174617,