#ifndef WEIGHTS_HPP
#define WEIGHTS_HPP

 double weightsInputToDense[769][32] = {{0.03131094, 0.035652593, 0.0014729947, 0.009248152, 0.039263368, -0.07965897, 0.039304644, 0.011113904, 0.014242031, -0.048072845, -0.01613754, -0.022970118, 0.08620937, 0.068959326, -0.061750367, 0.081336945, -0.0847583, -0.0070924982, 0.029273733, -0.0058740973, 0.061058074, -0.05163915, 0.0140961185, -0.06325677, -0.08351041, -0.02294536, -0.044450805, -0.03184773, -0.08333943, 0.08625147, 0.025084503, 0.0052326024}, {-0.067223884, -0.00016809255, 0.03353151, -0.019267522, -0.07263834, 0.045022488, 0.0753137, -0.07314984, 0.06144896, 0.013543464, -0.015082836, 0.05856797, 0.057041824, -0.052275196, 0.034489393, -0.0022421554, 0.057521507, 0.03640882, -0.033745967, -0.048608854, 0.024273291, 0.0547743, -0.06725459, -0.02812551, -0.040871456, 0.004014805, -0.07679357, -0.031224873, 0.05851446, 0.04175894, 0.020369917, 0.039543405}, {0.053113505, 0.014340125, -0.019368388, 0.08438006, 0.0022664592, 0.03037268, 0.024039313, 0.054284915, -0.08624222, -0.067465514, 0.0051358044, 0.0072655603, 0.054499596, -1.05425715e-05, 0.0343192, -0.03140004, -0.00024279207, 0.01795829, 0.06272897, 0.0016978309, 0.04708822, 0.022037841, 0.07908669, 0.08414087, -0.07937485, 0.0073691458, 0.021966323, -0.07959564, -0.01787243, -0.0126632005, 0.077200696, -0.017566927}, {0.02177795, 0.062020168, -0.063403256, -0.047932673, -0.039450444, 0.01853367, -0.0055072904, 0.051996216, 0.081756115, -0.05592237, -0.06257714, -0.039264463, -0.003643401, -0.07009275, -0.004481107, -0.039230168, 0.044739768, -0.06721409, 0.012103796, 0.013135798, 0.076723486, 0.0024601966, -0.015959918, -0.06815658, -0.024828158, -0.0675178, -0.021806262, 0.0761686, 0.011941664, 0.041526675, -0.020683892, 0.06504457}, {0.028272495, 0.034225643, -0.07573201, 0.068156496, 0.005502507, 0.06730439, 0.064827636, 0.008999914, 0.047694087, -0.0016911849, -0.06406978, 0.06954461, -0.040996008, -0.027006302, -0.019281738, -0.04186329, -0.04235419, 0.044798434, 0.07124779, 0.016463876, -0.026420563, 0.07127158, -0.044559818, -0.0689499, -0.03951821, -0.020599164, 0.06707513, -0.03476272, 0.004358493, 0.034280673, -0.030143857, -0.012357332}, {0.026053533, -0.086131684, 0.06857549, 0.037871554, -0.028219707, 0.083679736, -0.060763925, 0.008744679, 0.00057610124, 0.0032255054, 0.058843777, -0.04186178, -0.06131477, -0.0412532, -0.042940218, 0.023610786, 0.044382483, 0.0494453, 0.037760213, 0.069952294, -0.0755009, 0.028356515, -0.06304229, 0.054907322, 0.0726895, 0.060887203, -0.06911009, -0.06803318, 0.047685936, 0.031450592, -0.068863645, -0.066382855}, {0.02256395, 0.039764896, -0.061370976, -0.05136518, -0.070492476, 0.08312985, -0.07608408, -0.08225282, 0.058125585, 0.08212431, -0.013793014, 0.075962126, 0.07434696, -0.07379608, 0.061404288, -0.008124195, 0.016571753, -0.074652046, 0.016724512, 0.048499778, -0.03232299, -0.05594965, 0.026488386, 0.031701222, 0.008074321, -0.002907686, -0.0032885224, 0.035047688, -0.0684381, -0.07581267, -0.059333462, 0.032438323}, {-0.0853378, 0.0011455417, 0.044236183, 0.03994611, 0.07841082, -0.024256494, -0.055513512, 0.0025273263, 0.009076655, 0.0142144635, 0.08119552, 0.016871437, -0.007683933, -0.04646577, 0.053441077, 0.066457495, 0.08254555, -0.0064929947, 0.018431403, -0.079134025, 0.013367198, 0.08366519, -0.010211378, -0.05647181, 0.05828452, -0.03766787, -0.035491668, 0.04454349, -0.035247803, -0.059048496, -0.07612784, -0.009397253}, {2.0104973, -5.4879665, -7.9405665, 5.234006, 0.076816045, -14.864717, -0.5872182, -5.0011945, 2.7843442, 4.7047744, -4.9584684, 0.4485672, 0.95933676, -5.8675747, 6.5602884, -3.13588, 4.9085326, -0.4406703, 0.7188848, -5.2733407, -6.1075854, -9.74748, 3.3560882, -8.6694, -0.9877615, 4.775657, -4.0281544, 0.93832034, -6.003638, 2.0945792, -3.0676293, 5.665847}, {5.2692814, -1.2205623, 2.3626034, 2.892769, 1.0128275, 5.6039786, 1.4144098, 0.7541089, 6.9835176, 7.4019537, 4.2200828, 9.801053, -3.7779286, -13.280017, 7.03941, 0.5436171, 3.8738427, 4.8184505, -3.007967, 8.457954, -3.6842718, -16.86972, 3.2312236, -0.09767091, -3.5390682, 0.0846712, 1.8276311, -4.6818595, -0.27625945, 1.2275101, -4.488254, -3.0247684}, {11.0739765, -1.9159832, -12.604906, -7.7430816, 5.5467343, 0.17726791, -2.624185, -6.1734133, -1.6127946, -0.6469854, 1.0001744, 0.4846914, -13.02845, -8.751067, -6.0440235, -3.9153318, -5.84601, 3.0293076, -0.5125723, -3.636866, -0.9544743, 5.334334, -1.2365805, -1.4799621, 1.9486606, 3.9693558, -6.4397078, 3.3819947, 0.19154514, 4.1497855, 6.6819286, -4.823259}, {4.2017508, -0.019768909, 7.116216, 2.4369044, 9.888942, -0.08905514, 2.964643, -5.6016183, 4.814882, -5.68293, -10.143425, 2.7599297, -5.395839, -1.8257936, 6.1705327, -3.501506, 1.6513613, -5.1745534, 4.621725, 0.8731771, 2.5593898, 1.0600259, 2.705581, -16.314732, 2.3746533, 3.6748714, 0.196278, -3.7312062, 11.658889, -3.2940576, -4.1875434, 7.8059134}, {5.9265385, 14.295278, 1.8307095, -1.4013824, 3.0463276, 0.78451437, 5.560647, -4.8262234, 1.950931, -5.110084, 0.77818084, 0.37750962, 4.4057646, 4.6365786, 4.216958, 10.941881, 3.729638, -0.54129374, 5.804726, -1.7057263, -5.3228903, -1.2318113, 0.8670224, -11.365301, -2.060538, 0.8759292, 11.563998, -8.005934, -2.1940963, -2.8502164, 4.5767374, 2.3723538}, {-2.7255242, -2.4339473, 11.485884, 1.0987885, -8.182146, 1.6963063, -14.609259, 5.7907066, 2.7456367, -2.1686285, -1.2093097, 4.2857337, 7.9338646, 10.449549, 6.803893, -21.97682, 1.066292, -3.9175677, 7.7167287, -0.013213574, 1.0319415, -0.38629445, 6.1868114, -9.114325, -5.5597177, 0.38329157, 0.6466465, -7.875903, 3.3125973, -1.5182593, 4.579385, 0.82543516}, {0.8745849, -10.205355, -0.73143214, 3.4138553, -1.6187354, 3.3684995, -4.288365, -11.736151, -12.166786, 6.0536847, -4.5011563, -14.329748, 0.7186644, -2.3419657, -11.351285, 4.264109, -7.5225563, -4.411014, -4.220475, -18.868454, -0.5406457, -8.638585, -9.49186, 0.32527408, -0.45747077, -0.20202133, -8.376186, -0.45855328, 8.660783, -6.7910256, -8.128108, -3.9207695}, {8.116073, -2.5766833, -5.0742455, -0.5124495, -4.5248847, 3.8048604, -6.9460797, -1.0675905, -8.565643, 4.984888, 3.0245779, -6.1699867, -0.67934793, -0.3909953, -5.9880033, -8.754127, 0.10304867, -0.44334766, 5.749158, -1.2709485, 6.4284487, 0.48273015, -10.917071, -0.44560447, 5.7329717, -0.34282735, 3.599894, -10.331036, 5.473689, -5.9602294, -3.6185756, 2.8512766}, {3.6235113, -9.331703, -4.764383, 1.9648037, -1.2234765, -2.411103, 0.8132686, -0.8355443, -0.79353595, -0.93333167, -0.7493652, 8.788802, 0.10162978, -0.11277156, -2.0740035, -4.637622, -2.7349954, -4.6365285, -3.5451703, -1.715489, -7.9901214, -1.212376, 6.2230296, -2.5246553, -10.438159, 6.882289, -7.116666, 6.4256473, 5.5848145, 8.065295, -5.8369794, -1.0356858}, {8.825, 3.9565985, 0.9018099, 6.1280894, -0.27004352, 1.1952572, 7.1348014, 3.6553202, 2.9375815, -0.1500018, 4.3225083, 3.8268225, 3.08035, 2.7349362, 9.854153, 1.2188897, -3.9371293, 1.980936, -5.2133455, 3.1094627, -13.864304, -8.804547, -0.8148008, 5.0154033, 1.4382559, 3.0122516, 1.992163, 2.951329, -0.398512, 2.60511, 4.0796742, -8.164401}, {9.5606785, -1.9848799, -13.095558, 5.563079, -1.5332716, 4.9674854, 2.928101, 5.9119287, 3.753323, 5.588412, 0.46859783, -5.054159, -2.7823944, -11.898403, 1.7177466, 2.0191543, 1.7015827, 4.9255104, 2.5745652, 2.326104, 4.620824, -11.527324, 0.636401, 6.1259584, 3.208482, 0.14203396, -11.248904, -0.51651067, 6.6830173, 1.743194, -4.0589385, -0.11024136}, {2.9307055, 1.477935, 3.4191687, 5.3459325, 5.586653, -0.90569085, -1.9103328, 0.43373004, 2.8668675, 3.6559935, 1.7942212, -2.04851, 5.2822027, -2.8685236, 3.228837, 0.22356582, -2.03192, -2.4768672, -2.052112, 3.8934457, 4.7033296, 2.5338428, 1.2870528, -1.57654, -2.186986, 4.079173, 1.648216, 8.123082, 4.358096, 1.191067, 2.4424956, 7.8593698}, {3.9560304, 2.9783304, -0.55589676, -5.2838364, -10.103858, 0.8523798, -0.2667518, 2.912797, -14.749547, 1.9751866, 5.4465895, 0.64847946, 1.8155582, 5.571438, 0.1115444, -2.5969615, 6.213344, -9.627706, 5.9528136, -2.0566196, -9.80435, -1.2954309, -3.9574983, -2.509837, 2.9378102, -1.8383994, 3.6485708, -1.9229146, -1.1655146, 2.9657826, -2.1168513, -0.6322936}, {-5.0967164, 3.9438665, 3.2321844, 4.5347548, 0.53277194, -12.643509, -3.2776973, -6.787028, -1.2300143, 1.658846, -4.9434047, -0.031110512, 10.207872, 5.0726023, 1.9020233, -4.340636, 3.2006812, 8.767795, 7.8832626, 7.9841146, 1.6076434, 1.3104932, -1.7421566, -13.748686, -9.318139, -0.54071206, -5.0250506, 0.8875148, -1.6432316, -5.533966, -7.9146094, 3.5998645}, {-4.2789016, 3.1974568, 7.732411, 4.5962434, 5.2782874, -4.7302785, 1.3360193, 1.2855376, 3.7781043, -1.749658, 1.6663598, 1.1041147, 6.2895403, 2.395641, 10.726475, -5.6940985, -10.083857, -13.853339, 8.970136, 2.706001, 0.2182087, 9.012322, -3.5323083, -2.1728847, 0.6450808, 2.3105772, 10.954848, -9.395916, -3.7366018, -5.368427, 10.291145, 11.137925}, {3.5009155, -2.8889062, 0.98989666, -1.9394784, -5.7614303, -1.3178322, -2.33463, 5.299703, -0.94921166, 2.8734114, -1.4983113, 1.0657778, 1.8631862, 1.6941155, -1.4201685, -1.085295, -6.076472, 2.1895132, -4.8409715, 5.5410757, 3.9721427, -5.9735436, -1.913492, -12.697614, 2.9145143, 2.5806477, -0.0052849306, -2.1549091, 8.948475, -5.2531953, 1.0627129, 7.2710032}, {5.8537164, -1.3188, -3.4356034, 3.2170978, -2.342336, -0.9807217, 3.051322, -10.858646, -0.5668947, 2.2037904, 2.864361, -0.6392898, -0.9121539, -2.0642035, -3.0829856, 1.132796, -5.135652, -0.1752544, -3.8161848, -1.2502458, 1.0179328, 4.296614, -3.8958886, 1.416238, 3.3651185, 4.201534, -6.6674666, -2.008484, 1.7075877, -0.054715343, -4.579368, 4.44773}, {6.931594, -0.7423026, 1.7736807, -1.520343, 5.0620875, 5.892269, -3.362703, 3.296101, 0.97708774, 0.6139579, 2.1465478, 3.631958, 3.3572836, -1.3365476, -0.35149476, -1.6921915, 1.2344843, 5.855974, -0.5704885, -3.148624, 1.38022, -0.2312497, -4.1153154, -0.36128742, 1.5123599, 2.0874827, 0.7701681, 1.606235, -1.1031468, -5.1209364, 6.382957, -2.35627}, {2.2561011, 2.5584118, 2.722851, -0.5960182, 6.5993204, 3.0604393, 3.2316017, -0.029782875, 0.81414825, 2.0131016, 0.49992454, 1.5936204, 0.1034576, -0.6326077, -1.0433853, 0.52402085, -7.6822944, 2.3178556, 4.713388, -4.4578514, 3.3572907, -3.0611799, -0.33957133, 4.7773013, 0.86649793, 1.181211, 1.4804206, 1.8535174, -0.20572169, 2.1415005, -1.3485647, -1.5976394}, {-0.62730384, -2.396426, 1.4315004, -6.409344, 4.86053, -3.5453494, -8.457439, 0.29879948, 6.394655, -0.06402165, -1.331025, -2.0562956, -1.7061793, 1.1007304, -0.16562122, 0.9376242, -0.71269953, 2.6241755, -1.6925645, -3.7868135, -3.4907017, -9.040281, -1.6974412, 1.3728702, -2.3965538, -9.454132, 0.43651617, -4.3344765, 2.757282, 0.70458555, -2.4227123, 2.7014124}, {-5.0905204, -1.1941887, 2.2006893, 4.27229, -0.8095717, 0.35101265, 2.790593, 2.547742, -5.214375, -8.551804, 0.6480662, 0.9722784, -1.1116196, -1.101874, 0.3921458, 1.126862, 0.36615533, 6.3705378, 2.7287555, -0.706788, -2.7717717, 3.7607167, 1.3582497, -2.024953, 3.9614103, 1.2035741, 1.9385179, 1.108996, 7.9954677, 0.51094097, -2.458682, -4.4143434}, {-0.45793733, -2.7681763, 4.112504, 1.0900774, -0.9191595, 2.2315388, 2.0325055, -3.7208135, 1.2487117, 3.1904733, -4.4423485, 2.5631914, -1.6385729, -0.17570859, -0.2972398, 1.1749413, 2.2318087, -0.46631473, 0.6161331, 6.0700626, -1.2040633, 1.7963123, -1.7788395, 1.7669897, -0.4859073, 0.8526735, 5.571084, -4.0899105, -6.521337, -6.1095133, 2.406348, 1.0998608}, {-5.163244, 3.4535418, 2.3644986, 3.5913107, -3.3734417, -1.5080432, 0.6526431, -5.796909, 0.4539536, 0.61214226, 0.63712347, 6.4986405, 2.5552757, 1.6015356, -3.30888, -0.14803675, -17.54311, 0.67125124, -5.183745, 3.5063574, -0.24664284, 2.0551605, 2.1903381, 4.7116146, 3.9760013, 0.86546695, -1.2239614, -3.7898285, -5.3940043, -1.4670963, -8.172839, -2.1555583}, {-13.958714, -5.6364813, 0.067807555, -19.56234, -3.1689038, -4.4713926, -3.2487352, -1.2521373, -4.4241624, 3.7588952, -10.383463, 3.3698604, 0.43305296, -15.133302, -0.8513332, 4.610876, -1.9322639, -7.638924, -3.283542, 2.23751, -3.7391334, -0.84150547, 1.0803189, -3.298649, -7.6399508, -6.1316767, -1.5598028, -4.843485, -3.7417076, -1.5451717, 0.29152468, 7.885564}, {-0.63230866, 0.5254171, -0.41443685, -4.355829, -4.8923965, 1.1193702, 0.1749806, -2.575512, -3.5744193, 2.4548254, 4.7041144, 0.4284983, 1.745766, -3.6131418, -3.518917, -0.41487285, -3.384732, 1.4054644, -0.35208902, 0.8112765, 0.6219045, -1.7801439, 4.462275, 3.5773306, 0.4378441, -2.1913757, -4.028235, 1.2777612, 1.7648553, -3.1442256, 1.9862416, 3.1998465}, {2.65621, 1.2673857, 3.5426445, 1.7589556, -1.1312943, -3.3376324, -0.8619826, 1.9336317, -0.044053756, 0.19410302, 4.217384, -3.903559, -4.508125, 0.9023176, 2.533053, 1.1592181, -2.7475991, 0.6120489, -2.332918, -8.368845, 0.25825638, -0.537802, -5.6765747, 2.0100634, -1.6141568, 4.0922527, 3.2734525, -3.8889098, 2.0232189, 3.844849, -1.711647, -3.2671623}, {-3.1976416, -1.0196655, -3.206585, 1.201177, -3.2552466, 2.002176, 1.350482, -4.3185735, 0.28332648, 1.385031, 0.28777227, 1.3589228, -4.5720825, -1.2949111, -0.19464138, -0.30124903, -1.0283246, 1.591058, 3.1659327, -2.3476634, 0.83114433, -5.821448, -1.3877128, 1.5835565, 1.8662211, -5.626165, -0.46548158, -0.88507074, 2.382537, 2.2432175, 1.4275992, 2.1906548}, {0.8247142, 0.60200936, 0.4367457, -1.1919055, 1.8990818, 4.959704, -0.33777782, -1.7280477, 2.5886168, 1.4600599, 0.1658654, -4.101677, -1.3335545, 5.662759, 2.183539, 3.7385104, -2.5811245, -3.8249516, 1.0785819, -0.9375861, -2.8122928, -1.0822781, 0.5821592, 0.44535854, 0.5774643, -3.165366, -1.2615411, -0.036079917, -0.010704434, 6.2104907, -5.2214484, -0.7250876}, {-3.1863906, -3.2941797, 0.53068906, 0.12783729, -2.3300896, -0.04750279, -9.50513, -6.7986956, -0.9001008, -0.44739303, -5.286324, 1.6981773, -1.1129911, -1.8046783, -1.9375561, 0.5868575, 1.2005427, -0.77793354, 1.8915383, 4.8308563, -0.5165988, 1.1864958, 0.80945885, 2.8372533, -5.288476, 0.9060659, -3.7609463, 2.3277457, -2.2691782, 0.37135422, -4.771143, 2.3780067}, {-0.29565644, 1.0057181, 1.9595773, -2.8511972, -1.2459731, -0.5730735, -3.4680512, -0.40443432, 2.287755, -3.3129592, -1.2486421, 2.927833, 1.5994581, -0.40769535, -0.1899626, 0.19208439, -2.70312, -1.7016655, -2.5545812, -5.346156, -1.9335184, -5.1217546, -1.2962096, 7.9626627, -5.7531633, 3.5988486, -5.1782537, -1.2793497, 0.65285826, -2.090155, -2.5990014, 0.57529247}, {4.109566, -2.2245321, -3.4404895, -1.6793611, -0.6925377, 3.4384463, -1.7466109, -0.6828871, -3.8484983, -0.34783238, -2.3405235, 0.028764043, -1.6774356, -0.2977529, -2.2942202, -3.6031873, -1.638647, 2.680891, -1.1208625, 1.6369095, 3.419812, -2.6070814, -7.1068683, 0.9614718, -1.4492508, 3.5154738, -0.29842684, -0.36955938, -0.012936045, 3.2241962, 1.0947962, -1.3060644}, {-6.7039485, -7.2774916, 0.91773117, -3.6444907, -2.528983, 0.09102853, -2.543881, -1.9692475, -2.2857018, 2.8303611, 2.3617826, -1.5024846, -1.2824197, 3.0167122, -3.1509683, 1.9860779, -6.350523, -3.5496492, -0.16499539, -1.4749445, 0.24908118, -1.9545345, -2.2439585, -4.7527843, -2.566377, 2.0693932, -6.669236, -0.6982697, 1.0754789, -2.0521455, -1.1966116, -2.6803694}, {5.032096, -4.513492, 3.6703973, 2.1451712, 2.550043, -0.68337375, -1.1202701, -2.8229558, 0.23370083, 1.2383358, -1.5230783, 2.6514957, -1.0111839, -2.8994422, -0.94560003, 9.071131, -1.7107157, 0.08393076, -2.4008455, 0.61706066, 2.9474013, -1.4034634, 1.7806144, 1.1455636, 1.4843401, 3.5750828, -3.4280367, 0.15013763, -1.3046277, 2.5006351, -3.120199, 4.154021}, {1.9012356, -2.9553957, 1.0205686, -3.4703581, -5.2749233, -2.683283, -3.0325668, -3.7067335, 0.2004146, -2.8185549, 1.8259082, 0.7621784, -1.2663438, -4.36838, 0.5932779, 0.7439687, -1.7291663, -5.3970957, -2.8044045, 0.27787766, -2.7401416, -0.5251493, -0.8075079, 4.019175, 2.6416183, -3.2663276, -2.37046, 3.3983464, -4.1594696, -0.9856628, 0.47394797, -2.9383929}, {-3.458426, -1.5461222, -0.34688845, -0.927386, -0.5078283, 0.23435432, -0.014225229, -0.7141879, 1.0493457, -1.3116745, -2.2343018, -5.3662047, 0.579906, -2.372265, -1.6391295, -1.9151547, -1.1643916, 2.397135, 2.86082, 2.1725667, 0.13687404, -0.9998234, -3.2132447, -0.9525221, 0.26131377, 1.2737806, -1.8175529, -0.244134, -0.90901047, 1.6752764, 2.1264713, -2.2265034}, {2.9140737, 2.3179936, 0.27741206, -1.6145971, 1.3382434, 3.9619374, 0.7375328, -2.6969583, -2.5176296, -5.40447, -14.582588, -3.1260161, 6.0702066, 3.5743566, -1.6255902, 0.60384923, -1.1497719, -3.7865627, -1.5971452, -0.2594188, 2.9187982, 4.9918866, -0.090928845, 1.9579371, 0.6296739, 1.1164658, 1.4704393, -2.5665221, 1.8236684, 3.5441935, -2.3795211, -1.2383183}, {-8.29341, -3.8320909, 1.4497422, -18.833084, 1.8625957, 4.1930413, -2.5895505, 1.578355, -4.726264, 1.7054144, -8.078597, 0.8112237, 1.592005, -4.4803495, 0.37283552, 1.0411091, -0.6564413, 2.7753606, 6.173686, -1.217038, -4.549715, -3.0435562, -4.094422, -1.4238281, -5.6879654, 1.319945, -0.27176365, 4.688016, 2.9524553, 0.2847359, -3.0983996, -2.8653297}, {-2.9244664, 2.3193786, -4.3507004, 1.9728442, 2.6431925, 0.35554603, -3.828382, -1.9769616, -4.5608163, -2.56905, -0.6498247, 2.4722998, 0.15668659, -0.35902733, -4.275935, 3.292247, -2.8828223, 1.3627186, -3.4437418, 3.5658274, 3.6578162, 2.4533234, 0.96046424, -1.1869781, 0.9171986, 3.3631365, -2.062049, 1.2240877, -2.7791102, 1.2097352, 1.1555647, 0.8321215}, {1.1581795, -0.44368327, 1.6145865, -1.0839869, -2.2427034, -2.0739713, -5.545239, -3.8355122, 2.6829164, 0.4606575, -0.56899035, -2.8846612, 0.15153863, 0.04800179, 0.74338406, -0.19035545, -4.103536, -1.6026424, -4.9737463, -5.892268, 1.1707612, -0.74965334, 1.3259007, 0.16442354, 2.3167028, 1.0120991, -3.0319808, 5.703778, -3.056081, -2.4125423, -3.9454384, 1.3109878}, {0.19644319, -0.88046265, -4.1515026, 3.462202, -2.2946439, 1.1508949, 0.95556486, 1.3685012, -3.0203986, 1.8758887, -3.5331297, 2.6035728, 3.3947465, -2.9311962, 0.4879645, -1.8984847, -3.7544432, 3.2038276, 0.9581869, 1.9055319, -0.6936138, 1.3932241, 2.3042023, 6.8698516, -6.7523737, 0.03792295, 1.9038148, -1.9721477, 0.23212267, -1.4558531, -0.4645621, 3.0379515}, {2.9751756, 0.18735494, 2.564274, 1.9249321, -0.80652666, 0.84043026, 0.009726287, -1.7241979, -1.306163, -2.280747, 2.5154104, -2.838097, 0.7324251, -3.0403428, -1.1472136, 0.18016204, 0.7073233, 4.778239, -0.08800528, -3.0985398, 1.5175122, -1.8274088, -2.454977, -1.6312834, 3.4048727, 0.8911886, 0.5972168, 2.693309, 3.216187, 1.7205421, 0.86254144, 3.458349}, {-2.2287436, -2.6270936, 1.4200215, -3.8987892, 0.55704784, -0.45499784, -4.3009706, -2.1493313, 1.7819524, -2.8340535, -0.09315141, -2.6079261, 1.1544331, 1.0294096, 0.85217327, 2.613248, -3.9048016, -4.8731875, -0.6641042, -3.0815434, -3.8483634, -2.8963006, 1.5416272, 3.4404845, -0.1711512, -0.36752376, -0.5806233, 0.7996886, 0.08271008, 0.34413776, -4.694581, -0.376602}, {1.4799808, -1.574614, -0.90047365, -0.2858771, 1.4897491, 2.91772, 0.45616236, -0.49385682, -0.78823066, 1.6333159, -1.1072254, -3.2012691, 4.4216146, -4.9469986, 0.6072582, -0.73309344, -1.3210307, -0.6166921, 0.7324804, -1.7914488, 3.3321087, -1.9894147, -1.6981248, -1.756431, -1.807928, -2.4638913, -1.5978872, 1.8881783, -0.34004647, -0.16275927, 3.2468648, 2.521506}, {0.9971384, 0.6944604, 0.2186098, -1.9130622, -0.053880114, 6.283452, -6.2992606, -0.873022, -4.1956015, -6.6293197, 5.024278, 2.28598, 1.2879978, 7.7980146, -1.053915, -0.8138449, -0.07611433, -4.0259624, -0.5932708, -1.1945281, 0.3398229, 3.8777874, 0.038080744, 0.13121247, -1.7582015, -1.6262667, 0.5719963, 3.6367614, 7.176237, 3.8499439, -0.40050003, -9.009401}, {0.05885372, -5.7864656, -8.072641, -3.7988772, -4.981159, -2.258434, -3.495377, 2.5728683, 0.13582115, -1.1090052, -6.994739, 1.2513779, -5.278998, -3.5974696, -2.792422, 3.6927493, -1.0413656, -3.2324522, -3.5102735, -0.021738859, -0.8674516, -1.311158, -2.5825837, 1.1388444, -11.537137, -2.633565, 0.83707184, 0.53198415, -0.4583603, -3.4477322, -4.499294, -4.3107076}, {-2.522192, -2.5073555, 0.80077344, 2.6688437, 0.96300876, 0.7757005, -0.4572345, -2.2688684, 2.828126, -0.82192343, 2.4473917, -0.29170927, -0.33641607, -1.6905476, -0.79473287, 0.5355804, -0.17667152, 0.24746443, -1.3818349, 1.7422192, 0.15067048, -0.82056516, 1.138293, 2.74649, -0.26937756, 0.97791284, -1.4755744, 4.8192677, 1.8673238, 2.2267523, 1.6980355, -4.4740543}, {-1.9651587, 1.5611985, 0.076262966, 2.0904198, -4.1366253, 0.7053593, 0.14569871, -0.6553391, -0.38867873, 1.9527799, 0.12772314, 0.20312999, -0.14783876, 0.27781472, -0.1869045, 0.100425676, -2.7234042, 2.4265175, 1.1496056, 3.4774094, 0.64245445, 1.2872394, 2.526304, 4.485753, 1.557672, -0.18569879, 1.4477679, 2.060149, 0.81972826, 1.5420983, 0.3071395, -2.2009687}, {0.25042975, -0.2030461, -0.13573787, 0.29768583, -4.2584076, 0.49952516, -2.574332, -1.8969376, 0.38818148, 0.90682137, 2.4270256, 0.24554421, -0.1555112, 0.3630462, 0.22057636, 3.0185807, -2.6702018, 3.2113779, -0.6281014, -0.8608832, -0.7297151, -0.18110466, 0.1671769, -2.2351446, 0.21131535, 0.42560813, -0.70002186, 0.9651275, 0.989862, 0.23659869, 1.1484203, 0.84125924}, {-0.06112615, -0.06739641, -0.036362328, -0.06925888, 0.038867176, -0.022007719, 0.013298668, 0.04375884, 0.07806015, 0.04564911, -0.014293142, -0.045961082, -0.0016203225, 0.011302091, 0.018425234, -0.01000879, -0.038503744, 0.049562693, -0.075308315, 0.057380304, 0.028776497, 0.027652249, -0.0052688196, 0.053531274, 0.08189617, 0.0479946, 0.03452321, 0.06464891, 0.0319006, 0.05647798, -0.05102574, 0.027626932}, {0.041908413, 0.026942313, -0.040332746, -0.06518927, -0.080684125, -0.012037285, 0.047390014, 0.050400406, 0.047972918, -0.00412295, 0.037097998, 0.053654447, -0.0176128, -0.07558711, 0.03296882, -0.0250193, 0.072777465, 0.06351167, -0.020618089, -0.010947481, 0.018439472, -0.021697909, -0.064468876, 0.015954196, -0.06999505, -0.04921405, -0.045266993, -0.0050146803, 0.06582244, 0.02475509, 0.0811363, -0.024784453}, {0.037556626, -0.074313, -0.039959524, -0.03056008, -0.072841905, -0.06139972, -0.049218282, -0.022233665, -0.042504102, -0.032294888, -0.07127521, 0.03277415, -0.014108852, 0.047901273, -0.05015095, 0.07396373, 0.056434467, 0.03708537, -0.049846485, -0.043972492, 0.04820089, -0.040218864, -0.016511649, 0.06314577, 0.02948144, 0.04467058, -0.029921353, -0.078786656, -0.028418068, -0.0852053, 0.0088379085, 0.08210997}, {0.030904762, -0.033151355, -0.07330208, 0.029755287, 0.009606764, 0.038967237, 0.019159727, 0.05980271, 0.048533842, 0.047381952, 0.042026818, 0.07472043, -0.0059860647, -0.060538575, 0.008381389, 0.01953604, 0.026896544, -0.056408174, 0.0585261, -0.047881253, -0.051119484, -0.05732634, -0.065249465, -0.07261292, -0.047025405, 0.007607192, 0.036995754, 0.079845235, -0.03231509, -0.075774886, 0.08136457, 0.060093433}, {0.024790272, -0.03162176, -0.025179423, 0.036425345, 0.019386135, -0.056092255, -0.04254151, -0.049732745, 0.08052671, 0.014175937, -0.0399529, 0.044622853, 0.034909748, 0.03529363, -0.052622605, 0.08209045, -0.045383144, -0.0046360344, -0.0687471, 0.023824878, -0.07264123, -0.045973733, 0.0794393, 0.02787377, -0.08260489, -0.05455012, -0.036296606, -0.06475574, 0.04838696, -0.082797706, -0.062778726, 0.041860566}, {-0.08044722, 0.014996991, -0.07281696, -0.06772974, 0.054913267, 0.08390269, -0.031438258, 0.037442885, 0.055161446, 0.056114167, -0.036831565, -0.005588636, 0.03941995, 0.07577261, 0.039933264, 0.021618254, 0.04870689, -0.06430169, -0.06561163, 0.0118454695, 0.005271584, -0.045673393, -0.08477732, 0.057280138, -0.013592735, 0.06331205, -0.03437607, 0.021599479, 0.003987007, 0.065442964, -0.0018833578, 0.0017459095}, {-0.07340713, 0.06902668, -0.048871223, 0.014745787, 0.015560776, 0.032959513, 0.04227914, 0.029435404, -0.01519946, 0.0697166, 0.08636865, -0.0471214, 0.07664159, -0.079521395, -0.055519685, -0.022635385, 0.044366926, 0.069624156, -0.04356066, -0.010428354, 0.07784495, 0.038322546, 0.06673795, -0.06625132, -0.03569174, 0.078146785, -0.08049468, -0.06435693, 0.048944294, -0.0507969, 0.025651813, 0.020344287}, {0.0042103156, 0.050567925, 0.0006617382, 0.08287977, 0.050129592, 0.018748887, 0.059731036, -0.034237236, -0.033644605, -0.015304409, -0.006897688, -0.0698419, -0.049250305, -0.041617136, 0.016511463, 0.052594915, 0.04087332, 0.058212996, -0.06664397, 0.044235155, 0.030213498, 0.07239029, 0.021558478, 0.022029795, 0.0076234266, 0.03044469, 0.035641268, 0.03887841, 0.061516523, 0.04351501, -0.07021953, -0.05941243}, {-0.30806184, 9.028797, -0.5464493, -2.6125107, 4.08357, 5.3332233, -3.267154, 2.3715968, 4.732529, 2.69051, 5.6024623, 1.2104385, -8.051316, 4.4181805, -0.79437923, -7.4375567, -5.865654, -2.4250934, 2.4744875, 4.2081156, -1.0349965, 0.74661714, 3.3806417, 3.9590323, 0.912905, 8.309213, -13.980313, 0.66950023, 0.78324616, -0.7354297, 6.645605, 1.2367783}, {1.1522151, -0.8829598, -4.3205853, -0.23166035, 1.6293827, -0.9410192, -9.4760475, -4.647441, 3.188139, 5.6276417, -2.659114, 5.8159294, 5.0618787, -11.317256, 3.3028092, -2.344513, -6.892093, 1.2585261, -3.187516, -0.827013, -4.252706, 1.3757858, 1.5560358, -1.1599915, 1.4388644, 6.278905, -5.772702, -1.8947982, 4.7645326, -6.651207, -5.0738454, -6.8146887}, {-1.6455686, -0.91073406, -14.441891, -0.26347592, -1.101957, -5.7784467, -7.1458373, -3.9884918, 4.6312485, -0.8501023, -3.4507582, 2.8377638, 5.8672047, -0.7365988, 6.4932656, -15.45233, -9.015266, -0.13174957, 6.3106017, 1.0176296, -10.246888, -6.0123463, 2.8274782, -8.063496, 5.4147415, 3.9277308, 6.4722176, -8.398021, -3.1606255, -3.204593, 8.43228, 2.9213834}, {-1.3793147, 1.6612395, 0.65635663, 1.6126826, 4.7610817, -10.94763, -6.638913, 4.2559705, 3.1530724, 4.4144053, 2.1886954, 3.531684, 6.2751656, -5.5838346, 2.5270753, -1.3844161, -7.560724, -5.5296745, 0.52414215, 3.0582514, 1.9932995, -2.3150847, 3.864581, -12.347243, -0.3217059, 3.2314734, 2.1878178, -4.952303, 4.092751, -10.205004, 4.839636, 3.192529}, {5.238658, -2.331341, -4.4346676, 3.0226295, 0.5216898, -2.0420063, -3.1721563, -6.267288, 2.0010555, -0.13443987, 4.3435726, -1.1897029, 5.8767276, -3.1154697, 6.0720363, 4.831687, -4.4197135, 4.369615, -1.2618097, -2.4018524, -6.5070724, -2.94114, -0.35130605, -8.701882, 3.286258, 7.5745454, -1.5192966, -1.994138, 12.556497, -5.95854, 1.4554279, -4.152762}, {-6.9788365, -10.167443, -10.310142, -8.777974, 0.49950248, -2.8610513, -0.27140364, -4.1412525, 4.917392, 6.274672, -10.923533, -1.0981554, 1.881309, 0.42720225, 5.9660754, -3.9140115, 1.2738551, -16.113972, -3.5964174, -3.5656333, -1.1620188, -0.16586651, -0.5094321, -0.92983663, -5.528597, 6.1037517, -7.945659, -7.7337465, -1.679194, -8.554365, -5.8360114, -2.7539632}, {-2.5303524, -2.661068, -7.5462985, -4.9472895, 6.0052266, -7.356855, -3.2177513, -5.039854, 2.311681, -5.81405, -1.9685228, 2.1837497, -3.466469, -6.903055, 0.758892, -3.052499, -2.480891, -7.343416, 7.8572264, 1.6614753, -4.1036515, -1.0984063, 0.918275, -7.041065, 2.2614162, 0.25617206, -3.4644723, -6.9999375, 0.820077, -2.0651488, -0.19058573, -5.382855}, {7.291227, -5.7280464, 0.68632656, -1.7628258, -2.3853228, 7.0406117, 9.607519, -2.3896632, 0.21272919, 13.104372, 1.3131188, -0.91617244, 12.353322, -5.953193, -2.4589252, 1.8818603, 1.0764948, 4.0447416, 1.3582014, -0.66438, 1.9189245, -1.0861976, -4.729785, 0.2873413, 5.1395154, 1.2391677, -0.7409894, 3.088873, -3.920956, -0.020060018, -2.541438, -12.110196}, {1.8440194, 3.8919144, 1.5190759, -9.590422, 5.468015, -3.6419494, 2.4118102, 4.8700433, 3.231444, -3.413455, 3.4922638, 4.818015, -0.1367759, -1.173205, 0.12286478, -6.9853697, 2.575647, -3.3326464, 2.6915245, 2.0794067, 1.0975223, -6.1209497, 5.0934706, -6.0103073, -4.337018, 5.0354366, 1.0520844, -3.1943495, -5.290977, -3.8202085, -1.0476536, 3.4553025}, {-4.634698, -6.391331, 7.427521, 2.0580852, 3.8723218, -2.0414658, -1.8211557, -2.6054857, -0.41989517, 0.14677744, 5.6929584, 0.49969944, 7.227696, 7.1731067, -2.2486358, -0.17275119, -2.2516482, -7.116653, 8.24023, -2.582687, -0.41607785, -5.3557935, 3.5542088, -5.3331285, 3.6239812, 4.2089214, -1.6477717, -6.2735233, 7.495563, -1.1427364, -1.0676715, -1.4068252}, {-0.18072696, 5.5243115, -5.118729, 10.688039, 5.330028, 0.9961451, -3.5831392, -9.968817, -6.178548, -2.879338, 4.557238, -9.420514, 1.5737147, 6.8757787, 0.329571, -12.04151, -5.1870937, -0.9140411, -0.50845265, -6.173524, -12.162014, -4.115282, -0.4146629, 0.55872136, 2.7274392, -0.21463224, -0.3329426, -5.482979, 3.4559278, -5.164367, 9.505653, 0.78717715}, {7.3106585, -2.0114899, -13.229476, -5.2616096, 9.865061, 5.3296533, -1.1203359, 2.182157, 2.3844302, 1.5168401, -4.2410617, 1.9371374, 5.823727, -5.258936, 3.4494689, -1.5888566, 3.5446324, -4.51513, 1.0960113, 7.184023, -1.2699896, 0.0217663, 1.891162, -10.495464, -1.100478, 2.2736177, 3.182749, -0.87325203, -5.1993475, 2.8239272, 1.1317375, 0.33880296}, {-6.0923576, -9.773457, -12.679094, 1.3987582, 1.8257166, -15.496545, -3.5011013, -13.319311, 6.3146257, 2.5667896, -9.654579, 6.5866137, 0.8348174, 0.19798799, 9.642376, -13.394569, -7.147039, 4.1106195, 5.3969674, 1.788266, -3.5500648, -0.68104905, -0.24989323, -19.321606, 1.8406875, 8.670754, 3.9157057, -18.594366, -1.6846969, -4.0515256, -7.055999, -11.023851}, {-2.7178073, -0.08184333, -3.7128606, -0.5889071, 6.884259, -12.744038, -4.586314, 1.3646209, 5.9795976, 11.383098, -0.63206047, 8.751155, -0.3370004, 4.755641, 6.8116255, -2.253614, 3.780969, -3.4138448, 6.8932037, -3.8870032, -6.480445, 3.0035563, 7.4072943, 4.288455, 7.2065563, 4.3285427, -4.0294833, 1.2887522, 8.230002, -1.6552696, 3.198641, 1.2083756}, {-8.320863, -5.7137756, -4.1368346, -9.26655, -11.971306, 2.129715, -0.7302985, 4.918058, -8.352584, -1.0968342, -7.4430037, -3.9532278, -5.2339826, -0.5140507, -12.374989, 0.37351725, 4.3558564, 0.4522158, -3.1318636, -1.6514977, 4.9844646, -5.5908146, -4.2385783, -3.7670155, 10.748644, 5.454806, -3.1808438, -8.398305, -0.83994144, -3.1469612, -8.727799, -5.5533247}, {2.7500353, -1.2578765, 1.8687234, -4.885898, 3.067743, -2.5355732, -1.8759571, -1.4740423, -1.153017, -1.919255, -5.365559, -1.7023085, 1.5716015, -2.8547134, 2.625254, -2.0544322, -0.47534293, -2.3649898, -2.7511857, -8.976835, -8.097077, -2.1585367, -5.97192, -4.269076, 3.036197, -0.03108042, 1.5314344, 1.1794918, 1.2270423, -0.758959, -1.7184193, 4.7020974}, {3.0881817, -4.298625, -0.5949739, -0.5679693, -1.1397675, 1.0024666, -8.128784, 0.44461396, -0.18831275, 2.1270287, 1.9681778, 1.2653443, 4.051242, -4.4691796, 1.6673012, -12.51948, -8.638692, -11.414985, 5.127049, -4.7771516, -7.4627376, -4.6866302, 0.1795722, 2.8394144, -1.4494994, 6.2596426, -6.0043826, -2.0850763, 1.2597595, 5.746556, 2.5890782, 0.11914457}, {0.39247674, 2.7878368, 2.3691993, 2.3847685, 2.1829796, -2.499783, -2.1514719, -0.9598502, 3.3480046, -5.2498727, -1.3956397, 3.7794027, 1.9323059, 0.042331055, 5.569883, 2.3958912, -6.569992, 0.5888549, -3.3103905, 4.4451823, -6.545146, -0.94800115, 4.285602, -3.525489, 3.8819487, 2.0130537, 8.743704, -0.30082247, 4.922909, 1.4987477, -0.51884687, 2.72985}, {-3.1779442, 3.919474, -8.994324, 2.9573689, -0.20065908, 1.4633914, -0.45299911, 0.28014985, -0.15389764, 4.220986, -8.599592, 6.7392573, 6.1208706, -0.9490882, 3.0939195, -8.029824, 6.739034, -5.263139, 0.9396453, 4.4368215, 4.6507816, 0.27573788, 1.3505512, -6.3544507, -1.9627929, 2.163921, 9.248609, -6.7692604, 2.6918454, 4.475039, -0.2851131, -1.9814659}, {-2.7578576, -1.8766375, 2.0422518, 6.9729824, 3.5154529, -0.5644466, -5.324085, -0.22848801, 1.3135837, 5.0953317, 2.0434027, 3.052504, 1.0716655, 0.28659394, 6.4805484, 3.4797761, -6.614546, 0.48927677, 6.376946, 0.763162, 5.4897056, -5.8092203, 7.9801655, -0.20577621, 5.389664, 0.042992838, 4.621236, -7.3327904, 6.2286477, 2.5608268, 4.0708604, 0.403219}, {-1.4703503, -0.64000493, -3.4738317, -1.5033381, 3.3164945, 5.5323067, 1.9749324, -16.309252, -2.5755858, 5.3974953, -5.348745, -2.1236844, 8.357733, 1.7109311, -1.2687991, -4.718658, 3.3149402, -9.401597, 0.88118225, 1.7677314, -4.7312512, -9.3611355, -1.1872498, 5.3549623, -2.4667163, 4.069127, 8.740975, 1.1891897, 4.5543437, -5.7373986, -3.1798916, -4.1139026}, {9.904775, -3.9447298, -4.405298, -4.675688, -5.030407, -10.753664, -8.579638, -4.909916, 2.1798522, 2.9266467, -3.8659744, 1.5052934, 3.52682, 5.2588983, 0.87266076, -4.88349, -0.10408061, 2.3810885, 6.0040507, 5.480837, -1.9006469, -0.5377213, 4.172404, -11.371748, 3.032196, 4.2908134, 3.5871282, -16.72973, 0.6675238, -1.8314619, -5.2618027, -3.0875275}, {-9.849285, -0.084758766, -8.245098, 3.8904831, 4.601901, -4.3293867, -2.657681, 0.4705058, 1.1457667, 5.2098026, -3.2938178, -3.6366942, 1.741167, -5.937058, 3.1025064, -3.6718817, 4.363422, -0.04426934, 0.4180459, -7.5778666, -3.9732614, -10.75569, -4.8643236, -5.953936, -1.8348448, 0.7673387, -2.456409, -9.6402645, -4.6501555, -13.059784, -1.924584, -16.69857}, {9.246774, 2.2380562, -4.62998, -6.024793, 6.8913093, -2.7330616, -6.095618, 3.6963203, 2.926648, -7.4233146, -3.9265137, -7.218362, 4.736661, -2.239004, 5.8436136, 2.2758417, 3.2443373, -2.1265147, 0.8855158, -0.6243571, -0.8941644, -2.1490726, -4.439329, -11.941923, -6.775786, 4.0565715, 6.2376184, -3.3360186, -4.763097, 5.020361, -9.736063, -3.2274086}, {-1.800394, -3.596429, 1.4187672, 3.2278454, 4.580932, 4.7833858, -1.7481006, -1.3800373, 1.3523957, -6.076021, -6.3862677, 2.6793313, -3.3518894, -4.6556726, 1.2824355, -2.5223587, -4.550733, -5.346302, 4.2269607, 5.8818765, -3.8736095, 11.636316, 6.1734233, 5.416552, 4.75279, -2.1870604, 2.3910546, 2.9382448, -3.0653422, 5.064243, 4.587113, -10.929975}, {4.1025243, -4.0906553, 4.171917, -3.4283826, 4.814354, 2.2872114, -7.93386, 1.6505395, 2.2070663, 5.4889793, -10.339732, -1.7810723, -0.15580949, 5.643148, 2.082631, 0.17537414, -2.2878013, -5.8270454, -14.686821, -2.2550793, -1.6219614, -4.229674, 3.6879177, 0.49439505, -7.6180696, 2.6685238, -3.848103, 1.6155323, 2.4361055, -0.45855024, 0.58886397, -1.023099}, {-1.2464594, 5.3581758, -6.5735774, -0.2290713, 4.9170475, 3.735483, -1.5736598, -4.6188903, 0.5918771, 1.5144641, 7.744248, 1.323766, -1.6969965, 2.5942807, -0.27417028, 3.1593826, 5.238862, -4.705905, 2.2093024, 2.7679827, 7.1126404, -8.522187, -4.055738, 2.1455197, -1.9774487, 3.4372454, 6.6966667, -0.78335106, 3.1455941, -0.48954242, 2.428726, -4.6286674}, {-2.0667217, 8.816774, -2.801967, 6.1090584, 2.494086, -4.3050823, -3.8318346, 4.1164126, -0.69644165, 4.7201843, 3.274446, 0.6121926, -2.1901472, -0.26090974, 0.05858851, 4.9802446, 7.6862283, 3.7650626, 4.244438, 2.2208712, 0.609983, -0.7305288, 0.8990918, -0.86194277, -0.4233264, 7.7092023, 8.204829, -7.1849265, 2.6552818, -0.27327618, 3.8210983, -4.4909635}, {-4.888348, 0.5926352, 4.738088, 3.2034497, 2.209538, -3.1566017, 0.5677336, -2.8334599, -0.61945283, 1.785736, -0.31695604, -0.54947793, 5.4697895, -12.075968, -1.0009376, -1.5564102, 1.3661368, -6.793787, 1.8236144, -9.283449, -0.124865584, -6.662604, 5.2345223, 1.989653, 2.1619184, -0.57701206, 2.141627, -1.2250164, -0.5300819, 0.29497328, 4.048199, -2.1868093}, {-2.303944, -0.078811586, -5.9424577, -4.3690467, -1.3796729, -1.3041571, -10.290199, 1.0765508, -0.91148055, 0.22159785, 0.3482764, -1.9621632, -1.4512055, -5.3356295, 2.561562, -5.6809926, -1.9565461, 1.8080293, 4.249172, -0.5064366, 1.5419962, -4.808876, -3.9299402, -1.9738759, 5.4451146, 9.952491, 2.072358, 5.7624526, 3.0092735, 2.1618357, -2.2285695, -1.261908}, {2.9956226, -4.1892166, 2.7212088, 3.875592, 3.7864878, -0.9058298, 1.2769245, 2.6584177, -0.49578238, 3.2559533, 3.3953547, -0.025323728, -1.835903, -0.31705132, 2.4104607, 1.9580184, 1.3863901, -0.30638376, 1.0107036, 2.9591174, -2.5929792, 0.8323639, 0.8382485, 0.23597078, -0.961475, -0.39147317, 3.222166, -3.105253, 1.366211, 0.9566393, 7.280854, -5.220811}, {7.8835263, -2.1987064, -8.194278, -1.6199684, -2.566262, -4.736054, -2.9155006, -7.225193, -0.20067856, -1.2843356, -2.6730378, -4.9834504, -0.33312857, -0.06651596, 3.5450833, -3.0201302, -2.0650346, -1.4789586, 4.042279, -0.8441364, 0.496357, -3.5195694, 3.0429976, 3.9759164, 5.901685, 3.3690226, 0.5318682, 0.30513176, -1.1695539, 1.9674227, 0.49330437, 6.7512403}, {1.9310226, -0.28253493, -3.523855, 5.1339216, 0.22797015, -0.19546801, 2.4573793, 2.569642, -0.67229265, -4.5949216, -8.610227, 0.15523893, -0.3308252, -6.1690254, -1.2835071, 0.15484281, 3.2256465, -2.060606, 5.2390804, 0.45713735, -1.4604111, -1.3067904, 0.005691802, -0.27534214, 1.224652, 0.40413815, 2.3770573, -0.33762863, 2.1183596, -2.6267803, 7.4893384, 2.2332108}, {-4.6877384, -2.9129658, -7.9214997, -1.6782612, -1.7530063, 4.0274673, -0.8682628, -5.0023336, -3.148015, 10.433979, -3.5291464, -2.4570537, -1.6137524, 2.1435678, 0.5462078, 0.4037625, -4.285542, -3.840473, -2.1927836, 0.7038405, 1.2138904, -4.774316, -3.2439606, 0.92172694, 1.5088521, 1.4505365, -1.7207776, -4.6107388, 9.280142, -1.89592, -7.647708, 0.37632045}, {-2.1331866, -9.039892, -2.2530015, 6.440236, 3.4803405, 0.95039916, -0.76382107, 3.0831344, 0.56715053, -2.519774, 0.59678066, 0.869275, -2.001683, -3.503257, 2.6411808, -0.21719684, -1.8398798, -6.163251, -0.14160125, 3.1522253, 0.19638023, -1.9493537, -0.5172984, -0.065912925, -1.5478286, -7.3536305, -11.919559, -1.6528296, 4.885275, 1.6040281, -7.4831653, -3.73426}, {-2.1169794, 1.0427357, -1.792043, -0.2884227, 2.846851, -0.86328393, -8.223129, 1.2170187, 0.9643748, 3.3985965, 5.5915785, 3.0889306, -3.318295, -4.723439, 4.5158796, -0.46973154, -1.0307341, -3.7049847, -2.6526875, -2.7605546, -0.08472283, -7.997267, -0.39657167, -0.13160622, 1.0731738, -6.3681183, -4.578504, 2.222494, -0.911298, 0.5447305, 3.5276175, -5.973434}, {0.9778686, 4.729342, 1.4827063, 2.5343225, 8.027209, 1.5142536, -2.2960567, 1.7509968, -1.5931046, 0.0060022054, 5.1846094, -0.5311863, -2.5967278, -1.4884437, -7.2652974, 2.0188568, 4.842541, -4.4404035, -1.6624861, 1.3905069, -1.3005192, 2.7629302, -1.2956822, -3.421625, 4.7509494, -0.6081362, 2.9787338, -7.044939, 1.5476106, -5.2722507, 4.8244624, 0.5796117}, {-3.677382, -2.3266315, 0.21188383, -5.8122187, -5.5597267, -2.7555168, -6.844154, -1.9324147, -1.6550416, -2.7287307, -7.0023975, 0.33719143, 1.0864629, -2.5612094, -5.4471884, -4.4863725, -3.002533, -2.2537572, 1.7170352, 3.462113, 2.0603962, -1.0501587, 0.56939167, 1.3396541, 3.1239903, 1.2468803, 1.286921, -4.466078, -1.9772146, 0.11414869, -6.3561864, -3.9588187}, {8.0475235, 6.505249, -6.268994, 12.331125, 0.7316663, -5.7310295, -0.71591777, 0.52667207, 1.9243836, -1.2790744, 4.4047065, -1.3324213, 2.5450468, -0.15029918, -0.8678874, -3.9126232, 4.283829, 5.7340603, 1.2493753, -0.3125774, 5.440657, -0.6986661, 0.33547553, -2.6377492, 6.2901607, -2.082387, 0.72969866, -1.4241723, -0.55987877, -1.952926, -0.62110156, 1.2251768}, {-9.194407, -10.173549, 3.549492, 1.616547, 0.62206143, -1.6044414, -5.603525, -3.987542, 1.5965958, 1.9321334, -4.6850653, -0.67512494, 0.24556457, 3.3381655, 3.3001583, 0.14212851, 2.2223086, -3.6262965, -4.0643444, 3.0345597, 1.9197489, 0.17320164, -11.311441, -0.29719895, 1.2950046, -2.991786, 2.3225746, -0.0023535823, 4.9118304, -2.147761, -3.7119758, -6.9657073}, {4.916811, 1.5127797, -0.65531164, -0.6945515, -0.72109586, -0.8847193, -6.157222, -3.3958461, -0.023421573, 2.4025116, 0.8941547, 1.4339089, -9.373209, -0.117787115, -2.3542266, -3.5636327, -5.0760226, -5.077287, 4.5165052, 1.2407395, -1.4254763, -0.058997005, -3.4744327, 0.87255824, -5.7907047, 0.8601438, -6.650953, -0.5088641, 2.9486527, -0.29053265, 0.16206832, -6.037871}, {0.8769115, 3.5480018, -5.0003834, 0.9284624, -0.69025755, 0.19265558, 1.0103042, -2.4274993, 1.661754, -2.7479427, -15.220606, 1.7507628, -1.441716, -2.832785, 1.8720047, -3.1550105, -6.0924006, -1.7415887, -1.4350207, -2.1548214, -5.233179, -4.305754, 1.1665486, 1.3684651, -4.2836566, -7.4193935, 1.4730943, -0.520558, -2.0058672, -0.60180587, -0.28892195, 2.0729055}, {1.6055412, -1.1478171, -6.0483246, 2.3625197, -0.6690124, -2.1491787, -2.9915228, -2.1296754, -0.9408722, -1.1002655, -3.4365444, 2.875278, -1.8723754, -3.1115937, 0.6230774, -0.6022643, -0.5564529, 3.1140525, 4.4351454, -2.8355377, -1.3687526, -4.3524036, -3.2408133, -0.9049385, -2.8227193, -1.3000147, 1.9277564, -1.8292786, -0.26269972, 1.5350962, 3.7518816, 3.4980612}, {3.2727978, 4.4953065, -1.8009049, -7.140921, -11.564585, -5.575242, 0.22776598, -11.408381, 3.7175171, 0.76927996, 2.4270155, -5.4384475, -2.7716255, -3.5872915, -0.24188492, 0.33643487, 2.0460446, -0.38505468, 0.4105249, -1.8960305, -0.5700669, -2.673455, -3.855985, -1.9193172, 6.4852886, -0.9711071, -6.204183, -1.023872, -8.086448, -2.0890388, -1.7053818, -5.754628}, {-6.1125546, -1.8845195, -5.97864, -1.9921756, -0.122269094, -0.8955531, -11.378052, -2.6159687, 2.7125676, -5.075962, -12.917348, 3.751502, -3.5081925, 0.09260257, -0.07010896, 0.70072514, -2.8155613, -3.2823343, 0.5576573, 0.19192591, -1.4791518, -13.743687, -2.514241, 1.6769074, 3.639549, -4.459384, -3.6812496, -3.3210776, -5.7120824, 3.024237, -8.379012, -2.2956724}, {-2.9591024, -0.028630575, 1.234459, 0.7366321, 0.0684617, -3.5820105, -1.8558114, -1.5937197, 2.3868468, -1.7583594, 3.7460816, -0.662577, -3.799372, -1.6228701, 0.28175205, -3.9584336, 1.2076617, -7.865476, 0.6107045, 0.24969658, -3.6207607, -5.346567, -1.530945, 0.08209026, 2.8604074, -5.2689295, 0.93954766, 1.900116, -2.9695172, -2.2702305, -0.27083144, -5.8218675}, {-1.3730491, 0.8514927, 1.1195282, -10.680054, 0.10104189, -9.136607, -0.24262945, -0.8427172, 3.8173363, -0.1660446, -5.8483543, 1.1045862, -8.239359, -2.1645417, 3.4790053, -1.0373722, -5.7929673, -2.785346, 0.2795691, -2.1064837, -5.6420345, -4.2117624, 0.6413702, 3.4641933, -4.203374, -3.3054767, -3.724409, 1.4139982, -13.676472, -6.1681323, -7.272392, -3.19326}, {-4.8124557, 5.7812104, -3.6176736, 4.077925, 1.1720527, -1.1240731, -3.2917917, -1.0214124, -0.75863916, 0.5831932, 4.2169642, -0.2534594, -3.1832442, -2.9824374, -1.2108878, -4.7989388, 1.4563792, -1.1485494, 0.2012353, 1.7771089, 2.8080673, -3.478904, -8.485364, -0.9917769, 0.9418374, -1.7581468, -0.8244669, -0.1447275, -3.087976, -5.771303, -3.1733453, -2.1409767}, {-2.442462, -4.0003505, -14.35112, 4.1810985, -0.67037684, 1.202709, -1.684639, -9.40421, 2.3475435, 3.072729, -4.506939, 1.1259559, -4.121508, -5.321644, -9.9587, -1.461639, -2.2068012, 4.7306724, -2.906825, 3.2650208, -1.8691269, 1.3697402, 1.1601511, 2.1422927, -1.6625205, -0.4652471, -10.094361, -2.8124726, -0.22447, -0.8567354, 1.1552732, -0.6661611}, {-2.7555232, -3.366285, -5.261776, 10.742469, 1.637427, -4.1296606, -5.444873, -0.545752, 0.51072705, -5.8595243, -1.6750228, -2.2568486, 0.31038105, -4.2316384, 1.4496361, 0.35853484, -4.003281, -3.683702, -2.0942104, -2.5356123, -3.0390177, -1.284217, 2.9360619, -3.3732045, -2.962367, 9.726166, -5.9043884, 4.0062017, 1.8187143, 7.236797, 0.15779524, 6.8732824}, {-3.0236747, 1.1832509, -2.6816366, -1.4223822, -2.6187115, -2.5743082, -1.3931581, -1.8901408, -8.211015, 2.621076, -4.644973, 1.994237, -1.8951379, 0.8563961, -2.5412488, -1.6326643, 2.478651, -3.7412994, -11.136396, -1.3110037, -0.3167713, -8.701751, -8.483852, -3.864117, -3.1349072, -2.812674, 0.601737, -3.829858, -0.07578791, -7.400008, -9.054615, -7.482849}, {2.7930079, 4.031515, -2.0395827, 0.40417907, 1.6764133, -3.3528585, -1.9241304, 1.6143212, 0.27121994, -0.042448565, -0.40599686, 3.8288941, 1.1414353, -0.5354772, -1.9538797, 1.8648081, 0.31159025, 0.48108616, 0.4058056, -1.538836, -0.23822781, 1.3755368, 1.6588322, -0.3075404, -1.1604263, -5.8179736, 4.13641, -1.674672, -2.2076313, 0.34756875, -1.3671321, -3.3675854}, {-1.6573877, -2.2951565, -6.9035225, -2.5546436, 3.441855, -3.3773656, -4.977382, 0.23431553, -3.497727, -4.214216, -3.4279032, 3.483451, 0.9520998, 1.829679, -0.42477933, -1.4666437, -0.54148954, -0.20764893, -2.6465328, -4.3916273, -10.493431, -2.0983346, 7.030485, 0.9383409, 5.641915, -1.6716417, -2.773486, 0.5822251, -3.295107, -2.9608061, -1.437308, -0.02338965}, {2.2216165, 9.90984, -3.1529164, 11.801979, 5.0010543, 2.5912151, -7.535223, 4.3777876, 4.581136, 1.9663851, -2.9831815, -2.1606226, 1.286743, 3.463033, -0.96605986, -0.57798064, 2.2128735, -4.60906, 3.1507268, -3.7425048, 0.9663585, -3.2527776, -5.48605, -1.786447, 2.3884454, 0.92790323, -10.63652, -2.5379627, -5.491601, -3.505872, -8.559948, 2.5727355}, {-3.6218653, 4.48769, -1.4136276, 6.5081143, -2.9918056, -7.9843535, -8.755464, -6.321065, 4.940478, -1.6704959, -6.283416, 0.2766439, -0.025367191, 2.0943513, 4.5003114, -0.06786133, -6.437341, -2.0277855, 3.1910768, 5.1437135, -12.351348, -5.238645, -6.160181, 3.190776, -12.715699, -5.302886, -7.6591754, -0.6829215, -5.471398, -0.9281062, -10.203872, -1.555423}, {-1.3998513, 6.766261, 0.3855143, -0.23621972, 1.3646529, -0.5754162, 4.981188, 0.8992481, 1.170605, -3.218982, 4.6014514, -1.474511, 5.03729, 2.1918008, -3.2869773, 0.50856036, -2.943193, 2.1370106, 0.9477944, 1.0137204, 3.5937064, -0.938152, 0.80448526, 0.3979519, -1.957278, 3.6622686, -2.888592, -1.3206793, 9.133031, -0.21015136, -0.07197874, -4.6088943}, {-1.2152696, -3.3573635, 3.9852169, -2.4690425, 0.39872205, -0.45507002, -0.3209977, -1.3653954, -2.2528887, 4.8021297, -1.230564, -1.7966762, -1.7022085, 1.238399, 0.79028654, -4.5978613, -2.4829302, -1.9795498, -0.4082021, -4.3345013, 2.5891979, -2.7741218, -3.1192102, -0.5983319, -0.1386876, -0.21181053, 0.06729485, -0.2246375, 4.122723, -4.4929485, -0.6910132, 0.9682047}, {1.177763, 3.2709026, -5.0402184, 3.3442943, -1.185656, 0.2548453, 0.032993723, 4.3921385, -0.6689282, -3.7398286, 7.0950828, 2.5022907, 1.5932257, -0.19981052, 1.005463, -2.4299438, 1.0183032, 1.4218336, 4.9158077, -3.2872026, 0.6489923, 0.086187184, 2.5513885, 2.0509522, 1.1933649, -0.72457385, 2.1535406, -0.1195737, 0.6079988, 2.6941657, 7.637687, 5.976669}, {0.6326369, 3.8950126, -0.198598, -0.6413519, -8.199112, -2.1002402, -0.45528102, -3.5211587, -5.861067, 2.4653432, 5.2095103, -11.551859, -6.953674, 1.673383, -3.2081702, -6.9024425, -2.3958204, -1.5749791, -13.074702, -4.923366, -8.514016, -0.8044146, 0.8571133, -7.3821807, 6.9401846, -1.3245656, 3.296732, -7.485408, -6.9414573, 0.4943149, -2.4597673, 4.522173}, {-2.7270877, -0.5485402, -4.4180727, -4.295671, -12.39281, -1.0528829, -5.9819307, -1.1733097, -6.399376, -1.2785119, 0.7926424, 4.9190683, -1.8722188, -3.4890835, -3.6186855, 2.550914, -9.901602, -1.054676, 6.982609, -0.72627425, -7.1322317, 0.6895598, 1.8427974, -7.530233, -0.6377146, -5.8279, 6.1845584, 4.684645, 2.4466934, 5.7670493, -2.920356, -2.8051515}, {-4.135511, 1.4937053, 0.38958672, -0.13099526, 2.183291, -3.0606701, 0.22952817, -0.23922509, -0.15348585, -2.6032965, -3.0790803, 2.0540996, 1.2898026, -6.5034866, -0.5356278, 1.1110942, -0.38575643, -6.836118, -2.2496974, 0.2973711, -0.89032906, 0.18184556, 3.8464446, -3.4898508, 6.222636, -1.5879141, 1.8461232, -1.0866295, -5.3713293, -1.6151643, -3.0057707, -1.3709437}, {4.6557145, 5.314075, -1.2475349, 3.6000292, -3.3651028, 0.7271911, -4.1218433, -2.4466746, -1.3544105, -2.4121454, 6.1868806, -0.362315, -4.986119, -0.24722046, -5.9965672, -8.043079, 3.2821195, -4.204664, -5.4421945, -1.9549208, -1.217138, -9.111499, -0.38185677, -3.09713, -11.627049, -8.89909, -9.24381, -2.8341, -0.003202187, -14.583305, 1.0549766, -3.823412}, {-3.6902757, 1.8541741, -2.6531997, 5.176751, 1.3789018, 0.5940728, -1.7291552, 2.006062, -3.9672008, 1.73242, 0.96788806, 0.21193269, 0.10919755, -4.768444, 1.2020848, -1.7832963, 0.85441756, -2.3507261, 3.1907535, 1.1500932, -1.2113998, -2.1361349, -0.10071225, -0.17990765, -1.7193831, 4.951539, 1.222105, -0.048173573, -4.710113, -0.7497912, -1.3343265, -14.393708}, {-0.1640358, 2.8669097, 7.0698733, 0.73280454, -9.7223015, -1.2285036, -0.15907675, 2.4425395, -2.8019464, 11.214816, -4.251073, -0.34119958, -11.5897045, -4.0670414, 1.0279487, 5.3974566, -1.7411382, 7.6869493, -2.527093, -0.2891912, -2.7550519, -1.6758883, 3.3842764, 6.0067625, 10.135005, -3.7929306, -1.3351753, 1.8362811, 7.323082, -9.468315, -3.3257415, 0.6116706}, {-6.2686567, 0.87770385, -7.35304, 0.82761705, -7.8412066, -9.243596, -6.973973, -0.74622375, -3.4374533, -1.672416, -0.26496476, -3.9077723, -5.023447, -0.9570311, 0.6837852, -12.633168, -6.38265, -18.102154, 0.84811425, -5.541977, -8.499108, -0.6551569, -1.8010411, -7.49955, -2.2522893, -1.8632567, -6.4132576, -14.683584, 0.5876031, -10.226637, -5.659859, -6.1551204}, {0.73430216, -2.7136815, 0.79850453, -8.7383585, 2.2396672, 0.37026212, -0.006443539, 3.780535, 2.0125854, 7.2773776, -2.263691, -0.080562495, -1.9945856, -0.18804768, 5.559416, -3.8706965, 2.3079548, -3.0097, 7.79336, 1.0988667, -2.5227954, -1.9233695, 1.8604896, 3.823658, -0.23615384, -0.212843, -0.6186923, 2.154015, -5.9191184, 0.33774102, 0.027212497, 2.7107933}, {-8.819592, -6.4782534, -7.30824, 10.107231, -0.07628187, -0.14012705, -14.342096, -6.72354, -4.144549, 1.2187153, -2.352762, 1.2494856, -8.320453, 0.6022742, -2.629533, -10.023223, 3.0365963, 6.0814724, -1.8552263, 1.1958823, -2.0279098, -6.9444575, -0.044915482, 0.6198045, -0.8032618, -3.0958962, -11.680314, -5.469192, 6.997523, -8.111964, -2.897776, 1.6232382}, {-4.1717706, 10.12542, -2.9236462, 7.879013, 6.311845, -3.460257, 0.9038828, -3.7788913, 1.2263176, -4.547892, -3.8835218, -5.836957, -0.59326565, -7.154757, -1.8592899, 5.9619656, 4.243771, 2.1125607, 3.2361128, 3.1185827, -6.031081, -1.3708396, -5.2667336, -7.088042, -2.1430068, -0.2691417, -0.81649333, 2.7819395, -3.1428885, -0.06718117, -3.4655578, 2.5693016}, {0.028069075, -9.489695, -1.934561, -0.34189165, -7.2192826, 1.809829, -4.1615925, -2.9330342, 7.9798813, 5.109237, 1.8204372, 3.5984032, 8.730651, -1.8666016, 0.99079156, -8.375753, 1.2190931, 5.5094438, -1.2142533, 1.0258489, -3.871025, 4.611734, 2.0414946, -15.929807, -3.498216, -1.9390774, 2.259678, -1.1342503, 9.188998, 6.0400586, 1.922116, 7.8998013}, {-5.39915, -5.743119, 0.86107796, -7.104505, 1.5155119, 4.3810015, -11.036603, 1.3321439, -2.1857667, -2.1267505, -2.1562042, 7.720848, -8.516263, -3.9018056, 2.2112467, -3.90548, 4.163461, -6.377904, 1.3308437, -1.4218757, 2.1591969, -1.7068143, 1.6656175, 1.6843884, -2.4213142, -3.2784767, -6.56398, -0.0467748, 3.9390023, 0.62014997, -7.455412, -6.8573933}, {-5.6514654, -7.970434, -5.467079, -6.9324884, -12.698969, 4.452539, -2.8569098, -4.0862966, 7.5138273, 10.534058, -5.340426, 4.082383, 2.4723778, -2.5114508, 7.071582, -6.0521355, -6.667048, 2.6978045, 3.6062984, -1.9569885, -2.9313574, 2.6821017, 10.002037, -10.824891, -6.5282784, 3.107601, -6.7866178, -8.804757, 1.3100767, 1.4030771, -8.39032, -2.1624181}, {-2.7270215, 3.1641207, -3.5546591, 4.634618, 1.2400455, -3.4394145, 1.7343963, -3.0562346, 3.2650743, -3.4581137, -0.26769248, -8.323064, 2.799924, -5.9402137, 0.7316301, 3.1232686, 0.83669746, -1.1323131, 2.617567, 0.3268474, -0.81691504, -3.221556, 0.7734047, 4.96322, 4.8632517, 0.25191733, -8.463479, -4.3306317, 1.9775507, -1.8175007, -3.9163837, 0.6044436}, {-4.0718727, 6.4981437, 3.983063, -0.057253983, -7.052437, -4.465616, -0.97141784, -1.2642303, 1.3848076, 5.4276314, 3.0478077, 2.6114373, 5.733801, -0.68038684, 3.5104196, 2.4217596, -0.66954136, 5.430611, 2.2367578, 5.3305507, 4.444043, 1.9402606, -1.2851957, 4.667466, 0.51949066, -2.9260352, 3.6563413, -1.0251367, -4.3203096, 1.4671214, 0.9570416, -0.75170743}, {-3.5238385, -1.5432779, 2.647054, -0.60317063, 11.196603, 2.568519, -3.5543673, -6.4605036, -0.85111266, 5.716114, 3.7399774, 1.8460044, -4.766624, 1.6064688, -2.5260098, -2.3054993, 3.1911552, 2.17321, -3.6273658, -2.2241628, 4.921778, 0.53892344, -1.1180294, 0.71576947, -2.2890372, 4.523157, 4.6549416, 1.0096197, 4.306266, -8.701356, 3.2997067, -8.58678}, {5.0763054, 6.117816, -3.5698032, 5.8298025, -6.717578, 1.0638381, 4.7145157, 1.152332, 0.2541784, -5.695494, 8.184222, 5.601255, 3.2515035, 1.7500467, 4.951998, -5.34713, 0.7631904, -2.4100971, 4.7802167, 1.2425436, -0.9079422, 1.3999617, 2.3081887, -11.2345295, -5.843829, -2.7401202, 6.3809304, -6.633236, 7.38476, 7.338069, 7.0735097, -4.8760185}, {3.4038298, -3.961566, 1.5374303, -2.2730687, 2.1906056, -3.0139337, -4.8073473, 2.1502135, 1.441869, 6.621555, -1.203841, 0.58088726, 1.1627693, 5.213793, -1.8521161, -6.030334, -2.4352334, -2.9031482, -3.4116585, 4.5542445, -3.04543, -2.9386177, 0.92461604, -9.25053, 4.2887163, 6.4476075, 4.062393, 3.4140632, -1.4939128, -2.7004247, 1.1649833, -0.61681813}, {0.94900286, 6.431459, -0.7596396, 0.008342754, 4.626033, -7.9500275, 3.178339, -4.4359803, -1.589404, -0.33212635, 8.236945, 2.126753, -2.5248082, -1.3263911, 0.010071054, 0.59576017, -7.305884, 1.4410846, -1.6344391, 1.3815353, -3.4964771, -1.0472305, -0.5482681, 0.4957799, -10.939518, -10.779512, 2.2361715, -1.7589761, -5.05256, -5.988009, 7.7244043, -2.801503}, {1.0484568, 5.561107, -14.318194, -0.56383866, -6.6101556, -4.4186726, 1.7043525, 9.233618, -1.7829163, 0.68688, 6.297243, 0.6904679, -6.527392, -3.5786283, 2.740651, -12.921053, -8.05498, -6.168674, 1.2611443, 2.6507568, -8.191993, 2.024457, -7.659133, -5.6701765, 15.034429, 7.113601, 0.46752092, 0.1397058, 0.6350806, 9.6641865, -8.50489, 6.0037155}, {2.6377501, -0.09201068, 3.9378076, 1.8952146, 11.498983, -1.9369868, -0.17967427, -11.094759, 3.6337993, 0.85408896, 6.748949, 9.012745, -6.101069, 10.968039, 4.2275615, -11.00559, 5.550632, -6.5958133, -0.114131674, 2.3540301, -3.7293248, 4.4793816, 9.185811, -3.3559985, -1.4096586, -2.7281768, 5.133174, -6.044887, 4.813565, -7.784991, 1.0419126, -3.7510214}, {6.024313, -1.0079587, -10.613931, 2.429646, -1.3335868, -8.603504, -1.9947721, -4.4684677, 4.8041124, 0.030781562, 4.1287165, 5.488949, -6.954419, 6.6347785, 4.004633, -8.66713, -3.239448, -3.1054792, -2.3004167, 0.8361405, -6.026748, -3.5697715, 5.6866245, -8.354258, 7.119413, 2.7228377, 1.8501862, -1.571506, -3.1004484, 4.7470455, 5.78042, -0.32102418}, {4.4076285, -1.3904253, 3.7005906, 0.4607837, -9.469101, 0.70560646, -8.880209, 3.9392376, -11.012835, 2.1952906, 7.7631, 4.711807, 3.7762437, -2.0259898, -3.852558, 6.190322, 6.9800286, 1.5834943, -5.4981003, 5.7839003, 1.9850868, -2.2752457, -1.9114265, -0.15911411, 2.4957397, 1.2065492, 5.274965, -3.8195152, 5.4485407, 2.4485095, 9.191404, -0.8868256}, {-3.2506137, -3.9893508, 0.2288849, -0.9419114, 0.44589445, -3.659865, 0.15267254, -6.2348146, -1.4701118, -1.2461532, 3.6827486, 2.7086701, -3.0647423, -11.331535, 0.33324218, -9.278053, -1.8011187, -2.8244808, 1.3953573, -3.436894, -1.2466209, -0.3730506, -2.0337942, -1.0807115, -2.649969, -7.325406, 5.1376038, -1.2888522, 0.33779278, -1.4205134, 3.622806, -6.4991045}, {-1.9768512, 3.0789464, -7.8892, 8.994828, 2.9493597, 2.6074815, 2.9470246, 3.0576406, 1.6154579, -8.851059, -3.9098117, 4.1009355, 6.053594, 4.28538, -0.82475764, -2.3939633, 0.6130017, 1.9870518, 0.07872571, -1.4973545, -3.9055347, 5.79935, 0.402779, -5.7041507, -1.5114981, 3.265381, 6.6665306, 0.25200635, 4.1838384, -1.5461648, 0.8422882, 4.2004595}, {-9.616302, 1.3043724, -7.376552, 5.803262, -4.19918, -0.08477059, -2.7484856, 2.213244, -3.6239138, -5.982222, 1.0198878, 0.25627634, 2.4069655, -0.86955017, 3.9528234, -5.4078507, 3.901933, -9.517503, -7.2312627, 2.5088227, -7.1216984, -1.2917887, -1.5246229, -0.7653416, -9.481633, -0.8693336, -6.3308883, -3.586448, 10.510877, 4.886099, 9.78978, 0.81983274}, {5.8876233, -6.3160586, -1.0993801, 0.6876162, 0.40078652, -4.4881864, -12.766813, -3.0611188, 0.4806403, 1.6654855, 1.7544396, 0.9297515, 3.4300654, 0.7984221, 5.7305355, -2.8493624, -0.34641933, 0.9654215, -5.2777905, 0.606745, 1.7937346, 0.34221837, -7.5295777, -5.125354, 1.6397705, 3.5611238, -13.690663, -4.523435, 5.939509, -1.6648719, -2.5277107, 2.351027}, {-4.4185686, 7.762424, -3.6956775, -3.7369688, 8.939559, -9.009103, 6.2033887, -1.6233366, -0.65814, -3.5388086, 9.697067, -4.122624, 5.197189, 1.2885456, -4.160817, -1.8127519, 0.18879832, -0.08541499, -1.4783096, 2.8003252, 0.7499221, -2.8845773, 0.8714677, -3.6739435, 3.5890808, 3.4566102, 5.885009, 2.925563, -4.4399705, -1.3953298, 4.8850975, 1.5823901}, {4.433359, 0.86017716, 2.9784174, 0.96398544, 0.57872313, 7.572985, -5.7537575, -2.1741242, -3.6977923, -2.4406018, 7.445797, 5.510071, 8.328277, 6.9537263, -5.228267, 0.5787167, -1.8958659, -2.913885, -1.1864611, 4.0916276, 6.7585187, -2.219113, 1.3668578, -4.4631963, 3.1004834, 1.7794014, 5.734437, 3.71294, 0.5930621, 1.5371261, 5.365545, -5.7556596}, {1.1549532, 2.600756, 1.7659401, 0.42515644, -1.113848, 7.0009313, -4.537756, 4.5820765, -2.4889972, -2.180836, -2.4428766, -0.93097657, 4.2559314, -3.3487797, -8.787911, -5.0201807, -1.8052081, -9.596591, -12.459566, -0.33472127, 3.0362167, 0.5917473, 1.3496898, -3.9214618, 3.6935623, 1.2418928, -4.678399, -0.72340894, 5.890678, 3.7926786, 0.7434313, 3.1679118}, {-2.115512, -3.158126, -11.808821, 7.180668, -2.591965, 1.989582, 3.41498, -7.239458, -0.65004283, 2.4389598, -4.495422, 0.1563119, 1.7949412, -0.054674175, -7.9448485, 3.3580353, -3.7949066, 2.3689806, -0.56355107, -0.75914276, -3.0576994, 0.77658015, -1.496753, -2.226941, -2.3094463, -2.2344277, 5.252021, 4.113573, -4.7852693, -13.803389, 4.2270365, -10.191462}, {-4.465516, 3.9514186, -6.9862404, 5.0737414, -4.0327053, -2.0564475, 2.836606, 1.9317706, -4.944534, 8.484974, 3.685084, -2.5394683, -0.7230339, -5.4972286, -1.9812894, 0.57458, 0.16248941, -0.5280701, 3.83876, -4.05677, -6.576734, 1.3885794, -1.6160907, -4.5553885, -0.068380006, 2.3851314, 1.3622454, -2.465413, -0.59444255, 2.0740423, 3.1232169, -0.4581389}, {-0.30860716, 6.194259, -2.382069, -5.457713, -3.498406, 0.61906195, 0.50198317, -2.131408, 3.760414, 7.783654, -2.5260582, 0.2851335, -3.308222, 4.555316, 4.402878, 3.075368, -3.2225134, -2.208804, 7.2069874, 2.547242, -0.29984325, -3.2413695, 0.3093065, 2.668617, 0.5422121, 7.414917, -3.5011811, 1.4784056, -8.408871, 3.8321362, -3.4181366, 0.9616916}, {-6.7801933, -6.2540298, -1.0675772, 2.1501834, -0.18939112, -6.3507104, -2.8593123, 1.2603618, 0.29179582, 4.898461, 4.0757546, 0.3394656, 5.284011, 0.8075119, 2.055318, 2.2164865, 1.6309097, -2.0421035, -0.024926774, 6.968441, 2.206281, 3.9951127, -3.1734865, -0.06987113, 0.30324, -2.8880944, -3.5451818, -1.8873551, 1.5567933, 0.3851645, -2.948097, -0.52892846}, {-2.2555065, 1.2334958, -2.9623818, -0.22272722, 5.635938, 3.2668903, -3.0603333, 0.6599336, -0.16256341, 0.4598062, 4.6380906, 2.2972171, -3.2958415, 0.61697906, -0.6956901, 1.2827786, -1.5440583, -9.306002, -1.9881108, 5.2458477, 1.1181787, 1.3894277, 2.2679777, -5.1248674, -4.549327, -0.45425314, 1.7295618, -0.8482439, 1.6848323, 0.20120153, 2.6166904, -2.5844386}, {-2.6640034, -6.118037, 0.5373985, -0.3997752, -2.7659473, 0.43661314, -8.6825905, -0.88037235, -5.031241, -4.415975, 2.3384602, 5.76199, -2.728121, -2.3555095, -6.413817, -1.1727344, 1.2156339, 0.6705558, 0.140634, 3.5856557, 0.98945993, -4.0893693, -3.0696816, -10.831952, -0.35746577, 6.211151, 4.375765, 2.3304338, 5.353171, -3.500408, 0.98187494, -4.0899463}, {3.0239835, 1.2100555, -2.864377, 3.9633656, 2.3350637, -0.1377165, -4.657044, -0.5295497, -4.326039, -0.5830822, -6.905844, 6.1684513, -0.4107574, -4.718165, -1.3459657, -0.96144974, 1.1774071, -1.6322016, 1.6232456, 6.123095, -3.399307, 2.6606462, 2.2779305, 0.7636727, -8.275862, 2.5548275, 2.4055068, -2.225337, -3.0786052, -2.8543608, 1.1465918, 6.2173843}, {6.457825, -10.72001, -9.576252, -9.277743, -1.9107722, 0.0006333121, -3.9525118, 8.559633, -3.5802984, 2.9796124, -2.0374343, -0.955536, -0.28290817, 7.88026, -4.08492, -4.153488, 1.7796834, 4.507026, -7.9455547, 2.0624413, -4.3458295, -9.152084, 3.015596, -11.077778, -2.5645282, -6.865596, -12.928888, -14.124298, 6.4602017, -4.7767587, -5.056413, -10.176625}, {-3.2466788, 4.4470997, 3.4512887, 3.9971962, 7.4186254, -2.837153, -4.653307, -1.6886282, -3.0972898, 0.6412262, 1.4241333, 1.5467453, -2.3521788, -0.7093519, 0.06780215, -0.23071632, -1.9036741, 1.4436018, -2.0824797, -0.12896603, 1.047549, 4.7053227, 4.9215555, -2.3830965, 3.1457584, -0.18527237, 0.03124747, -1.8489139, 3.193212, -3.414532, 2.3294244, 1.4008201}, {-2.2527194, 1.705796, -1.0410986, -5.758054, 3.6442783, -5.3447547, -1.3407336, 3.5581648, -0.6689842, 0.42158797, -1.3842965, -6.3527684, 2.6380446, -2.8652282, -3.9488988, -4.5558233, 0.9258384, -6.709081, -2.0819857, -5.7218604, -3.4930768, -0.80647206, 3.2666957, -0.18077877, 1.5237079, 0.29980364, 5.8573656, -9.358506, -3.4822073, 0.67554927, -2.9951375, -6.3931656}, {4.598249, 2.2276375, -11.0804405, 0.8773594, 0.15927109, -3.0175571, -3.722076, -2.6746707, -1.0348771, 2.2614067, 4.9472556, 5.0202184, 0.09622503, -0.22953956, 1.3228552, 1.4775931, 3.5021546, 1.6945289, -1.321063, 2.5657947, -0.76951694, -1.983865, 1.7565624, -1.8635018, 3.5401373, -0.12444831, -3.5750895, -0.26457307, -8.132408, -2.5839345, 0.92530304, 1.7895896}, {-1.2827307, 5.0744085, -5.1607122, 0.5733563, -2.1253169, 2.0976279, -6.0020294, 0.44640455, 1.4841319, 2.8217895, 3.5138848, -0.08751592, -5.8109746, 6.0772486, -6.2264686, -6.64321, 1.3776516, -4.89237, 3.6501179, 0.19933127, 3.1581256, -3.9701562, -1.4663997, -2.1254437, -3.3480196, 0.3199248, 4.4765344, -3.3939373, 4.0310564, -7.752994, 3.2464216, -0.75613415}, {-4.587531, 8.087939, 2.1248574, 0.39775434, 2.8451736, -2.387287, -6.8524613, -0.9692116, 0.5487913, 1.271717, 2.5589736, -0.28215903, -1.4082047, -10.791805, -2.95096, -1.8734311, -5.956121, 2.676767, -0.5109066, 1.254843, -7.354759, -5.3401623, -0.9076943, -2.874513, -8.302945, 0.44615418, -3.3192048, 1.1978539, -8.460639, -2.8675184, 1.3345075, -2.9987326}, {0.8789562, -3.6984367, -3.7338614, 4.9854703, -1.9606361, 1.4813187, -1.6836523, -3.6895907, -0.10106603, -1.0539316, -0.55948347, -5.793021, -9.8947935, 0.10059854, 3.0577493, -2.6539366, 0.04062079, -6.2262797, 0.7441008, 3.4542153, -1.5025308, -0.49463013, -0.73949623, 1.476547, -2.2220314, -6.9541435, -2.211095, -1.886993, 3.044885, -5.115699, 3.284283, 0.22786424}, {-2.4812741, 7.110301, 4.361634, 9.785143, 6.036205, 2.245625, 1.3370516, 3.7126281, 0.30191603, -3.2620194, 0.15909237, 3.920433, 7.028864, 0.21562855, -1.1232604, 1.6762006, 2.247228, 1.6508807, 5.304445, 3.5453484, 3.567484, -6.4825277, 4.0568833, -0.063525744, 2.1487713, 3.8935645, 5.547708, -1.8665086, 0.5343451, -0.28239694, 4.052339, 0.8168163}, {-3.9130948, 0.24978031, -5.757099, -9.382772, -5.628578, -8.219359, -7.783987, -4.895865, -1.460036, -1.0238205, -0.27678046, 0.71845186, 0.56390303, -4.5807204, 1.8578078, 1.5970923, -4.9316573, -1.011167, 0.0077079386, -1.2628944, -6.080602, -8.63083, -0.34869027, -3.087429, -15.130299, -5.4887137, -0.6318592, -3.3992784, -7.5967836, -5.70257, 1.967514, 1.9352552}, {-2.6996593, 4.4617786, -6.778015, -2.7102776, 10.91205, -6.894691, -0.20056716, -0.9581491, -3.8474877, -2.6903071, 6.047436, 4.937112, -4.8699927, -8.318653, -0.02067475, 1.652065, -0.636736, -3.1072605, 2.429882, -2.6101625, 3.2746449, -2.557643, -0.25180373, 2.7762403, -0.4898268, -5.279089, 3.448246, -4.1060295, -3.602827, -11.623912, -2.1677258, -4.2222185}, {-9.831485, -4.897807, 3.7533915, -4.088796, -1.2044561, -5.9059763, -1.924867, -3.574071, -3.10546, 3.4063141, -9.018474, -5.272008, 3.0535877, -3.9066298, -1.1247637, -3.3874009, -3.991367, 1.9976174, -2.0060132, 3.3182914, -2.643037, -0.95284206, 3.5262082, -7.636219, -3.3022768, -3.4737012, -0.97298235, 2.8099473, -5.672724, -4.663961, -13.26253, -2.869792}, {-3.478154, -3.4753344, -3.328029, 0.8190985, 1.500815, -1.0864961, -4.8840566, -1.7589192, 0.27482292, 1.1261041, 1.449273, 3.2005765, -6.885156, -2.9484596, -0.9107782, 0.097239725, -0.36060756, -0.689417, 4.1555014, 1.0252994, -4.3464093, 0.16425607, -0.30539176, -3.4755166, -2.4648356, 2.7064238, -2.3782575, -0.932113, -1.4038008, -0.5994702, 3.790004, -2.262466}, {3.9828825, -0.03821116, 0.70708424, -1.8959534, 1.0421846, -4.4003634, -8.977269, -3.7648351, 0.23639724, 1.5796037, 4.2235613, 0.38414273, -2.1134303, -0.8386481, 1.9080577, -0.4775291, -3.4015534, 3.4237137, -1.2146478, 1.8205217, 0.4656313, 1.539983, 3.1562793, -2.8845494, 2.6082656, -2.9044342, -2.355784, 2.088457, -2.1685288, -3.74524, -0.17875135, -3.6857214}, {-4.078096, -2.278314, -3.3689973, 1.6659007, 0.8336688, -0.8239953, -3.610787, -3.2192156, -1.6638397, -0.28734908, -4.491458, 0.9824564, -2.7067585, -4.248357, -0.40925375, -0.054917302, -1.7600359, -7.543139, 2.041255, 2.5553932, -3.7360802, 1.0834663, 0.9835927, -3.4029317, -5.031662, -8.56529, -1.4741691, -2.3499854, -0.16240253, -3.225057, -10.342547, 2.1190603}, {-11.471323, -0.8799762, -8.130135, -3.6138015, 0.9778188, -4.16719, -4.360951, 5.613228, -0.3344546, -2.8616576, -1.3324372, -3.5061793, -5.692989, -1.2375501, 2.2627354, 1.699469, -7.048039, -1.7890024, 8.143914, -0.015644973, 1.2793946, -1.866271, -1.6621073, -5.7500253, -2.4600303, 2.5083659, 0.2204845, 2.2871814, -1.6230663, -5.204197, 3.9987323, -8.190152}, {-3.148856, -4.745313, -17.352346, 4.269756, 3.2110329, -5.044301, -2.594682, -3.405423, -3.003703, -4.506311, -1.6982384, 7.9532948, -0.55849946, -0.66504765, 3.7315152, -0.89456207, -1.5793372, -2.4432225, -5.162106, -2.3506787, -7.187371, 4.564737, 2.3507252, 0.169747, 2.8093746, -0.30133078, 0.19286908, -2.1614432, 1.1468663, -2.7085476, 6.6699266, 6.769333}, {2.5617833, 3.4943173, -2.0972812, -1.5937052, 0.017046625, -11.4006815, 3.551922, 2.138748, -2.5494308, -4.21223, -2.7391713, -2.6748838, 2.377895, -2.203116, -7.2136836, -8.563976, -13.081615, -8.134727, -1.0644009, -15.393899, -3.1444218, -0.53172994, -6.200392, -1.9375733, -4.631302, 1.5217102, -3.1254795, -6.4560475, -2.6001492, -5.5005884, -4.1742163, 3.1475697}, {5.0201707, -0.7482935, 0.7897336, 5.1807504, 5.8377595, 2.0204356, -4.42063, -2.0417235, -1.7585169, 0.41295052, 8.5704775, 2.3498924, 3.9879384, 4.354524, -4.056051, -1.896454, 4.2660766, 4.5736876, -11.846774, -0.010968488, -1.4321481, -6.2278657, -0.123451106, -2.471621, 4.0412583, 2.4346356, 2.3737168, -4.230998, -4.400071, -4.553271, 5.0916705, 1.7260866}, {3.1225336, -8.68295, 2.6167645, 2.248979, 0.010190685, 1.0082403, -1.1461238, -2.0051727, 2.6453426, 0.9534518, -0.57474643, 0.07610374, -3.0446951, -3.284226, 1.0352894, 2.7922137, -3.2988968, -5.1933928, 1.6736939, -0.6405821, -5.04746, 0.6168043, 6.020335, 1.5421938, -0.47367743, 0.3406656, -5.7643247, -4.2178574, 1.5633812, -2.5657985, 1.3546067, 0.5812484}, {-1.7450151, 1.7627261, -2.4025857, -5.691446, -3.236967, -3.573396, 3.75327, -2.2576864, 1.1195788, 1.512711, 4.73848, 2.3721855, -4.8063025, 0.049764898, -1.3576132, -2.2712462, -3.4910767, -0.36094213, 2.7878325, 2.629782, -0.6048606, 0.90865445, 3.257531, -1.5651581, -0.9123013, 2.5041227, 0.9906092, -1.3592725, -0.38269728, -1.9964652, 5.791037, -2.880064}, {-2.4751678, 1.4286772, 3.2869613, -0.8713781, -2.8129647, 1.1542501, 3.4250352, -6.6330543, 0.41484004, -1.3311635, 1.5352122, 1.6603059, -0.61617315, -1.1660862, 0.15757945, 1.3200059, -1.8608476, -2.7143166, 0.7495717, 3.5673754, -5.0705876, -3.8949862, -1.9911275, -1.7312006, 1.6067919, -3.0524545, -0.21976663, -4.6870685, 0.491927, -1.2217153, -0.9885148, -2.1057017}, {1.0066826, -0.27504182, 2.7180083, 1.0020795, 1.8653818, -0.7262422, -2.6680577, 0.116033785, -2.5954833, 0.62944895, 2.933535, 0.75294185, 3.1329837, -1.1983795, -1.727559, -0.40063047, -3.3579054, 0.38790318, 3.0171986, 0.5364221, -2.4932392, 3.4024286, 0.3179085, -1.7102857, -0.20446527, -1.2719383, -0.14251769, -3.2959385, -1.8524742, -4.43483, -0.8545853, -5.6328063}, {-7.930308, 1.440766, -1.4529504, -2.1416836, -4.7862525, 1.6886168, -8.795241, -7.105412, -5.227965, -1.1707476, 1.2213286, 1.1713631, 2.6507034, 2.8337438, 2.374764, -4.29163, -4.3339915, -8.1866255, -4.233411, 0.19172296, -2.8266218, -5.102425, -0.93956727, -1.9634622, -2.386729, -3.155032, -10.40477, -3.0357466, 3.6641266, -11.090617, -2.5186703, -0.15225507}, {0.1721859, -5.466726, -5.0987973, 1.0000982, -6.763317, -8.6724205, -3.4734585, -4.595882, 1.3586757, -5.6886806, 2.7431765, -1.6019263, -0.5359475, -0.118067086, 4.0812316, 2.1805613, -4.564906, -0.64108574, -1.4807067, -4.980545, -2.3821545, -0.1144295, 1.7490273, 1.306829, 3.322649, -3.201396, -2.7752244, -5.8190393, -2.9952364, -2.6317248, 3.9154854, -5.775292}, {-2.2685688, 10.683803, 0.68297344, -3.2515662, -2.1974132, 1.0999211, 5.5808287, -6.1958885, 6.491705, 4.928064, -1.818362, 4.5070915, 2.1901746, 7.6103463, 5.639038, 0.8156, -3.0873864, -8.467282, -0.8103613, 7.6330004, -0.8141109, 9.560925, 3.5412445, -10.160153, -7.7387776, 9.529225, 1.5974455, 2.2143018, -1.6459928, -0.23901232, -7.3084283, 3.2725224}, {0.18500352, -6.588599, -5.2843995, -1.9758747, -8.431558, -0.924108, 0.9956804, 3.2701774, -7.1651955, -1.8556519, -5.9050636, 0.69077617, -7.3901486, -1.1192693, -1.7853745, -3.0134642, -7.6623783, -6.698966, 3.0996666, -2.3417552, -6.458402, -1.6090406, -3.1433687, -5.0134635, -7.1294694, 0.6225157, 0.50197387, -4.6049004, -1.7526006, 3.6642866, -2.5927608, -3.114716}, {-1.8110162, -5.8036175, -4.286758, -8.198993, -1.0836492, -9.818625, -13.709486, -0.64864486, -0.98139215, 1.3794662, -0.006308402, 1.5279869, 3.617666, 3.0864744, -0.5728182, -3.3852172, 3.102242, 2.5317142, -2.6741364, -3.7224138, -8.424934, -2.7425568, 0.23385702, -7.041701, 1.2128122, -1.8206733, -0.516638, 4.6080112, -14.309618, -4.47282, -7.809617, -5.08507}, {-3.036573, -2.56056, -1.1383044, 0.98574615, -2.3005452, -0.46388897, -2.267643, -4.372873, 0.89946353, -1.2413409, -7.379201, 3.0379698, -0.81390077, -3.703031, 1.1499127, -0.06439507, -2.5157936, -4.7762656, -1.6747041, -0.16731058, -4.216182, -3.2838852, 2.2276084, 0.8438121, -7.845607, -1.7093413, -0.65997946, -2.5471482, -2.4390986, -4.15018, -1.2608478, 1.0360773}, {-3.0520904, -3.295488, -5.636026, 2.8961692, 2.6200373, 2.6670156, -4.6830807, 1.2337369, 5.689052, 0.041998666, -5.3071384, -1.17544, -0.85262173, -2.0436902, 3.6007297, 0.010321863, -4.2233524, -4.195802, -0.12693182, -1.396962, -0.65719837, 4.084745, 3.5051048, -1.8311912, -6.7885485, 1.217035, -2.1781547, 1.7898549, 0.25867018, -0.7085235, -5.6561093, -4.694896}, {2.874547, -2.5256672, 1.4762361, -7.6253977, 3.543707, 4.393756, 1.3535073, -4.1826124, 4.8295994, -9.151275, 3.8977177, 7.22363, -0.5750037, -4.3986535, 6.163539, 2.8231156, -1.0139146, -8.245299, -1.2507539, 0.27166462, 2.0316427, -2.1358967, 5.1115413, 3.9277995, 2.9124882, -1.2012588, -2.4920425, -2.3761003, -0.18259375, -2.0394225, 6.5065203, -2.1337998}, {0.099807546, -0.6787566, -3.867154, -3.218584, 0.93562233, -1.9592285, -4.548362, -2.570299, 0.5153279, -0.90904176, 0.3776412, 2.003788, -3.1256857, -3.4492495, 0.88639784, 0.44304207, -1.2182708, -0.90562564, -2.5780802, -2.3900764, -2.2595212, -6.029865, 0.055145558, -0.17838493, 3.9189165, -2.9690008, -3.1164892, -2.0447478, -1.1574887, -4.4956226, -4.4415536, -0.109561674}, {2.674134, 1.7532674, -2.4553916, -0.47129214, -8.33669, -12.3322, -8.79396, 2.9959838, -8.735796, 3.660811, -1.2640041, -2.8510017, -0.23255508, -5.240065, -9.896606, -3.4998899, 0.22652285, -3.3500206, -2.2444527, 0.50632834, 1.3963112, 3.2226167, 1.919762, 0.13210905, -1.0756024, -4.1808567, 2.3563206, -10.141066, 3.2791746, -10.342933, -8.783619, -8.486533}, {-12.257489, -4.0597143, -4.410997, 1.031851, -11.488588, -11.918673, 1.5771363, -2.4180927, -1.7954544, 1.3357455, 3.9523263, 11.296462, -0.8042169, -6.0844636, -3.4147418, -2.2783625, -4.3491263, -3.0425007, -5.1281953, 7.790574, -2.588948, 3.4324965, 3.9514751, -13.320185, -0.8695256, -6.643553, -4.035115, 1.8738583, -6.1569495, -6.1939116, -4.745713, -1.0991464}, {1.0281141, -1.5357498, 4.2849765, 3.398381, 3.544377, -1.5599426, 0.86607057, -7.751179, 3.5727053, 5.999179, -5.7162843, 2.995993, 1.1930543, 1.6221101, 2.6249032, 4.550062, 5.71371, -1.39343, 8.426504, -4.0839643, 0.5201276, -2.2579894, -3.6198347, -3.858846, 3.7087667, -0.7063463, -1.0168363, -7.7151146, 4.2917557, 1.1129652, -11.001249, -4.2341876}, {-3.683943, 5.8087883, -6.1683583, -10.614352, -4.580719, -4.0449257, -0.24866627, -2.2244143, -2.5895672, 2.7396204, -1.2168629, 1.6251402, 0.062212817, 2.5123346, 0.383455, -10.262663, -0.088996425, -1.7149925, 8.974849, -1.7462649, -0.35736674, -14.046712, 6.3632765, -1.7279875, 4.9091964, -7.1152215, -3.6641269, -7.228385, 2.5501747, 0.15170752, -5.173721, 1.1483983}, {-2.394445, 8.042175, -5.152515, 6.049764, 4.4797816, -9.14826, -0.7358614, -7.9597235, -2.6003926, 0.72049737, -1.9577726, 4.0242977, 4.8295107, 5.3075585, 4.2924843, -10.752735, 1.3730667, -0.45471022, 11.610504, 3.701406, -18.054646, 3.9769387, -2.1111324, -8.625263, -0.00071821315, 0.18203878, -3.755653, -6.3181114, -0.14856699, -4.9447684, -9.263058, 4.5408583}, {-5.712117, -2.7435334, -5.2932887, 6.0006094, -10.051779, -9.564698, -5.035785, -4.9209056, 7.5938916, 3.3006487, -4.5023017, 3.8637578, -2.244849, -3.0176842, 6.272068, -6.04023, -2.018893, -2.0838697, 7.9104576, 1.5751865, -11.023594, 2.6084619, 2.6805086, -8.879559, 4.130365, -3.0784454, -0.9127923, -13.624597, 1.1997218, -1.7337626, -2.090598, 3.5629327}, {4.531506, 2.630595, -3.1792223, -1.8137122, -0.7865563, -12.733181, -0.95875573, -5.0474133, 3.3281295, -0.31153187, -3.848638, 4.7100234, 6.6155167, 2.2015848, 4.122316, -7.6351676, 4.5296955, -2.4076774, 2.6070318, 4.386579, -5.1332436, 4.9004602, 6.3512244, -7.924607, -4.1034455, 5.2846165, -0.86902946, -7.5898714, 3.0461812, -5.35621, 5.700499, -1.3057964}, {-1.2597446, 1.9657876, -1.4403676, 2.6548784, -1.3265537, -4.3560367, -3.3651068, 3.516505, 1.2913021, 0.98083234, -3.6776404, 1.8229171, 1.9026734, 1.3397634, -3.6745033, -1.0016059, 2.7695296, -4.236047, 6.2646933, 2.859111, -8.850885, 1.3592398, 4.418161, -5.153332, 0.49319026, 5.5069375, -0.44898948, -2.4843493, -2.2074685, -4.3194404, 2.1066258, -5.204302}, {-6.5166125, -2.2604077, -6.7393155, 4.6290402, -2.8616774, -2.8354504, -10.255414, -4.3512797, -4.840129, 5.89573, 1.7589469, -5.1955495, 1.6539401, 0.6518516, -8.547063, -3.6526325, -0.04664044, -4.8349776, 2.8379307, -3.335646, -5.8412423, 1.7650523, -3.8364928, -5.959079, 1.8938471, 3.0363243, -0.30038473, -5.3490276, 4.002361, 1.6795983, 2.6736782, 0.69734067}, {2.395806, -7.524194, 1.9440452, 2.8968918, 6.0146656, -3.673467, -8.678747, -10.007085, 4.626519, -2.8107417, -4.409445, -3.726605, 2.2509487, 1.0847257, 3.1173058, -9.05884, -4.159291, -4.8518543, 0.09175267, -0.28639525, 2.7370036, -1.6290644, -4.4053354, -11.5176935, 2.8683925, 4.214759, 3.4142563, -6.961625, 5.301249, -12.900461, -7.783293, -7.3761435}, {-13.883085, -0.7519594, 1.5843065, 1.8836919, 2.0859263, -3.0130544, 1.4845284, 7.4617, 1.3833247, 3.5367439, 2.0175002, 0.48787153, -1.5723532, -2.8596225, -3.8025033, 6.444427, 1.9021482, -2.574376, 5.5902286, 0.39166185, -0.76001257, -1.747912, 1.752292, -6.0588517, -4.080467, 3.008315, 4.7972703, -1.0840582, 5.8331094, 5.3453526, -11.511689, 4.4494424}, {-2.3381813, 5.205787, 3.3423412, 0.5225132, 2.225135, 1.0789069, -4.7398295, 2.0836403, 0.7966654, 3.8883939, -2.9888456, -4.9556046, 2.469431, -4.8184047, 3.9576247, 2.834657, -5.1866097, -6.071858, -5.6235547, -6.167716, 1.071213, -6.495927, 3.356945, 2.8083355, 2.3878038, 5.2888103, -3.2136803, -2.6950386, -0.40144336, 3.4574556, -4.20541, 3.2134786}, {1.5647572, 0.9766683, -2.7444308, -10.74904, -1.9557105, 3.3820348, 0.39062977, -6.0286555, 1.2650235, -5.0141535, -5.6046247, 1.9577863, 3.5092998, -3.4488811, -0.19828746, 3.0595622, -0.20742998, 2.203459, 1.238888, 5.0301685, 0.91959435, -6.6440806, 2.773695, -0.22591186, 1.0735822, 9.464006, -3.6616938, 4.68231, 0.48026764, 5.462718, -6.190232, -0.6755331}, {1.2446752, 5.0171947, 0.19653764, 1.1236355, -9.644201, -9.383597, 5.2668624, -1.4310127, 8.027568, -0.022572368, 0.34072974, 0.32959226, -0.77811927, -3.3771157, -3.245356, -6.23307, 3.9627123, -3.8644872, 0.59559727, 3.3635507, -0.3844599, -4.852616, -5.911989, -0.40262023, 1.4818754, -1.9677235, -7.5584316, -0.16015124, 3.799297, 2.5601988, -13.183517, -1.3762584}, {5.3149376, -14.892347, 1.6385947, -9.340101, 2.6888247, 3.3383567, -0.5925859, -0.4445947, 3.823891, 2.0146484, -2.134361, 4.7149796, -7.1782546, -5.214891, 2.941638, -4.6431074, 2.631598, 1.5033689, -0.19809064, 3.525424, -0.86390615, -9.151372, 2.9017136, 1.9544494, -2.1271362, 3.5498579, 0.0346631, 0.83490205, 1.7447486, -4.6976175, 1.5565538, -0.99726045}, {0.21750577, 0.74972105, -1.4074997, 5.804958, 0.50610405, 5.738156, 4.284453, -3.329502, 4.152416, -0.38843644, 2.9839542, 2.344906, -0.062376607, -6.575173, -6.037456, -7.835396, 2.569779, 2.6061492, -7.877688, 5.587636, -0.043973222, -2.8415256, 3.0428205, -3.9226503, 0.31947252, -3.749298, 1.012409, -3.4711096, 4.5198655, -6.7442093, 7.058824, 1.1462698}, {2.6711452, -6.6535306, -1.8983477, -11.488057, 3.2991514, -6.586859, -9.496773, -1.5782247, 1.607626, 3.9643877, -1.5628529, -1.6103668, 2.2791634, -0.1573274, -2.9406147, 0.48886442, -0.8786352, 2.1087267, 0.1696884, 6.1088057, -0.8472691, -7.403256, 4.152507, -1.3088524, -3.971609, 3.985805, -6.3984594, 4.3009777, -2.648538, -4.34291, -0.5458568, -1.5439901}, {3.473819, 4.0728397, 1.4225937, 4.896987, 3.1445847, 10.35923, -5.5692945, 0.14211552, 0.08479776, -0.7137212, 4.053789, -2.8600664, 6.075504, -2.4864051, 3.5715168, 6.301461, 0.84915304, -9.692437, 1.6820389, -2.9069362, 1.5547259, -9.703329, -4.03281, 2.9770248, -5.452447, 8.291303, -0.6343286, 2.0753596, 0.31388557, 9.507895, -0.668849, 0.69437265}, {-8.927151, -7.302706, -1.5957719, -1.5350053, 3.6561623, 3.3719046, -3.6010296, 2.1646543, 1.7329365, 2.9370878, -3.3434727, -0.49138227, 5.435026, 1.054608, -2.3312547, -1.4582965, 1.0123996, 2.9098852, 2.9480026, 3.3151228, -8.279087, -3.5538194, -11.979267, -2.1654568, -2.760621, 3.0475128, -2.3813643, 0.025146214, -0.49974695, -7.83433, 5.769445, -1.5228468}, {2.0175424, 2.6169128, -4.4158955, 0.6397826, 0.35945895, 1.1001315, -3.4171686, 2.3269236, 0.29539979, -1.5971112, 4.050446, -5.2956676, 0.4528302, 3.9116695, 1.1537138, -7.436552, -3.4031568, 0.07518579, -1.309318, -2.0529897, 1.549318, -2.391328, 1.8428805, -5.304206, -4.37166, -7.1125746, -1.224491, -2.2350037, 3.6618495, -1.0633297, -1.2453926, -5.163266}, {-2.9455042, -1.670785, 1.7986462, -5.1111274, 3.3526444, -2.0063343, -1.023517, 2.9123428, 3.5000298, 5.83366, 1.5057781, -0.5706233, 3.4331663, 1.2157657, 3.7435844, -3.279919, 3.1511695, -4.761068, -4.7636423, -6.825925, -1.3012015, -1.1177763, 5.3486223, -5.079194, -6.7582445, -0.91089225, 5.100712, -9.941419, 0.31405798, -2.6530406, -4.2937875, 4.7961016}, {0.93100005, -3.708237, 3.2740476, -1.9185508, -10.190791, 0.252314, -4.680482, -2.84917, 7.169732, 0.47905064, -3.5200388, -3.744857, 0.23118013, -1.8869845, 1.2864957, -1.6999853, -2.9197087, -4.4530826, -2.5817192, 0.43555397, 1.5436586, -2.600801, 2.1986094, -5.7843733, 4.896457, 0.22374412, -11.090766, -6.010601, 0.48472035, 0.6938202, -0.066307895, 2.6575217}, {2.2618182, -2.166803, 0.0471612, -2.307264, 5.584241, 0.58335805, -0.2629208, 0.65950435, 3.2905424, 0.78188413, 1.9033754, -8.327041, -3.2638125, -0.848168, 0.4795609, -7.8038445, 6.2001963, -14.123146, -1.5899664, 2.028428, 2.5376818, -4.0611806, 5.432842, -0.3765776, -3.1253395, 4.163641, -6.8271933, -1.7705094, 1.6450415, 6.3046546, -6.1724453, -2.435725}, {4.4558873, -1.5384003, -2.7803388, 0.055622373, -0.24680056, 0.11517839, 0.29595655, 4.3565445, 2.5702384, 4.61085, 6.425868, 1.7511555, 5.7371836, 2.2454925, -7.835988, 5.8097816, 4.6851187, -0.10135181, -10.733863, 2.6446414, -3.6312377, 1.0054387, 7.33047, -1.6289465, 2.5421734, -3.0272083, 7.8061457, 8.502554, 2.9779103, 5.9271684, -0.88953286, 0.19052488}, {3.7582784, -6.226986, 1.612926, 0.8385573, -0.1435588, -5.3322067, 7.488573, 7.0056667, 2.8502564, 4.1782174, -1.3971626, 0.6234048, -1.4773599, 5.023025, 6.0282564, -13.96141, -1.9394726, 0.6598666, 1.5843354, 2.9458911, 1.5154408, 0.92589587, -0.21420743, -9.304953, 4.2654967, -2.1901028, -6.013613, 0.53369385, 8.112655, 3.2979841, 6.091228, -8.94481}, {1.9140445, -1.8928621, -3.893043, -4.44862, 5.610628, -0.18908106, 6.6084585, 12.959965, 7.5673003, 9.544829, -7.506461, -8.2453165, 2.4883854, -4.5568576, 1.8928118, -9.103824, 4.723067, 4.13699, 0.42912295, 0.36015671, -8.707532, 1.0897933, 2.9435685, 2.4943404, 2.4428787, 5.759966, -5.2834816, 4.8178406, 0.9623668, 4.381647, 3.9913301, -1.4286238}, {-0.39618906, 6.9800086, -5.306412, 4.020198, 0.47052196, 0.9035596, -4.682085, -5.1675277, -0.59970653, 5.4846406, -1.5466384, 0.52501845, -1.8476447, 1.0258231, -2.121669, 2.530706, -1.0743518, 4.2506104, 0.46956444, 2.1113284, 6.130438, -2.5727277, 4.5575476, -2.2405076, -9.053761, -1.4678397, 4.4939804, 1.0875403, -1.9635426, -1.9631588, -2.7076972, 2.9962971}, {-11.170471, 8.129348, -0.30708587, 0.28086662, 2.7215438, -3.5504928, 1.4341704, 6.636661, -4.763194, -0.24273978, -2.939893, -2.372946, 3.3553596, -4.2779813, 9.14814, -3.5655608, -8.975605, -1.6427838, 3.5844433, -2.5389347, 3.7765856, -1.1333914, -3.1393156, 4.937888, -0.76133037, -3.252373, 2.6445456, -3.713668, 5.697933, -1.5726651, -4.913307, 0.60502154}, {-5.027258, -4.816606, -6.181627, -1.6836549, 2.8776228, -6.3605022, -4.927185, 4.994886, -1.5055583, 0.45913103, -14.837645, 3.337278, -1.7270836, -1.4205813, 3.4043846, 0.2807713, -4.66773, 4.137878, 1.4323932, -0.47420332, -0.55606455, 2.4668434, -4.9200253, 3.051477, -4.989597, 1.5877981, -6.1069446, 0.5311844, 3.5820482, -3.1557474, -8.850428, -11.207336}, {-3.4083807, -3.986904, 0.64226013, -8.931176, -4.2402015, 2.1579072, -13.63056, -1.3097686, 3.1627939, 4.476126, -0.1897258, 4.4731836, -7.5931163, 7.97829, -1.0163082, -3.7516758, 1.0901842, -8.759681, -0.66936606, -0.6778492, -5.5677905, -2.0314195, 2.9506326, -4.470336, 3.708531, 6.1310973, -5.723629, 1.2016094, -2.0023804, -2.38523, 5.203287, 2.9727151}, {-3.4643586, 3.9130256, 6.794606, -3.6382902, 2.9094627, -4.335677, -0.97935355, 0.2540816, 7.9161263, 0.81006956, -0.2150379, 9.698559, 3.136057, -5.518801, 10.974491, -1.8477048, 4.4652076, 3.2585196, 1.6051213, 6.710116, -2.9881825, -0.63768286, 5.7931166, -10.090739, -2.0237708, 4.492446, -10.933126, 0.07474277, 0.48539984, 7.4620357, 4.023571, -3.5936742}, {1.5339195, 0.3141681, -0.59809726, 1.7039449, -0.35134166, -0.63860774, -4.4163218, 2.6022332, -0.4882246, 2.726656, 0.07002142, 4.182373, -3.746655, -1.7473065, -2.4896946, -2.3888621, 5.467835, -2.932042, -3.299593, 1.4631838, 7.162289, 1.4843488, -2.1719527, -5.290071, 0.8714942, -2.5861123, -1.2555412, 3.0248427, 7.0604553, -2.2826805, -0.4032114, -0.6491757}, {-5.4243836, -3.6478422, 5.4987836, 7.048611, 9.344118, -0.7337147, -5.1493726, 2.9395204, 4.9353704, 4.972797, 0.87428266, 6.0346866, -3.2269814, 1.3734559, 7.9831414, -5.326643, 0.36552912, 5.124961, -3.8425927, 3.178884, 6.1102443, 1.5669581, 3.4119189, 6.43948, -1.3507031, 6.5951023, -1.93796, 1.1911159, 1.6135836, -4.146835, -9.411951, -1.9574136}, {5.3537283, 2.8364139, -3.6366184, -3.9381533, -8.140638, -0.6795699, -2.2229795, -0.71723485, -8.335123, 0.7180331, 0.39694247, 2.019471, -1.0415384, -2.3703744, 6.3178167, 7.1852446, 9.911181, -4.551926, -9.654076, 2.0548902, -10.993039, 5.577827, -1.1359233, 5.0180297, 6.516795, 3.6528327, -1.8186989, 4.474119, 10.90463, 4.6893907, -2.2593842, 1.2535545}, {-2.2006154, -0.9264485, -3.6611803, -9.215532, 1.7121252, 3.3615975, 2.0898397, -4.65642, 1.6396053, -2.8643928, -8.703124, 5.9594603, -5.3165817, -6.9317694, -0.037982184, 4.004377, -5.656804, -5.7168245, -1.084137, 3.3738604, 2.543245, 0.06286288, 1.2004036, 1.1919796, -2.2422254, 4.5142827, -4.8999076, -0.42065102, -7.258707, -8.013994, 2.4907787, -2.8053265}, {-6.269542, -4.8123517, -10.871617, 5.1555567, 5.9028554, -2.1637487, -5.0673423, 1.1308066, 0.18515615, 0.75868756, -0.52712566, 4.4171715, 0.108848974, -3.780909, -4.075686, -4.9220233, 2.7102952, -2.6143892, -7.259431, 2.6032352, -2.6647978, -2.131018, 1.1150748, -5.1318045, -1.372463, -5.61026, -0.34131584, 5.942522, -4.7697105, -2.1334994, -6.5016813, 1.3187661}, {-3.5510552, -2.0765936, -5.1165605, 4.0070686, -5.0653696, 9.874375, -4.5222936, 0.86893094, -6.6033373, 2.9745557, -4.6629124, 3.1436954, -4.795322, -1.3749135, -3.325583, -6.912312, 1.2908392, -0.5568628, -6.4487076, 6.08795, -14.103867, -2.6593502, 2.7744882, 1.8949342, 0.91351336, 1.2202877, -1.8987641, 1.9754626, 4.4360642, -9.101368, 0.7140722, 1.672583}, {1.6558121, -4.042177, -1.4274881, 3.0025492, 1.9518005, 3.4529436, -2.587658, -5.065138, -2.3005936, -0.8200614, 2.375649, -0.54450935, -1.3366952, -1.7220411, -2.5233319, 0.23913643, -0.37299487, -0.23180804, -3.3305316, 1.3683624, 4.660081, -0.21576414, 2.5762556, -3.6794682, -1.1066606, 5.3895035, -0.5462923, -1.1671672, 0.49364266, 0.79616207, 0.5472987, 2.0705764}, {3.1599374, -2.2979672, -2.8883328, 2.1491632, -5.735474, -3.136694, -7.9365926, -0.0014859017, 3.080319, -4.2800083, 4.740338, 2.4152565, -0.7666021, -0.80214036, -0.2088123, -9.58806, 5.187797, -11.629667, -1.187042, 5.6877537, -6.325815, 0.8101702, -1.572871, 5.400478, 1.9161341, -2.093006, 1.0693904, 1.8406196, -5.4831934, -1.1439338, 2.6332998, -2.6017563}, {3.2088568, -4.6119385, -4.346908, 3.922499, 2.0268192, -0.79980946, -1.6110837, -7.9684873, 0.86002564, 2.089996, 1.6406702, 4.909188, -12.904785, -12.320916, -2.5694218, -4.1020317, -0.08172628, 2.926762, -9.628924, 4.3507266, 1.2371247, 0.12568486, 2.3016999, -8.180655, -13.985078, -4.863285, 4.758998, 1.4084747, 2.2469237, 6.5877657, 6.345666, -3.972078}, {1.5084223, -3.1228414, 4.433109, -2.9559212, -1.6102648, -0.91328144, -4.616153, -3.3180525, -2.969968, 2.7977374, 0.24124467, 5.7577415, -5.263417, -7.1267886, -6.295421, -6.9004006, 1.7620368, -0.97439396, -6.269001, 4.3828397, -1.0963923, -5.454934, 7.9876704, 3.8942554, 2.2353659, 3.4630947, -9.881688, 1.4652512, -2.1078691, -5.5487347, -1.7849183, -1.793896}, {-0.34520343, 0.22032338, -5.884552, -4.111333, -7.458887, -2.8903522, -2.2238088, -4.7521553, -0.8064004, 2.4823472, -5.1680093, -2.6963935, -6.522918, 1.7766857, 1.0372962, -3.279163, -4.267606, 0.007881945, 2.2085278, -0.075586736, -1.959835, -3.8863564, -4.555062, 2.958681, 3.6160793, 6.081733, -6.142566, -0.5503815, -5.8051257, 2.373487, 8.033273, -5.8885984}, {3.0764325, -1.8122678, -3.4504623, -9.509014, -6.3037095, -9.221115, 0.8355989, -2.6439798, -5.8931003, 4.8423405, 1.6797184, 3.7514286, 1.7980359, -4.205229, 0.31109527, -4.551824, 3.9714954, -1.6252089, -6.8016005, -0.0904685, -4.245278, 0.22750951, -1.5860142, -4.3675246, -1.9935443, -1.3669176, -5.989238, -6.7557, -7.8932343, 3.3954365, -9.037874, -1.3723366}, {-0.78368926, 0.7689502, -2.4443402, 3.4533565, 2.4145126, 0.19612361, 3.533821, -5.0470457, 1.3945663, 0.7876402, 1.3434821, 3.1265817, 4.464609, 1.8958964, 0.11505475, -5.664639, -0.5792335, 4.1869884, 6.4931374, 4.273796, -0.48548806, -3.4148662, 4.7656183, 1.3493553, -3.7373583, -4.0614657, 4.268049, -5.124326, 5.7616096, 4.4510183, 2.5262609, -5.99212}, {4.579477, 1.3959424, 1.6593193, -0.13257399, -2.6653953, 0.394701, -2.8160653, -2.776045, -3.0789812, 3.2322695, -0.13982895, -5.90627, -9.255212, -0.25704962, -3.6741066, -2.1564534, 1.9320314, -1.6588537, -3.1912456, -9.652593, -4.2781434, -3.189842, -1.3637416, -3.0765924, -9.241111, 5.433427, 1.183542, -2.447548, 0.02445757, 0.48135132, 1.0940623, -3.9015188}, {-2.2642183, -8.019008, -3.504469, -0.13018985, -6.5769625, -2.440803, -5.1793017, -0.55959624, -2.5218432, -3.821693, -4.4345236, 2.8739386, -0.502966, -1.1332127, -5.7710543, -4.64896, 5.2642365, -3.0009072, -2.728202, -2.6989303, -3.9754627, -8.569487, -0.8504736, -5.8228664, -2.945745, 0.19051303, -0.6691544, -1.9444852, -0.008327015, -6.273916, -2.3791358, -7.185194}, {2.4916592, -0.009040782, 0.6538522, 0.58354825, -3.5813565, -2.103388, -1.2171038, 0.8124964, 3.5315788, -11.405112, 0.71986127, -2.9766133, -8.182155, -0.9429142, -0.067966536, -6.4237766, -5.635633, -6.2332525, -12.000947, -2.0840042, -5.652612, -7.023701, -7.531503, 0.9110651, 2.754873, 1.253255, 0.6494469, -7.3603663, -3.3946884, 2.4068031, 2.4530928, -1.7885892}, {3.5288587, -1.3946096, -1.0831394, 2.0331874, 1.0715117, -3.0442636, -1.0383521, 3.438804, -7.294533, 2.7066412, -0.124308504, 1.4607495, -10.771911, -0.44210684, -7.1922693, -4.366736, 0.40809065, -3.1167104, -1.9711932, 5.6521444, -3.099917, -0.09958348, 0.65707356, -0.40086955, -0.4458968, -1.8006847, 5.685868, -4.971883, -1.6686387, -1.4460715, 7.5618677, -6.266297}, {11.893195, 0.391808, -0.37244728, -4.430204, -3.0551376, -0.23799786, -4.471652, 4.745931, -5.9166856, 6.601852, -0.4252219, 0.99878734, -1.7791777, 1.5320581, -1.0868294, 0.08803667, -3.8968327, -0.2550955, 4.073229, 2.621055, 2.6900086, 0.022733169, -1.7321457, -5.1985044, -3.2610765, -3.2387838, -1.8623358, 2.385912, -0.6945329, -1.8050741, 4.337038, -2.0069978}, {0.6585097, -3.7791023, -0.6592115, -3.0283747, 1.2979047, 2.1729593, 0.42947826, -9.048104, 1.5561367, -1.5792912, -3.8241417, -2.2559378, 1.8092921, -4.058606, -3.5160403, -0.38369736, -3.9457679, -3.6204553, 5.860764, -5.95336, -1.2268211, 5.9571753, -5.213053, 2.3670132, 4.0638576, -1.3280768, 3.654481, 2.4281158, 0.8282038, -2.2089262, 0.9280216, -1.0987632}, {-1.3632257, 2.1603239, 0.16495314, -6.590727, -2.2123606, 0.91906404, -2.8507767, -3.7482102, 2.9165082, -0.943861, -1.7363757, 2.8626487, -2.2683418, -4.389329, -2.8282118, 0.10542411, 3.5558202, -6.4845924, -12.835195, 5.085006, 3.2364297, -3.1994615, 5.595432, -0.53840584, 3.1216605, -5.606244, 4.6182065, -1.6378845, -3.6640806, -11.759598, -5.303255, 0.19889851}, {3.1190937, -5.954382, -4.4688406, -2.731182, 1.4104784, -0.16716704, -7.925254, -3.9095633, 1.9331454, 0.8873455, -4.610535, 4.057577, 3.8599703, 2.6613479, -5.2686872, -0.35855126, -5.8930283, 0.7460348, 1.8176434, 0.55096495, -4.823653, -0.041176956, 1.871784, 2.5435944, 2.8099656, 2.2635262, -1.1482831, 0.6438349, -2.3390667, -1.4788822, -4.748688, 4.752242}, {-0.93156624, 2.2161317, 2.0608752, -13.588831, 0.8668116, -9.836058, -2.0622032, -5.30072, -0.7514668, 3.8571782, 0.6180207, 5.2681255, 0.08663984, 0.04372273, -2.8256326, 0.48363656, 4.0158005, -6.2588654, -1.1699172, 0.50855416, -7.424721, 1.5856041, 0.4508868, 0.57530576, -0.9243357, -3.7577782, -3.188682, 1.8377378, 1.2340279, -0.20210557, -6.7209516, -1.6160778}, {-0.54719245, 5.6290193, -1.4228692, 5.5653143, -11.548605, -2.6011598, -4.776419, -0.39956895, 1.2113292, -2.2744033, 3.4387639, 2.9365401, 3.3131151, -1.545569, -3.707798, 0.381847, 1.8246331, -4.291407, -1.499034, 1.01728, -3.4684267, -0.67579365, 0.18175338, -9.208963, -1.5188817, -0.22666645, -6.7438426, -0.092382416, -2.9407609, -3.5582345, 0.90576863, 0.91307056}, {0.81887305, 0.56724465, -4.893469, 4.431272, 4.7552857, -1.3652682, 3.0705328, -0.9439863, -2.2585478, -2.0764868, 2.9830441, 2.2265913, 1.1336048, -1.6313565, -0.5321086, 0.2122705, -1.158429, -0.5781192, -6.637238, -2.4608674, 0.9536613, 4.1038003, 6.798083, 1.2898867, -2.473912, 1.8088901, -7.0369005, -4.813807, -3.2868302, -5.356441, 1.0030013, -3.1693437}, {4.644488, -2.642925, 2.5112329, -5.895714, 6.031731, -0.14536351, -0.8823205, -0.95018256, -1.0315226, 5.2030134, 2.859373, -0.9044892, -5.686798, -4.8770337, -1.3537309, 3.0026734, -4.937458, 0.80051655, -0.9304329, 1.3377851, -17.484867, -6.28971, 4.952192, -1.6175879, -0.3258189, 0.663967, -0.42607427, 4.1699266, -8.446705, 0.15477116, 2.3986192, 0.23260069}, {0.41735426, 6.096868, -0.6252595, -1.1142582, 5.271927, 1.8557227, 3.2743282, -0.50070477, -2.4129353, -0.9995911, -10.403019, 2.8525336, 4.102034, -4.671994, -3.755286, 2.7264693, -3.1696057, 0.85202146, -3.0272648, 4.412488, -9.567314, -3.4923084, -4.0237174, -2.4906168, -3.958496, -6.983036, -3.2429628, -9.152763, -4.1907105, -2.8938196, -4.5955896, -9.486293}, {-3.3775873, 3.5037508, -6.432712, -4.811503, 5.4582534, 8.121956, -3.0250123, -2.1125283, 4.149732, -2.728504, -9.43196, 0.2729675, 6.5208483, 0.54570025, 4.0372844, 2.0217967, -6.328171, -3.982833, 5.4628325, -11.758035, 1.2538784, -4.8247676, -2.3354385, 0.15770315, 3.3684025, -4.034159, 4.354419, -1.8236932, -4.3793697, 6.0923243, -1.6436622, 0.55408096}, {1.6308867, 2.9979057, -1.9143404, 1.298501, 2.7386904, -1.9676651, -1.3720452, 0.069922194, 2.7187955, 3.4765618, 2.9324167, -1.279231, -0.64450794, -0.15297674, 3.919024, 0.43293047, 0.021729384, -2.7314074, 3.0361352, -0.28163716, 0.49590975, 0.42478666, -1.1117924, 1.0622164, 0.5801285, -0.9900429, 4.02882, -1.6916579, -2.7678056, 0.59632826, 2.2861319, 3.1250458}, {-0.14353296, -0.17832321, 0.74406916, 5.303194, 4.7089443, -3.5804496, -1.0044758, -1.7019998, -2.1289158, 1.52115, 3.5114336, 0.7127799, 3.8091466, 0.00042256305, -0.70227534, 0.68559384, 1.4698241, -1.1887408, 2.3576643, 1.1499033, 0.14544202, -2.333811, 1.1302007, -0.5517974, 1.2489321, -0.2230614, 2.2346804, -3.5559883, -0.49034265, 2.0041203, -4.687965, 3.217388}, {3.7755542, 2.316198, -0.4495402, 1.011307, 1.9639074, -3.0613396, -0.6787209, -3.5059896, -4.25859, 1.0957782, 3.9022753, 2.0403547, -1.2668791, 2.3214939, 2.6534944, -0.7883863, -1.6749659, -1.2174717, 5.913419, 0.37303433, 0.61544085, 0.65735245, -0.23617913, -2.3676472, -1.552467, 0.12640855, 1.2822127, 0.45254633, -1.259758, -1.3928268, 1.019882, 0.24051304}, {1.4812628, 1.1147882, -5.783187, 2.241216, -0.007159567, -2.3093517, -5.744986, -4.646712, 4.801335, -4.076202, 0.49277785, -0.75684285, -0.9485857, -0.36671543, -2.8789642, 2.420388, -0.2678229, -4.0757203, -1.5736681, 0.20576042, -2.421382, -1.4447612, 1.5932542, -1.2821037, 1.2003163, -1.1819017, -0.9966613, -3.660738, -2.607823, -2.0459259, 1.5998942, -0.3907288}, {1.877185, 2.6275074, -4.2557907, 6.679647, -1.6361117, -3.6212564, -1.7465397, 0.030846234, 1.9534408, -0.46954358, 3.0055091, -1.9029317, -1.2029634, -0.67195195, -0.5299306, 0.75856346, -0.4342952, -1.0888774, -0.48481637, 0.58140755, -0.5450967, -3.5265796, 2.7832983, -1.2556407, -1.1584935, -4.3294373, -1.1421989, -3.1992521, -2.5778315, -0.8393451, 2.651551, -1.617396}, {-0.8587929, 1.9554938, -1.1510557, 1.0456884, -2.0479574, -2.0250983, -0.5639365, -0.6282684, 1.6983992, 0.9892996, 2.7134469, -0.78241444, -0.56165445, -1.0261334, 3.61602, 1.7961094, -1.1885852, -2.3269348, 0.095354676, -0.76073974, -0.07984831, 1.6543161, 1.190415, -0.78918654, 3.709994, 0.16601548, 2.9750578, 0.17364207, -1.7471019, -1.9486487, 3.7221982, 1.4579396}, {0.8847396, -0.11553119, 0.9402814, 2.7453814, 3.9622946, 0.9784845, -1.4005479, -2.2661011, -2.7228677, -1.1148988, 1.9788674, -7.4429564, -1.2857069, -5.3574686, -7.4659905, -0.58847827, 0.17607835, 0.12337872, -2.5096047, -1.7672578, 1.7342832, -0.13187952, -1.8906246, -13.303637, 0.77602106, 4.566972, 1.1309638, -0.5023529, -3.3072648, -6.307241, -0.33622986, 3.3074377}, {-1.5310519, 2.171801, -4.059504, 0.4418721, -1.1351154, -2.4975767, -3.956873, -2.4249835, 0.80038565, 1.1124457, -1.8447275, 0.9438532, 0.8452209, 2.8662524, 1.2524302, -0.23799, 0.05740557, -2.9007072, 0.5492249, -1.9410006, 3.4851248, 1.345062, 0.5512955, -1.542275, -2.8765733, 0.17680655, 2.4046981, -2.1357234, 0.95397955, -0.63480985, 2.4796534, -0.93419266}, {-1.3550267, 10.605451, -7.816963, 8.869666, 1.7263745, -0.27452135, -3.8296587, -2.7081456, 8.362971, -3.456803, -3.860637, -2.61541, 6.066905, -0.89974785, 7.539094, -8.584625, -1.2575374, 2.5345533, 11.238659, 3.0007994, -2.030028, 1.1492652, 5.4540687, -15.931588, 4.523407, 5.617535, 5.720191, -14.767952, 7.7291436, -10.420584, 2.597687, 3.0315108}, {-2.4107184, 7.608662, -1.6918701, 0.42219114, 6.538224, -1.3566955, -1.4147093, -0.45475918, -1.0907387, 8.040034, -4.178035, 3.2744982, -6.7944016, -3.0240953, -3.5398865, 0.2286484, 10.465254, -7.5119524, 6.286637, 7.6620235, -3.5523012, -0.22805901, 7.3880687, -7.0280423, 1.5252838, 1.7471248, 7.857422, -9.7654085, 9.500086, 0.16208255, -1.0883417, 3.9723492}, {-10.3033905, -1.2003446, -6.709434, -4.579323, -3.2155173, -15.376656, -3.6010015, 5.721253, -4.2525644, 10.236756, 9.3589735, 8.9803095, 1.6796821, -17.086393, 5.1761255, -5.0370073, 1.0456265, 4.066029, 8.880677, 4.662935, -4.4379053, -7.2662497, 2.8242092, -4.8309712, -11.674152, 0.23200446, -7.242277, -5.7032113, 9.866101, 1.6798338, -10.227072, 3.4762547}, {4.3121653, 0.24805936, -12.956891, -0.4516573, 5.6756325, -12.698693, -2.7221816, 5.951319, -2.7389998, 12.740289, -6.632707, 4.832636, 4.7613635, -1.9614049, -2.2213526, -6.315326, 1.0477016, -2.2091067, 0.9497037, 5.7496862, -4.7661614, -3.3584487, -0.28302845, -4.3366866, 0.68550926, 5.1612644, -6.8406134, -7.418274, 0.9721035, 5.712834, -8.420024, -1.4609926}, {-2.0745263, 4.9480195, -2.2246242, -7.2768135, 4.5576415, -13.084954, 1.600332, -1.8168199, 4.7017703, 3.6232002, 6.658037, 1.6165354, 6.251538, 3.2954211, 12.533081, -10.902824, 1.1383326, -8.039464, 12.171595, -2.0514686, -11.331238, 6.419717, 2.928571, -14.635835, -3.1058507, 3.6470704, -1.4271737, -19.711039, 6.575666, -0.87912446, 0.07256079, -2.1191812}, {5.0407934, 7.3587713, 4.6014156, -2.4180286, 2.4349527, -2.9774578, -9.626428, -9.035453, -3.227321, 6.78657, 4.5636506, 2.1831515, 0.4322347, 5.8970594, -0.7178202, -1.2608321, 5.609366, -6.949488, 4.12359, 0.4248256, -6.3819876, 2.271935, 4.753197, -9.973073, 2.3480308, 3.5610027, -2.0932221, -5.677964, -2.6535976, 0.054757454, -6.294652, -3.687043}, {4.159689, -2.6137202, -3.6615067, 4.4260163, 10.057555, 2.0818903, -4.1632214, 7.57985, 8.281547, 5.5806627, -3.9956102, -0.830125, 0.3147161, -5.9026823, 8.360681, -1.8266634, 4.580969, -2.1946929, 5.888244, -4.4595537, 4.231741, 6.979408, 3.6198337, 1.4954774, -3.058092, -9.369461, 8.413056, -13.512155, 9.967036, 8.242349, 0.74711454, -9.008045}, {5.217937, -3.6993775, 5.3976307, -9.230139, 2.0925703, -3.7961128, -6.3004217, 5.574497, 6.160511, 11.033077, -4.4836183, 8.875169, 3.725505, -4.441472, 8.785932, -18.658394, 0.37413833, 5.4288692, 10.702554, 8.663417, -7.3800488, -1.1263266, 4.5679593, -13.678529, 6.3547626, 4.246425, -0.14902137, 0.43014959, 3.1194227, 0.06379439, 6.5398903, -6.1785216}, {-14.822234, -0.89182043, -1.3516332, 5.69603, -0.021518363, -2.1254725, -3.4554594, 0.90686935, -4.5104713, 6.5788403, 0.35444486, 5.627062, 0.6807484, -10.526848, -8.09325, -1.4408811, 3.7887132, -4.194844, -0.86750495, 8.249917, 3.716199, 5.3358784, -0.24159636, -7.7102284, -8.806172, 5.756624, -9.485165, -1.9247348, 7.3802795, 4.210171, -13.184766, -12.2789345}, {-9.89138, 1.627924, -4.9793386, 11.757319, 1.9127651, -10.40797, -11.7525425, 2.0174742, 1.2051038, -1.3427057, 2.4063823, 5.081665, 2.7304826, 5.0462785, 7.3652563, -2.0214078, 0.37732318, 3.9852054, 7.6388354, 1.3075502, -3.0410697, -8.694277, -3.551428, -6.6344085, 0.12983525, -0.099512994, -3.4762795, -1.6310449, 2.9596372, -0.51403755, -8.238252, 4.8603773}, {0.70155483, -0.5191769, -9.387993, -2.803437, 2.8048105, 2.0822268, -4.695397, -4.460823, 10.294355, 8.844455, -1.1918343, 3.6962314, -3.1987522, -11.600061, 9.518739, -9.032079, -5.000872, 0.3284307, -3.829391, 3.3737166, 7.1902, 6.1592693, 2.261038, -15.498543, -6.6796646, 6.489095, 1.0516814, -5.934795, 4.05043, 5.43117, -1.6247413, 0.7982999}, {8.7738285, -7.5118012, -4.4047737, -5.988027, 1.0127193, -5.3001733, -4.6505966, 1.0414112, 5.4874024, 7.730405, -6.1762223, 2.1936114, 5.5697055, -0.2608133, -0.5477256, 1.1993823, -1.2510985, -1.9099509, -16.644974, 4.3213, 1.5472536, -0.41081405, 0.21982864, -0.07894402, 4.091882, 3.6132262, -0.9096111, 2.5779438, 1.6046933, 4.834109, -0.27021864, -6.6943674}, {2.88553, -6.051586, -8.1037, -5.822842, -8.787709, -6.558822, -8.36687, -5.2777047, 4.98258, 3.066709, -3.4460282, 3.7232678, 2.7182271, -9.153713, 7.416681, -6.0229287, 0.41129905, 2.300696, 6.169781, 3.3907785, 11.365132, -2.2516663, 6.1472106, -5.695278, -6.8378477, 2.1082654, -6.293368, -11.911877, -2.1684737, -4.476559, -1.547223, -9.95296}, {0.287976, 8.191207, -9.286147, 0.5610909, -3.7753403, -7.5076165, -0.5470259, 5.5187917, 1.4645109, 6.4284554, 3.5739384, 5.7350883, 0.3547049, 4.1485753, 3.0381062, -1.366707, 6.4544163, -0.06970465, -6.2912483, -2.6825325, 3.9063058, -3.0156584, -1.658319, -3.528121, 2.4700446, 8.557909, -9.255451, -2.7449536, 7.953975, 2.4127758, -4.780661, -3.7802713}, {1.451992, -0.32335764, 2.8660882, -2.2807543, 